tree
version=v4
num_class=1
num_tree_per_iteration=1
label_index=0
max_feature_idx=83
objective=regression
feature_names=MIN_Season MIN_L5 MIN_L10 USAGE_RATE_Season USAGE_RATE_L5 USAGE_RATE_L10 DAYS_REST IS_HOME GAMES_7D IS_4_IN_6 IS_B2B IS_FRESH PACE_ROLLING USAGE_VACUUM STAR_COUNT GAME_SCORE_Season GAME_SCORE_L5 EXP_POSS EXP_POSS_SEASON MIN_STREAK USAGE_RATE_STREAK USAGE_RATE_CONSISTENCY GAME_SCORE_STREAK GAME_SCORE_CONSISTENCY PTS_Season PTS_L5 PTS_L10 PTS_L20 PTS_L5_Median PTS_L10_Median PTS_STREAK PTS_CONSISTENCY OPP_PTS_ALLOWED OPP_PTS_ALLOWED_DIFF FGM_Season FGM_L5 FGM_L10 FGM_L20 FGM_L5_Median FGM_L10_Median OPP_FGM_ALLOWED OPP_FGM_ALLOWED_DIFF FGA_Season FGA_L5 FGA_L10 FGA_L20 FGA_L5_Median FGA_L10_Median FGA_STREAK FGA_CONSISTENCY OPP_FGA_ALLOWED OPP_FGA_ALLOWED_DIFF FTM_Season FTM_L5 FTM_L10 FTM_L20 FTM_L5_Median FTM_L10_Median OPP_FTM_ALLOWED OPP_FTM_ALLOWED_DIFF FTA_Season FTA_L5 FTA_L10 FTA_L20 FTA_L5_Median FTA_L10_Median OPP_FTA_ALLOWED OPP_FTA_ALLOWED_DIFF FG3M_Season FG3M_L5 FG3M_L10 FG3M_L20 FG3M_L5_Median FG3M_L10_Median FG3M_STREAK FG3M_CONSISTENCY OPP_FG3M_ALLOWED OPP_FG3M_ALLOWED_DIFF FG3A_Season FG3A_L5 FG3A_L10 FG3A_L20 FG3A_L5_Median FG3A_L10_Median
feature_infos=[6.5459706856228053:41.996888198531956] [5.3722222222222227:48.233333333333334] [6.0533333333333328:45.767333333333326] [3.0454631429302661:50] [3.3518198366569907:50] [6.2706233500235475:50] [1:7] [0:1] [1:5] [0:1] [0:1] [0:1] [15.241541405796715:21.438673522433501] [0:7.0170031880977675] [3:18] [-2.4090852280485029:31.857915805770357] [-2.8333333333333335:41.920000000000002] [0.1175011049851578:3.7391863506726466] [0.055717144287036502:3.6910777435278641] [-9.1463954284185007:11.588257533555982] [-16.156007792588895:18.091371160270725] [0:3] [-7.9387719672752972:8.5630863458271698] [0:3] [0.1290322580645161:37.337593375652517] [0:45.600000000000001] [0:40.399999999999999] [0.36363636363636359:42.566490897840879] [0:50] [0:40.5] [-9.0378526284175358:10.405299272782647] [0:3] [0:38.200000000000003] [-14.4:30.200000000000003] [0.048526362256625599:12.698631906424154] [0:16.800000000000001] [0:13.9] [0.069070248982853202:14.414393764720078] [0:17] [0:14.5] [0:13.6] [-5.5:10.6] [0.23025356218212689:25.991914732270196] [0:30] [0.42857142857142849:28.199999999999999] [0.52482753910252022:28.710187097921882] [0:33] [0:29] [-5.5928889242954813:7.0119349291563928] [0:3] [0.5:25.899999999999999] [-11.5:17.899999999999999] [0:11.355651880313305] [0:14.199999999999999] [0:12.9] [0:12.965378076494453] [0:15] [0:13.5] [0:11.4] [-2:10.699999999999999] [0:14.066301331617632] [0:17.399999999999999] [0:16.600000000000001] [0:16.371473792473523] [0:17] [0:17] [0:15.300000000000001] [-3:14.300000000000001] [0:5.7240886914584941] [0:8] [0:7.2000000000000002] [0:7.0808202918313228] [0:9] [0:8.5] [-1.5402547284479224:1.7357073390395894] [0:3] [0:5.7000000000000002] [-1:4.7000000000000002] [0:13.070624963646312] [0:17.199999999999999] [0:14.800000000000001] [0:15.188665241241548] [0:17] [0:16]
tree_sizes=2683 2812 2804 2813 2813 2810 2803 2809 2812 2793 2802 2805 2819 2799 2806 2803 2800 2804 2810 2799 2804 2802 2814 2795 2804 2811 2812 2826 2818 2809 2808 2816 2814 2818 2812 2806 2824 2810 2808 2824 2809 2800 2821 2821 2816 2824 2824 2813 2835 2821 2805 2822 2815 2817 2816 2822 2834 2800 2809 2827 2821 2813 2830 2800 2815 2826 2826 2821 2827 2821 2826 2721 2736 2824 2812 2811 2825 2813 2857 2850 2831 2810 2826 2832 2714 2842 2836 2826 2834 2809 2401 2824 2832 2825 2401 1983 2516 2834 2824 2838 2797 2819 2830 2824 2719 2839 2843 2829 2839 2821 2281 2281 2691 2167 2816 1979 2825 2714 2831 2843 2503 2837 2819 2615 1992 2861 2821 2384 2700 2293 2708 1962 1637 2706 1649 2612 2273 2076 2688 2281 2712 2495 2703 2807 2831 2053 2183 2840 2607 2713 2078 1966 2611 1827 1858 1868 1963 2608 2705 1645 2825 2829 2816 2828 1975 1861 1424 1537 1534 1636 2054 1222 1110 2384 2198 2827 1526 2849 2507 2502 1005 1320 1314 1433 1320 1853 2798 1862 1542 1879 1871 1754 2059 1202 2170 2391 1848 1533 1529 1640 2262 2399 2731 2815 2818 1853 2254 2178 2062 1323 2278 1978 2191 2391 2508 1853 2693 2817 1431 2489 2288 1536 2278 1857 2390 1431 1336 2268 1645 2495 1651 2160 2177 1069 1092 2198 2182 2296 2824 2819 1426 2172 1313 2064 2741 1300 1633 1625 1285 1633 2072 2171 2071 2395 2078 1422 2358 2286 1643 2508 2829 2817 2508 2802 2817 2848 2802 2385 2291 2601 2506 2741 2045 2526 2513 1849 2272 2065 2498 2402 1622 2179 1529 1420 1199 1626 1408 2849 2824 1308 2839 2502 2390 2820 2384 886 988 1744 1750 1435 1626 1650 1521 1423 1640 1855 2673 2397 2066 1314 2301 1632 1118 1115 1109 2813 2828 2608 2812 2603 2271 1847 1844 1631 1845 1395 1512 992 1204 1521 2185 2406 1332 2487 2721 1114 2639 1109 1111 1107 2165 2274 2189 2060 1858 2192 1532 1315 1418 1001 2728 2806 2854 1737 2831 2417 1636 2826 2825 1989 1105 993 1107 993 1101 2710 2489 2291 2483 2172 1745 2273 2698 2291 2843 1528 1424 1531 1532 1424 1225 1015 1016 1014 992 1105 1214 2510 1972 1528 2164 2592 2369 2817 2376 1228 2608 2716 1869 1747 2390 2270 2601 2386 2480 2859 2833 1976 2286 2508 1108 2503 896 896 898 2843 2585 2497 1974 2084 899 1007 1002 2478 1004 1641 2076 2811 1746 1854 2611 2810 2822 2500 2418 2838 2826 2826 1837 1947 1409 2070 2249 1538 1961 2692 2695 2696 2156 2478 2188 2497 2831 2837 2736 2602 2812 1537 1306 1320 2840 2816 2809 2534 2828 1323 1417 1755 1528 1216 2068 2834 1529 2845 1953 1752 2817 2826 1871 2811 2835 2720 2289 1643 1666 1860 1847 1752 2522 1759 1964 2281 2193 2847 2079 2317 2063 1535 1855 1637 1647 1324 1852 2709 1433 2500 2694 2735 2177 2172 1658 2617 2392 2179 1657 1613 1224 1635 1647 1747 2167 2169 2821 2262 2828 1539 1420 1980 1421 1214 2826 2186 2620 2837 2840 2283 2601 2484 1541 907 2400 2382 2608 2823 1965 2833 1320 1303 2821 2399 1849 2165 2515 2385 1867 1638 2405 1638 1743 1645 2512 2400 2726 2727 2635 2490 2172 2070 2620 2278 1529 2487 1864 2502 1628 2814 2091 2821 2514 2829 1868 1957 1751 1858 1637 2166 1751 1963 2378 2485 1825 1437 1315 2210 1437 2400 2620 1861 2165 2297 2080 1952 1416 1947 1520 2521 1972 2295 996 2172 2833 2846 1888 2853 1885 2289 2392 1852 2835 2825 1868 2071 2178 1959 2193 2072 1647 1848 2387 1535 1440 1218 1105 2180 1217 2835 2057 1207 2830 1964 2817 2821 2179 2828 2174 1015 1012 1549 1110 2835 2599 2276 2179 2303 2819 2059 1211 1207 1846 1748 1529 2567 2270 2165 1422 1320 1536 2819 2400 1540 2403 2838 2603 2831 2829 2273 2836 1969 2818 2831 2716 2718 2696 2378 2490 2609 2593 2368 2379 1449 1328 1317 1527 1335 1417 2820 2861 2835 2831 2831 1219 1975 1982 1845 1871 2500 2285 2297 2589 2289 2478 1963 1530 2828 1422 1873 2057 1869 2296 2278 2267 2806 2816 2842 2594 1439 1843 1633 1442 2387 2403 2602 1864 1971 1625 2834 2300 2834 2847 2623 2844 1321 1643 1423 1972 1970 2175 2850 2075 1114 2070 1632 2381 904 1860 2629 1219 1222 2836 1218 2076 2850 1994 2285 2191 995 1977 2700 2512 2391 2080 2845 2064 2055 2279 2385 2319 2831 1969 1438 1831 1644 1641 2395 1644 2305 2506 2520 2847 2402 1927 2826 1961 2722 2598 1666 1231 1666 1766 1008

Tree=0
num_leaves=25
num_cat=0
split_feature=60 60 60 54 27 55 60 60 24 37 44 14 14 26 14 3 26 60 3 60 67 57 26 55
split_gain=49190.4 8610.56 6033.98 1563.6 1389.84 1209.14 845.649 693.852 427.335 369.107 329.037 274.05 257.935 255.949 211.259 210.01 170.147 161.822 146.837 143.032 129.592 112.953 93.6801 69.0154
threshold=3.3755548004166891 5.8974891786018491 1.7228111729343032 6.7500000000000009 16.800114159125005 2.1768918568887394 1.0464554903408709 4.4831493966866178 28.120876255471995 4.2862478875923351 11.105555555555556 10.500000000000002 11.500000000000002 11.816666666666668 12.500000000000002 47.393898948737032 9.8166666666666682 0.64439798842735907 49.801401710980393 6.5580227248122585 2.0500000000000003 6.7500000000000009 7.7071428571428582 2.0051708187476405
decision_type=2 2 2 2 2 2 2 2 2 2 2 2 2 2 2 2 2 2 2 2 2 2 2 2
left_child=2 4 6 11 13 9 17 14 -5 22 -7 19 -9 23 -6 -11 -8 -1 -12 -3 -13 -10 -4 -2
right_child=1 3 5 8 7 10 16 12 21 15 18 20 -14 -15 -16 -17 -18 -19 -20 -21 -22 -23 -24 -25
leaf_value=1.8612572254727169 1.88382711835933 1.9995760996118839 1.882334243692062 2.0368778798732636 1.9496319914683542 1.9065087411541959 1.8761295467706642 1.9763887022308955 2.0240924519578321 1.8981654252182483 1.9235697664859757 1.961389954881861 1.9458021944521493 1.9332446749807275 1.9104890941521102 1.9167616745264242 1.8853547881111112 1.8696046804441719 1.9639514626879462 2.0233955109717812 1.9971570552482178 2.0967562340893382 1.8917381477346333 1.913101742367145
leaf_weight=3942.069385021925 102.96627554297447 485.1183574795723 1439.132382363081 329.7984616458416 1845.8394125699997 1572.5247677564621 5187.6357813775539 1756.4427925348282 31.861989110708237 3055.4826546311378 1559.9852348268032 168.90794852375984 299.09062457084656 1393.1590009629726 134.12981358170509 663.98910188674927 2783.4439955055714 4611.2755472660065 84.703846842050552 561.4364655315876 236.76053467392921 254.44160747528076 2864.6217265725136 235.02722436189651
leaf_count=5933 205 729 2336 535 2727 2411 7654 2688 51 4486 2273 268 427 2204 178 1013 4133 6771 180 842 310 421 4266 394
internal_value=1.90257 1.96895 1.88384 2.02145 1.95009 1.9008 1.87231 1.95974 2.06167 1.89457 1.91633 2.00424 1.97198 1.92757 1.94699 1.90149 1.87935 1.86575 1.92571 2.01251 1.98255 2.08936 1.88859 1.90412
internal_weight=35599.8 7834.98 27764.9 2068.33 5766.66 11240.4 16524.4 4035.5 616.102 8023.23 3217.21 1452.22 2055.53 1731.15 1979.97 3719.47 7971.08 8553.34 1644.69 1046.55 405.668 286.304 4303.75 337.993
internal_count=53435 11979 41456 3156 8823 16965 24491 6020 1007 12101 4864 2149 3115 2803 2905 5499 11787 12704 2453 1571 578 472 6602 599
is_linear=0
shrinkage=1


Tree=1
num_leaves=25
num_cat=0
split_feature=52 52 52 52 52 52 52 52 37 36 52 14 45 35 14 14 63 14 52 43 47 25 18 63
split_gain=47097.6 8503.16 5415.52 1908.25 1096.13 829.567 782.48 441.643 277.208 250.192 250.037 248.192 246.669 205.697 199.911 188.153 160.129 149.664 122.457 108.2 105.08 100.928 100.72 97.6119
threshold=2.6565079568760992 4.4824297924868359 1.3221297478340877 6.613643083163681 2.1121281760348389 0.82539970106264315 3.5070041334859696 5.1412749012092531 5.3475576274097305 3.7888888888888892 7.5654986619495359 10.500000000000002 11.251206701375031 3.9000000000000004 11.500000000000002 10.500000000000002 0.75016489338370429 11.500000000000002 1.6825371262413558 11.775000000000002 19.250000000000004 10.366666666666669 2.1777737217469944 3.0573352589289731
decision_type=2 2 2 2 2 2 2 2 2 2 2 2 2 2 2 2 2 2 2 2 2 2 2 2
left_child=2 6 5 7 13 16 9 11 -8 22 -5 -3 21 23 -10 -11 -1 -9 -15 -7 -12 -6 -2 -4
right_child=1 3 4 10 12 19 8 17 14 15 20 -13 -14 18 -16 -17 -18 -19 -20 -21 -22 -23 -24 -25
leaf_value=-0.038568731691387116 -0.01084106390015023 0.089537894398966755 -0.014683058438183728 0.13826052533565866 -0.0072266134848373931 -0.023013367470545668 0.026199970289141613 0.11322807795473988 0.064306553651296505 0.040188814859406702 0.15171288797400215 0.054485352543976143 0.022393236539787077 -0.0085459562261707873 0.037537930902050987 0.02415919914397208 -0.030537198098347939 0.081002133125438691 0.0014576595975888038 -0.010044368531592832 0.20207549470731737 0.010141187705437867 0.044404068354325782 0.0074989259379516773
leaf_weight=5566.7679697573185 155.83110508322716 716.42703306674957 3205.3555728793144 264.26951336860657 433.06595224142075 6877.2371121644974 249.62251454591751 958.42673256993294 1619.9192504584789 2047.8826532661915 92.542270004749298 257.72381469607353 1463.2631734907627 2233.9620776474476 307.64497321844101 989.1075496673584 3829.9759391546249 173.34712564945221 2168.3219253122807 637.65890517830849 150.09526580572128 978.46539729833603 35.110282957553864 187.82082313299179
leaf_count=8236 295 1111 4848 419 714 10150 432 1427 2482 3094 168 381 2194 3338 430 1420 5777 243 3235 960 260 1470 52 299
internal_value=-0.000192797 0.0637997 -0.0187978 0.108227 -0.0020613 -0.0293561 0.0422983 0.0955086 0.05621 0.0328914 0.160616 0.0803685 0.0137671 -0.00790078 0.0600698 0.0349847 -0.0353012 0.108411 -0.00361855 -0.0219159 0.183942 0.00480639 -0.000384486 -0.0134507
internal_weight=35599.8 8017.95 27581.9 2612.83 10670.3 16911.6 5405.12 2105.92 2177.19 3227.93 506.907 974.151 2874.79 7795.46 1927.56 3036.99 9396.74 1131.77 4402.28 7514.9 242.638 1411.53 190.941 3393.18
internal_count=53435 12214 41221 4009 16098 25123 8205 3162 3344 4861 847 1492 4378 11720 2912 4514 14013 1670 6573 11110 428 2184 347 5147
is_linear=0
shrinkage=0.03


Tree=2
num_leaves=25
num_cat=0
split_feature=52 52 52 52 52 60 52 52 25 52 36 45 37 6 27 60 27 52 6 47 25 29 43 17
split_gain=44321.2 8003.78 5095.6 1797.54 1031.39 782.253 736.31 415.536 266.025 235.708 235.311 232.105 195.135 155.608 148.281 147.109 146.168 138.441 115.451 98.6795 94.9786 94.8195 86.7257 78.6228
threshold=2.6565079568760992 4.4824297924868359 1.3221297478340877 6.613643083163681 2.1121281760348389 1.0464554903408709 3.5070041334859696 5.1412749012092531 16.450000000000003 7.5654986619495359 3.7888888888888892 11.251206701375031 4.06991166858207 4.5000000000000009 22.074885439246916 0.64439798842735907 9.7763649993210677 1.6825371262413558 5.5000000000000009 19.250000000000004 10.366666666666669 10.250000000000002 14.325000000000001 2.2574941783577498
decision_type=2 2 2 2 2 2 2 2 2 2 2 2 2 2 2 2 2 2 2 2 2 2 2 2
left_child=2 6 5 7 12 15 10 22 21 -5 23 20 -4 -10 -12 -1 -7 -14 -9 -11 -6 -8 -3 -2
right_child=1 3 4 9 11 16 8 18 13 19 14 -13 17 -15 -16 -17 -18 -19 -20 -21 -22 -23 -24 -25
leaf_value=-0.039140875469382656 -0.0086966774671004346 0.0602382604056148 -0.012714509244459117 0.13413612085603346 -0.0070105637047951268 -0.024737290296606367 -0.014316199737592298 0.10774459797221556 0.061866034332844148 0.14723409412136718 0.030841677090854003 0.021722127386138875 -0.0087261090317436434 0.02902743087237843 0.048418309508030839 -0.03118290381187238 -0.016278888574595311 0.0022409464293135727 0.065613216904250524 0.19607321027673932 0.0098374179970819303 0.036030032384201681 0.082960582233385774 0.043540227783889912
leaf_weight=3942.069385021925 161.60945603251457 218.7729198038578 3655.293160200119 264.26951336860657 433.06595224142075 5589.3133246302605 36.504647970199585 1059.9562574923038 1665.7577972710133 92.542270004749298 2506.52200999856 1463.2631734907627 2054.1774696707726 145.87635084986687 530.46819293498993 4611.2755472660065 2768.9816693365574 2085.9897691011429 71.817600727081299 150.09526580572128 978.46539729833603 329.04794213175774 755.3779279589653 29.331932008266449
leaf_count=5933 305 355 5564 419 714 8292 75 1569 2522 168 3745 2194 3046 213 769 6771 4127 3110 101 260 1470 534 1137 42
internal_value=-0.000185742 0.0618919 -0.0182341 0.104995 -0.00199938 -0.0284758 0.0410313 0.0926508 0.0545265 0.155842 0.0319061 0.0133545 -0.00766381 0.0592513 0.0339361 -0.0348575 -0.0219393 -0.00320019 0.105167 0.17849 0.00466216 0.0309481 0.0779643 -0.000364168
internal_weight=35599.8 8017.95 27581.9 2612.83 10670.3 16911.6 5405.12 2105.92 2177.19 506.907 3227.93 2874.79 7795.46 1811.63 3036.99 8553.34 8358.29 4140.17 1131.77 242.638 1411.53 365.553 974.151 190.941
internal_count=53435 12214 41221 4009 16098 25123 8205 3162 3344 847 4861 4378 11720 2735 4514 12704 12419 6156 1670 428 2184 609 1492 347
is_linear=0
shrinkage=0.03


Tree=3
num_leaves=25
num_cat=0
split_feature=52 52 52 52 52 52 52 52 37 52 45 35 25 17 52 52 25 52 52 6 44 25 63 2
split_gain=41708.4 7533.67 4794.58 1693.27 970.486 740.492 700.804 390.947 312.587 222.198 218.401 184.652 173.174 168.612 141.288 114.962 111.273 106.924 98.8725 94.9766 92.7667 89.38 85.768 80.2319
threshold=2.6565079568760992 4.4824297924868359 1.3221297478340877 6.613643083163681 2.1121281760348389 0.81553248317577587 3.7681137934094528 5.1412749012092531 7.1656809285619945 7.5654986619495359 11.251206701375031 3.7750000000000004 16.450000000000003 1.8001516681194476 0.48277900712396049 1.6825371262413558 28.700000000000006 3.3167196385679425 1.091577994330801 4.5000000000000009 20.105555555555558 10.366666666666669 2.9119184684906574 26.483083333333337
decision_type=2 2 2 2 2 2 2 2 2 2 2 2 2 2 2 2 2 2 2 2 2 2 2 2
left_child=2 6 5 7 11 14 8 -3 13 -5 21 22 23 -2 -1 -13 -9 -10 -7 -14 -11 -6 -4 -8
right_child=1 3 4 9 10 18 12 16 17 20 -12 15 19 -15 -16 -17 -18 -19 -20 -21 -22 -23 -24 -25
leaf_value=-0.037543983653085235 -0.0017293267078449697 0.075632115954070073 -0.014761245445985583 0.13013474805675382 -0.0068009724246984975 -0.023617074236267278 -0.0058364153805193653 0.095795512214062239 0.037239363728701264 0.15037086888727794 0.021071130609132901 -0.0083128532947418076 0.064142815187481189 0.028673122322940902 -0.030015151417720626 0.00095696541264587726 0.11882184387924435 0.053849287695090321 -0.016677487490132092 0.032605713608622126 0.19650596945509261 0.0095427467724967102 0.004407807306275895 0.040866098087459606
leaf_weight=4077.0331364274025 176.51006358861923 974.1508477628231 2753.7937360107899 264.26951336860657 433.06595224142075 4459.5856213569641 40.031786948442459 833.48506993055344 901.8961840569973 128.35542863607407 1463.2631734907627 2470.1808580160141 1161.6084199249744 2250.3890426754951 5167.8490735292435 2345.2390425205231 298.28878828883171 600.30881145596504 3207.1720949411392 98.903509855270386 114.28210717439651 978.46539729833603 226.24676242470741 175.47051069140434
leaf_count=6186 347 1492 4175 419 714 6512 82 1217 1318 231 2194 3689 1779 3383 7605 3498 453 866 4820 144 197 1470 358 286
internal_value=-0.000178974 0.0600411 -0.0176872 0.101859 -0.00193936 -0.0276218 0.0398024 0.0898783 0.0331541 0.15121 0.0129543 -0.00743401 0.0574441 0.0264598 -0.0333416 -0.00379806 0.102019 0.0439281 -0.0207187 0.0617148 0.173199 0.00452226 -0.0133024 0.0321826
internal_weight=35599.8 8017.95 27581.9 2612.83 10670.3 16911.6 5405.12 2105.92 3929.1 506.907 2874.79 7795.46 1476.01 2426.9 9244.88 4815.42 1131.77 1502.2 7666.76 1260.51 242.638 1411.53 2980.04 215.502
internal_count=53435 12214 41221 4009 16098 25123 8205 3162 5914 847 4378 11720 2291 3730 13791 7187 1670 2184 11332 1923 428 2184 4533 368
is_linear=0
shrinkage=0.03


Tree=4
num_leaves=25
num_cat=0
split_feature=52 52 52 52 52 60 27 13 52 60 13 4 52 37 27 60 52 27 27 13 13 49 62 2
split_gain=39249.8 7091.09 4511.35 1595.59 913.173 697.974 661.146 476.493 453.719 280.283 252.383 213.791 191.506 174.848 174.124 148.447 123.653 122.223 119.718 119.634 101.838 100.918 79.7019 71.04
threshold=2.6565079568760992 4.4824297924868359 1.3221297478340877 6.9903139963795544 2.1121281760348389 1.0805501334615728 16.800114159125005 0.022169094722521255 3.3167196385679425 6.2628617165298186 1.1590045995990101 44.885116796673607 5.1412749012092531 4.06991166858207 9.8848549484804931 0.70102750059612051 1.6825371262413558 30.304160749575562 9.7763649993210677 1.3933220186089461 0.49847906546379855 1.0657644169096632 2.2678571428571432 34.171416666666673
decision_type=2 2 2 2 2 2 2 2 2 2 2 2 2 2 2 2 2 2 2 2 2 2 2 2
left_child=2 6 5 7 13 15 14 12 19 -9 -10 22 -3 -4 -2 -1 -15 23 -7 -8 -16 -13 -6 -5
right_child=1 3 4 17 11 18 8 9 10 -11 -12 21 -14 16 20 -17 -18 -19 -20 -21 -22 -23 -24 -25
leaf_value=-0.036377996840640026 -0.0098630760086531755 0.055375082891429249 -0.011992029107407307 0.16238789057445827 -0.013318623284558033 -0.022903607558607118 0.028242004902468663 0.084841631811378035 0.046915555318607666 0.11298333180912978 0.068520299779174537 0.013683302626257939 0.084224545948732077 -0.0082082591656349024 0.018608157334082529 -0.028618938702167761 0.0021564137700847302 0.17648216042244533 -0.015051030574538219 0.048390291531919372 0.034720057669874661 0.029364425758854167 0.0069238635840962251 0.11679584696060788
leaf_weight=4505.9482072889805 136.62740129232407 385.43980213999748 3655.293160200119 73.702781587839127 205.28520420193672 5260.7538323998451 1196.621646553278 615.68440529704094 1522.2224643528461 751.19850459694862 736.93982690572739 896.41896721720695 494.51216459274292 2054.1774696707726 848.40215599536896 4499.0780425071716 2085.9897691011429 182.7120164334774 2645.8598440587521 347.33835420012474 616.96647989749908 636.08469387888908 1137.0056577324867 109.58208051323891
leaf_count=6770 273 558 5564 133 352 7822 1683 971 2220 1144 1164 1312 699 3046 1283 6577 3110 312 3954 542 1040 1000 1714 192
internal_value=-0.000172407 0.0582457 -0.0171568 0.0988171 -0.00188112 -0.0267935 0.0386105 0.0892334 0.0454237 0.100419 0.0540065 0.012566 0.0717103 -0.00721107 0.0224048 -0.0325075 -0.00298576 0.15703 -0.0202799 0.0328211 0.0254244 0.0202182 0.00381217 0.136331
internal_weight=35599.8 8017.95 27581.9 2612.83 10670.3 16911.6 5405.12 2246.83 3803.12 1366.88 2259.16 2874.79 879.952 7795.46 1602 9005.03 4140.17 365.997 7906.61 1543.96 1465.37 1532.5 1342.29 183.285
internal_count=53435 12214 41221 4009 16098 25123 8205 3372 5609 2115 3384 4378 1257 11720 2596 13347 6156 637 11776 2225 2323 2312 2066 325
is_linear=0
shrinkage=0.03


Tree=5
num_leaves=25
num_cat=0
split_feature=52 52 52 52 54 60 52 14 14 29 13 43 4 24 35 60 52 15 55 52 4 23 13 13
split_gain=36629.4 6295.31 4840.39 1261.19 974.477 822.593 807.32 276.381 259.705 240.604 233.456 233.405 207.762 203.288 181.439 165.373 141.014 129.875 100.379 95.7603 91.4128 88.1575 64.8181 64.009
threshold=2.7804267868010557 5.1412749012092531 1.4409907434144886 3.7681137934094528 7.5277777777777786 1.0805501334615728 2.1551429996909248 8.5000000000000018 10.500000000000002 16.750000000000004 1.0000000180025095e-35 13.366666666666669 44.885116796673607 28.120876255471995 3.4500000000000006 0.64439798842735907 1.0819064411149479 15.307671724617153 2.0256758795057723 1.7826734561857067 47.300911284225386 1.1696259912460465 0.022169094722521255 1.2977776487775616
decision_type=2 2 2 2 2 2 2 2 2 2 2 2 2 2 2 2 2 2 2 2 2 2 2 2
left_child=2 3 5 8 10 15 14 -5 9 -2 21 -9 18 22 -4 -1 -7 -12 -8 -16 -10 -3 -6 -14
right_child=1 4 6 7 13 16 12 11 20 -11 17 -13 23 -15 19 -17 -18 -19 -20 -21 -22 -23 -24 -25
leaf_value=-0.035901177761594481 0.024977625038088435 0.075718539542885932 -0.012048889450682896 0.078292854514819848 0.088569099203934229 -0.022431431922105834 -0.009171818665780632 0.033962593278751355 0.007737094363918195 0.045350230721874857 0.0563784277110203 0.060557771352248005 0.017270250305124284 0.17384617193792179 -0.0052828895562317688 -0.027674153190762035 -0.015059810297564372 0.11205002142044911 0.0096465548064837391 0.0035234983867124597 0.026424959804531911 0.11294266250082158 0.13863163640454282 0.030535638696312258
leaf_weight=3973.2598427534103 816.41526219248772 425.53090777993202 2051.8839359283447 623.95730152726173 46.264215022325516 4530.7470135688782 335.64685767889023 387.17310932278633 357.24514484405518 1488.8895180821419 45.187728464603424 1400.1736281812191 1336.6299799978733 217.68225121498108 2441.531207472086 5059.2146807610989 4875.5730465054512 723.51331922411919 1045.7969305813313 2036.6042260229588 705.72874796390533 75.394787222146988 105.73966598510742 440.73464646935463
leaf_count=5983 1334 611 3143 1009 75 6716 556 641 545 2179 87 2064 1957 363 3637 7422 7338 1089 1573 3041 987 110 187 703
internal_value=-0.000168987 0.0591212 -0.0158098 0.0443811 0.110997 -0.0248304 0.00135788 0.0609512 0.0324951 0.0381589 0.0982646 0.0548334 0.0138057 0.154136 -0.00466446 -0.0312991 -0.0186142 0.108901 0.00506496 -0.00127667 0.0201697 0.0816536 0.124448 0.020586
internal_weight=35546.5 7418.9 28127.6 5779.58 1639.31 18438.8 9688.83 2411.3 3368.28 2305.3 1269.63 1787.35 3158.81 369.686 6530.02 9032.47 9406.32 768.701 1381.44 4478.14 1062.97 500.926 152.004 1777.36
internal_count=53350 11281 42069 8759 2522 27459 14610 3714 5045 3513 1897 2705 4789 625 9821 13405 14054 1176 2129 6678 1532 721 262 2660
is_linear=0
shrinkage=0.03


Tree=6
num_leaves=25
num_cat=0
split_feature=55 60 60 54 60 60 27 24 60 60 39 6 13 27 35 55 3 58 13 0 4 3 60 13
split_gain=33921.1 5522.43 5038.89 1220.86 1175.61 926.929 804.888 321.686 274.517 246.583 241.531 233.005 228.196 222.532 149.292 121.087 118.373 110.529 109.409 106.204 101.702 101.1 99.5233 99.3215
threshold=2.9444462134938223 5.8974891786018491 2.1852492333276099 6.7500000000000009 1.3114793763625421 4.4831493966866178 12.813810420928478 28.120876255471995 0.68703304063400183 3.3755548004166891 7.2500000000000009 5.5000000000000009 0.063119205751047666 22.957645271422862 3.7750000000000004 1.9679725716726981 49.999991701188783 1.5500000000000003 1.2547658017279997 30.571532647740622 47.714808831350645 49.148211473867768 6.5580227248122585 1.0000000180025095e-35
decision_type=2 2 2 2 2 2 2 2 2 2 2 2 2 2 2 2 2 2 2 2 2 2 2 2
left_child=2 5 4 12 8 10 15 23 -1 20 18 13 17 -7 -6 -4 -9 -3 -2 -12 -8 -11 -14 -5
right_child=1 3 6 7 14 11 9 16 -10 21 19 -13 22 -15 -16 -17 -18 -19 -20 -21 -22 -23 -24 -25
leaf_value=-0.034421691021268977 0.019287230237670538 0.037457873425227523 -0.0088301766650243519 0.088786256905704949 -0.017801144751343295 0.050769452685399841 0.006144867165363832 0.14187512336703309 -0.024949805215404557 0.021432450205547026 0.066343841795407185 0.019158954953292041 0.083374357195245344 0.071075647862447411 -0.010088925493075138 0.0025527939402256107 0.18910078331365807 0.07586034684902862 0.035851130934166718 0.038154437290057207 0.017623482702159757 0.041265343123368131 0.10607911890191185 0.12705197255152592
leaf_weight=4395.1088969409466 1328.9372088611126 83.422750294208527 2095.8132071495056 110.05682566761971 4737.0922792255878 1273.7108686566353 1769.8372220993042 171.54925578832626 7494.2248080968857 839.82181110978127 147.78953483700752 145.14992794394493 377.74494335055351 820.93250069022179 4344.4262730181217 1402.1455530822277 104.96729984879494 523.45099300146103 497.78366106748581 744.87030011415482 1147.584892064333 324.43741679191589 433.32352834939957 232.33599671721458
leaf_count=6613 1941 141 3279 170 7145 2012 2610 250 10978 1272 259 214 584 1217 6464 2161 212 718 818 1078 1707 468 651 388
internal_value=-0.00016263 0.0590323 -0.0146703 0.100615 -0.022247 0.0419267 0.00629174 0.135905 -0.0284557 0.0153398 0.0301226 0.0562257 0.0850806 0.0587759 -0.0141147 -0.0042665 0.160747 0.0706967 0.0238299 0.0429317 0.0106688 0.0270103 0.0956855 0.11521
internal_weight=35546.5 6996.03 28550.5 2036.85 20970.9 4959.17 7579.64 618.909 11889.3 4081.68 2719.38 2239.79 1417.94 2094.64 9081.52 3497.96 276.517 606.874 1826.72 892.66 2917.42 1164.26 811.068 342.393
internal_count=53350 10653 42697 3114 31200 7539 11497 1020 17591 6057 4096 3443 2094 3229 13609 5440 462 859 2759 1337 4317 1740 1235 558
is_linear=0
shrinkage=0.03


Tree=7
num_leaves=25
num_cat=0
split_feature=60 60 60 57 60 27 60 60 47 24 13 14 14 29 3 43 60 61 14 67 43 35 68 14
split_gain=31893.3 5415.31 4509.16 1068.2 955.383 840.195 516.571 505.43 499.805 383.969 254.947 174.228 168.198 147.542 138.126 131.414 131.169 124.061 123.017 114.435 111.965 108.39 83.6465 67.7493
threshold=3.5322417087558597 5.8974891786018491 1.7228111729343032 6.2500000000000009 2.3702086248096688 15.884283045919089 1.0464554903408709 4.4831493966866178 10.250000000000002 28.120876255471995 1.110930560425673 10.500000000000002 9.5000000000000018 8.2500000000000018 49.999991701188783 14.100000000000001 0.64439798842735907 3.3666666666666671 12.500000000000002 2.0500000000000003 7.7750000000000012 3.7750000000000004 2.4118986129200501 10.500000000000002
decision_type=2 2 2 2 2 2 2 2 2 2 2 2 2 2 2 2 2 2 2 2 2 2 2 2
left_child=2 5 6 12 20 13 16 18 17 11 -9 -5 22 -2 -11 -10 -1 -6 -7 -14 -4 -8 -3 -15
right_child=1 3 4 9 8 7 21 10 15 14 -12 -13 19 23 -16 -17 -18 -19 -20 -21 -22 -23 -24 -25
leaf_value=-0.03379228771521451 -0.017495334639770332 0.081907835187294414 -0.013855200817013259 0.11816633705988933 -0.0048492068585889283 0.036858274796246156 -0.021790063305762018 0.04856763432339347 0.010913222426391939 0.13531390037196228 0.070684116206715691 0.070714958097090469 0.054391513760583599 0.025848961778117373 0.18415772573709432 0.023511475844941954 -0.026302819771202014 0.0086101682463804695 0.0060014726341131759 0.080793007384697274 -0.0054484569185209077 -0.014457157589006097 0.10552083701355686 0.0095793369446896797
leaf_weight=3973.2598427534103 102.39512932300568 390.28042209148407 2451.8364280760288 351.11043426394463 2027.4134303629398 1823.7989279329777 5040.8538113534451 1422.580094486475 1643.3653575181961 185.31309348344803 722.7769758105278 98.59834948182106 280.85443052649498 651.95123800635338 104.62059697508812 1373.9346163868904 4609.6826250851154 883.69263461232185 125.38130843639374 364.05797910690308 3421.3663221299648 2867.7211210429668 267.74705424904823 361.92573127150536
leaf_count=5983 206 591 3785 565 3138 2670 7475 2098 2441 265 1151 152 452 1089 211 2041 6775 1348 167 483 5058 4245 407 554
internal_value=-0.000156223 0.0559601 -0.0145449 0.0973551 -0.00038655 0.0397092 -0.0246756 0.0459996 0.00810777 0.126271 0.0560657 0.108046 0.0808096 0.0165997 0.153817 0.0166607 -0.0297759 -0.000759101 0.0348826 0.0694575 -0.00896161 -0.0191351 0.091743 0.0200698
internal_weight=35546.5 7253.39 28293.1 2042.58 11801.6 5210.81 16491.5 4094.54 5928.41 739.642 2145.36 449.709 1302.94 1116.27 289.934 3017.3 8582.94 2911.11 1949.18 644.912 5873.2 7908.57 658.027 1013.88
internal_count=53350 11061 42289 3126 17811 7935 24478 6086 8968 1193 3249 717 1933 1849 476 4482 12758 4486 2837 935 8843 11720 998 1643
is_linear=0
shrinkage=0.03


Tree=8
num_leaves=25
num_cat=0
split_feature=52 52 52 52 52 52 52 2 13 37 4 37 13 60 52 36 15 60 55 55 26 13 3 67
split_gain=30600.3 5274.59 4049.17 1051.06 809.489 689.417 673.186 239.783 241.913 225.315 180.54 176.072 174.487 160.081 148.62 122.073 115.435 101.346 98.8623 88.7002 82.378 78.9155 78.7031 72.5459
threshold=2.7804267868010557 5.1412749012092531 1.4409907434144886 3.7681137934094528 6.9903139963795544 0.85081334234447403 2.1551429996909248 23.858250000000002 0.37388854596498083 7.1656809285619945 44.885116796673607 3.7137512862517341 0.022169094722521255 0.68703304063400183 8.5796810505880163 3.7888888888888892 15.307671724617153 1.5632357350438182 3.279122082051305 2.0256758795057723 29.844444444444449 1.0000000180025095e-35 49.667644400228575 4.4500000000000011
decision_type=2 2 2 2 2 2 2 2 2 2 2 2 2 2 2 2 2 2 2 2 2 2 2 2
left_child=2 3 5 9 12 13 11 -5 -9 15 19 -4 20 -1 21 -2 -14 -7 -11 -8 -3 -6 -13 -12
right_child=1 4 6 7 14 17 10 8 -10 18 23 22 16 -15 -16 -17 -18 -19 -20 -21 -22 -23 -24 -25
leaf_value=-0.032397528337856071 -0.0031824698986230092 0.070302604550756598 -0.011116043940355189 -0.008441435413662499 0.096828263484118951 -0.019164048555729538 -0.0089073607446342636 0.047167240289137227 0.066608865904176529 0.030933242976452922 0.017924082565427348 -0.0010923711240349633 0.050420040954490937 -0.024660965897733991 0.17078947387000259 0.025382814839104668 0.10223363232771628 -0.012502956394522096 0.047455609486791603 0.0087820102846889406 0.10762415700596339 0.13903782166599232 0.042469970424097954 0.056034336810081041
leaf_weight=4395.1088969409466 144.26955661177635 434.27144980430603 2215.0432042479515 50.855263352394104 79.674144148826599 5136.9992191791534 335.64685767889023 1163.5192620456219 1196.9295136332512 669.86402037739754 1732.1582905352116 4278.8259247541428 46.034054338932037 5443.621885061264 121.22548824548721 1882.5514232814312 730.90247356891632 3463.0645824074745 671.59367281198502 1045.7969305813313 68.116437315940857 159.08882749080658 36.150240421295166 45.206335932016373
leaf_count=6613 266 613 3406 109 135 7543 556 1705 1900 956 2590 6335 89 8053 211 2850 1088 5250 973 1573 102 284 80 70
internal_value=-0.000150304 0.0540411 -0.0144461 0.0405486 0.101526 -0.0226965 0.00125587 0.0556758 0.0570642 0.0296975 0.0126227 -0.00424341 0.0901131 -0.028122 0.141526 0.0233457 0.0992744 -0.0164851 0.0392533 0.00447472 0.0756801 0.12567 -0.00071139 0.0189432
internal_weight=35546.5 7418.9 28127.6 5779.58 1639.31 18438.8 9688.83 2411.3 2360.45 3368.28 3158.81 6530.02 1279.32 9838.73 359.988 2026.82 776.937 8600.06 1341.46 1381.44 502.388 238.763 4314.98 1777.36
internal_count=53350 11281 42069 8759 2522 27459 14610 3714 3605 5045 4789 9821 1892 14666 630 3116 1177 12793 1929 2129 715 419 6415 2660
is_linear=0
shrinkage=0.03


Tree=9
num_leaves=25
num_cat=0
split_feature=55 55 63 24 55 54 55 27 55 3 6 27 37 63 3 83 66 55 16 18 82 35 18 1
split_gain=28357.8 4658.5 4072.65 874.377 871.879 696.836 656.211 285.701 262.38 231.28 222.371 179.832 163.634 151.4 142.357 133.764 112.263 97.8061 97.1685 93.1536 83.3167 75.3955 73.4157 73.4105
threshold=2.9444462134938223 5.5261108932058685 1.8698206599551039 13.130404747709976 4.0022863176438479 7.3166666666666673 0.66819349083236779 15.65169304301561 2.1768918568887394 49.801401710980393 5.5000000000000009 19.6469124566438 3.5587997165928305 2.6988230616665572 49.197346813898477 4.7500000000000009 6.1500000000000012 0.23643709312904679 23.47000000000001 2.9307460579157047 7.7500000000000009 2.9000000000000004 2.4821047378368877 35.800333333333334
decision_type=2 2 2 2 2 2 2 2 2 2 2 2 2 2 2 2 2 2 2 2 2 2 2 2
left_child=2 4 6 13 7 20 17 -2 19 15 11 -6 -8 21 -10 -7 -9 -1 -11 -5 -3 -4 -14 -22
right_child=1 5 3 8 10 9 12 16 14 18 -12 -13 22 -15 -16 -17 -18 -19 -20 -21 23 -23 -24 -25
leaf_value=-0.033986205688413901 0.015304391517042189 0.081687702317603625 -0.015274807110348069 0.0010633794592534685 0.042763832652657062 0.12044744641449905 -0.020020908315421377 0.034630044236473631 0.015332879608589372 0.12234079487828091 0.019460295866842739 0.062838230155821767 -0.013894318202530627 0.0014511276681831236 0.034347204800364593 0.053763321601580816 0.06182254114121994 -0.026348841964996438 0.16531433730784087 0.020170985706380151 0.11895963852824361 -0.0062582134244539966 -0.0023527458075409454 0.087217052033063264
leaf_weight=2070.8359240591526 770.93457061052322 690.11858251690865 1163.863017052412 1599.1024561822414 555.38015025854111 95.096731573343277 6095.9179067313671 2290.1632785201073 1912.9898598194122 103.10038030147552 147.77937197685242 1639.3345120251179 3641.0706529915333 1885.956739127636 436.54177215695381 43.507651090621948 147.49981728196144 5927.1385290324688 182.08892819285393 266.84456101059914 143.29248517751694 2973.7354414761066 576.49549993872643 187.72913566231728
leaf_count=3068 1242 1084 1778 2371 869 162 9128 3375 2799 180 207 2445 5371 2938 648 60 226 8845 316 387 214 4527 837 273
internal_value=-0.000144541 0.0539789 -0.0134093 0.00174264 0.0414671 0.101949 -0.0218815 0.031278 0.0122204 0.134541 0.055392 0.0577937 -0.0168744 -0.00559022 0.0188879 0.100358 0.0363149 -0.0283331 0.150521 0.00381313 0.0882394 -0.00880055 -0.0123195 0.10145
internal_weight=35546.5 6996.03 28550.5 10239 5551.09 1444.93 18311.5 3208.6 4215.48 423.794 2342.49 2194.71 10313.5 6023.56 2349.53 138.604 2437.66 7997.97 285.189 1865.95 1021.14 4137.6 4217.57 331.022
internal_count=53350 10653 42697 15448 8364 2289 27249 4843 6205 718 3521 3314 15336 9243 3447 222 3601 11913 496 2758 1571 6305 6208 487
is_linear=0
shrinkage=0.03


Tree=10
num_leaves=25
num_cat=0
split_feature=52 52 52 52 52 60 52 37 14 45 14 3 61 35 15 43 37 43 31 3 60 55 14 45
split_gain=27784.5 4908.31 3506.4 1012.14 790.211 634.755 579.259 240.218 184.771 179.546 177.652 176.68 159.054 157.426 151.068 147.347 144.647 142.01 114.618 113.485 96.5294 92.1276 86.2483 85.4442
threshold=2.717356508873539 5.1412749012092531 1.4409907434144886 3.940961542235478 7.5654986619495359 1.0464554903408709 2.1121281760348389 7.1656809285619945 10.500000000000002 11.338602323649434 10.500000000000002 49.999991701188783 3.1000000000000005 3.7750000000000004 15.307671724617153 8.9000000000000021 9.743852908222566 7.1000000000000005 1.3932299367457819 49.801401710980393 0.61653558703027567 1.6367336458472495 10.500000000000002 14.325436859220497
decision_type=2 2 2 2 2 2 2 2 2 2 2 2 2 2 2 2 2 2 2 2 2 2 2 2
left_child=2 3 5 7 11 20 15 17 -9 21 12 14 -5 -7 -3 -4 -6 -2 -11 -18 -1 -8 -17 -12
right_child=1 4 6 10 16 13 9 8 -10 18 23 -13 -14 -15 -16 22 19 -19 -20 -21 -22 -23 -24 -25
leaf_value=-0.031155593513945635 -0.0047737827527386612 0.038030126058881217 -0.0088468526241808274 0.014429084517142756 0.11329000324971686 -0.019298361222746835 -0.016964327018161855 0.044770080814541341 0.022216951446015435 0.016471470045429905 0.020091505315052466 0.12952598604871074 0.062779986521939335 -0.011536918709572887 0.087019165921307789 0.0036017694243158024 0.10809798960392578 0.025056493721614684 0.050522150214306658 0.1821133977197778 -0.0246517097516268 0.0067198596400086224 -0.0072809565243073318 0.047327736233616087
leaf_weight=3651.2563533484936 152.64085242152214 63.233131319284439 3127.7143027484417 65.417181879281998 91.470713227987289 6051.5310313403606 163.77663031220436 1133.7040403485298 468.00510382652283 1521.1664625406265 140.95242756605148 89.883701294660568 1416.8262267708778 3871.5002476871014 1252.6120846271515 2197.8376425206661 32.944123595952988 2239.4818843603134 93.706118166446686 114.4080562889576 4874.2266320586205 1393.6738474369049 932.08144369721413 439.62120041251183
leaf_count=5489 290 117 4762 115 165 9010 291 1671 667 2259 228 206 2217 5752 1771 3316 60 3389 160 200 7177 2111 1335 634
internal_value=0.000103065 0.0505378 -0.0138309 0.0380392 0.0964882 -0.021437 0.00104995 0.0292029 0.038211 0.0114903 0.0551104 0.08772 0.0606669 -0.016273 0.0847155 -0.00424333 0.147204 0.0231487 0.0184961 0.166862 -0.0274429 0.00421153 0.000357072 0.0407944
internal_weight=35579.7 7701.2 27878.5 6056.65 1644.55 18448.5 9429.96 3993.83 1601.71 3172.32 2062.82 1405.73 1482.24 9923.03 1315.85 6257.63 238.823 2392.12 1614.87 147.352 8525.48 1557.45 3129.92 580.574
internal_count=53392 11730 41662 9211 2519 27428 14234 6017 2338 4821 3194 2094 2332 14762 1888 9413 425 3679 2419 260 12666 2402 4651 862
is_linear=0
shrinkage=0.03


Tree=11
num_leaves=25
num_cat=0
split_feature=52 52 52 52 52 52 60 45 26 15 28 14 14 21 35 43 58 6 14 55 60 14 14 52
split_gain=26169.4 4077.74 3918.35 809.749 745.803 664.093 597.25 223.474 200.661 199.674 172.715 172.431 168.282 148.945 148.116 138.641 114.265 111.844 105.781 99.8752 90.8197 90.8077 81.1577 63.4041
threshold=2.9368440518226424 1.4409907434144886 5.1412749012092531 2.1121281760348389 6.9903139963795544 3.940961542235478 1.0464554903408709 11.338602323649434 11.950000000000001 24.247097866025069 10.750000000000002 10.500000000000002 10.500000000000002 1.0045960079534557 3.7750000000000004 8.9000000000000021 4.3500000000000005 4.5000000000000009 7.5000000000000009 1.6367336458472495 0.57326505393975236 9.5000000000000018 10.500000000000002 1.169997928045116
decision_type=2 2 2 2 2 2 2 2 2 2 2 2 2 2 2 2 2 2 2 2 2 2 2 2
left_child=1 6 5 15 13 8 20 19 -2 16 -7 -10 -12 18 23 -3 -6 -15 -4 -5 -1 -9 -17 -8
right_child=2 3 4 7 9 10 14 21 11 -11 12 -13 -14 17 -16 22 -18 -19 -20 -21 -22 -23 -24 -25
leaf_value=-0.03061023771884706 -0.0037115246118145377 -0.0085815742258725219 0.12637533284927172 -0.016073366581030455 0.12003775214893807 -0.01314451528716414 -0.020755697236708694 0.025615080850023435 0.037835022692441204 0.15626037586877731 0.060017434615470308 0.021711087470297753 0.04047549394120227 0.075442443507737614 -0.01119094514530199 0.0034937901536121231 0.056631752854377243 0.030711403430970143 0.087584916090700904 0.0074606831474880861 -0.024175366674992853 0.013628387280802753 -0.0070628788050297927 -0.014037181724010767
leaf_weight=3231.220054268837 139.63750532269478 3127.7143027484417 80.74489039182663 178.33133429288864 154.32327339053154 33.786223918199539 4213.0453888773918 1068.1477167606354 2021.876914024353 172.35647556185722 1460.7837294340134 861.02368256449699 568.24708327651024 531.69255948066711 3871.5002476871014 2197.8376425206661 36.063582360744476 59.216150879859924 610.15487828850746 1658.7107174396515 5294.2629311382771 1238.4270690083504 932.08144369721413 1838.4856424629688
leaf_count=4861 264 4762 125 320 293 70 6236 1619 3060 289 2286 1244 838 798 5752 3316 53 84 877 2536 7805 1795 1335 2774
internal_value=0.000101085 -0.0123258 0.0533646 0.00269446 0.0936121 0.040324 -0.0207941 0.0129789 0.0313346 0.13181 0.0534605 0.0330352 0.0545814 0.0826563 -0.015785 -0.00411612 0.108595 0.0710591 0.0923909 0.0051616 -0.0266199 0.0191949 0.000346249 -0.0187196
internal_weight=35579.7 28849.8 6729.91 10401.3 1644.55 5085.36 18448.5 4143.62 3022.54 362.743 2062.82 2882.9 2029.03 1281.81 9923.03 6257.63 190.387 590.909 690.9 1837.04 8525.48 2306.57 3129.92 6051.53
internal_count=53392 43111 10281 15683 2519 7762 27428 6270 4568 635 3194 4304 3124 1884 14762 9413 346 882 1002 2856 12666 3414 4651 9010
is_linear=0
shrinkage=0.03


Tree=12
num_leaves=25
num_cat=0
split_feature=63 60 60 54 24 29 60 55 13 60 37 60 37 25 13 45 13 13 65 5 13 60 83 55
split_gain=24451.5 4317.64 2968.19 1157.33 659.913 616.268 397.942 297.813 260.949 259.078 234.013 160.364 159.472 156.841 123.557 123.346 111.737 111.634 102.367 87.5565 83.2316 83.2088 71.14 64.7771
threshold=3.4326643539228971 5.4967560581166062 1.7228111729343032 7.5277777777777786 13.970684397609878 18.750000000000004 1.0464554903408709 5.5261108932058685 1.8222534345581682 2.6652500011292664 9.8930656108204449 4.0874429143438462 9.0884965436663219 7.2250000000000005 0.15637367337194158 8.525398446947916 1.0000000180025095e-35 0.70020764101748434 5.2500000000000009 33.55593778787 1.0910052786367717 2.2398225768637761 3.7500000000000004 1.9504132163952639
decision_type=2 2 2 2 2 2 2 2 2 2 2 2 2 2 2 2 2 2 2 2 2 2 2 2
left_child=2 5 6 7 13 11 19 14 12 23 -5 20 -7 -4 -3 -8 -9 -11 -10 -1 -2 -15 -13 -6
right_child=1 3 4 10 9 8 15 16 18 17 -12 22 -14 21 -16 -17 -18 -19 -20 -21 -22 -23 -24 -25
leaf_value=-0.028604815835323448 0.011004034582863573 0.049231303823953278 -0.014537737135652422 0.10244623466225734 -0.0044167715456319432 0.033621020317483971 -0.018897142835004363 0.06827509683961612 0.057298379366442255 0.011314482790398969 0.15324212767051873 0.021918598145895977 0.05372752024114006 -0.0073444521287672751 0.068693973849638157 -0.010690597101275639 0.089957942295178506 0.026209043461094265 0.099698144324267116 -0.022447723218901008 0.024834830418137034 -0.00030621452363029968 0.037966877265736915 0.0085681711475767992
leaf_weight=4664.5554882287979 1173.1611128747463 571.04352873563766 1595.8957806825638 186.97073063254356 964.53235554695129 1746.5923287272453 5641.4683029055595 375.7577331662178 269.31907433271408 1241.7185631990433 176.92942535877228 472.36286070942879 454.15608406066895 3149.0962856411934 672.72035554051399 2344.9870482087135 639.12567180395126 717.87496614456177 68.046991974115372 3860.9274971783161 592.48245173692703 2910.1261813640594 552.84395676851273 536.97666427493095
leaf_count=6947 1704 814 2568 314 1410 2542 8350 545 462 1758 302 791 661 4707 1026 3462 1009 1094 130 5719 958 4469 861 789
internal_value=9.89756e-05 0.046452 -0.0132432 0.0779596 -0.00125799 0.0309275 -0.0213107 0.0698656 0.0416296 0.0096094 0.127687 0.0211752 0.0378068 -0.00617316 0.0598331 -0.0164907 0.0820484 0.0167899 0.0662716 -0.0258216 0.0156657 -0.00396603 0.0306213 0.000226889
internal_weight=35579.7 7951.51 27628.2 2622.55 11116.2 5328.96 16511.9 2258.65 2538.11 3461.1 363.9 2790.85 2200.75 7655.12 1243.76 7986.46 1014.88 1959.59 337.366 8525.48 1765.64 6059.22 1025.21 1501.51
internal_count=53392 12119 41273 4010 16795 8109 24478 3394 3795 5051 616 4314 3203 11744 1840 11812 1554 2852 592 12666 2662 9176 1652 2199
is_linear=0
shrinkage=0.03


Tree=13
num_leaves=25
num_cat=0
split_feature=55 60 60 60 60 45 55 60 60 37 14 13 26 17 24 26 45 3 3 60 6 63 33 0
split_gain=23027.7 4457.64 2473.11 1034.85 603.86 525.356 382.407 371.721 271.034 214.597 214.094 190.83 136.725 135.228 122.712 120.499 113.159 110.746 103.137 85.0908 77.9053 77.2426 71.6373 55.4966
threshold=2.5891404089547621 5.4967560581166062 1.7228111729343032 8.5277556674981145 4.0874429143438462 10.182154150579414 5.9969077706513723 1.0464554903408709 2.3702086248096688 6.9813068228509634 10.500000000000002 0.15637367337194158 18.81666666666667 2.3995341437265196 31.624584251248105 6.8944444444444457 8.525398446947916 49.999991701188783 49.197346813898477 0.61653558703027567 6.5000000000000009 5.0067948818798227 9.4500000000000011 35.60736527067484
decision_type=2 2 2 2 2 2 2 2 2 2 2 2 2 2 2 2 2 2 2 2 2 2 2 2
left_child=2 4 7 6 9 15 11 19 -7 21 12 -3 -6 -11 22 -4 -9 -8 -10 -1 -12 -2 -5 -16
right_child=1 3 5 14 10 8 17 16 18 13 20 -13 -14 -15 23 -17 -18 -19 -20 -21 -22 -23 -24 -25
leaf_value=-0.028532154124795196 0.013649077754468747 0.047636422767104197 -0.016680711858816165 0.12204648431118435 0.033382727666077146 -0.0030537258399198713 0.082486190613334731 -0.018331594475376974 0.010359645663756958 0.085648488566726355 0.02839799424360134 0.069136586200747072 0.050441222605728239 0.029189233293908576 0.16970396518978967 -0.0055186956278999548 -0.010465596874971863 0.12777017215046413 0.028004623752716694 -0.022427512627444243 -0.0073622730958967635 0.04475595119688535 0.085135693345990734 0.10955170118366728
leaf_weight=3651.2563533484936 2159.2383172810078 698.76160401105881 1031.3405061662197 174.88893887400627 665.32434225082397 1578.6822256743908 637.98539897799492 5639.7586003243923 2014.4600694477558 38.928095787763596 704.75463157892227 851.50316336750984 1249.1477690935135 942.00837418437004 69.88800373673439 5589.0464527308941 2341.2394039034843 58.169872432947159 350.18889990448952 4874.2266320586205 58.566182464361191 73.367743909358978 92.891593456268311 34.04826483130455
leaf_count=5489 3239 999 1718 333 1080 2350 929 8346 2969 79 1043 1310 1897 1401 109 8411 3453 134 531 7177 83 126 126 60
internal_value=9.70722e-05 0.0431396 -0.0134347 0.0757049 0.0286508 -0.00209867 0.0679394 -0.0206882 0.00656761 0.019864 0.0391762 0.0595049 0.0445469 0.0315633 0.122157 -0.00726183 -0.0160272 0.0865452 0.0129914 -0.0250472 0.0256374 0.0147034 0.10981 0.151895
internal_weight=35579.7 8509.47 27070.2 2618.14 5891.34 10563.7 2246.42 16506.5 3943.33 3213.54 2677.79 1550.26 1914.47 980.936 371.717 6620.39 7981 696.155 2364.65 8525.48 763.321 2232.61 267.781 103.936
internal_count=53392 12948 40444 4000 8948 15979 3372 24465 5850 4845 4103 2309 2977 1480 628 10129 11799 1063 3500 12666 1126 3365 459 169
is_linear=0
shrinkage=0.03


Tree=14
num_leaves=25
num_cat=0
split_feature=63 60 60 54 27 27 63 13 60 13 60 37 60 27 25 15 13 37 53 3 62 81 63 14
split_gain=21687.7 3837.76 2621.51 841.934 744.026 584.282 352.827 283.559 265.357 245.356 228.521 216.469 161.189 131.414 124.261 121.13 102.171 100.436 96.0573 93.4445 77.4658 71.4018 70.421 68.4316
threshold=3.4326643539228971 5.8974891786018491 1.7228111729343032 7.5277777777777786 18.686685048616681 13.311642075896069 0.78665141503289393 1.8744835624145975 2.7124886223040412 1.0000000180025095e-35 4.4831493966866178 9.0884965436663219 4.0874429143438462 9.6651510403408363 12.450000000000001 15.307671724617153 0.70020764101748434 11.190324546715372 7.2666666666666675 49.801401710980393 4.8166666666666673 6.4558363661401224 2.9119184684906574 10.500000000000002
decision_type=2 2 2 2 2 2 2 2 2 2 2 2 2 2 2 2 2 2 2 2 2 2 2 2
left_child=2 4 6 9 12 13 -1 10 23 17 -6 18 -2 -4 -8 -11 -10 -3 -5 -13 -9 -14 -15 -7
right_child=1 3 5 11 7 8 14 20 16 15 -12 19 21 22 -16 -17 -18 -19 -20 -21 -22 -23 -24 -25
leaf_value=-0.025521533035749652 0.014274655925355284 0.052256743695557169 -0.010943983645789447 0.13268255435707335 0.028026181481877861 0.0038984265460848076 -0.018011670356011526 0.051429378011479274 0.010440885313816879 0.04705615003606313 0.045538007328926801 0.091260448870784272 0.026785325233834339 -0.0045068299591667221 -0.0090044135925649461 0.082909592170023416 0.024697912333286415 0.096399053103460128 0.071463437428378879 0.14838174643396038 0.079324037503408315 0.054750737577625372 0.0065615023759427477 -0.007868912108154779
leaf_weight=6467.0823965668678 1716.2989969849586 635.98988690972328 3222.9859262704849 34.132366985082626 1207.7909056246281 1582.2350992560387 8386.0682089030743 201.6322126686573 1208.024977594614 101.87945735454559 1547.752696365118 41.565857797861099 928.44593250751495 3140.2132268548012 1658.787731051445 914.13968110084534 728.30586734414101 51.724382042884827 100.86559349298477 187.33633771538734 190.78939974308014 91.168599128723145 617.57945829629898 616.87624123692513
leaf_count=9609 2588 901 5081 56 1753 2397 12378 342 1717 181 2304 69 1515 4649 2491 1378 1131 76 161 330 340 125 945 875
internal_value=9.54967e-05 0.0437503 -0.01247 0.0789022 0.0313797 -0.00120641 -0.0200518 0.0413276 0.00772728 0.069927 0.0378839 0.120447 0.019915 -0.00650014 -0.0165264 0.079395 0.0158214 0.0557881 0.0882738 0.138697 0.065257 0.0293685 -0.0026843 0.000591711
internal_weight=35579.7 7951.51 27628.2 2067.63 5883.88 11116.2 16511.9 3147.97 4135.44 1703.73 2755.54 363.9 2735.91 6980.78 10044.9 1016.02 1936.33 687.714 134.998 228.902 392.422 1019.61 3757.79 2199.11
internal_count=53392 12119 41273 3152 8967 16795 24478 4739 6120 2536 4057 616 4228 10675 14869 1559 2848 977 217 399 682 1640 5594 3272
is_linear=0
shrinkage=0.03


Tree=15
num_leaves=25
num_cat=0
split_feature=60 55 60 55 55 3 55 5 14 44 68 29 58 60 14 29 29 14 58 44 35 35 60 60
split_gain=20857.8 3540.17 2938.36 808.086 744.298 489.083 323.808 296.953 193.034 189.897 180.241 158.183 151.471 150.802 150.725 148.681 142.349 128.784 110.394 104.375 101.657 88.0212 84.1358 82.3125
threshold=3.5722874706811827 5.5261108932058685 1.7228111729343032 4.0022863176438479 2.2682362878372309 49.999991701188783 0.66819349083236779 46.247325892002074 8.5000000000000018 12.707142857142857 1.4058247234449406 31.250000000000004 3.7500000000000004 6.5580227248122585 12.500000000000002 17.250000000000004 8.2500000000000018 11.500000000000002 4.6500000000000012 14.950000000000001 6.1000000000000005 3.2250000000000005 0.70102750059612051 2.2398225768637761
decision_type=2 2 2 2 2 2 2 2 2 2 2 2 2 2 2 2 2 2 2 2 2 2 2 2
left_child=2 3 6 7 9 11 22 16 13 21 -7 17 -9 -5 15 -6 -2 -3 -13 -10 -8 -4 -1 -11
right_child=1 5 4 8 14 10 20 12 19 23 -12 18 -14 -15 -16 -17 -18 -19 -20 -21 -22 -23 -24 -25
leaf_value=-0.026766404330109708 -0.024557644878518522 0.079715486578974218 -0.010728871381161676 0.05796036155765965 0.0094687195450812202 0.16690017094174531 -0.016143901465533569 0.027519472864904998 0.032922931380493202 -0.0040646654101594354 0.10430380698018388 0.085620632213724429 0.046087061500125627 0.10560110997511031 -0.010884323223340446 0.023558243824760412 0.015290790112844652 0.047777212841824894 0.13607027047047893 0.04884528035617286 -0.0022590878990450735 -0.0038456743900871777 -0.020490854250684414 0.012173189367576441
leaf_weight=4076.1097188591957 87.590142369270325 961.85724559426308 2555.5365952253342 504.64572769403458 2044.8411675393581 82.526098340749741 8147.177861481905 1917.0116656720638 561.42160522937775 430.7323941886425 112.69275358319283 115.64798414707184 505.15754622220993 70.249040722846985 231.9021837413311 1008.9439806938171 857.70019698143005 139.4276230931282 74.643623173236847 1206.2149134874344 505.55813682079315 4853.1045023500919 3741.1972985267639 800.86862033605576
leaf_count=6073 185 1468 3988 814 3133 172 12042 2857 874 649 247 173 704 101 316 1530 1362 195 94 1730 775 7203 5527 1188
internal_value=0.000433777 0.0460462 -0.011128 0.035291 0.000212556 0.08727 -0.0193394 0.0258545 0.0488284 -0.0044087 0.131867 0.0803795 0.0314205 0.0640519 0.0123632 0.014135 0.0115591 0.0757479 0.106351 0.0438238 -0.0153339 -0.00622247 -0.0237683 0.00649136
internal_weight=35592.8 7196.79 28396 5709.99 11925.9 1486.8 16470 3367.46 2342.53 8640.24 195.219 1291.58 2422.17 574.895 3285.69 3053.79 945.29 1101.28 190.292 1767.64 8652.74 7408.64 7817.31 1231.6
internal_count=53400 10976 42424 8627 18007 2349 24417 5108 3519 13028 419 1930 3561 915 4979 4663 1547 1663 267 2604 12817 11191 11600 1837
is_linear=0
shrinkage=0.03


Tree=16
num_leaves=25
num_cat=0
split_feature=52 52 52 52 52 52 52 43 26 13 58 52 13 55 13 57 14 13 43 28 63 27 45 40
split_gain=19948.4 3207.71 2981.96 616.322 584.814 514.77 428.928 217.369 193.985 219.523 183.429 179.992 150.552 150.112 144.315 121.188 93.6826 89.0479 88.0427 84.8938 76.966 72.1106 72.0139 69.8732
threshold=2.9368440518226424 5.1412749012092531 1.5839420217113787 1.0259068887221037 4.2143696909798916 6.613643083163681 2.1121281760348389 13.900000000000002 12.105555555555556 1.7267933148638044 1.9500000000000002 8.5796810505880163 1.4793230198855956 0.37559050886524808 1.8894316898159198 3.2500000000000004 11.500000000000002 0.74389595915087725 12.900000000000002 14.250000000000002 2.5345881633782557 27.215851669175613 4.9366387134834175 6.8500000000000005
decision_type=2 2 2 2 2 2 2 2 2 2 2 2 2 2 2 2 2 2 2 2 2 2 2 2
left_child=2 4 3 13 8 10 19 20 -2 -10 21 16 -6 -1 -9 -14 -7 -12 -15 -4 -8 -3 -5 -13
right_child=1 5 6 22 12 11 7 14 9 -11 17 23 15 18 -16 -17 -18 -19 -20 -21 -22 -23 -24 -25
leaf_value=-0.025947191159835757 -0.0028906755124687958 0.036299747619906807 -0.0045804249898454049 -0.01749763301645264 0.045292394209381914 0.10237085978251732 -0.0032777891849797873 0.017623705239953314 0.026785508910583442 0.048692983397226143 0.069766545902344948 0.1553157423794537 0.022074607200075914 -0.019205345979007981 0.049296948910147048 0.075278096032834488 0.052807404844357968 0.090269364665464522 0.0010619124560123439 0.004651657621387242 0.0089595064053558 0.071925913030731217 -0.0087846300138878699 0.094923904932332395
leaf_weight=3726.1287437975407 170.26407834887505 169.1015413403511 3396.4033317565918 988.90147671103477 1168.7126878499985 343.56660547852516 584.17634481191635 1191.4866189062595 2977.7952626645565 480.91774532198906 556.808345079422 91.742837101221085 46.41081628203392 8770.9780077338219 144.88785392045975 296.54777598381042 44.398679077625275 346.60624563694 196.51414316892624 1215.7779358029366 2196.6619014441967 78.118501275777817 6375.8617914021015 33.989355176687241
leaf_count=5520 314 293 5117 1529 1784 579 944 1744 4358 804 756 169 87 12974 245 469 66 488 307 1826 3316 153 9510 48
internal_value=0.000421906 0.0466101 -0.0104979 -0.0168672 0.0348706 0.0828027 0.0041371 0.0111739 0.0283147 0.0298532 0.071443 0.107954 0.0505612 -0.0208733 0.0211136 0.0682232 0.0969395 0.0777759 -0.0187604 -0.00214481 0.00638626 0.0479472 -0.00995871 0.140349
internal_weight=35592.8 6804.98 28787.8 20058.4 5140.65 1664.33 8729.39 4117.21 3628.98 3458.71 1150.63 513.697 1511.67 12693.6 1336.37 342.959 387.965 903.415 8967.49 4612.18 2780.84 247.22 7364.76 125.732
internal_count=53400 10368 43032 29840 7816 2552 13192 6249 5476 5162 1690 862 2340 18801 1989 556 645 1244 13281 6943 4260 446 11039 217
is_linear=0
shrinkage=0.03


Tree=17
num_leaves=25
num_cat=0
split_feature=52 52 52 52 52 52 52 43 26 58 52 14 14 14 6 43 5 0 35 21 52 38 26 35
split_gain=18773.6 3020.32 2807.79 555.868 550.422 485.025 423.557 204.586 182.552 172.405 169.942 164.007 142.903 122.878 104.198 98.5792 93.1008 90.092 87.8656 84.9987 84.9841 84.9106 73.0259 69.0972
threshold=2.9368440518226424 5.1412749012092531 1.4409907434144886 2.1121281760348389 4.2143696909798916 6.613643083163681 0.81553248317577587 13.900000000000002 12.105555555555556 1.9500000000000002 8.5796810505880163 10.500000000000002 10.500000000000002 10.500000000000002 4.5000000000000009 13.550000000000002 35.306336488579966 34.460835946983089 3.3666666666666671 0.99091246613429929 1.101215103031052 8.7500000000000018 9.0500000000000025 9.7750000000000021
decision_type=2 2 2 2 2 2 2 2 2 2 2 2 2 2 2 2 2 2 2 2 2 2 2 2
left_child=2 4 6 18 8 9 16 22 -2 23 17 -10 19 -9 -11 20 -1 -7 -4 -6 -8 -12 -5 -3
right_child=1 5 3 7 12 10 15 13 11 14 21 -13 -14 -15 -16 -17 -18 -19 -20 -21 -22 -23 -24 -25
leaf_value=-0.023970199892120601 -0.0028047126315449995 0.034723270170262388 -0.0091165860631100236 -0.0098171437581470334 0.013758579788298779 0.11510957476830275 -0.016213249741916694 0.026300236628923435 0.033274676036306128 0.078771495072584893 0.088449538712074602 0.018990587579569698 0.033513463996445114 0.0062173201160106387 0.042336278596587597 0.0020228261914014387 -0.017612599359737396 0.08228740114583788 -0.0011597350186982301 0.056380766239175588 -0.010284987576017136 0.1523622607263857 0.0076677095040255661 0.069146393288181909
leaf_weight=6024.1973463892937 170.26407834887505 165.10602933168411 1719.5930605232716 233.21326333284378 45.415925085544586 134.12673762440681 4459.843164741993 948.05188444256783 2410.7619305551052 819.033561617136 34.288249433040619 1047.9510774314404 404.13939759135246 388.32258838415146 84.381029099225998 393.3892894089222 3214.994128882885 253.83854693174362 4564.5105292797089 1062.1159574389458 4294.0379111468792 91.443942844867706 2547.6249829232693 82.114013284444809
leaf_count=8949 314 290 2645 422 74 245 6521 1433 3659 1130 56 1503 603 556 114 611 4819 400 6800 1663 6438 161 3838 156
internal_value=0.000410426 0.045218 -0.010183 0.00227313 0.0338264 0.0803376 -0.0172294 0.0108395 0.0274661 0.0693107 0.104751 0.0289586 0.0490489 0.0204826 0.0754508 -0.012648 -0.0217618 0.0940497 -0.00333967 0.0546594 -0.0133082 0.136228 0.00619469 0.0465291
internal_weight=35592.8 6804.98 28787.8 10401.3 5140.65 1664.33 18386.5 4117.21 3628.98 1150.63 513.697 3458.71 1511.67 1336.37 903.415 9147.27 9239.19 387.965 6284.1 1107.53 8753.88 125.732 2780.84 247.22
internal_count=53400 10368 43032 15694 7816 2552 27338 6249 5476 1690 862 5162 2340 1989 1244 13570 13768 645 9445 1737 12959 217 4260 446
is_linear=0
shrinkage=0.03


Tree=18
num_leaves=25
num_cat=0
split_feature=60 60 63 54 27 60 60 27 29 13 13 3 83 60 32 65 6 14 29 13 51 23 13 5
split_gain=17417.2 2888.97 2496.94 563.577 524.602 472.722 362.492 258.234 248.604 247.618 189.497 184.688 132.201 122.889 115.045 107.411 119.172 105.093 103.422 94.813 85.9221 79.5749 77.7004 67.8008
threshold=3.5722874706811827 6.0048117641941667 1.8089023239207582 7.3166666666666673 22.957645271422862 2.3702086248096688 1.3468845298963366 15.18579956396446 17.250000000000004 1.2031666545212787 1.0000000180025095e-35 49.913385498987971 4.7500000000000009 0.68703304063400183 12.450000000000001 3.7500000000000004 3.5000000000000004 12.500000000000002 8.2500000000000018 1.4112966526561002 4.6000000000000014 0.93837671184932236 0.53912266039532775 37.492238957513557
decision_type=2 2 2 2 2 2 2 2 2 2 2 2 2 2 2 2 2 2 2 2 2 2 2 2
left_child=2 4 6 10 7 22 13 18 19 -9 20 21 -13 -1 -12 -6 -17 -10 -2 -7 -3 -5 -4 -8
right_child=1 3 5 11 15 8 23 9 17 -11 14 12 -14 -15 -16 16 -18 -19 -20 -21 -22 -23 -24 -25
leaf_value=-0.02405073630634097 -0.018729979012543318 0.040016379292086207 -0.0090706488181360109 0.041343791927751755 0.029070951027702029 0.0010597343025930054 -0.014390633493099873 0.023110185508619412 0.020393465674167863 0.041956365402768793 0.056205737225449783 0.14537410280819782 0.097628938968787674 -0.017732669466291619 0.080296959872906484 0.054216272703209188 0.024989586240362575 -0.009498542234522225 0.013908416719560593 0.011450976948092665 0.063098481589852484 0.090495222010662207 -0.0015225269162987844 -0.0077436001074396178
leaf_weight=4384.4397951364517 97.149580955505371 318.27817195653915 2653.2422702312469 43.222273528575897 274.78636744618416 3350.6690478026867 2553.0163946151733 2070.7160566449165 1301.429715692997 907.71635919809341 275.26141867041588 116.96667382121086 130.34413757920265 7679.4526480138302 644.27843841910362 969.9060480594635 149.53997200727463 114.07027864456177 765.59068924188614 1033.5065768361092 294.33050331473351 138.69947546720505 2288.2864046394825 3037.8593281507492
leaf_count=6586 199 487 3828 65 397 4920 3928 3046 1962 1424 493 221 223 11195 913 1448 217 154 1257 1679 380 206 3649 4523
internal_value=0.000399128 0.0420802 -0.0101661 0.0731295 0.0304291 0.00123854 -0.0171046 0.024687 0.00704749 0.028874 0.0644805 0.103656 0.120975 -0.0200321 0.0731951 0.0462011 0.0503561 0.0179728 0.0102001 0.00351377 0.0512431 0.0792838 -0.00557806 -0.010783
internal_weight=35592.8 7196.79 28396 1961.38 5235.41 10741.2 17654.8 3841.17 5799.68 2978.43 1532.15 429.233 247.311 12063.9 919.54 1394.23 1119.45 1415.5 862.74 4384.18 612.609 181.922 4941.53 5590.88
internal_count=53400 10976 42424 2988 7988 16192 26232 5926 8715 4470 2273 715 444 17781 1406 2062 1665 2116 1456 6599 867 271 7477 8451
is_linear=0
shrinkage=0.03


Tree=19
num_leaves=25
num_cat=0
split_feature=55 55 55 55 26 18 3 13 63 3 68 37 57 13 13 67 62 43 3 43 67 37 77 57
split_gain=16418.5 2801.01 2449.23 572.239 459.504 423.617 412.179 227.079 196.251 168.986 149.968 149.265 127.599 120.974 116.804 92.5473 92.1974 86.7517 85.8219 81.8827 74.8328 69.2805 60.0625 55.4638
threshold=3.1197456504086527 1.710506304661922 5.5261108932058685 0.75250459012830484 19.31666666666667 2.2638044297153717 49.999991701188783 1.5194464842126998 5.0067948818798227 49.197346813898477 1.4058247234449406 3.7821559830926734 6.2500000000000009 0.012706500820191152 0.77222024044607018 3.7500000000000004 3.5277777777777781 7.4500000000000011 32.998638558053962 16.366666666666671 1.7500000000000002 9.4606303264212812 0.75000000000000011 2.2500000000000004
decision_type=2 2 2 2 2 2 2 2 2 2 2 2 2 2 2 2 2 2 2 2 2 2 2 2
left_child=1 3 4 18 15 16 12 8 -6 14 -8 -5 20 -14 -7 17 -3 -2 -1 -13 -4 -9 -12 -11
right_child=2 5 6 11 7 9 10 21 -10 23 22 19 13 -15 -16 -17 -18 -19 -20 -21 -22 -23 -24 -25
leaf_value=-0.023444025197376137 -0.0087453321250381966 -0.002528644862647568 0.049210113437905663 -0.013321001910861184 0.026965400051381025 0.0059797527519700302 0.15051346631067838 0.051265024775598529 0.044327108609330132 0.018762337297792593 0.059206122278117473 -0.0071651398654856901 0.062696576329049791 0.09236900298047343 0.018055693116844268 0.041883182300254479 0.010760715994440799 0.021312892308609593 -0.017640387503345838 0.016394369517938354 0.070262864579511433 0.075925131729472323 0.11006126604674224 0.035859883079378978
leaf_weight=4412.6956731379032 90.3094702064991 3497.8463424742222 268.77712446451187 6953.9573738276958 1061.3900842666626 2089.1415057182312 82.526098340749741 478.56393396854401 1345.5968541204929 396.35501530766487 39.041277080774307 4883.0259832441807 210.91978806257248 377.94646567106247 1103.1764121353626 188.93635839223862 541.14994257688522 1588.4676533639431 4884.1427716016769 134.95302566885948 433.93309780955315 144.06195348501205 73.651476502418518 312.19294464588165
leaf_count=6484 153 5383 468 10468 1527 2940 172 772 1962 588 88 7240 301 565 1671 291 875 2447 7326 206 596 229 159 489
internal_value=0.00038812 -0.00913801 0.0439649 -0.014814 0.0337061 0.00606566 0.0776841 0.040927 0.0366953 0.0131148 0.118599 -0.0104744 0.0713649 0.0819374 0.0101613 0.0219665 -0.0007433 0.019686 -0.020399 -0.00652563 0.062341 0.0571492 0.0935047 0.026364
internal_weight=35592.8 29208.6 6384.12 21268.8 4897.33 7939.86 1486.8 3029.61 2406.99 3900.87 195.219 11971.9 1291.58 588.866 3192.32 1867.71 4039 1678.78 9296.84 5017.98 702.71 622.626 112.693 708.548
internal_count=53400 43670 9730 31724 7381 11946 2349 4490 3489 5688 419 17914 1930 866 4611 2891 6258 2600 13810 7446 1064 1001 247 1077
is_linear=0
shrinkage=0.03


Tree=20
num_leaves=25
num_cat=0
split_feature=55 63 63 54 55 18 13 37 13 63 24 55 21 73 5 2 4 13 26 45 68 13 34 3
split_gain=14763.3 2924.72 1516.27 645.173 545.723 410.336 217.866 212.283 208.076 189.62 173.023 166.898 130.147 126.829 114.645 103.237 98.5577 94.8498 83.143 82.8233 78.4271 71.9694 58.4068 54.8348
threshold=2.5359754943623822 6.023579406930061 1.5095629729559461 7.5277777777777786 3.7006405989844411 2.1402564566461799 1.1219777884053352 7.8739931646821413 1.0000000180025095e-35 0.71087293645612204 16.887737507814197 1.6655030995994065 1.003059580149003 1.7500000000000002 45.772522742453098 37.63750000000001 47.714808831350645 0.71940961673577253 7.7071428571428582 19.400025925479227 1.255176668193505 0.4391515739286343 4.072827134843533 33.113662016408121
decision_type=2 2 2 2 2 2 2 2 2 2 2 2 2 2 2 2 2 2 2 2 2 2 2 2
left_child=2 4 9 8 6 18 14 21 15 23 -8 -7 13 -5 -2 -3 -13 -9 -4 -10 -14 -6 -11 -1
right_child=1 3 5 12 7 11 10 17 19 22 -12 16 20 -15 -16 -17 -18 -19 -20 -21 -22 -23 -24 -25
leaf_value=-0.024658282153414032 0.0045607438134803542 0.047533913342045722 -0.012378737578872694 0.13375343418851565 0.020479171466910976 -0.0042778272474726957 0.017057801682095617 0.037683771702813694 0.058824235747670928 -0.016056213389749906 0.038373697747572183 0.0043666995768223919 0.089146667301213095 0.088715505252051255 0.017092490944085457 0.010376746471363725 0.016115116100690597 0.056309114707080381 -0.0053371036036289204 0.077375263246588249 0.031890599186629259 0.034573499621242114 -0.009940385359597655 -0.018686230643689569
leaf_weight=3023.0729506611824 1002.8565318882465 608.53226029872894 2032.7070515155792 132.33130788803101 688.76629307866096 1292.2975927591324 723.03364345431328 621.24335837364197 754.079460978508 7232.8430874347687 660.36623653769493 1711.7950956821442 65.149422585964203 129.42057996988297 1919.6646962463856 77.208322763442993 1031.0088112354279 434.80266764760017 5894.1955192387104 344.02048328518867 35.92690047621727 643.1577300131321 1763.7578656375408 2644.1200372874737
leaf_count=4480 1500 872 3174 239 1010 1899 1213 882 1197 10762 1009 2500 115 212 2762 114 1524 679 8903 549 50 1026 2561 3940
internal_value=4.39246e-05 0.0336313 -0.0111091 0.0640952 0.0238487 -0.00318143 0.0174567 0.035354 0.0565792 -0.0175748 0.0272678 0.00460432 0.100646 0.11214 0.0127988 0.0433909 0.00879146 0.045427 -0.00714556 0.0647391 0.0696178 0.0273208 -0.0148597 -0.0218787
internal_weight=35466.4 8840.56 26625.8 2146.67 6693.89 11962 4305.92 2387.97 1783.84 14663.8 1383.4 4035.1 362.828 261.752 2922.52 685.741 2742.8 1056.05 7926.9 1098.1 101.076 1331.92 8996.6 5667.19
internal_count=53172 13429 39743 3348 10081 18000 6484 3597 2732 21743 2222 5923 616 451 4262 986 4024 1561 12077 1746 165 2036 13323 8420
is_linear=0
shrinkage=0.03


Tree=21
num_leaves=25
num_cat=0
split_feature=52 52 52 52 60 52 14 14 60 29 43 35 34 26 15 52 17 43 55 3 5 25 25 18
split_gain=14240.2 2738.7 1542.3 614.177 368.014 356.389 205.653 201.38 160.45 149.816 139.487 120.779 120.03 109.939 102.023 84.9184 81.5192 78.7822 72.7489 68.5921 58.8724 57.9521 54.9456 52.5217
threshold=2.5066522153157806 4.4824297924868359 1.101215103031052 6.9903139963795544 2.3702086248096688 3.3167196385679425 10.500000000000002 12.500000000000002 0.743639044086986 10.250000000000002 13.550000000000002 9.5500000000000025 9.6528800754380821 9.1055555555555561 15.181897978237075 5.4066469061923081 3.2504987813367059 8.3666666666666689 2.4246967276797373 49.999991701188783 36.045679352424521 13.633333333333335 10.366666666666669 2.4141847878294471
decision_type=2 2 2 2 2 2 2 2 2 2 2 2 2 2 2 2 2 2 2 2 2 2 2 2
left_child=2 5 8 6 17 11 14 9 20 -7 22 13 16 -2 -3 -8 -5 -4 -19 -14 -1 -10 -6 -12
right_child=1 3 4 12 10 7 15 -9 21 -11 23 -13 19 -15 -16 -17 -18 18 -20 -21 -22 -23 -24 -25
leaf_value=-0.024181026595882216 -0.0151920677033647 0.035708368680742168 -0.0099708822010663809 0.090268091598718445 -0.0042494006233239207 -0.018308345686009819 0.028292917310875559 0.0006958579220768344 -0.016049809453435156 0.033597208353908843 0.031274002432608569 0.042003054314006152 0.09449045567409306 0.015566136456219444 0.061469382248240501 0.051162782484147816 0.043383357398961618 -0.0050440087879669313 0.013980728639826995 0.13539281313903651 -0.016733174375818907 -0.0064454402921572344 0.003516112622647572 0.010983750588960256
leaf_weight=3581.4013039469719 106.93742743134499 162.3593587577343 4266.7188487052917 107.04352235794067 1238.0680988729 50.020106643438339 348.81306603550911 192.03092303872108 8166.9562930166721 2528.2489109635353 135.54435408115387 150.07809960842133 121.61704924702644 3066.930137783289 1452.6204366087914 264.47706365585327 55.933766782283783 4084.0144027173519 187.70543596148491 79.252422511577606 1334.7543706595898 612.7273216843605 2420.0841448605061 752.02104100584984
leaf_count=5338 212 298 6486 195 1925 103 510 269 11986 3849 237 229 185 4559 2157 382 92 6032 306 159 2031 911 3613 1108
internal_value=4.35367e-05 0.0334181 -0.0107829 0.0592427 -0.00341584 0.022421 0.0532667 0.0303716 -0.0178193 0.0325778 0.00347807 0.0157822 0.0954555 0.0145212 0.0589188 0.0382659 0.0747561 -0.00708671 -0.00420202 0.111542 -0.0221658 -0.0153814 0.000885642 0.0141367
internal_weight=35466.4 8686.36 26780 2592.12 13084.2 6094.25 2228.27 2770.3 13695.8 2578.27 4545.72 3323.95 363.847 3173.87 1614.98 613.29 162.977 8538.44 4271.72 200.869 4916.16 8779.68 3658.15 887.565
internal_count=53172 13199 39973 3978 19707 9221 3347 4221 20266 3952 6883 5000 631 4771 2455 892 287 12824 6338 344 7369 12897 5538 1345
is_linear=0
shrinkage=0.03


Tree=22
num_leaves=25
num_cat=0
split_feature=52 52 52 52 52 14 13 52 39 46 52 6 13 13 18 36 78 32 13 61 36 5 52 65
split_gain=13404.4 2075.92 1874.57 582.805 424.629 250.164 247.536 239.88 218.842 141.034 132.978 119.213 111.726 102.062 90.3208 88.1277 80.4738 79.2136 74.1294 62.1755 60.6199 56.9067 56.1928 47.3457
threshold=2.7804267868010557 4.4824297924868359 1.2920108586514643 6.613643083163681 1.9649484372576889 10.500000000000002 1.2031666545212787 0.61209999602146503 7.2500000000000009 12.750000000000002 8.5796810505880163 5.5000000000000009 1.5194464842126998 1.8744835624145975 3.2295562416038921 3.4142857142857146 7.6633275044919342 25.750000000000004 0.50620732703481697 5.7750000000000012 8.7071428571428573 35.712923397272597 1.101215103031052 3.2500000000000004
decision_type=2 2 2 2 2 2 2 2 2 2 2 2 2 2 2 2 2 2 2 2 2 2 2 2
left_child=2 5 7 6 18 8 11 21 15 -6 14 -3 -11 -10 -5 -2 -8 19 -4 -7 -12 -1 -9 -20
right_child=1 3 4 10 9 17 16 22 13 12 20 -13 -14 -15 -16 -17 -18 -19 23 -21 -22 -23 -24 -25
leaf_value=-0.022732814972553521 -0.0091582372598994176 0.046077397105795358 -0.0075558704993220907 0.089437611020823635 0.0030030871486366631 0.0098551457255266848 0.060030166954702327 -0.014582484232763029 0.033814802708735742 0.010171761036663295 0.071461472024671707 0.01326369446786187 0.030067488551917178 0.055310932446874142 0.057899310999629909 0.023305107324487137 0.086792487125382373 0.050328036303571279 -0.0021917672195856039 0.027239965375396524 0.12786851704625937 -0.016087533151558052 -0.0095110067237709917 0.016027938459227592
leaf_weight=4231.2116566896439 77.458315074443817 1364.4596403241158 3921.0438663959503 227.80546110868454 2838.113155990839 1209.1338350772858 473.62108993530273 7829.4767874479294 1229.8835259079933 1281.0832254290581 30.391562342643738 109.64696753025055 317.10959082841873 243.43557018041611 151.01651075482368 1831.5603833794594 144.13445556163788 50.604036301374435 3174.2571333050728 218.86152255535126 91.04099839925766 1635.1508451700211 2653.6344278752804 132.22334337234497
leaf_count=6308 160 2019 5645 394 4309 1758 750 11434 1813 1867 47 157 538 406 240 2830 211 67 4993 326 160 2524 3979 237
internal_value=4.29914e-05 0.0357953 -0.00947025 0.0574753 -0.000281511 0.0242189 0.0504421 -0.0160246 0.0287216 0.00702273 0.0866345 0.0436567 0.0141477 0.0374233 0.0771587 0.0219786 0.0664791 0.0138963 -0.00476626 0.0125496 0.114844 -0.0208862 -0.0133008 -0.00145443
internal_weight=35466.4 7453.05 28013.3 2592.12 11663.8 4860.94 2091.86 16349.5 3382.34 4436.31 500.255 1474.11 1598.19 1473.32 378.822 1909.02 617.756 1478.6 7227.52 1428 121.433 5866.36 10483.1 3306.48
internal_count=53172 11338 41834 3978 17589 7360 3137 24245 5209 6714 841 2176 2405 2219 634 2990 961 2151 10875 2084 207 8832 15413 5230
is_linear=0
shrinkage=0.03


Tree=23
num_leaves=25
num_cat=0
split_feature=52 52 52 54 60 52 46 60 47 52 16 35 26 16 33 20 43 55 27 0 61 49 35 48
split_gain=12624.7 2423.65 1363.29 614.842 328.41 322.301 146.185 144.055 126.55 121.154 112.841 111.217 100.214 89.4028 81.31 75.4194 73.3072 67.2462 59.0251 51.5887 49.6969 47.9779 47.0761 44.598
threshold=2.5066522153157806 4.4824297924868359 1.101215103031052 7.5277777777777786 2.3702086248096688 3.3167196385679425 8.7500000000000018 0.70102750059612051 10.250000000000002 5.6954937925788558 23.47000000000001 9.5500000000000025 9.1055555555555561 9.3600000000000048 15.15 0.022628874735541805 8.3666666666666689 2.4246967276797373 29.451638121348211 32.870598424814325 3.3666666666666671 1.2611379729270347 5.4500000000000011 -0.095160855505084394
decision_type=2 2 2 2 2 2 2 2 2 2 2 2 2 2 2 2 2 2 2 2 2 2 2 2
left_child=2 5 7 9 16 11 -7 -1 20 13 23 12 -2 -3 -8 -12 -4 -18 -11 -13 -6 -10 -9 -5
right_child=1 3 4 10 8 6 14 22 21 18 15 19 -14 -15 -16 -17 17 -19 -20 -21 -22 -23 -24 -25
leaf_value=-0.021176271925958987 -0.014767472707974879 -0.0012008143612076785 -0.009474619629917953 0.087044972133508244 -0.003666867672720358 -0.004554583679628057 0.028843935812110946 -0.015134884555741159 0.0073640263028407326 0.054919403237021852 0.116093706634797 0.064468300315020433 0.014596356877116173 0.046028725463231938 0.052731647634990796 0.065488159618652148 -0.0047195023181643746 0.013571293492352515 0.076253696744452065 0.026625495887746382 0.0053894358063187042 0.021966452688449274 -0.0058029526943147161 0.051778192363781353
leaf_weight=4494.5638148486614 106.93742743134499 36.640036046504974 4266.7188487052917 80.0891073346138 1850.4449949860573 113.52063724398613 2519.812567293644 8680.9886752068996 1694.1880131363869 541.6081300675869 168.82952180504799 50.731283783912659 3066.930137783289 1481.7017001509666 136.96673610806465 40.428430169820786 4084.0144027173519 187.70543596148491 169.76008158922195 99.346815824508667 771.19923588633537 229.88539481163025 520.28679925203323 73.059678792953491
leaf_count=6744 212 72 6486 138 2815 200 3840 12752 2522 812 293 83 4559 2214 181 65 6032 306 265 146 1163 383 770 119
internal_value=4.26787e-05 0.0314671 -0.0101511 0.0557611 -0.00322477 0.0211218 0.0286825 -0.0167666 0.00328759 0.049801 0.0920579 0.0148085 0.0135986 0.044885 0.0301068 0.106881 -0.0066925 -0.00390989 0.0601687 0.0399686 -0.000998963 0.00912757 -0.0146089 0.0709251
internal_weight=35466.4 8686.36 26780 2592.12 13084.2 6094.25 2770.3 13695.8 4545.72 2229.71 362.407 3323.95 3173.87 1518.34 2656.78 209.258 8538.44 4271.72 711.368 150.078 2621.64 1924.07 9201.28 153.149
internal_count=53172 13199 39973 3978 19707 9221 4221 20266 6883 3363 615 5000 4771 2286 4021 358 12824 6338 1077 229 3978 2905 13522 257
is_linear=0
shrinkage=0.03


Tree=24
num_leaves=25
num_cat=0
split_feature=52 52 52 54 52 52 14 52 14 14 21 70 2 4 35 4 2 71 43 63 3 63 45 3
split_gain=11880.7 2281.44 1283.9 579.55 303.243 255.649 190.31 170.436 167.383 134.969 109.521 112.352 108.88 105.276 97.9312 93.1878 89.8499 85.0038 71.4778 69.3524 67.0103 61.7136 58.0486 47.7191
threshold=2.5066522153157806 4.4824297924868359 1.1892505605184507 7.5277777777777786 3.3167196385679425 1.9649484372576889 8.5000000000000018 0.61209999602146503 10.500000000000002 12.500000000000002 1.003059580149003 1.8660714285714288 37.63750000000001 49.288457770794508 9.5500000000000025 44.473722003981109 21.349666666666668 0.84334921165649757 8.3666666666666689 6.2778869409547085 48.836530183007824 2.3825417672658706 11.022705675726707 33.113662016408121
decision_type=2 2 2 2 2 2 2 2 2 2 2 2 2 2 2 2 2 2 2 2 2 2 2 2
left_child=2 4 7 8 13 18 22 23 19 -8 11 -5 -10 16 -15 -7 -2 -12 -4 -3 -9 -20 -6 -1
right_child=1 3 5 10 6 15 9 20 12 -11 17 -13 -14 14 -16 -17 -18 -19 21 -21 -22 -23 -24 -25
leaf_value=-0.022011258851164194 -0.013477801445531425 0.045336885148372662 -0.0079686996450674917 0.11997869899173393 0.0096506059456305717 -0.00022013561488244806 0.025799470897624039 -0.013286280629177485 0.039195762266914999 -0.00054225241343712548 0.098708465243002627 0.077861903844931329 -0.0017410390491848359 0.018703204040115721 0.047079530867755175 0.010010218060265617 0.012086201940940447 0.039489016023444012 -0.0047600477884451493 0.058602681278808466 0.022894460875663894 0.0030146488981136078 0.044466073958750678 -0.016486961753115346
leaf_weight=3375.3586799800396 130.10232654213905 626.45012584328651 4158.0833808779716 132.92484658956528 47.890265375375748 1636.1031397283077 1922.0651461780071 9063.3052389323711 560.22845217585564 192.03092303872108 34.632507055997849 128.40556845068932 64.817447274923325 983.93728318810463 123.1832922399044 1566.8944155275822 2086.7227628529072 66.443816006183624 3149.3850253820419 978.213922560215 44.883901357650757 1294.9780118465424 608.31360605359077 2491.0038218796253
leaf_count=4979 252 944 6356 243 88 2484 2881 13243 826 269 66 207 87 1431 191 2369 3126 99 4625 1506 101 1963 983 3853
internal_value=4.22569e-05 0.0305267 -0.00984662 0.0540972 0.0204895 -0.00244745 0.0278233 -0.0156787 0.0483106 0.0234052 0.0893373 0.0998698 0.034947 0.0143655 0.0219253 0.00478499 0.0105751 0.060985 -0.00514141 0.0534747 -0.0131036 -0.00249309 0.0419621 -0.0196713
internal_weight=35466.4 8686.36 26780 2592.12 6094.25 11805.4 2770.3 14974.6 2229.71 2114.1 362.407 261.33 625.046 3323.95 1107.12 3203 2216.83 101.076 8602.45 1604.66 9108.19 4444.36 656.204 5866.36
internal_count=53172 13199 39973 3978 9221 17797 4221 22176 3363 3150 615 450 913 5000 1622 4853 3378 165 12944 2450 13344 6588 1071 8832
is_linear=0
shrinkage=0.03


Tree=25
num_leaves=25
num_cat=0
split_feature=55 63 55 63 52 39 52 13 13 52 17 67 6 6 13 13 4 52 3 13 37 52 1 53
split_gain=11179.4 1895.14 1722.6 419.926 407.926 312.335 298.38 206.214 204.491 124.798 112.523 110.25 105.985 99.1252 96.1306 87.8396 86.9378 84.6995 83.8696 80.956 73.1457 72.8492 48.4431 47.5005
threshold=2.9444462134938223 6.023579406930061 1.6655030995994065 1.129871242217152 6.9903139963795544 7.2500000000000009 2.1121281760348389 0.063119205751047666 0.77222024044607018 4.1455033863674222 3.2694805135290257 3.4500000000000006 5.5000000000000009 3.5000000000000004 2.1501834370240656 1.0910052786367717 47.1301882468588 1.101215103031052 32.998638558053962 1.0000000180025095e-35 8.8806264745065935 3.6546286621644986 27.91683333333334 3.3666666666666671
decision_type=2 2 2 2 2 2 2 2 2 2 2 2 2 2 2 2 2 2 2 2 2 2 2 2
left_child=2 5 3 18 7 9 19 12 13 15 -6 -11 -3 -7 -9 -2 -8 -5 -1 -4 -12 -10 -21 -18
right_child=1 4 6 17 10 8 16 14 21 11 20 -13 -14 -15 -16 -17 23 -19 -20 22 -22 -23 -24 -25
leaf_value=-0.019951307102670585 0.0098482842040659348 0.042243988523769545 -0.0071773216535874675 -0.011875945527235634 0.09669734440687891 0.027804368970795988 0.0057582571862904832 0.055936802151547255 0.032340587524974845 0.022791409813191266 0.023097426118725391 0.059207409130878276 0.0021722988871686142 0.0045514648292425026 0.083443631756823178 0.022460465271854774 0.016230113032261781 -0.0062855527927421235 -0.014551493742948922 -0.0023969583337069191 0.077311191165003137 0.050251093668981041 0.0059910355191353055 -0.0060465469289419068
leaf_weight=4680.6676835119724 1547.7210829257965 643.43183061480522 1538.0242664515972 3971.9833963811398 265.9217444062233 1096.0878749787807 1965.5832645893097 952.74464175105095 359.14949497580528 302.54922014474869 37.927980244159698 100.30930277705193 65.964242726564407 195.70534655451775 138.79221028089523 736.49731254577637 1605.8054710924625 6360.0297687649727 5898.4065253138542 1305.2431224882603 61.731659412384033 528.78339758515358 1176.2571253478527 89.882953017950058
leaf_count=6900 2262 924 2177 5918 464 1569 3034 1499 570 487 60 144 91 278 240 1210 2354 9601 8774 2015 112 835 1851 136
internal_value=5.62141e-05 0.033936 -0.00827902 -0.0127416 0.0572732 0.0235316 0.00386984 0.0513156 0.0319748 0.0166663 0.0862756 0.0320596 0.0385387 0.0242956 0.0595496 0.0139295 0.0100637 -0.00843669 -0.0169437 -0.00177216 0.0573865 0.0430802 0.00157784 0.0150415
internal_weight=35625.2 7033.32 28591.9 20911.1 2166.51 4866.8 7680.8 1800.93 2179.73 2687.08 365.581 402.859 709.396 1291.79 1091.54 2284.22 3661.27 10332 10579.1 4019.52 99.6596 887.933 2481.5 1695.69
internal_count=53505 10745 42760 31193 3390 7355 11567 2754 3252 4103 636 631 1015 1847 1739 3472 5524 15519 15674 6043 172 1405 3866 2490
is_linear=0
shrinkage=0.03


Tree=26
num_leaves=25
num_cat=0
split_feature=52 63 52 52 52 52 62 14 14 45 14 2 0 61 14 35 5 0 2 32 21 65 14 45
split_gain=10519.5 2290.44 1111.81 386.639 373.509 227.149 203.218 198.322 190.45 150.885 138.047 123.273 106.831 94.8588 91.6665 85.2545 80.2491 78.9375 73.5833 70.7019 68.4397 64.5021 55.966 55.3591
threshold=2.5066522153157806 6.023579406930061 1.3020840429872347 6.9903139963795544 3.7681137934094528 1.9649484372576889 0.78888888888888908 11.500000000000002 8.5000000000000018 13.972357709478322 12.500000000000002 23.344119047619049 33.98420874985063 5.5500000000000007 13.500000000000002 6.7750000000000012 36.76448020266394 32.292294299480112 20.230500000000003 10.350000000000003 0.99800415733032877 2.2500000000000004 11.500000000000002 7.8918358205998915
decision_type=2 2 2 2 2 2 2 2 2 2 2 2 2 2 2 2 2 2 2 2 2 2 2 2
left_child=2 4 6 7 9 22 -1 13 19 18 -11 -10 17 -3 -9 -7 -8 -5 -2 -6 -14 -17 23 -4
right_child=1 3 5 12 8 15 16 14 11 10 -12 -13 20 -15 -16 21 -18 -19 -20 -21 -22 -23 -24 -25
leaf_value=-0.018285013375494152 -0.0098915450344907469 0.089157442574292173 -0.0067873692697108072 0.068140012025382793 0.016824421071490538 0.0025689802312005364 -0.013901040329176145 0.032473934262442973 -0.024331404147864059 0.022809003774718204 -0.0074675964977091976 0.026579447106547572 0.094953589139434705 0.052163812861172124 -0.018998955415988009 0.0045827360895896556 -0.0085950428993575127 0.12662844847556698 0.011241080918522644 0.050339322623277838 0.059611946039930017 0.022976526199558488 -0.010426752660964706 -0.00087809810854794375
leaf_weight=6254.0692579448223 157.57873770594597 67.660820364952087 2403.010933816433 37.918679714202881 67.395789980888367 2530.8506869375706 5522.5921287238598 237.57768633961678 42.892565101385117 2030.8218731284142 144.22030630707741 1423.8812575042248 82.382132440805435 1459.7563598453999 34.644563585519791 322.44489321112633 4829.5454520881176 76.986785858869553 2198.3453756868839 461.77222323417664 168.29378604888916 369.85759541392326 1183.6077605187893 3517.0932673811913
leaf_count=9253 305 101 3750 83 117 3830 8228 345 93 2949 192 2123 165 2259 46 474 7178 132 3375 718 256 586 1690 5257
internal_value=5.5298e-05 0.0287485 -0.00920575 0.0554798 0.0198691 -0.00147537 -0.0140121 0.0496763 0.0306851 0.0150947 0.0207949 0.0250632 0.0837125 0.0538923 0.0258331 0.00512757 -0.0114278 0.108506 0.00981966 0.0461417 0.0717461 0.0144466 -0.0044726 -0.00327884
internal_weight=35625.2 8692.13 26933.1 2165.22 6526.91 10326.9 16606.2 1799.64 1995.94 4530.97 2175.04 1466.77 365.581 1527.42 272.222 3223.15 10352.1 114.905 2355.92 529.168 250.676 692.302 7103.71 5920.1
internal_count=53505 13259 40246 3387 9872 15587 24659 2751 3051 6821 3141 2216 636 2360 391 4890 15406 215 3680 835 421 1060 10697 9007
is_linear=0
shrinkage=0.03


Tree=27
num_leaves=25
num_cat=0
split_feature=55 55 55 65 3 14 39 60 14 60 26 24 60 13 80 60 77 55 19 40 14 3 13 4
split_gain=9919.09 1624.03 1531.32 365.255 358.349 286.004 268.511 233.492 176.64 173.709 101.828 92.6401 91.2128 85.3132 85.2124 82.3183 80.2934 64.5491 66.2148 64.2811 63.3158 59.3597 53.6461 37.3343
threshold=2.9444462134938223 4.930017060422589 1.6655030995994065 1.0000000180025095e-35 49.999991701188783 11.500000000000002 7.2500000000000009 2.3702086248096688 13.500000000000002 7.433752525345489 13.633333333333335 16.887737507814197 0.70102750059612051 1.7934604419101927 3.683333333333334 1.7228111729343032 0.75000000000000011 4.0022863176438479 0.88520394206267394 4.6500000000000012 10.500000000000002 47.708705286193677 0.43437603731721364 33.803972157236849
decision_type=2 2 2 2 2 2 2 2 2 2 2 2 2 2 2 2 2 2 2 2 2 2 2 2
left_child=2 5 3 12 8 6 11 21 9 -3 -9 -2 -1 -8 19 23 -16 -7 -19 -6 -12 22 -4 -5
right_child=1 4 7 15 14 17 13 10 -10 -11 20 -13 -14 -15 16 -17 -18 18 -20 -21 -22 -23 -24 -25
leaf_value=-0.019313352187646609 0.012386095438500264 0.044678888335460305 -0.0093015786022269589 -0.013557409700539763 0.14247198980403006 -0.00058644349258784158 0.031184971441269062 0.0022882397033085018 -0.012415016955711317 0.064577285570568216 0.013860672896637442 0.024611602401466769 -0.013615970334548451 0.049288205312458783 0.044733424761512659 -0.0048362618390217381 0.093834670526050143 0.027065598969318164 -0.0058208576897823159 0.076865539241931957 0.0044450733479655825 0.013797325994004973 -0.00038475575617163174 -0.0085570378632797029
leaf_weight=4285.9259819686413 1121.6156665086746 1327.1627651453018 1214.0643339753151 2054.7779202759266 43.789941132068634 511.55242428183556 1562.7372744083405 2083.0708473622799 39.92545884847641 583.47376808524132 2065.8639635443687 1126.4595957398415 6270.4984344542027 283.13837069272995 54.758527427911758 4327.5660085976124 83.254051953554153 189.14488762617111 76.462717682123184 29.841892391443253 938.67546159029007 162.53328782320023 1216.5883086919785 3972.3190286755562
leaf_count=6388 1848 1999 1738 3069 95 741 2296 3206 54 866 3117 1627 9296 477 124 6577 178 270 111 59 1331 308 1867 5863
internal_value=5.43685e-05 0.0319675 -0.00779699 -0.0120046 0.0536025 0.0223492 0.0255161 0.00365751 0.0494989 0.0508045 0.00739151 0.018527 -0.0159321 0.0340028 0.0907796 -0.00799818 0.0750865 0.00564204 0.0175963 0.118028 0.0109247 -0.003666 -0.00484399 -0.0102657
internal_weight=35625.2 7033.32 28591.9 20911.1 2162.21 4871.11 4093.95 7680.8 1950.56 1910.64 5087.61 2248.08 10556.4 1845.88 211.644 10354.7 138.013 777.16 265.608 73.6318 3004.54 2593.19 2430.65 6027.1
internal_count=53505 10745 42760 31193 3375 7370 6248 11567 2919 2865 7654 3475 15684 2773 456 15509 302 1122 381 154 4448 3913 3605 8932
is_linear=0
shrinkage=0.03


Tree=28
num_leaves=25
num_cat=0
split_feature=52 60 52 52 26 52 14 13 62 14 1 26 0 26 6 35 0 43 21 13 65 14 57 52
split_gain=9330.16 1972.02 986.588 409.075 266.375 240.896 177.849 155.567 146.007 137.969 130.019 126.352 100.202 83.341 81.5532 77.6248 74.9805 66.6689 61.4058 61.0291 59.7268 56.6456 55.2756 48.7554
threshold=2.5066522153157806 5.5904588716060539 1.1892505605184507 6.9903139963795544 21.738888888888891 1.9649484372576889 11.500000000000002 0.7593297977807244 0.78888888888888908 11.500000000000002 25.056833333333337 11.316666666666668 33.98420874985063 24.950000000000003 3.5000000000000004 6.7750000000000012 32.292294299480112 15.900000000000002 0.99800415733032877 1.4303232555841501 2.2500000000000004 12.500000000000002 0.75000000000000011 0.38812425596091932
decision_type=2 2 2 2 2 2 2 2 2 2 2 2 2 2 2 2 2 2 2 2 2 2 2 2
left_child=2 4 8 6 9 19 10 21 23 11 -3 -2 16 -9 -8 -7 -5 22 -14 -4 -17 -6 -10 -1
right_child=1 3 5 12 7 15 14 13 17 -11 -12 -13 18 -15 -16 20 -18 -19 -20 -21 -22 -23 -24 -25
leaf_value=-0.020522742687907516 -0.0043048447689978233 -0.006688139687127369 -0.0061539890419791861 0.063853666570393569 0.02281446522674617 0.0023642885275316819 0.032839215713569417 0.031143632400672982 -0.012905280753275468 0.0025884584140494281 0.049409958251387019 0.018016460360846667 0.08942648530210813 0.053109632910795075 -0.0011129047365112939 0.0042067962613543518 0.12056863752831777 0.022144175296022812 0.055967574980628022 -8.5016325668683604e-05 0.02190586854883576 -0.00076559672158481545 -0.007493258557856374 -0.015066045297877488
leaf_weight=2527.5743941366673 243.27655759453773 37.451110631227493 6707.2298103272915 37.918679714202881 908.20223796367645 2530.8506869375706 242.22836804389954 461.6472475528717 6528.8294815123081 770.53726479411125 1758.8570181131363 3471.8932218849659 82.382132440805435 245.53856372833252 85.601053237915039 322.44489321112633 76.986785858869553 51.907369196414948 168.29378604888916 1920.1124435961246 369.85759541392326 101.31491523981094 2314.9944413304329 3659.2708603739738
leaf_count=3797 455 67 9882 83 1298 3830 343 722 9580 1119 2655 5306 165 399 122 474 132 82 256 3120 586 137 3545 5350
internal_value=5.34621e-05 0.027076 -0.00866834 0.0496255 0.0180136 -0.00218967 0.0445135 0.0280676 -0.0137576 0.0141564 0.0482324 0.0165521 0.0790078 0.0388751 0.0239909 0.00480575 0.102968 -0.0112902 0.0674538 -0.00480422 0.013698 0.0204444 -0.0114908 -0.0173007
internal_weight=35625.2 8692.13 26933.1 2489.72 6202.41 11850.5 2124.14 1716.7 15082.6 4485.71 1796.31 3715.17 365.581 707.186 327.829 3223.15 114.905 8895.73 250.676 8627.34 692.302 1009.52 8843.82 6186.85
internal_count=53505 13259 40246 3823 9436 17892 3187 2556 22354 6880 2722 5761 636 1121 465 4890 215 13207 421 13002 1060 1435 13125 9147
is_linear=0
shrinkage=0.03


Tree=29
num_leaves=25
num_cat=0
split_feature=55 52 63 63 52 27 14 13 39 14 14 17 52 58 4 13 5 13 40 61 3 37 13 13
split_gain=8816.73 1589.58 1294.72 368.094 321.535 218.281 213.129 180.361 139.413 115.018 113.97 101.638 95.22 93.9285 91.5941 90.9202 83.9365 91.7503 80.2175 73.1345 72.0921 68.8548 62.2071 56.1998
threshold=3.1197456504086527 1.7248726638319849 6.023579406930061 1.129871242217152 6.9903139963795544 13.85774788148086 8.5000000000000018 0.063119205751047666 7.2500000000000009 11.500000000000002 13.500000000000002 3.2694805135290257 3.6047154234120984 5.8500000000000005 47.714808831350645 2.1501834370240656 36.886058407582119 2.8344090441932175 5.1500000000000012 2.7750000000000004 32.998638558053962 8.8806264745065935 0.40710395113504833 1.0910052786367717
decision_type=2 2 2 2 2 2 2 2 2 2 2 2 2 2 2 2 2 2 2 2 2 2 2 2
left_child=1 3 6 20 7 19 12 10 13 -10 -4 -6 23 -8 22 -9 -5 -18 -14 -3 -1 -13 -7 -2
right_child=2 5 4 16 11 14 8 15 9 -11 -12 21 18 -15 -16 -17 17 -19 -20 -21 -22 -23 -24 -25
leaf_value=-0.017857599382356565 -0.0062000246313127939 -0.004208779661572134 0.036430274498244632 -0.010289881389050589 0.08654112881617676 -0.00034013530301201704 0.011774395009309593 0.049840223357973598 0.029707064490777379 0.0086087439303194121 -0.018590853869549218 0.016483686936349821 0.025219063198843594 0.055570012422019414 0.014160426679806958 0.076468788288285752 -0.005553139592085918 0.018472023753967753 0.049952667546581057 0.0043522523062025113 -0.012841008414640731 0.068679476851047902 0.010335965245320511 0.027450004125236013
leaf_weight=4670.7812956869602 50.743880540132523 2041.7281141281128 674.75150975584984 4691.6151102781296 265.9217444062233 968.12275826931 1718.1193850636482 952.74464175105095 1166.3516006469727 293.36003011465073 34.644563585519791 37.927980244159698 176.24949830770493 43.955301433801651 2037.1126818954945 138.79221028089523 6276.7736022770405 144.85469406843185 400.60365787148476 1600.6624577641487 5854.9943735599518 61.731659412384033 993.21111971139908 329.44704782962799
leaf_count=6882 78 3228 969 7073 464 1397 2569 1499 1715 424 46 60 300 76 3003 240 9305 274 616 2427 8693 112 1519 536
internal_value=5.25292e-05 -0.00689533 0.0321076 -0.0110489 0.0509274 0.00486666 0.0223343 0.0456371 0.0186218 0.0254842 0.0337012 0.0766795 0.0347771 0.0129166 0.00970491 0.0533319 -0.00723834 -0.00500608 0.042491 -0.000444712 -0.0150699 0.0494133 0.00506691 0.0229363
internal_weight=35625.2 29279.9 6345.34 21639 2166.51 7640.84 4178.83 1800.93 3221.79 1459.71 709.396 365.581 957.044 1762.07 3998.45 1091.54 11113.2 6421.63 576.853 3642.39 10525.8 99.6596 1961.33 380.191
internal_count=53505 43801 9704 32227 3390 11574 6314 2754 4784 2139 1015 636 1530 2645 5919 1739 16652 9579 916 5655 15575 172 2916 614
is_linear=0
shrinkage=0.03


Tree=30
num_leaves=25
num_cat=0
split_feature=62 55 55 25 3 17 62 13 3 15 3 13 19 68 37 54 12 55 13 19 77 71 53 3
split_gain=7932.79 1397.36 1047.82 292.102 271.556 269.128 185.577 155.934 129.776 111.26 108.512 107.799 95.1084 93.3575 92.6074 92.2862 81.8485 74.4085 70.6676 56.7696 56.3228 49.9791 46.6049 46.3811
threshold=3.5277777777777781 5.5261108932058685 1.3085428785510087 16.450000000000003 49.999991701188783 2.2574941783577498 0.76388888888888895 1.4793230198855956 48.298717642950059 15.721895031161436 49.409206795722618 1.0276304064157371 1.9434460268584566 1.1456003957419953 3.5587997165928305 3.3875000000000006 18.399263402964767 2.0051708187476405 1.8074446391971313 -2.42671908450547 0.75000000000000011 1.39251435468672 2.9000000000000004 45.013382068588051
decision_type=2 2 2 2 2 2 2 2 2 2 2 2 2 2 2 2 2 2 2 2 2 2 2 2
left_child=2 3 6 11 9 22 -1 8 -5 21 17 16 -11 -6 -8 -9 -2 -7 -12 -13 -15 -3 -4 -16
right_child=1 4 5 7 13 10 14 15 -10 12 18 19 -14 20 23 -17 -18 -19 -20 -21 -22 -23 -24 -25
leaf_value=-0.016192897982277608 -0.0073039008172891664 0.04510383664479737 -0.0045605654501133935 0.013347022216648017 0.11829013073670951 -0.00069898650662122877 -0.011765939681470425 0.018809930338011652 0.02599847094613672 0.053359418089222177 0.015713774292442279 0.053924841343804299 0.016334915089727439 0.042124113180294916 -0.0075400108704591932 0.040790747355888501 0.010265584762151949 0.0078254679950221853 0.054812613593829079 0.018411044386648284 0.085480730733747179 0.0033519798351466621 0.00510432227422997 0.00085109160564017592
leaf_weight=6253.4875744581223 328.68283864855766 40.137831926345825 6314.4270431995392 1075.500256061554 61.415927290916443 1614.350117534399 6875.9206424355507 229.91332924365997 2322.0874853432178 1076.5274550616741 381.04193782806396 43.199187904596329 68.52287545800209 47.028335213661194 3100.3860073685646 746.43084561824799 858.29519680142403 2141.5925687253475 45.877608478069305 532.3416610956192 87.39390641450882 69.47623673081398 481.60587123036385 731.0340568125248
leaf_count=9279 486 75 9670 1571 126 2334 10323 371 3378 1578 575 67 105 106 4526 1207 1288 3090 82 920 186 122 763 1114
internal_value=-2.27387e-05 0.0271781 -0.00741032 0.0209076 0.0536528 -0.000188605 -0.0120842 0.0250636 0.0220031 0.0484018 0.00579666 0.0105779 0.0511733 0.0866394 -0.0096821 0.0356575 0.00539234 0.00416114 0.0201066 0.0212203 0.0709886 0.0190969 -0.0038738 -0.00593772
internal_weight=35526.7 7586.95 27939.7 6136.45 1450.5 10978.9 16960.8 4373.93 3397.59 1254.66 4182.86 1762.52 1145.05 195.838 10707.3 976.344 1186.98 3755.94 426.92 575.541 134.422 109.614 6796.03 3831.42
internal_count=53342 11586 41756 9288 2298 16514 25242 6527 4949 1880 6081 2761 1683 418 15963 1578 1774 5424 657 987 292 197 10433 5640
is_linear=0
shrinkage=0.03


Tree=31
num_leaves=25
num_cat=0
split_feature=63 52 52 52 14 18 13 62 52 27 52 25 66 27 44 0 3 24 37 13 50 13 52 14
split_gain=7496.77 1422.57 917 414.108 230.126 203.214 168.547 156.988 132.727 119.335 118.557 110.282 110.272 80.1411 78.2437 72.807 69.5353 62.4693 60.4984 49.6323 46.199 41.248 40.3533 36.5684
threshold=3.4326643539228971 4.2143696909798916 1.3020840429872347 7.5654986619495359 11.500000000000002 2.2521672382808897 1.8744835624145975 0.76388888888888895 5.4066469061923081 15.18579956396446 1.9649484372576889 17.450000000000003 3.4500000000000006 24.438720369082926 20.633333333333336 26.275477347708527 40.523434680785449 21.732134951491471 2.953653416640567 2.5786106244103437 14.050000000000002 1.4303232555841501 0.38812425596091932 11.500000000000002
decision_type=2 2 2 2 2 2 2 2 2 2 2 2 2 2 2 2 2 2 2 2 2 2 2 2
left_child=2 6 7 4 8 18 9 22 -3 -2 23 -8 -6 -11 20 -13 -9 -12 -4 -18 -5 -20 -1 -7
right_child=1 3 5 14 12 10 11 16 -10 13 17 15 -14 -15 -16 -17 19 -19 21 -21 -22 -23 -24 -25
leaf_value=-0.018698498439243014 0.0047529069253246228 0.03615636861982318 -0.0088203144350352952 0.07619385916897875 0.0003997045441902659 0.00013856144955585469 0.015838269801523058 -0.01103644642253479 0.050739293670566399 0.014584074719577945 0.0070376764694320484 0.079129988571438784 0.031196977922994144 0.02950339790751785 0.10333731956701621 0.036137110365445986 -0.0061982805894665472 0.023250964976777803 -0.0037245302060635588 0.014529270735014355 0.038278711593993445 0.0026276812444436912 -0.013694698019563739 -0.012056446774472733
leaf_weight=2456.4508491754532 1076.7664521336555 1469.3909279406071 1680.6079076528549 110.22957679629326 185.17576196789742 1312.2539331614971 271.19785553216934 7887.043897151947 946.45531326532364 2823.1252764165401 2309.2597081661224 40.859999060630798 240.39808681607246 367.94654244184494 84.821648418903351 298.67806327342987 2423.3290766477585 235.1742662191391 4025.5364439189434 107.0739678144455 47.119487136602402 1190.1291620135307 3673.1913566589355 264.46123710274696
leaf_count=3704 1661 2290 2717 209 294 1934 482 11612 1423 4140 3341 92 324 526 147 491 3707 335 5943 215 75 1956 5364 360
internal_value=-2.12487e-05 0.0256171 -0.00742824 0.0415651 0.0383126 -0.000721626 0.015526 -0.0118928 0.0418999 0.0134052 0.00454726 0.0302671 0.017859 0.0163193 0.0792317 0.0416537 -0.00964721 0.00855139 -0.00387144 -0.00531074 0.0653463 -0.00227357 -0.015705 -0.00191261
internal_weight=35526.7 7962.16 27564.5 3083.59 2841.42 11017.4 4878.57 16547.1 2415.85 4267.84 4121.15 610.736 425.574 3191.07 242.171 339.538 10417.4 2544.43 6896.27 2530.4 157.349 5215.67 6129.64 1576.72
internal_count=53342 12154 41188 4762 4331 16586 7392 24602 3713 6327 5970 1065 618 4666 431 583 15534 3676 10616 3922 284 7899 9068 2294
is_linear=0
shrinkage=0.03


Tree=32
num_leaves=25
num_cat=0
split_feature=63 52 63 54 52 36 14 13 26 3 52 33 0 18 13 14 14 25 24 35 60 13 65 62
split_gain=7055.14 1339.48 868.712 411.463 264.184 167.478 166.535 125.937 118.499 116.933 112.234 103.25 98.9053 98.8815 97.8896 87.5908 66.9379 61.4461 58.1958 57.7652 55.3543 55.1054 47.7775 37.4297
threshold=3.4326643539228971 4.3412429517517683 1.4830137418412497 6.7500000000000009 1.9649484372576889 5.6125000000000007 11.500000000000002 1.8222534345581682 28.950000000000003 49.801401710980393 0.62167884350403979 0.54999999999999993 26.838297302819274 2.2884370220943659 2.9418316133761917 10.500000000000002 11.500000000000002 16.450000000000003 21.732134951491471 3.1000000000000005 6.5580227248122585 1.2315040658213647 3.2500000000000004 2.683333333333334
decision_type=2 2 2 2 2 2 2 2 2 2 2 2 2 2 2 2 2 2 2 2 2 2 2 2
left_child=2 5 10 6 14 21 20 16 15 -10 -1 -8 -9 -6 19 -5 -7 -12 -15 -4 -3 -2 -23 -16
right_child=1 3 4 8 13 7 11 12 9 -11 17 -13 -14 18 23 -17 -18 -19 -20 -21 -22 22 -24 -25
leaf_value=-0.015444821064144954 0.0040626673353012371 0.035058150933718918 -0.008475448739524747 0.058320241550652102 -0.0011595603610887527 0.019248719726554227 -0.016264428076346506 0.069817518451682034 0.041264720418823432 0.086622010729858534 -0.010500980121790049 0.024323791594327147 0.028426790863632475 0.0070650341637331473 0.010515888540265162 0.019513248129279927 0.0076763500240884606 0.0047430664480644993 0.022775703639607313 -0.003252444865120194 0.046209659686597036 0.00095178014339103705 0.022064038717095214 0.045194087191339098
leaf_weight=5946.1880065202713 1133.8438334465027 1235.397387444973 2752.510274887085 228.09821611642838 1516.5643438696861 2504.847950220108 69.510903418064117 59.873862624168396 71.217992722988129 239.14547446370125 8258.5315261483192 275.59185951948166 398.43027484416962 2211.2771209478378 145.28024980425835 71.070540875196457 553.95199617743492 243.67926713824272 234.26612165570259 6222.2540889978409 640.43141940236092 134.54331097006798 346.20996895432472 33.960805714130402
leaf_count=8907 1714 1905 4113 370 2473 3690 121 131 115 407 12182 377 659 3192 260 110 785 351 333 9315 955 229 586 62
internal_value=-1.99302e-05 0.0248518 -0.00720545 0.0414179 -0.00161485 0.0157039 0.0353747 0.0193769 0.0632867 0.0764818 -0.0122794 0.0160962 0.0340573 0.00485487 -0.00441611 0.0492645 0.0171597 -0.0100626 0.0085855 -0.00485613 0.0389025 0.00768883 0.0161894 0.0174401
internal_weight=35526.7 7962.16 27564.5 2830.46 13116.1 5131.7 2220.93 3517.1 609.532 310.363 14448.4 345.103 458.304 3962.11 9154.01 299.169 3058.8 8502.21 2445.54 8974.76 1875.83 1614.6 480.753 179.241
internal_count=53342 12154 41188 4360 19748 7794 3358 5265 1002 522 21440 498 790 5998 13750 480 4475 12533 3525 13428 2860 2529 815 322
is_linear=0
shrinkage=0.03


Tree=33
num_leaves=25
num_cat=0
split_feature=52 52 52 54 52 14 29 45 13 19 61 27 4 27 33 3 49 29 31 46 27 13 60 54
split_gain=6644.67 1375.93 709.888 428.022 169.851 159.395 146.35 136.627 136.722 112.535 98.4901 95.6215 91.8038 91.4219 86.9998 79.6681 76.6447 65.4936 48.831 46.9983 42.9534 41.5203 40.0026 35.7709
