tree
version=v4
num_class=1
num_tree_per_iteration=1
label_index=0
max_feature_idx=51
objective=regression
feature_names=MIN_Season MIN_L5 MIN_L10 USAGE_RATE_Season USAGE_RATE_L5 USAGE_RATE_L10 DAYS_REST IS_HOME GAMES_7D IS_4_IN_6 IS_B2B IS_FRESH PACE_ROLLING USAGE_VACUUM STAR_COUNT GAME_SCORE_Season GAME_SCORE_L5 EXP_POSS EXP_POSS_SEASON MIN_STREAK USAGE_RATE_STREAK USAGE_RATE_CONSISTENCY GAME_SCORE_STREAK GAME_SCORE_CONSISTENCY STL_Season STL_L5 STL_L10 STL_L20 STL_L5_Median STL_L10_Median STL_STREAK STL_CONSISTENCY OPP_STL_ALLOWED OPP_STL_ALLOWED_DIFF BLK_Season BLK_L5 BLK_L10 BLK_L20 BLK_L5_Median BLK_L10_Median BLK_STREAK BLK_CONSISTENCY OPP_BLK_ALLOWED OPP_BLK_ALLOWED_DIFF SB_Season SB_L5 SB_L10 SB_L20 SB_L5_Median SB_L10_Median OPP_SB_ALLOWED OPP_SB_ALLOWED_DIFF
feature_infos=[6.5459706856228053:41.996888198531956] [5.3722222222222227:48.233333333333334] [6.0533333333333328:45.767333333333326] [3.0454631429302661:50] [3.3518198366569907:50] [6.2706233500235475:50] [1:7] [0:1] [1:5] [0:1] [0:1] [0:1] [15.241541405796715:21.438673522433501] [0:7.0170031880977675] [3:18] [-2.4090852280485029:31.857915805770357] [-2.8333333333333335:41.920000000000002] [0.1175011049851578:3.7391863506726466] [0.055717144287036502:3.6910777435278641] [-9.1463954284185007:11.588257533555982] [-16.156007792588895:18.091371160270725] [0:3] [-7.9387719672752972:8.5630863458271698] [0:3] [0:4.3900960605301114] [0:5.7999999999999998] [0:3.7000000000000002] [0:4.3425703298474252] [0:6] [0:4] [-1.9186716648220876:1.5669322140191619] [0:3] [0:3] [-1:2.8999999999999999] [0:4.4510769110826942] [0:6.5999999999999996] [0:5.2000000000000002] [0:5.3472551484272941] [0:7] [0:5] [-1.3789880224276776:1.497700333104941] [0:3] [0:4.7000000000000002] [-1:4.7000000000000002] [0:5.6752244940829728] [0:8.4000000000000004] [0:7.2000000000000002] [0:6.654550804406437] [0:10] [0:7] [0:6.0999999999999996] [-1:6.0999999999999996]
tree_sizes=1699 1783 1782 1779 1782 1768 1781 1771 1780 1774 1780 1787 1778 1781 1780 1781 1784 1784 1790 1784 1785 1781 1786 1787 1782 1788 1789 1799 1797 1781 1784 1782 1783 1786 1784 1774 1789 1788 1772 1787 1796 1791 1791 1788 1785 1789 1794 1784 1788 1773 1791 1797 1798 1788 1787 1783 1792 1793 1788 1790 1785 1777 1786 1789 1788 1791 1773 1783 1797 1802 1800 1794 1795 1794 1795 1793 1791 1788 1773 1783 1785 1754 1782 1788 1766 1760 1805 1806 1808 1787 1797 1798 1797 1809 1807 1797 1794 1795 1793 1806 1798 1781 1811 1797 1788 1667 1802 1692 1689 1796 1791 1797 1802 1808 1788 1808 1809 1794 1581 1799 1791 1781 1783 1780 1778 1693 1688 1790 1802 1688 1467 1792 1774 1666 1801 1785 1806 1774 1773 1665 1577 1686 1570 1685 1789 1824 1788 1791 1800 1687 1799 1804 1688 1809 1467 1802 1784 1794 1807 1691 1790 1774 1782 1687 1470 1795 1696 1800 1813 1689 1804 1452 1800 1532 1110 1345 1440 1236 1795 1452 1790 1686 1690 1569 1803 1570 1652 1429 1470 1686 1681 1697 1804 1250 1471 1569 1355 1458 1356 1689 1797 1691 1760 1809 1785 1685 1564 1579 1806 1805 1804 1799 1577 1796 1679 800 1692 1783 1795 1780 1129 1124 1243 1130 1133 1788 1775 1681 1678 1789 1133 1355 1137 1145 1353 1573 1572 1571 1464 1666 1575 1351 1583 1462 1565 1564 1664 1579 1446 1670 1697 1689 1808 1690 1778 1481 1786 1800 1805 1685 1812 1551 1793 1352 1683 1583 1254 1454 1805 1451 1791 1699 1769 1588 1682 1345 1771 1347 1349 1353 1787 1820 1786 1691 1804 1460 1580 1454 1587 1581 1793 1800 917 1024 913 1579 1795 1776 1797 1246 1355 1424 1583 1472 1764 1236 1347 1353 1683 1351 1578 1576 1133 1240 1349 1027 1020 1138 1241 1560 1584 1578 1355 1674 1334 1470 1470 1474 1363 1585 1028 1581 1463 1698 1695 1457 1440 1670 1588 1339 1771 1693 1809 1801 1680 1672 1141 1551 1236 1578 1775 1545 1655 1660 1462 1780 1808 1801 1791 1801 1660 1576 1792 1792 1769 1355 1585 1143 1249 1462 1803 1787 1465 1708 1806 1257 1461 1371 1797 1142 1463 1143 1697 1697 1243 1466 1354 1566 1452 1352 1024 1122 1118 1227 1023 1467 1656 1564 1568 1462 1573 1467 1354 1227 1235 1786 1130 1788 1798 1795 1573 1801 1805 1575 1471 1252 1805 1584 1688 1801 1023 814 1154 918 1007 1795 1579 1583 1700 1802 1665 1666 1558 1790 1695 1009 1821 1792 1822 1816 1454 1467 1470 1248 1803 1353 1575 1025 1147 1038 1130 1251 1239 1245 1107 1575 1465 1135 1342 1242 1147 1136 1459 1576 1356 1254 1804 1689 1258 1449 1131 1134 1030 1110 1139 1250 1466 1354 1249 1478 1466 1555 1693 1686 1552 1253 1688 1474 1690 1808 1357 1793 1804 1655 1799 1128 1475 1016 1813 1244 1346 1571 920 1350 1108 1782 1805 1578 1589 1689 1694 1243 1662 1680 1675 1332 1576 1225 1301 1578 1459 1458 1244 1473 1251 1584 1471 1343 1245 1132 1687 1693 1347 1686 1801 1472 1139 1255 1708 1141 1138 1350 1798 1667 1797 1443 1702 1362 1770 1576 1454 1368 1472 1744 1552 1251 1796 1364 1253 1137 1591 1806 1477 1474 1225 1586 1439 1263 1371 1129 1022 1026 1130 1136 1147 1471 1035 1359 1253 1142 1693 1442 1538 1472 1681 1675 1588 1703 1572 1663 1102 1025 1141 1030 1140 1567 917 1476 1369 1253

Tree=0
num_leaves=15
num_cat=0
split_feature=46 46 34 34 46 34 1 34 46 50 46 1 18 3
split_gain=618.375 133.152 100.089 39.95 31.7912 16.9076 15.2421 15.222 13.4777 13.0225 9.1585 8.67149 6.54232 5.97579
threshold=1.5857142857142861 1.0500000000000003 1.3089130910873916 0.28991985714823504 2.1180555555555558 0.71451588967910762 25.737166666666671 2.2046624875696796 0.70714285714285718 1.2500000000000002 3.0500000000000003 25.264166666666672 1.761202998073107 48.993583947584902
decision_type=2 2 2 2 2 2 2 2 2 2 2 2 2 2
left_child=1 3 4 8 9 6 -3 12 -1 -2 -6 -5 -4 -9
right_child=2 5 7 11 10 -7 -8 13 -10 -11 -12 -13 -14 -15
leaf_value=0.70592068472150515 0.71215390516842259 0.70931306362340552 0.71646252707288605 0.70842998074569752 0.71549800227429372 0.71267631653298702 0.71109790626883662 0.72153845281331508 0.70761557666569119 0.71405973662345357 0.7199119127387239 0.71039603766189541 0.71944271419615069 0.72869205927289482
leaf_weight=4584.7677457034588 2738.0819542109966 3460.4984083473682 515.46493884921074 2856.5740025937557 2221.6785478293896 1413.783296495676 4262.358812391758 248.65801259875298 3293.5313408970833 3079.1558199822903 212.88052809238434 1328.4354618191719 868.18997436761856 72.837913304567337
leaf_count=7090 4123 5051 771 4275 3194 2166 6501 424 4998 4484 287 2038 1245 100
internal_value=0.710777 0.708846 0.714888 0.707467 0.713973 0.710669 0.710299 0.719301 0.706627 0.713165 0.715895 0.709051 0.718349 0.723291
internal_weight=31156.9 21199.9 9956.95 12063.3 8251.8 9136.64 7722.86 1705.15 7878.3 5817.24 2434.56 4185.01 1383.65 321.496
internal_count=46747 32119 14628 18401 12088 13718 11552 2540 12088 8607 3481 6313 2016 524
is_linear=0
shrinkage=1


Tree=1
num_leaves=15
num_cat=0
split_feature=44 44 44 47 44 44 36 44 44 46 50 2 42 34
split_gain=690.946 161.538 95.1746 37.435 17.4585 14.7748 11.0454 10.9552 8.64147 8.27561 7.08082 4.30996 3.33419 3.10662
threshold=1.3326879025418479 1.9084622859820122 0.88952398139387856 2.9810734428068271 1.1396906836065801 1.6415569361317266 1.5277777777777779 0.76095737778803774 3.350584010286628 0.95000000000000007 1.1500000000000004 26.392416666666666 0.35000000000000003 0.32549420752365976
decision_type=2 2 2 2 2 2 2 2 2 2 2 2 2 2
left_child=2 5 7 6 -4 12 -3 9 -5 -1 -7 -6 -2 -9
right_child=1 3 4 8 11 10 -8 13 -10 -11 -12 -13 -14 -15
leaf_value=-0.0050152007766706662 0.00055810307343711794 0.005060404210902353 -0.0020284323934562335 0.0089766509088005011 -0.00093482270103504986 0.0015622676627483675 0.0078478702207800521 -0.0035771810974281081 0.014042470633994898 -0.0021034804327837975 0.0035830874355521482 0.00034468132208588688 0.0015571824807624516 -0.0019282314234317286
leaf_weight=4872.3039543926716 2430.9161853790283 3442.0476121604443 5609.6026929020882 538.34395015239716 2189.9775144457817 1114.6967549920082 711.1129030585289 1885.3278566002846 208.07421860098839 442.17973643541336 1959.0139290988445 2010.6874811947346 3087.2642257213593 655.34774234890938
leaf_count=7546 3603 5023 8446 778 3164 1713 1055 2823 315 801 2835 3102 4506 1037
internal_value=-1.0666e-05 0.0033968 -0.00261367 0.00629494 -0.00129818 0.00174187 0.00554363 -0.00425456 0.0104359 -0.0047757 0.00285497 -0.000320124 0.00111923 -0.00315763
internal_weight=31156.9 13491.5 17665.4 4899.58 9810.27 8591.89 4153.16 7855.16 746.418 5314.48 3073.71 4200.66 5518.18 2540.68
internal_count=46747 19828 26919 7171 14712 12657 6078 12207 1093 8347 4548 6266 8109 3860
is_linear=0
shrinkage=0.02


Tree=2
num_leaves=15
num_cat=0
split_feature=47 47 47 34 34 34 24 24 34 47 0 24 3 50
split_gain=581.446 143.879 82.822 40.5664 25.7717 20.3893 14.7438 12.8946 12.7608 12.2712 11.0768 10.9188 9.98824 8.02721
threshold=1.3395838464987333 2.0715044468466339 0.8055271110293909 1.6495712487565182 0.72858074991479926 0.28991985714823504 1.1066049318384714 0.87863406103126029 0.27530077584418056 2.9025707629667412 23.943853256900521 0.67218831970806958 48.836530183007824 1.4500000000000002
decision_type=2 2 2 2 2 2 2 2 2 2 2 2 2 2
left_child=2 4 8 9 6 7 -2 -4 11 -3 -7 -1 -5 -6
right_child=1 3 5 12 13 10 -8 -9 -10 -11 -12 -13 -14 -15
leaf_value=-0.0049595800929094439 0.00020410292539591637 0.0047156422859818553 -0.0031356681640290034 0.0089529930224309211 0.0022974068480105521 -0.0013784395590849909 0.0021566228730593127 -0.00089609907271665163 -0.0026216003435595736 0.0084227174357970006 0.00032556377677798505 -0.0024781533256305133 0.014761698470366775 0.0044881016147103074
leaf_weight=4423.3892189264297 3775.585562735796 3023.141632527113 2750.9307458996773 685.27010715007782 1473.3768038451672 2976.6005143821239 2634.5306466817856 1668.3362385034561 1897.4318950176239 417.73609149456024 3112.8785944283009 873.37841591238976 158.92817828059196 1285.3821116983891
leaf_count=6805 5605 4373 4184 1062 2248 4430 3946 2546 2875 583 4666 1386 225 1813
internal_value=-1.03911e-05 0.00312308 -0.00239242 0.0061486 0.00170698 -0.00125879 0.00100856 -0.00229325 -0.00404616 0.00517323 -0.000505908 -0.0045534 0.0100907 0.00332425
internal_weight=31156.9 13454 17702.9 4285.08 9168.88 10508.7 6410.12 4419.27 7194.2 3440.88 6089.48 5296.77 844.198 2758.76
internal_count=46747 19855 26892 6243 13612 15826 9551 6730 11066 4956 9096 8191 1287 4061
is_linear=0
shrinkage=0.02


Tree=3
num_leaves=15
num_cat=0
split_feature=47 47 47 47 42 47 36 47 47 1 24 15 47 15
split_gain=558.487 138.203 79.5441 36.6153 21.2055 14.4869 11.385 9.47543 9.46419 8.53916 8.14406 5.65883 5.45381 4.09208
threshold=1.3395838464987333 2.0715044468466339 0.8055271110293909 2.9025707629667412 0.35000000000000003 1.174619519684527 1.5277777777777779 0.48348326081633969 1.7351862630373136 27.373000000000005 0.85441582951418249 7.5915494561544241 3.3663875187017012 9.2687519030027747
decision_type=2 2 2 2 2 2 2 2 2 2 2 2 2 2
left_child=2 4 7 6 9 10 -3 -1 -6 -2 -4 -7 -5 -9
right_child=1 3 5 12 8 11 -8 13 -10 -11 -12 -13 -14 -15
leaf_value=-0.0051173367895838359 -0.00060262371116198601 0.0045106148415160544 -0.0020944912445368482 0.0081947989820624605 0.00181734812002023 -0.0011807700866652273 0.0075290364321075826 -0.0037884026595093215 0.0035572711209385134 0.001325820409528371 -0.00051471115308764461 0.00055322028668479113 0.011650018265817989 -0.0023565063845240116
leaf_weight=2078.7411551773548 1575.032207518816 2777.0151897370815 5595.5101713240147 505.71685209870338 3376.1716102361679 1212.93806630373 632.61674159765244 4051.0307027697563 2035.3306182324886 2182.3406889736652 1727.8627175688744 1972.4351380169392 369.72722601890564 1064.4276719093323
leaf_count=3287 2332 4003 8437 740 4978 1823 955 6136 2951 3351 2625 2941 545 1643
internal_value=-1.0118e-05 0.00306086 -0.00234466 0.00602611 0.00167294 -0.00123365 0.00507766 -0.00396534 0.00247467 0.000514896 -0.00172337 -0.000104244 0.00968867 -0.00349344
internal_weight=31156.9 13454 17702.9 4285.08 9168.88 10508.7 3409.63 7194.2 5411.5 3757.37 7323.37 3185.37 875.444 5115.46
internal_count=46747 19855 26892 6243 13612 15826 4958 11066 7929 5683 11062 4764 1285 7779
is_linear=0
shrinkage=0.02


Tree=4
num_leaves=15
num_cat=0
split_feature=44 44 44 47 44 44 44 36 44 50 36 2 16 24
split_gain=618.388 144.857 84.8125 32.8291 15.6249 13.1084 9.85882 9.65788 8.09251 6.65733 6.25678 4.0032 3.97606 2.66638
threshold=1.3326879025418479 1.9084622859820122 0.88952398139387856 2.9810734428068271 1.1396906836065801 1.6415569361317266 0.76095737778803774 1.5277777777777779 3.350584010286628 1.1500000000000004 0.5634920634920636 26.392416666666666 7.0400000000000018 0.41914461924960156
decision_type=2 2 2 2 2 2 2 2 2 2 2 2 2 2
left_child=2 5 6 7 -4 12 10 -3 -5 -7 -1 -6 -2 -8
right_child=1 3 4 8 11 9 13 -9 -10 -11 -12 -13 -14 -15
leaf_value=-0.0046513727172917485 0.00012413985233161192 0.0048015885947284096 -0.0019213915402369278 0.008427215678376768 -0.00089757810148619413 0.0014416821434666588 -0.0013814076123611246 0.0074112157793739678 0.01332333210134763 0.0034009289006558343 -0.00094873839152526606 0.00033548900958231217 0.0013706863984798349 -0.0032562958086716359
leaf_weight=5116.8810469210148 1384.9172931909561 3442.0476121604443 5609.6026929020882 538.34395015239716 2189.9775144457817 1114.6967549920082 381.0544750392437 711.1129030585289 208.07421860098839 1959.0139290988445 197.60264390707016 2010.6874811947346 4133.2631179094315 2159.6211239099503
leaf_count=7976 2030 5023 8446 778 3164 1713 624 1055 315 2835 371 3102 6079 3236
internal_value=-9.87264e-06 0.0032137 -0.00247243 0.00595817 -0.00123053 0.00164646 -0.00402146 0.00525417 0.00983739 0.00269505 -0.00451599 -0.000305101 0.00105981 -0.00298034
internal_weight=31156.9 13491.5 17665.4 4899.58 9810.27 8591.89 7855.16 4153.16 746.418 3073.71 5314.48 4200.66 5518.18 2540.68
internal_count=46747 19828 26919 7171 14712 12657 12207 6078 1093 4548 8347 6266 8109 3860
is_linear=0
shrinkage=0.02


Tree=5
num_leaves=15
num_cat=0
split_feature=44 44 44 44 44 44 46 0 46 44 42 19 19 12
split_gain=617.502 127.636 81.5789 23.7934 20.1747 20.0292 7.28383 7.01703 6.167 5.24468 5.06165 4.96426 3.94683 3.466
threshold=1.3571606388773081 2.0369705373313649 0.80065933253662558 2.9960778208919159 1.6415569361317266 1.0248484866310013 1.5857142857142861 25.04664736679802 0.95000000000000007 1.2228655161172963 0.45000000000000007 0.81909191975199225 1.875828555058493 18.399263402964767
decision_type=2 2 2 2 2 2 2 2 2 2 2 2 2 2
left_child=2 4 8 6 11 12 -3 -5 13 -7 -6 -2 -4 -1
right_child=1 3 5 7 10 9 -8 -9 -10 -11 -12 -13 -14 -15
leaf_value=-0.0051561988315925802 0.00079870076499533526 0.00064427826663543744 -0.002650981468105636 0.0044484461408606105 0.0023099353686478678 -0.0011884520331673838 0.0060127233764703204 0.011683912850137033 -0.0021977994858485938 -8.5770531760063012e-05 0.0037258064544967336 0.0021927359679664907 -0.00095780944555969375 -0.0040685069847506538
leaf_weight=2042.995621830225 3518.9158842861652 109.2975934445858 4185.523038059473 71.025899767875671 1905.5157658159733 4478.1897404789925 3150.5096573829651 407.87442830204964 545.65923139452934 2839.7614406049252 2335.361115783453 1465.4477757513523 660.05351516604424 3429.8214344084263
leaf_count=3142 5148 211 6343 136 2880 6682 4535 607 963 4232 3352 2189 1012 5312
internal_value=8.71663e-06 0.00334378 -0.00236878 0.00646152 0.00207805 -0.0014248 0.0058363 0.0106546 -0.00427382 -0.000762058 0.00309337 0.00121128 -0.00242289 -0.0044781
internal_weight=31146 12963.9 18182 3738.71 9225.24 12163.5 3259.81 478.9 6018.48 7317.95 4240.88 4984.36 4845.58 5472.82
internal_count=46744 19058 27686 5489 13569 18269 4746 743 9417 10914 6232 7337 7355 8454
is_linear=0
shrinkage=0.02


Tree=6
num_leaves=15
num_cat=0
split_feature=46 34 46 24 34 24 34 24 46 34 24 13 13 6
split_gain=489.237 99.7405 77.8857 46.0983 27.9483 23.2102 25.0728 16.4518 11.5848 11.1747 10.78 5.24432 2.84754 2.37374
threshold=1.5857142857142861 0.29269892015596316 2.6125000000000003 0.86668834640015902 0.71451588967910762 0.77939883545167443 0.79158683284343401 1.4798029568962645 3.3875000000000006 1.3089130910873916 0.61282465514066564 0.25905609100165178 0.9389458148850941 4.5000000000000009
decision_type=2 2 2 2 2 2 2 2 2 2 2 2 2 2
left_child=1 3 4 10 7 6 -3 -2 13 -6 -1 -7 -5 -4
right_child=2 5 8 12 9 11 -8 -9 -10 -11 -12 -13 -14 -15
leaf_value=-0.0044074121205490216 0.0013200097570892245 -0.0015692109616815698 0.0071473265302373634 -0.0012540719160966988 0.0035927682236209617 0.00014206776614985402 0.0017237308003318372 0.0042861243250964191 0.011069856073333708 0.0061623638262274247 -0.0029035459833250846 0.00165023875625109 0.00010536593852193472 0.0031759525683585387
leaf_weight=4881.583983361721 3821.7950496673584 5598.0543763935566 960.35966438055038 1609.1074079871178 2905.618754863739 1761.7450648844242 1103.4380542635918 935.87916481494904 376.95642781257629 911.45106425881386 3252.7581431269646 1971.153098732233 976.90301394462585 79.14887398481369
leaf_count=7599 5661 8433 1416 2365 4201 2466 1686 1400 558 1332 4903 3004 1608 112
internal_value=8.56222e-06 -0.00171374 0.00365586 -0.00306851 0.002935 -0.000320556 -0.00102517 0.00190713 0.00800232 0.00421187 -0.00380814 0.000941591 -0.000736976 0.00686122
internal_weight=31146 21154.7 9991.21 10720.4 8574.74 10434.4 6701.49 4757.67 1416.46 3817.07 8134.34 3732.9 2586.01 1039.51
internal_count=46744 32064 14680 16475 12594 15589 10119 7061 2086 5533 12502 5470 3973 1528
is_linear=0
shrinkage=0.02


Tree=7
num_leaves=15
num_cat=0
split_feature=44 44 44 44 44 44 17 16 36 34 42 44 12 1
split_gain=572.238 118.241 75.4357 22.1181 18.8911 18.8718 6.6068 6.34748 6.04592 5.30409 4.91264 4.82205 4.48474 3.24436
threshold=1.3571606388773081 2.0369705373313649 0.79379959429668812 2.9960778208919159 1.0248484866310013 1.698557558395853 1.604460106015593 7.8799999999999999 0.5277777777777779 0.72858074991479926 0.45000000000000007 1.2228655161172963 18.399263402964767 23.47366666666667
decision_type=2 2 2 2 2 2 2 2 2 2 2 2 2 2
left_child=2 5 8 7 13 9 -5 -3 12 -2 -7 -6 -1 -4
right_child=1 3 4 6 11 10 -8 -9 -10 -11 -12 -13 -14 -15
leaf_value=-0.0050420942855367657 0.00094482659928741739 0.0032969345695320999 -0.0028205919479446051 0.0043633643543582795 -0.0011464692785927973 0.0022922588686190805 0.011284656070913635 0.0059697882438054699 -0.0010517322150823158 0.0023823233874361786 0.0038327372415583694 -8.8942435833259649e-05 -0.0038319517371365958 -0.001773343069245918
leaf_weight=2056.5101701617241 4361.5440554320812 436.97173577547073 2667.7843982875347 73.66504243016243 4478.1897404789925 1539.0240839421749 405.23528563976288 2822.8355150520802 252.84984716773033 1364.8397572338581 1959.8326450288296 2839.7614406049252 3587.8626660108566 2299.0457592308521
leaf_count=3175 6382 668 3982 136 6682 2334 607 4078 459 2046 2807 4232 5599 3557
internal_value=8.46834e-06 0.00321899 -0.00228022 0.00621984 -0.00138605 0.00200067 0.0102634 0.0056168 -0.00414011 0.0012899 0.00315969 -0.000737594 -0.00427626 -0.00233876
internal_weight=31146 12963.9 18182 3738.71 12284.8 9225.24 478.9 3259.81 5897.22 5726.38 3498.86 7317.95 5644.37 4966.83
internal_count=46744 19058 27686 5489 18453 13569 743 4746 9233 8428 5141 10914 8774 7539
is_linear=0
shrinkage=0.02


Tree=8
num_leaves=15
num_cat=0
split_feature=44 44 44 47 44 44 46 46 44 42 44 14 13 12
split_gain=549.642 113.573 72.4499 23.613 18.1427 18.1354 7.01672 6.11058 5.01412 4.6384 4.63046 4.42314 3.9117 3.4274
threshold=1.3571606388773081 2.0369705373313649 0.79379959429668812 2.9810734428068271 1.0248484866310013 1.6415569361317266 1.5857142857142861 0.95000000000000007 2.9960778208919159 0.25000000000000006 1.2228655161172963 10.500000000000002 2.3785982876930603 18.399263402964767
decision_type=2 2 2 2 2 2 2 2 2 2 2 2 2 2
left_child=2 5 7 6 12 11 -3 13 -5 -7 -6 -2 -4 -1
right_child=1 3 4 8 10 9 -8 -9 -10 -11 -12 -13 -14 -15
leaf_value=-0.0049398361626125089 0.0015409980890968736 0.00062570306609443832 -0.0024392465585163338 0.0074003000524060537 -0.0011235501414577726 0.0016273587660422355 0.0055042074418973144 -0.0019436724149824998 0.011003787576018217 0.0032716956023361851 -8.716483020273297e-05 0.00024728874987399127 -0.00011680935004860626 -0.0038504772806719641
leaf_weight=2002.2781719863415 3426.0978226363659 128.37526097893715 4647.5302503108978 341.50323328375816 4478.1897404789925 906.60132396221161 2882.6310023963451 521.31385380029678 386.19808223843575 3334.2755576372147 2839.7614406049252 1558.2658374011517 319.29990720748901 3373.6306575536728
leaf_count=3083 5133 250 7005 501 6682 1420 4169 923 569 4812 4232 2204 534 5227
internal_value=8.32286e-06 0.00315482 -0.00223471 0.00609587 -0.00135839 0.00196076 0.00530008 -0.00405744 0.00935133 0.00292346 -0.000722876 0.00113881 -0.00229206 -0.00425976
internal_weight=31146 12963.9 18182 3738.71 12284.8 9225.24 3011.01 5897.22 727.701 4240.88 7317.95 4984.36 4966.83 5375.91
internal_count=46744 19058 27686 5489 18453 13569 4419 9233 1070 6232 10914 7337 7539 8310
is_linear=0
shrinkage=0.02


Tree=9
num_leaves=15
num_cat=0
split_feature=44 44 44 47 44 44 37 36 19 44 13 47 19 13
split_gain=527.937 109.09 69.5864 22.6852 17.5079 17.0565 6.44314 5.46215 5.03154 4.83162 4.49071 4.12201 3.8165 2.79763
threshold=1.3571606388773081 2.0369705373313649 0.80065933253662558 2.9810734428068271 1.698557558395853 1.1018505925520172 1.6695542432381132 0.5277777777777779 1.6995944843838802 2.8830277637799044 0.2713920879376977 0.42372239763888825 0.81909191975199225 0.47722750737896735
decision_type=2 2 2 2 2 2 2 2 2 2 2 2 2 2
left_child=2 4 7 6 12 8 -3 11 -4 -5 -6 -1 -2 -7
right_child=1 3 5 9 10 13 -8 -9 -10 -11 -12 -13 -14 -15
leaf_value=-0.0050257869105267885 0.00089505329685003689 0.004766784492799615 -0.0022527821195411431 0.0068735807909522688 0.002263743331055109 -0.00092518920684266765 0.0073437651940461623 -0.0010609671890258209 -0.00073738793039331355 0.010511491915909887 0.0037290417337268386 -0.003753401770067907 0.0020332454960620239 -2.4362791292331519e-05
leaf_weight=1456.6720528900623 4018.0864138901234 2520.817814707756 5511.7827812433243 276.49321785569191 1660.8008078038692 2949.274608194828 490.18844866752625 261.54062160849571 1069.8558683991432 451.208097666502 1838.0559211671352 4300.2636131346226 1708.297398775816 2632.6144764721394
leaf_count=2329 5876 3684 8299 406 2326 4229 735 475 1642 664 2815 6613 2552 4099
internal_value=8.17788e-06 0.00309193 -0.00219012 0.00597437 0.00192164 -0.00131818 0.00519423 -0.00394964 -0.00200827 0.00916558 0.00303806 -0.00407872 0.00123694 -0.00050228
internal_weight=31146 12963.9 18182 3738.71 9225.24 12163.5 3011.01 6018.48 6581.64 727.701 3498.86 5756.94 5726.38 5581.89
internal_count=46744 19058 27686 5489 13569 18269 4419 9417 9941 1070 5141 8942 8428 8328
is_linear=0
shrinkage=0.02


Tree=10
num_leaves=15
num_cat=0
split_feature=44 44 44 47 44 46 44 46 34 42 1 44 16 14
split_gain=479.293 93.0545 82.1785 25.8702 14.8869 11.9089 11.611 9.71843 6.86007 5.87137 4.74366 3.99417 3.51926 2.64996
threshold=1.4450483644423502 0.88952398139387856 1.9927963885644988 2.9810734428068271 1.1508035865010757 1.3166666666666669 1.6415569361317266 1.5634920634920637 0.22335013136820767 0.45000000000000007 25.355708333333336 3.350584010286628 17.130000000000006 8.5000000000000018
decision_type=2 2 2 2 2 2 2 2 2 2 2 2 2 2
left_child=1 5 6 7 12 8 13 -4 -1 -8 -6 -5 -3 -2
right_child=2 4 3 11 10 -7 9 -9 -10 -11 -12 -13 -14 -15
leaf_value=-0.0041054205964253425 0.0021590936199023104 -0.0016318619713948082 -8.2535872007101911e-05 0.0079269864613994157 -0.0007340293682942371 0.0019480946198117814 0.0018205294957882249 0.0050059625398135776 -0.0028120972265192794 0.0034158934084832521 0.00037638927984939673 0.011585453066895502 0.00049892497895958319 0.00076980753666629014
leaf_weight=5237.2822869122028 718.4926723241806 5517.0500879883766 153.27755644917488 526.48262998461723 2725.0458858013153 149.42232751846313 1708.8054695427418 3252.3574298322201 2516.3608165383339 2133.161561280489 3520.8434931635857 197.26242563128471 320.15916794538498 2543.676170617342
leaf_count=8125 1100 8295 295 767 3892 292 2579 4717 3884 3072 5352 299 500 3670
internal_value=-3.38922e-05 -0.00189201 0.00327084 0.0055154 -0.000787033 -0.00357952 0.00196356 0.0047741 -0.00368781 0.00271024 -0.000106559 0.00896709 -0.00151315 0.00108
internal_weight=31219.7 19986.2 11233.5 4129.38 12083.1 7903.07 7104.14 3405.63 7753.64 3841.97 6245.89 723.745 5837.21 3262.17
internal_count=46839 30340 16499 6078 18039 12301 10421 5012 12009 5651 9244 1066 8795 4770
is_linear=0
shrinkage=0.02


Tree=11
num_leaves=15
num_cat=0
split_feature=46 46 46 50 46 46 1 24 46 26 46 50 13 26
split_gain=401.848 78.7117 60.584 17.3136 13.7388 12.6646 11.9803 6.94515 6.5175 5.32696 5.25618 5.17543 4.98024 3.01933
threshold=1.5857142857142861 0.95000000000000007 2.5277777777777781 1.3500000000000003 0.78888888888888908 3.3166666666666669 25.737166666666671 0.47514992607721096 1.9500000000000002 0.47222222222222227 1.8944444444444446 0.95000000000000007 1.5272961272478647 1.0500000000000003
decision_type=2 2 2 2 2 2 2 2 2 2 2 2 2 2
left_child=1 4 3 8 7 13 11 -1 -2 -6 -5 -3 -8 -4
right_child=2 6 5 10 9 -7 12 -9 -10 -11 -12 -13 -14 -15
leaf_value=-0.0040851383091391269 0.0010033865731351426 -0.0018386367820895008 0.0072433722581270767 0.0025807986705366835 -0.0004161715305356715 0.01004741615923185 -9.6184867651533614e-05 -0.0027471745153729065 0.0026555005900637252 -0.0022903210283108997 0.004063545020781845 -0.00058774480416860678 0.0013578296768091459 0.005064413824217945
leaf_weight=3283.7303255498409 2539.6063098311424 2256.832158356905 426.51757454872131 1660.9780135154724 792.38745480775833 366.18891912698746 4500.1547284424305 3129.5463055074215 1564.2440406680107 2808.8695345818996 2499.2947255969048 3283.7860608994961 1186.6110546886921 920.93277540802956
leaf_count=5246 3807 3331 667 2433 1201 539 6747 4669 2371 4196 3523 4821 1975 1313
internal_value=-3.31424e-05 -0.00158857 0.0032769 0.00256412 -0.00287764 0.00670151 -0.000437556 -0.00343486 0.00163654 -0.00188119 0.00347549 -0.00109955 0.000205825 0.00577126
internal_weight=31219.7 21241.9 9977.76 8264.12 10014.5 1713.64 11227.4 6413.28 4103.85 3601.26 4160.27 5540.62 5686.77 1347.45
internal_count=46839 32186 14653 12134 15312 2519 16874 9915 6178 5397 5956 8152 8722 1980
is_linear=0
shrinkage=0.02


Tree=12
num_leaves=15
num_cat=0
split_feature=47 34 34 47 47 47 47 0 34 47 15 15 42 15
split_gain=386.126 95.5129 54.1185 25.8762 22.3 21.6534 11.3421 9.53132 8.92804 7.32444 6.52643 5.5729 5.21189 4.63465
threshold=1.6193829182899551 0.28991985714823504 1.3089130910873916 0.83749173784556652 2.0715044468466339 1.1866953458707294 3.0783655298323827 23.286307092365437 0.79158683284343401 2.9810734428068271 8.690992561250777 14.452538190980315 0.25000000000000006 10.174179955153685
decision_type=2 2 2 2 2 2 2 2 2 2 2 2 2 2
left_child=1 3 4 10 12 7 13 -3 -7 -6 -1 -5 -2 -4
right_child=2 5 6 11 9 8 -8 -9 -10 -11 -12 -13 -14 -15
leaf_value=-0.0040430549442781287 0.00062431520111171795 -0.001741118631472528 0.0038396939652777075 -0.0019814563921970851 0.0037566163806252036 0.00032251550729674064 0.0095689166190578209 -8.9177489824760712e-05 0.0023488780762824664 0.0074380552162986056 -0.0023772860959923041 1.9530608213121402e-05 0.002211491448253828 0.0065366522720654687
leaf_weight=4625.1660831570625 1133.7107104063034 3264.6149709820747 406.94626033306122 4362.3338289260864 2640.3795490860939 4543.9530485272408 419.7017138004303 2464.7008380889893 1079.178289026022 243.499636054039 1236.9267433285713 626.77893742918968 3291.5068598389626 880.28251254558563
leaf_count=7100 1734 4879 608 6685 3830 6686 641 3756 1640 337 1946 922 4780 1295
internal_value=-3.24386e-05 -0.0014501 0.00345726 -0.00279168 0.0027048 -0.000166617 0.00666653 -0.00103249 0.000713885 0.00407586 -0.00369421 -0.00172816 0.00180759 0.00569907
internal_weight=31219.7 22203.7 9016.03 10851.2 7309.1 11352.4 1706.93 5729.32 5623.13 2883.88 5862.09 4989.11 4425.22 1287.23
internal_count=46839 33614 13225 16653 10681 16961 2544 8635 8326 4167 9046 7607 6514 1903
is_linear=0
shrinkage=0.02


Tree=13
num_leaves=15
num_cat=0
split_feature=34 34 24 24 34 34 34 36 24 24 1 18 23 43
split_gain=296.539 95.5098 79.891 69.031 27.38 17.4831 14.778 10.0151 8.22822 7.79048 7.60088 5.79766 4.89861 3.33941
threshold=0.41945669875525343 1.3089130910873916 0.77939883545167443 1.0637832851810132 0.75187004487061515 0.23921611432080117 0.22335013136820767 2.5277777777777781 1.3515983403039062 1.4798029568962645 25.451333333333338 1.7702044766661609 0.80447520828591335 0.55000000000000016
decision_type=2 2 2 2 2 2 2 2 2 2 2 2 2 2
left_child=2 3 6 4 -2 12 10 11 -5 -7 -1 -3 -4 -9
right_child=1 7 5 8 -6 9 -8 13 -10 -11 -12 -13 -14 -15
leaf_value=-0.0041923384065654682 -0.00030903435486845192 0.0042047614989189361 -0.0024574311888432045 0.0028445277291720065 0.0019788481593118181 0.00038931995450649121 -0.0021193843773153502 0.0074863441656381905 0.0047550284731691017 0.0034190596116975094 -0.0025223390310169058 0.0067644272915717493 -0.00077619056769473622 0.013207016159535232
leaf_weight=4023.0584690570831 5968.9353687465191 628.5469197332859 1017.9602335393429 2054.4998878538609 3214.7620077431202 3281.0977149605751 3951.85454839468 105.3445653617382 1694.4262619614601 378.67943626642227 1562.9666073620319 964.98454079031944 2266.57291918993 105.99050056934357
leaf_count=6214 8857 967 1572 2951 4770 4880 5941 182 2443 575 2424 1410 3500 153
internal_value=-3.17175e-05 0.00202916 -0.00187508 0.00142614 0.000491009 -0.000241507 -0.00306309 0.00633818 0.00371277 0.000707236 -0.00372793 0.00576761 -0.00130147 0.0104992
internal_weight=31219.7 14737.5 16482.2 12932.6 9183.7 6944.31 9537.88 1804.87 3748.93 3659.78 5586.03 1593.53 3284.53 211.335
internal_count=46839 21733 25106 19021 13627 10527 14579 2712 5394 5455 8638 2377 5072 335
is_linear=0
shrinkage=0.02


Tree=14
num_leaves=15
num_cat=0
split_feature=46 47 47 47 34 34 1 34 16 34 42 16 34 5
split_gain=358.636 79.8101 59.8932 25.1766 22.1825 14.8291 9.32645 8.68177 8.24678 8.1164 6.29036 5.98707 2.61857 2.1854
threshold=1.5857142857142861 0.86944979227544528 2.0871077668009375 2.9810734428068271 0.35346714402076623 0.27530077584418056 25.737166666666671 1.1917206218560368 11.990000000000006 1.3089130910873916 0.25000000000000006 16.630000000000006 2.7340137016890385 45.872658581414051
decision_type=2 2 2 2 2 2 2 2 2 2 2 2 2 2
left_child=1 5 9 7 11 8 -6 -4 -1 10 -2 -3 -5 -7
right_child=2 4 3 12 6 13 -8 -9 -10 -11 -12 -13 -14 -15
leaf_value=-0.0037920732760357624 0.00045514890705413184 -0.0016207851639119552 0.0035283506511210923 0.0077522602794588349 -0.00043993080138938698 -0.0019353824976495555 0.0010316408178927382 0.005766365754614435 -0.0013464204290399688 0.0047892847905598749 0.0020043172641829661 0.00045770717067513853 0.01167526050841787 -0.00023777118245838611
leaf_weight=5401.1637572050095 1437.5999050736427 5258.2651407122612 2371.1678444743156 626.24761801958084 3558.949906796217 2082.9045488834381 3326.0701087415218 1025.8245934247971 632.12488296627998 342.02723532915115 4074.7443735897541 610.67098915576935 100.1507887840271 371.76828837394714
leaf_count=8317 2205 7969 3441 911 5211 3159 5037 1515 995 491 5929 928 161 570
internal_value=-3.10157e-05 -0.00150045 0.00309598 0.00494333 -0.00049926 -0.00300319 0.000269609 0.00421012 -0.00353802 0.00179189 0.00160242 -0.00140273 0.00833744 -0.00168275
internal_weight=31219.7 21241.9 9977.76 4123.39 12754 8487.96 6885.02 3396.99 6033.29 5854.37 5512.34 5868.94 726.398 2454.67
internal_count=46839 32186 14653 6028 19145 13041 10248 4956 9312 8625 8134 8897 1072 3729
is_linear=0
shrinkage=0.02


Tree=15
num_leaves=15
num_cat=0
split_feature=46 34 34 24 46 2 50 34 34 27 4 46 5 17
split_gain=338.754 78.8655 58.1652 30.8298 24.0476 17.3966 13.0107 12.7896 5.70498 5.3027 5.07614 4.96043 4.42066 2.26164
threshold=1.5857142857142861 0.29269892015596316 1.5259641788073444 0.72867108819822068 2.1547619047619051 24.253000000000004 1.3500000000000003 0.79158683284343401 0.50441526565379302 0.35566502587822785 48.904195559819726 2.7888888888888892 49.694867489734669 1.2700925124958293
decision_type=2 2 2 2 2 2 2 2 2 2 2 2 2 2
left_child=1 3 4 9 6 7 -2 -3 -7 -1 13 -6 -5 -4
right_child=2 5 10 12 11 8 -8 -9 -10 -11 -12 -13 -14 -15
leaf_value=-0.0044001006056410196 0.00091752761278654906 -0.0013999008171935268 0.0036919656607706025 -0.0015074255204856697 0.0035862656625941397 6.3594606526208369e-05 0.0027668193966767537 0.0013371691318758048 0.0014177262983928751 -0.0031193748881695035 0.0097599014120966394 0.0057315379435329663 0.00060917238684239335 0.0069086544218614166
leaf_weight=1917.3498860299587 3266.8563106656075 4554.1353816092014 124.31738835573196 3678.0729769766331 2210.8969737887383 2948.9575910866261 2888.723036646843 797.98262646794319 2172.357400894165 4557.5814532935619 276.01072362065315 571.90662434697151 433.8699344098568 740.81782585382462
leaf_count=3071 4898 6660 201 5660 3194 4406 4170 1220 3369 6884 402 802 669 1106
internal_value=1.9458e-05 -0.00142332 0.0030347 -0.00264053 0.00248902 -0.000191698 0.00178761 -0.000989598 0.000640271 -0.00350141 0.0072883 0.00403454 -0.00128148 0.00646754
internal_weight=31139.8 21060.3 10079.5 10586.9 8938.38 10473.4 6155.58 5352.12 5121.31 6474.93 1141.15 2782.8 4111.94 865.135
internal_count=46712 31939 14773 16284 13064 15655 9068 7880 7775 9955 1709 3996 6329 1307
is_linear=0
shrinkage=0.02


Tree=16
num_leaves=15
num_cat=0
split_feature=34 34 24 24 34 34 24 24 34 24 15 26 24 4
split_gain=279.893 79.811 72.4398 59.2377 22.0051 13.565 13.5376 12.6541 9.47315 7.97449 6.80011 5.85981 5.34147 4.34837
threshold=0.4095769874046456 1.057870834884324 0.79424150199803323 0.99992445924624918 1.6495712487565182 0.23389504722888618 0.68288085758656247 1.2983396921306938 0.26968978023801959 1.4798029568962645 13.889485632586009 0.95000000000000007 0.50069027887550555 49.097731794417264
decision_type=2 2 2 2 2 2 2 2 2 2 2 2 2 2
left_child=2 3 8 6 11 10 -2 -5 12 -7 -4 -3 -1 -6
right_child=1 4 5 7 13 9 -8 -9 -10 -11 -12 -13 -14 -15
leaf_value=-0.0039942739548515091 -0.00064245696961137591 0.0030055316131029513 -0.0016340035090479815 0.0021281261221965091 0.0065849020822878017 0.00033352808424153002 0.0010225748712279431 0.0043108702288378823 -0.0019325842315820415 0.0034943052789838474 0.00080961148462995033 0.005403044964924001 -0.0028392921636950976 0.010031214729104175
leaf_weight=2940.9815656542778 3895.6123248338699 1489.4774340391159 2427.6376972794533 2432.2411216497421 733.60971295833588 3080.6844466328621 3907.9583975076675 1937.4320060312748 2725.2423635721207 355.93704557418823 553.37070912122726 593.09665510058403 3850.7184500098228 215.83620408177376
leaf_count=4747 5959 2234 3835 3498 1124 4583 5660 2770 4087 546 808 849 5695 317
internal_value=1.91412e-05 0.0019604 -0.00183265 0.00123572 0.00486388 -0.000188718 0.000190143 0.00309973 -0.0029399 0.000665646 -0.0011768 0.00369765 -0.00334193 0.0073983
internal_weight=31139.8 15205.3 15934.6 12173.2 3032.02 6417.63 7803.57 4369.67 9516.94 3436.62 2981.01 2082.57 6791.7 949.446
internal_count=46712 22411 24301 17887 4524 9772 11619 6268 14529 5129 4643 3083 10442 1441
is_linear=0
shrinkage=0.02


Tree=17
num_leaves=15
num_cat=0
split_feature=44 44 44 44 37 46 44 46 44 42 3 13 47 13
split_gain=382.958 77.7275 63.2998 16.5225 12.0589 9.11555 8.59424 6.35129 6.30783 5.89378 3.51687 3.39732 3.07442 2.16991
threshold=1.4794188970058786 0.89508435342878623 2.1041249271816871 1.1902584819257849 1.8160878164358278 1.3166666666666669 1.8947776014517053 1.5277777777777779 0.71371052007032643 0.8500000000000002 48.786908470995989 0.29396567192266065 0.76698466541310029 1.7657525483884282
decision_type=2 2 2 2 2 2 2 2 2 2 2 2 2 2
left_child=1 5 6 13 7 8 9 -4 -1 -2 -6 -8 -5 -3
right_child=2 3 4 12 10 -7 11 -9 -10 -11 -12 -13 -14 -15
leaf_value=-0.0037468760963717774 0.0013565883562539575 -0.0014477993151216419 -4.0772898374445665e-05 -0.0035710565041593462 0.0068488364660517489 0.0015713991087365994 0.0023390013769265766 0.0049230261487161267 -0.0025779663721569291 0.0030380469234110767 0.010514025667250538 0.0041419454456002834 0.00021294131001996114 -0.000405461030033512
leaf_weight=4346.0153805911541 4595.2455686330795 5608.2082176506519 103.46312248706818 84.93696266412735 597.78062704205513 157.12559500336647 863.17084461450577 2433.3198073506355 3402.0656180083752 1037.20287540555 155.49062639474869 913.26712664961815 5876.1839916110039 966.35976994037628
leaf_count=6837 6794 8310 202 148 909 299 1212 3478 5126 1500 229 1379 8674 1615
internal_value=1.88176e-05 -0.00158543 0.00308448 -0.000604883 0.00539435 -0.00313853 0.00205621 0.00471677 -0.00323571 0.00166897 0.00764449 0.00327513 0.000156168 -0.00129628
internal_weight=31139.8 20440.9 10698.9 12535.7 3290.05 7905.21 7408.89 2536.78 7748.08 5632.45 753.271 1776.44 5961.12 6574.57
internal_count=46712 31009 15703 18747 4818 12262 10885 3680 11963 8294 1138 2591 8822 9925
is_linear=0
shrinkage=0.02


Tree=18
num_leaves=15
num_cat=0
split_feature=47 47 34 34 34 26 0 1 47 34 16 2 27 34
split_gain=312.212 79.0732 45.0613 20.2507 15.1504 15.1379 10.1087 9.49972 6.01247 5.83557 5.39517 5.34379 4.75673 4.31896
threshold=1.3395838464987333 2.0871077668009375 0.29269892015596316 1.5259641788073444 0.71451588967910762 0.61250000000000016 28.780758887943211 25.355708333333336 2.9810734428068271 0.81959959736566923 15.440000000000003 28.294916666666673 0.35566502587822785 0.59213269778593758
decision_type=2 2 2 2 2 2 2 2 2 2 2 2 2 2
left_child=2 4 5 8 7 12 9 -2 -3 -4 -6 -7 -1 -8
right_child=1 3 6 -5 10 11 13 -9 -10 -11 -12 -13 -14 -15
leaf_value=-0.0041657025498159526 -0.00045085575066507687 0.0034979266990181226 -0.0012165908722956799 0.0070817077925287965 0.0020412794688252872 -0.0022705299493734777 0.00017937907963816517 0.0012299936408046133 0.0064860872696919612 0.00096495245561048352 0.0042562054851998229 -0.00079811269185852773 -0.0028964949483781715 0.0025711626425071999
leaf_weight=1926.4413207173347 1905.0314202308655 2871.0560281276703 5279.0572629868984 1000.9110532999039 2399.5689028799534 2941.7900756895542 1564.1680894196033 4506.7429528236389 309.53769502043724 534.03641706705093 555.39415270090103 1524.2867968976498 3445.9766353666782 375.83733081817627
leaf_count=3093 2754 4166 7891 1506 3540 4427 2326 6760 427 849 800 2362 5237 574
internal_value=1.84838e-05 0.00230057 -0.00173857 0.00458771 0.00127772 -0.00263731 -0.00059641 0.000729045 0.00379577 -0.00101419 0.00246356 -0.00177081 -0.00335485 0.000650059
internal_weight=31139.8 13548.2 17591.6 4181.5 9366.74 9838.49 7753.1 6411.77 3180.59 5813.09 2954.96 4466.08 5372.42 1940.01
internal_count=46712 19953 26759 6099 13854 15119 11640 9514 4593 8740 4340 6789 8330 2900
is_linear=0
shrinkage=0.02


Tree=19
num_leaves=15
num_cat=0
split_feature=44 44 44 44 34 50 46 44 44 46 3 1 44 1
split_gain=355.203 72.1084 58.7113 15.2992 10.4728 10.0867 8.62816 5.84762 5.61275 5.11571 4.88028 4.00553 3.40665 2.87843
threshold=1.4794188970058786 0.89508435342878623 2.1041249271816871 1.1902584819257849 1.6495712487565182 1.6500000000000004 1.3166666666666669 0.71371052007032643 1.8947776014517053 1.5277777777777779 48.623219946684991 21.919333333333338 1.698557558395853 31.479166666666668
decision_type=2 2 2 2 2 2 2 2 2 2 2 2 2 2
left_child=1 6 5 13 9 8 7 -1 -2 -4 -6 -5 -7 -3
right_child=2 3 4 11 10 12 -8 -9 -10 -11 -12 -13 -14 -15
leaf_value=-0.0036097103970112662 0.0011449400466213725 -0.0014449909044602569 -0.00044544618392596295 -0.00071805829470898393 0.0062078313046024973 0.0020692507196548582 0.0015585118992891666 -0.0024836960557224085 0.002771844999049511 0.0046406916750563474 0.0099813396477920341 0.00045982921916332549 0.0037251977868092306 -0.00034574140327570368
leaf_weight=4346.0153805911541 4083.6753414869308 5384.5060518980026 77.889037370681763 1559.3587493002415 735.83177742362022 844.36919036507607 157.12559500336647 3402.0656180083752 1089.1369977891445 2283.9802970588207 192.35307142138481 4401.7622049748898 1391.704885661602 1190.0619356930256
leaf_count=6837 6055 8032 155 2234 1127 1233 299 5126 1629 3258 278 6588 1968 1893
internal_value=1.81482e-05 -0.00152686 0.00297064 -0.000582385 0.00519529 0.00198026 -0.00302278 -0.00311735 0.00149036 0.0044685 0.00702037 0.000149893 0.00310677 -0.0012477
internal_weight=31139.8 20440.9 10698.9 12535.7 3290.05 7408.89 7905.21 7748.08 5172.81 2361.87 928.185 5961.12 2236.07 6574.57
internal_count=46712 31009 15703 18747 4818 10885 12262 11963 7684 3413 1405 8822 3201 9925
is_linear=0
shrinkage=0.02


Tree=20
num_leaves=15
num_cat=0
split_feature=44 44 44 46 44 44 44 16 46 42 37 46 13 24
split_gain=352.239 66.0912 54.3751 14.3377 12.8218 11.9134 6.76968 6.07488 5.02976 4.11789 3.2319 3.12947 2.98616 2.28756
threshold=1.4794188970058786 0.87800253185978849 2.1635340489232786 3.4222222222222229 1.8250186697121522 1.1396906836065801 0.72050816511253324 9.1225000000000005 1.1339285714285716 0.45000000000000007 0.39735489000717844 1.2361111111111114 1.9197659701092198 0.5598206101084694
decision_type=2 2 2 2 2 2 2 2 2 2 2 2 2 2
left_child=1 6 4 7 9 12 8 -4 -1 -2 -7 -6 -3 -8
right_child=2 5 3 -5 11 10 13 -9 -10 -11 -12 -13 -14 -15
leaf_value=-0.0035989946990942134 0.00089980310313456883 -0.0014629776378431534 0.0027450553693339828 0.0094420591280465881 -0.00093079938108397086 -0.00052747900920566669 -0.001590467164452218 0.0053118911626108805 0.000184207570027375 0.0020757969946109726 0.00033008508332341125 0.0032746249375902193 -8.1764027901199741e-05 -0.0027359409327898697
leaf_weight=4381.6026706695557 2447.9962498247623 5128.3841128349304 478.67790201306343 310.26147082448006 68.011806637048721 3303.2721602022648 1317.757973253727 2081.7601355314255 139.84390479326248 2411.0608631670475 3744.0281053483486 2843.0902284085751 731.0410124361515 1677.5444855093956
leaf_count=6850 3635 7616 752 464 126 4882 2030 3020 267 3504 5565 4106 1213 2528
internal_value=4.13449e-05 -0.00149554 0.00299182 0.0053457 0.00211974 -0.000626129 -0.00298648 0.00483844 -0.00347974 0.001486 -7.04969e-05 0.00317237 -0.00129245 -0.00223673
internal_weight=31064.3 20423.5 10640.9 2870.7 7770.16 12906.7 7516.75 2560.44 4521.45 4859.06 7047.3 2911.1 5859.43 2995.3
internal_count=46558 30951 15607 4236 11371 19276 11675 3772 7117 7139 10447 4232 8829 4558
is_linear=0
shrinkage=0.02


Tree=21
num_leaves=15
num_cat=0
split_feature=44 44 44 46 44 44 44 15 45 16 47 1 40 13
split_gain=338.323 63.4751 52.2298 13.771 12.3105 11.4424 6.49715 6.45419 5.35644 3.92746 3.3295 3.13944 2.91344 2.86667
threshold=1.4794188970058786 0.87800253185978849 2.1635340489232786 3.4222222222222229 1.8250186697121522 1.1396906836065801 0.72050816511253324 10.01438032825944 1.5500000000000003 9.1800000000000033 1.3334123123153587 21.919333333333338 -0.1167840640921259 1.9197659701092198
decision_type=2 2 2 2 2 2 2 2 2 2 2 2 2 2
left_child=1 6 4 7 9 13 8 -4 -1 -2 -6 -7 -8 -3
right_child=2 5 3 -5 10 11 12 -9 -10 -11 -12 -13 -14 -15
leaf_value=-0.0035020197951670874 0.00068378335048306009 -0.0014337294871863571 0.0028616981678897735 0.0092544273289977847 -0.001069107823026802 -0.0007579086272645019 -0.00050443060060423252 0.0053009710859952394 0.0016725843756077096 0.0018821837332809504 0.0032159815534977525 0.00018831649061389497 -0.0024287846300755696 -8.0133194069609531e-05
leaf_weight=4443.7029747366905 1736.801240414381 5128.3841128349304 593.77548375725746 310.26147082448006 69.973496854305267 1926.3980179429054 374.33602371811867 1966.6625537872314 77.743600726127625 3122.2558725774288 2841.1285381913185 5120.902247607708 2620.9664350450039 731.0410124361515
leaf_count=6965 2558 7616 928 464 130 2751 582 2844 152 4581 4102 7696 3976 1213
internal_value=4.05351e-05 -0.00146568 0.00293215 0.00523917 0.0020774 -0.000613627 -0.00292682 0.00474187 -0.00341013 0.00145635 0.00310889 -6.90597e-05 -0.00219212 -0.00126664
internal_weight=31064.3 20423.5 10640.9 2870.7 7770.16 12906.7 7516.75 2560.44 4521.45 4859.06 2911.1 7047.3 2995.3 5859.43
internal_count=46558 30951 15607 4236 11371 19276 11675 3772 7117 7139 4232 10447 4558 8829
is_linear=0
shrinkage=0.02


Tree=22
num_leaves=15
num_cat=0
split_feature=47 47 47 47 47 42 47 50 42 46 0 0 50 27
split_gain=276.022 65.0233 40.6188 18.2758 15.5962 10.3382 6.99551 6.11049 5.80471 4.9413 4.61386 3.43568 2.38483 1.22141
threshold=1.6193829182899551 0.83749173784556652 2.9025707629667412 1.1805023496385609 2.0715044468466339 0.35000000000000003 0.53378493959237594 1.6500000000000004 0.95000000000000007 3.4222222222222229 26.018561597409192 29.48765041691404 0.95000000000000007 1.7749957768325928
decision_type=2 2 2 2 2 2 2 2 2 2 2 2 2 2
left_child=1 6 4 10 7 -5 12 -2 -6 13 -3 -8 -1 -4
right_child=2 3 9 5 8 -7 11 -9 -10 -11 -12 -13 -14 -15
leaf_value=-0.0039941645929377941 0.0013069820646326494 -0.0015376596980714106 0.0066654105168085336 -0.00047362098788071317 0.0030859209675151468 0.0010183351758033181 -0.0024101520862031809 0.0028705344294653614 0.0050508379767661296 0.0091754749185007558 -0.00046713860610179898 -0.0008640151193850486 -0.0027282624129098764 0.0044695734582710237
leaf_weight=1581.9650993943214 3317.4884833097458 4130.674226641655 365.06473883986473 3500.398013651371 2564.706876128912 3941.8818926811218 4345.1597177386284 1464.2710357904434 826.73185056447983 305.51429402828217 2695.2059207856655 690.47309121489525 1111.0908103883266 223.70703029632568
leaf_count=2478 4921 6228 555 5277 3792 5863 6605 2079 1145 456 4057 1042 1751 309
internal_value=3.97441e-05 -0.00117035 0.00297602 -0.000369108 0.00253008 0.000315327 -0.00264776 0.00178886 0.00357055 0.0070257 -0.00111669 -0.00220056 -0.00347801 0.00586597
internal_weight=31064.3 21996.8 9067.48 14268.2 8173.2 7442.28 7728.69 4781.76 3391.44 894.286 6825.88 5035.63 2693.06 588.772
internal_count=46558 33301 13257 21425 11937 11140 11876 7000 4937 1320 10285 7647 4229 864
is_linear=0
shrinkage=0.02


Tree=23
num_leaves=15
num_cat=0
split_feature=49 37 37 26 45 42 49 15 17 2 40 16 2 43
split_gain=222.375 50.9498 48.1086 21.9514 13.1912 10.8971 7.14221 7.03302 6.56872 5.81663 5.57792 4.59174 4.28846 4.2423
threshold=1.2500000000000002 0.41173448114732975 1.5472598872316639 0.68333333333333346 1.7083333333333337 0.35000000000000003 2.2500000000000004 9.8007447360682693 1.6505001913281128 26.948416666666674 -0.10488500152307678 8.5225000000000044 29.138250000000003 0.65000000000000013
decision_type=2 2 2 2 2 2 2 2 2 2 2 2 2 2
left_child=1 3 4 10 12 9 -6 -5 -4 -3 -1 -7 -2 -10
right_child=2 5 8 7 6 11 -8 -9 13 -11 -12 -13 -14 -15
leaf_value=-0.0014121249872410498 0.00027287592691740552 -0.001429312954901421 0.003627995380337441 -0.0015374783194583316 0.0021248072312062554 0.00024806473968615341 0.0038737470607943616 -0.0002182102577311144 0.0058099068663102328 0.00058883859204407506 -0.0028683872480903989 0.0016274746103630967 0.0016606873830780214 0.0087953668225236523
leaf_weight=1321.0108884871006 1856.4045402407646 1626.9887608885765 351.28754192590714 4185.8019691109657 4425.0049304366112 1878.0826450586319 1214.7955402433872 2664.9709505438805 578.59418448805809 869.9591566324234 5969.6794263124466 2029.4067150652409 1748.463311880827 343.88252013921738
leaf_count=1997 2698 2478 544 6254 6466 2823 1712 3969 909 1361 9208 3056 2615 468
internal_value=3.89765e-05 -0.00117143 0.00240401 -0.0018417 0.00189951 0.000307121 0.00250454 -0.00102595 0.00604899 -0.000722261 -0.00260636 0.000967504 0.000949324 0.00695027
internal_weight=31064.3 20545.9 10518.4 14141.5 9244.67 6404.44 5639.8 6850.77 1273.76 2496.95 7290.69 3907.49 3604.87 922.477
internal_count=46558 31146 15412 21428 13491 9718 8178 10223 1921 3839 11205 5879 5313 1377
is_linear=0
shrinkage=0.02


Tree=24
num_leaves=15
num_cat=0
split_feature=47 47 47 47 47 42 47 42 31 36 31 4 40 3
split_gain=256.147 60.311 37.8606 16.9921 14.4324 9.70813 6.58299 5.44336 5.39106 4.61712 3.76075 3.03616 2.23855 1.52764
threshold=1.6193829182899551 0.83749173784556652 2.9025707629667412 1.1805023496385609 2.0715044468466339 0.35000000000000003 0.53378493959237594 0.95000000000000007 0.87595919433286473 2.8166666666666669 1.047539289164648 46.721632162534547 -0.15387550063403907 46.561838356031792
decision_type=2 2 2 2 2 2 2 2 2 2 2 2 2 2
left_child=1 6 4 10 8 -5 12 -6 -2 -4 -3 -8 -1 -11
right_child=2 3 9 5 7 -7 11 -9 -10 13 -12 -13 -14 -15
leaf_value=-0.00072587144979178997 0.0023505684548854456 -0.00073989840212958127 0.0060865660661839471 -0.00046030823536424452 0.0029677356817993362 0.00098543820389922752 -0.0023580661493983195 0.0048711388870999253 0.00099200479664876182 0.0072915764204752277 -0.0017428434860754832 -0.0010863206606789835 -0.0034888286388189576 0.012575378206562252
leaf_weight=133.86774596571922 2563.3833553195 4546.991788983345 752.22080156207085 3500.398013651371 2564.706876128912 3941.8818926811218 4068.7891937494278 826.73185056447983 2218.3761637806892 68.682987898588181 2278.8883584439754 966.84361520409584 2559.1881638169289 73.382273703813553
leaf_count=210 3772 6881 1094 5277 3792 5863 6136 1145 3228 115 3404 1511 4019 111
internal_value=3.825e-05 -0.00112745 0.00286685 -0.00035576 0.00243626 0.000304162 -0.00255033 0.00343727 0.00172307 0.00677682 -0.00107662 -0.0021164 -0.00335584 0.010227
internal_weight=31064.3 21996.8 9067.48 14268.2 8173.2 7442.28 7728.69 3391.44 4781.76 894.286 6825.88 5035.63 2693.06 142.065
internal_count=46558 33301 13257 21425 11937 11140 11876 4937 7000 1320 10285 7647 4229 226
is_linear=0
shrinkage=0.02


Tree=25
num_leaves=15
num_cat=0
split_feature=47 47 47 47 50 2 36 50 2 24 17 36 46 50
split_gain=234.418 57.3649 35.4998 17.7582 14.2153 7.73547 6.22396 5.3627 4.49872 4.1934 3.61635 3.44486 3.37795 2.80353
threshold=1.3334123123153587 2.0871077668009375 0.69194741313045471 2.9810734428068271 1.4500000000000002 26.578416666666673 1.5277777777777779 0.95000000000000007 27.313500000000001 0.88243930512068647 1.8493869691610749 0.5277777777777779 3.3875000000000006 0.95000000000000007
decision_type=2 2 2 2 2 2 2 2 2 2 2 2 2 2
left_child=2 4 10 6 8 7 -3 -4 -2 -7 13 -6 -5 -1
right_child=1 3 5 12 11 9 -8 -9 -10 -11 -12 -13 -14 -15
leaf_value=-0.0036936487944954307 -0.00010440673364217334 0.0028522117716389128 -0.0019514661676471373 0.0052614695953385297 0.0013274721168936082 -0.00075502640599534434 0.0050520056844859818 -0.0008763552427033007 0.0010002967088089969 0.00048931465990520689 -0.0019165286557525382 0.0026219247168134323 0.0081321775861804054 -0.0025799552855616747
leaf_weight=2327.7064568698406 2723.7691239714622 2717.9759902656078 3442.8549913465977 389.42270660400391 1439.6397955417633 3254.5493210852146 660.14639687538147 4149.5400834679604 3174.2887474894524 1611.7328412532806 1124.9540928602219 2084.69159501791 370.96542567014694 1668.9821221232414
leaf_count=3617 3982 3935 5145 573 2108 5096 1004 6164 4840 2417 1719 3033 546 2603
internal_value=-1.96766e-05 0.00195556 -0.00154393 0.00391874 0.00109159 -0.000966232 0.00328778 -0.00136558 0.000488579 -0.00034081 -0.00294634 0.00209705 0.00669276 -0.0032326
internal_weight=31141.2 13560.9 17580.3 4138.51 9422.39 12458.7 3378.12 7592.4 5898.06 4866.28 5121.64 3524.33 760.388 3996.69
internal_count=46782 20021 26761 6058 13963 18822 4939 11309 8822 7513 7939 5141 1119 6220
is_linear=0
shrinkage=0.02


Tree=26
num_leaves=15
num_cat=0
split_feature=47 47 47 47 50 15 37 36 13 36 24 37 47 42
split_gain=225.164 55.1037 34.0966 17.0595 13.6535 8.49715 6.02442 5.97577 5.13272 4.79681 3.44493 3.68593 3.2424 3.00672
threshold=1.3334123123153587 2.0871077668009375 0.69194741313045471 2.9810734428068271 1.4500000000000002 10.632915345620896 0.41173448114732975 1.5277777777777779 0.2713920879376977 0.31666666666666671 0.48865090099953779 0.023632568945836905 3.9196011521146108 0.55000000000000016
decision_type=2 2 2 2 2 2 2 2 2 2 2 2 2 2
left_child=2 4 10 7 8 9 -6 -3 -2 -4 11 -1 -5 -7
right_child=1 3 5 12 6 13 -8 -9 -10 -11 -12 -13 -14 -15
leaf_value=-0.0048524302366784152 -0.00014870826279410652 0.002795209493178651 -0.0016748832622883682 0.0059273802376779931 0.00061162849861589078 -0.000425800764399908 0.0025353812151769095 0.0049512707641644668 0.0010308703976897652 -0.00074654058489561303 -0.0022211966368047785 -0.00298240621672579 0.0098174127023846237 0.0009650702849977119
leaf_weight=538.41334322094917 2752.738961994648 2717.9759902656078 5058.6665889918804 644.04805102944374 886.0142942070961 2496.2923076450825 2638.3170963525772 660.14639687538147 3145.3189094662666 4079.4872086644173 2005.9566668570042 2577.2726617753506 116.34008124470711 824.23113185167313
leaf_count=877 3919 3935 7596 944 1301 3751 3840 1004 4903 6210 2980 4082 175 1265
internal_value=-1.92512e-05 0.0019166 -0.00151313 0.00384072 0.0010698 -0.000946933 0.00205521 0.00322218 0.000478779 -0.0012618 -0.00288756 -0.00331167 0.00655987 -7.71714e-05
internal_weight=31141.2 13560.9 17580.3 4138.51 9422.39 12458.7 3524.33 3378.12 5898.06 9138.15 5121.64 3115.69 760.388 3320.52
internal_count=46782 20021 26761 6058 13963 18822 5141 4939 8822 13806 7939 4959 1119 5016
is_linear=0
shrinkage=0.02


Tree=27
num_leaves=15
num_cat=0
split_feature=47 47 47 47 34 34 24 13 0 34 34 24 1 37
split_gain=216.277 52.9327 32.7578 16.3897 14.4576 10.9701 6.91975 6.00905 5.85164 5.34098 4.58641 3.61128 3.59096 3.52837
threshold=1.3334123123153587 2.0871077668009375 0.74024774280519035 2.9810734428068271 0.36940973376869474 0.29269892015596316 0.88243930512068647 0.1631928786656465 28.780758887943211 0.26684765366439017 1.5259641788073444 0.47029187717412585 30.957833333333337 0.38012736117329532
decision_type=2 2 2 2 2 2 2 2 2 2 2 2 2 2
left_child=2 4 9 10 12 6 -4 -6 -7 11 -3 -1 -2 -11
right_child=1 3 5 -5 7 8 -8 -9 -10 13 -12 -13 -14 -15
leaf_value=-0.0036046406967529653 -0.00094568601840470208 0.0028241533581289226 -0.0020611370282429754 0.0064297595124061706 0.00084065509097759454 -0.00068154101527438476 -0.00050189480157549686 0.0020178985203117405 0.00066545047207372348 -0.0010149699154390179 0.0048768635035530503 -0.0024449412828756326 0.00067369399001154155 -0.00328881860509069
leaf_weight=2259.3972226679325 1427.0685223639011 2838.195463269949 3465.1311839520931 760.38813227415085 3173.3211535811424 4627.1590660214424 1725.7782671153545 3942.1481152176857 1780.1766269505024 1079.1735453605652 539.92692387104034 2267.2976345717907 879.85147085785866 376.20636236667633
leaf_count=3663 2142 4128 5296 1119 4447 6934 2620 5955 2656 1621 811 3388 1419 583
internal_value=-1.88333e-05 0.00187843 -0.00148294 0.00376428 0.00104844 -0.000861396 -0.00154507 0.00149467 -0.00030565 -0.00268563 0.00315789 -0.00302732 -0.00032368 -0.00161331
internal_weight=31141.2 13560.9 17580.3 4138.51 9422.39 11598.2 5190.91 7115.47 6407.34 5982.07 3378.12 4526.69 2306.92 1455.38
internal_count=46782 20021 26761 6058 13963 17506 7916 10402 9590 9255 4939 7051 3561 2204
is_linear=0
shrinkage=0.02


Tree=28
num_leaves=15
num_cat=0
split_feature=46 46 46 50 50 1 46 42 37 37 14 42 37 21
split_gain=200.143 43.5912 34.0641 12.7572 9.64063 8.74543 7.43001 6.78276 6.09123 5.07947 4.89996 4.22736 3.24328 3.04027
threshold=1.5857142857142861 0.95000000000000007 2.6125000000000003 1.1500000000000004 1.3500000000000003 26.794166666666673 3.3875000000000006 0.35000000000000003 0.87307719272682427 0.41173448114732975 10.500000000000002 0.65000000000000002 0.24392730480643723 0.97836525459536738
decision_type=2 2 2 2 2 2 2 2 2 2 2 2 2 2
left_child=1 5 3 10 11 7 -4 -1 -5 -6 -2 -3 -7 -8
right_child=2 4 6 8 9 12 13 -9 -10 -11 -12 -13 -14 -15
leaf_value=-0.0028742659669948279 0.0013340032639093955 -0.00080704901551132162 0.0042567425685345337 0.0018670045317630347 -0.00016466818942965523 -0.0015354383261400532 0.0036562244660077164 -0.0016222410874140254 0.0032579960422597304 0.0013061234721085482 -0.00038164130495959864 0.0010506575239194039 1.310477583823297e-05 0.0084934317209044968
leaf_weight=4777.9223775267601 2200.8630042672157 6940.9915825426579 1061.470922678709 3216.2076632082462 1867.3675907552242 1607.2843282818794 77.456239491701126 2806.2612544596195 2152.2134591937065 1865.7397281229496 941.92259588837624 520.95201215147972 795.75356006622314 308.81337180733681
leaf_count=7288 3419 10465 1553 4648 2804 2457 119 4295 3079 2811 1376 777 1240 451
internal_value=-1.84518e-05 -0.00111815 0.00231931 0.00183423 -0.000260088 -0.00207874 0.00515768 -0.00241287 0.00242752 0.000568035 0.000816713 -0.000675768 -0.0010189 0.00757304
internal_weight=31141.2 21182.3 9958.95 8511.21 11195.1 9987.22 1447.74 7584.18 5368.42 3733.11 3142.79 7461.94 2403.04 386.27
internal_count=46782 32137 14645 12522 16857 15280 2123 11583 7727 5615 4795 11242 3697 570
is_linear=0
shrinkage=0.02


Tree=29
num_leaves=15
num_cat=0
split_feature=44 44 44 47 44 0 44 44 47 34 34 44 12 24
split_gain=253.825 48.3328 32.92 12.6841 8.0111 5.76876 4.70461 4.3246 4.23317 3.80691 3.50576 3.16799 2.57915 2.54619
threshold=1.3504594507058583 2.0059464131314129 0.87800253185978849 3.3663875187017012 1.6778002190500094 19.707834606448763 1.1451377873138782 0.71371052007032643 1.1384472547762996 0.28416702966748059 0.17737390290058766 3.350584010286628 18.374701158254734 0.66545569042890906
decision_type=2 2 2 2 2 2 2 2 2 2 2 2 2 2
left_child=2 4 7 5 10 -3 13 8 -1 -6 -2 -5 -9 -4
right_child=1 3 6 11 9 -7 -8 12 -10 -11 -12 -13 -14 -15
leaf_value=-0.0030580826099328015 -0.001295182675558838 0.00034730199594043559 -0.0006994901442731828 0.00542332924067383 -0.00067817859038058598 0.0037594451264198561 -0.00033387816375597126 -0.0027762286865940385 0.0014191496664051524 0.0021997903415270342 0.00093638143587230149 0.0094370293874851338 -0.001552152127771835 -0.0015470456071791042
leaf_weight=4337.5526798665524 291.97668790817261 217.74764433503151 2491.8071491122246 191.52049818634987 188.2364190518856 3415.8429839015007 4457.9586295187473 1106.9579415917397 81.980860114097595 3316.9863483607769 5315.1434370279312 183.48304608464241 2052.8150510191917 3491.2103143632412
leaf_count=6844 481 352 3737 281 322 4991 6622 1685 162 4835 7772 275 3133 5290
internal_value=-1.80341e-05 0.00209752 -0.00155903 0.00392846 0.00129029 0.00355802 -0.000829039 -0.00256283 -0.00297217 0.00204209 0.000817975 0.00745334 -0.00198563 -0.00119608
internal_weight=31141.2 13120.9 18020.3 4008.59 9112.34 3633.59 10441 7579.31 4419.53 3505.22 5607.12 375.004 3159.77 5983.02
internal_count=46782 19309 27473 5899 13410 5343 15649 11824 7006 5157 8253 556 4818 9027
is_linear=0
shrinkage=0.02


Tree=30
num_leaves=15
num_cat=0
split_feature=44 44 44 44 37 44 2 44 44 25 14 13 34 46
split_gain=242 48.5648 35.4664 10.7599 8.18898 7.34104 6.16296 4.73662 4.38278 4.22421 4.07146 4.05212 3.44564 3.08624
threshold=1.4728446949254532 1.0143108708417226 2.2060308437682044 0.74758820098940271 1.8985095752092078 1.8250186697121522 20.731145833333336 3.6731670969275649 1.2625644762519213 1.6333333333333335 9.5000000000000018 0.13225278764451434 0.32869250798297472 1.1547619047619049
decision_type=2 2 2 2 2 2 2 2 2 2 2 2 2 2
left_child=1 3 5 13 6 10 -4 -6 -3 -10 -2 -7 -5 -1
right_child=2 8 4 12 7 11 -8 -9 9 -11 -12 -13 -14 -15
leaf_value=-0.0029561052356655449 0.0019135805442356108 -0.00060629573930746515 -0.00011102193183039034 -0.0019206187270530111 0.0056396595101036364 0.0017051180698469568 0.0041146107658237537 0.010627413251965388 0.00038783741850743003 -0.0027636640749158581 0.00075787959251622753 0.0031905122201585424 -0.00083469400102556492 -8.1142033814465635e-05
leaf_weight=4887.4151179790497 2353.2545841932297 5498.5388607382774 144.02531453967094 3852.487641453743 550.37139075994492 1341.5088961422443 1862.3231371641159 97.950703829526901 3998.903450101614 175.13952332735062 2623.0749929845333 1767.3302483260632 1740.2428705990314 161.56894823908806
leaf_count=7626 3572 8221 236 5822 827 1863 2674 152 5901 261 3756 2676 2679 309
internal_value=2.14959e-05 -0.00126189 0.00244972 -0.00219417 0.00445752 0.00178831 0.00380649 0.00643897 -0.000234926 0.000251948 0.00130696 0.00255427 -0.00158493 -0.00286615
internal_weight=31054.1 20314.3 10739.8 10641.7 2654.67 8085.17 2006.35 648.322 9672.58 4174.04 4976.33 3108.84 5592.73 5048.98
internal_count=46575 30819 15756 16436 3889 11867 2910 979 14383 6162 7328 4539 8501 7935
is_linear=0
shrinkage=0.02


Tree=31
num_leaves=15
num_cat=0
split_feature=44 44 44 44 0 44 50 6 44 44 34 46 47 46
split_gain=232.449 46.6436 34.0933 10.3318 9.2599 8.55353 6.69586 4.91457 4.24639 4.16371 3.30764 3.0256 3.01458 2.96123
threshold=1.4728446949254532 1.0143108708417226 2.1635340489232786 0.74758820098940271 21.776236987331036 3.350584010286628 1.7500000000000002 6.5000000000000009 1.1902584819257849 1.8250186697121522 0.32869250798297472 0.95000000000000007 0.76046758906172884 1.1547619047619049
decision_type=2 2 2 2 2 2 2 2 2 2 2 2 2 2
left_child=1 3 6 13 -4 -6 9 -8 11 -2 -5 -3 -10 -1
right_child=2 8 4 10 5 -7 7 -9 12 -11 -12 -13 -14 -15
leaf_value=-0.0028970073149419944 0.0009915585562763644 0.0001785434154069259 0.00023786682191906646 -0.0018822262932644562 0.0042293045684193035 0.0084089807548553604 0.00296326451940777 -0.0014584865444044399 -0.0036311146271842216 0.0021324217484088607 -0.00081801929292476183 -0.0010760162025657705 0.00016960167637243136 -7.9539061361888605e-05
leaf_weight=4887.4151179790497 3930.9463869333267 1032.9349734187126 217.22076717019081 3852.487641453743 2452.4213337898254 219.8883467912674 1869.5821813046932 101.98784241080284 82.556628942489624 1947.7924095392227 1740.2428705990314 2861.7930215597153 5695.2972102463245 161.56894823908806
leaf_count=7626 5803 1511 371 5822 3529 337 2669 140 146 2907 2679 4324 8402 309
internal_value=2.10906e-05 -0.00123671 0.00240092 -0.00215037 0.0042602 0.004583 0.00171438 0.00272822 -0.000230239 0.00137186 -0.00155328 -0.000740803 0.000112327 -0.00280889
internal_weight=31054.1 20314.3 10739.8 10641.7 2889.53 2672.31 7850.31 1971.57 9672.58 5878.74 5592.73 3894.73 5777.85 5048.98
internal_count=46575 30819 15756 16436 4237 3866 11519 2809 14383 8710 8501 5835 8548 7935
is_linear=0
shrinkage=0.02


Tree=32
num_leaves=15
num_cat=0
split_feature=44 44 44 37 44 0 4 50 6 14 45 1 34 44
split_gain=223.476 44.6027 32.3113 14.4187 7.33087 6.29995 5.30745 5.01562 3.89472 3.84065 3.57997 3.064 2.64937 2.43781
threshold=1.3504594507058583 1.8947776014517053 0.79379959429668812 1.7375664141734928 1.0248484866310013 21.210962586301783 47.4732674413628 1.7500000000000002 6.5000000000000009 8.5000000000000018 1.5500000000000003 25.355708333333336 0.32869250798297472 0.52519146772627245
decision_type=2 2 2 2 2 2 2 2 2 2 2 2 2 2
left_child=2 7 10 5 12 -3 -5 9 -9 -2 13 -6 -4 -1
right_child=1 3 4 6 11 -7 -8 8 -10 -11 -12 -13 -14 -15
leaf_value=-0.0033530529521227314 0.0017404015629921153 0.00047587613977821084 -0.0017523018319832108 0.0046615994100389002 -0.00085316853581337865 0.0032264153841294126 0.0080674555409271827 0.0023204969253515645 -0.0019299435699803749 0.00056476517814124823 0.00083392483140502501 -1.7293805317810042e-05 -0.00075918934163103787 -0.0024267377736933373
leaf_weight=1730.1350906789303 1449.2061905860901 375.90493085980415 3292.3820015788078 612.055733948946 3359.3315377533436 3747.0784203112125 291.81590375304222 1532.1746276319027 87.319188117980957 4993.6706255674362 111.39842396974564 3721.1829118728638 1666.0920018851757 4084.3880918622017
leaf_count=2921 2263 587 4995 918 4872 5397 441 2237 122 7241 215 5695 2543 6128
internal_value=2.06784e-05 0.00200848 -0.00142714 0.00348762 -0.000830606 0.00297842 0.00578761 0.00108437 0.00208306 0.000831213 -0.00263667 -0.000415413 -0.00142106 -0.00270514
internal_weight=31054.1 13089.2 17964.9 5026.85 12039 4122.98 903.872 8062.37 1619.49 6442.88 5925.92 7080.51 4958.47 5814.52
internal_count=46575 19206 27369 7343 18105 5984 1359 11863 2359 9504 9264 10567 7538 9049
is_linear=0
shrinkage=0.02


Tree=33
num_leaves=15
num_cat=0
split_feature=44 44 44 44 37 44 0 13 44 30 13 44 46 46
split_gain=214.934 42.9044 31.6394 9.56331 7.44544 6.48324 5.94393 5.70378 3.94709 3.7939 3.39145 3.16984 2.91408 2.77958
threshold=1.4728446949254532 1.0143108708417226 2.2060308437682044 0.74758820098940271 2.3117949336627786 1.770025153294468 21.776236987331036 0.12668717773682839 1.1902584819257849 0.35454456840227749 2.3256058237248394 3.6731670969275649 0.95000000000000007 1.1547619047619049
decision_type=2 2 2 2 2 2 2 2 2 2 2 2 2 2
left_child=1 3 5 13 6 -2 -4 -7 12 -10 -5 -6 -3 -1
right_child=2 8 4 10 11 7 -8 -9 9 -11 -12 -13 -14 -15
leaf_value=-0.0027844717858852737 0.0011550263631762221 0.00018605243021050196 0.00021171564471132246 -0.001619519298982858 0.0056358340684817708 0.0013841686583827026 0.0040761542570522018 0.0029836664450569976 0.00023353604237320025 -0.0019806797606638994 0.00037501854467702133 0.010296508016278412 -0.0010451236928483774 -5.3617371626903789e-05
leaf_weight=4887.4151179790497 4360.9773188829422 1032.9349734187126 178.18543767929077 5237.2758392989635 246.18237540125847 1601.7162131667137 2136.2228363454342 2122.4751895964146 5452.1843478679657 325.66949132084846 355.45467275381088 94.079896867275238 2861.7930215597153 161.56894823908806
leaf_count=7626 6418 1511 306 7900 385 2219 3053 3230 8066 482 601 145 4324 309
internal_value=2.02787e-05 -0.00118919 0.00230871 -0.00206547 0.00420522 0.00168389 0.00378339 0.00229954 -0.000223857 0.000106359 -0.00149088 0.00700633 -0.000716105 -0.00269912
internal_weight=31054.1 20314.3 10739.8 10641.7 2654.67 8085.17 2314.41 3724.19 9672.58 5777.85 5592.73 340.262 3894.73 5048.98
internal_count=46575 30819 15756 16436 3889 11867 3359 5449 14383 8548 8501 530 5835 7935
is_linear=0
shrinkage=0.02


Tree=34
num_leaves=15
num_cat=0
split_feature=44 44 44 44 37 44 2 44 44 45 30 34 27 26
split_gain=206.45 41.2062 30.3954 9.18398 7.23184 6.24699 5.49714 4.15877 3.80428 3.34395 3.23056 3.05772 2.82776 2.3936
threshold=1.4728446949254532 1.0143108708417226 2.2060308437682044 0.74758820098940271 1.8985095752092078 1.8250186697121522 20.731145833333336 3.6731670969275649 1.2625644762519213 1.5500000000000003 0.35454456840227749 0.32869250798297472 1.1047646803564397 0.43650793650793651
decision_type=2 2 2 2 2 2 2 2 2 2 2 2 2 2
left_child=1 3 5 9 6 12 -4 -6 13 -1 -10 -5 -2 -3
right_child=2 8 4 11 7 -7 -8 -9 10 -11 -12 -13 -14 -15
leaf_value=-0.002716312102589788 0.001596377368401469 0.00041782356083828586 -0.00018707675791882335 -0.001777285357952066 0.0052334967674596954 0.0023571287512627027 0.0038005358077250924 0.0099139354225701547 0.00037599472856029016 0.0010159562860977652 -0.0019713300496299493 -0.00075394793570399393 0.00061165509879685081 -0.0007417188683061074
leaf_weight=4955.9684011638165 2990.9896533787251 827.06485366821289 144.02531453967094 3852.487641453743 550.37139075994492 3108.8391444683075 1862.3231371641159 97.950703829526901 3927.5744610130787 93.015665054321289 246.46851241588593 1740.2428705990314 1985.3399237990379 4671.4740070700645
leaf_count=7754 4420 1245 236 5822 827 4539 2674 152 5797 181 365 2679 2908 6976
internal_value=1.99235e-05 -0.00116543 0.00226274 -0.00202419 0.00412164 0.00165029 0.00350941 0.00598432 -0.00021937 -0.0026452 0.000234118 -0.00146103 0.00120593 -0.000565399
internal_weight=31054.1 20314.3 10739.8 10641.7 2654.67 8085.17 2006.35 648.322 9672.58 5048.98 4174.04 5592.73 4976.33 5498.54
internal_count=46575 30819 15756 16436 3889 11867 2910 979 14383 7935 6162 8501 7328 8221
is_linear=0
shrinkage=0.02


Tree=35
num_leaves=15
num_cat=0
split_feature=47 47 47 42 42 1 1 1 1 37 47 51 31 40
split_gain=160.261 45.4714 23.3783 11.4767 6.65396 6.45535 6.38183 5.16481 5.04891 4.86735 4.67198 3.39288 2.82729 2.35283
threshold=1.6193829182899551 0.87595934972873402 2.5743460728161662 0.35000000000000003 0.8500000000000002 25.264166666666672 21.919333333333338 27.188833333333335 30.873000000000005 1.7375664141734928 0.5147240895786408 1.6500000000000001 1.6256468556260375 -0.028633925666086198
decision_type=2 2 2 2 2 2 2 2 2 2 2 2 2 2
left_child=1 5 4 7 8 10 -5 -3 -2 -4 -1 -11 -6 -7
right_child=2 3 9 6 12 13 -8 -9 -10 11 -12 -13 -14 -15
leaf_value=-0.0031834905027381573 0.00083883332027008225 -0.0012676969599161711 0.0033985384893165599 -0.00049782936567372045 0.0031080887821549412 -0.00043949858626988298 0.00080940231645755989 -0.00015572104494582627 0.0020374466835031981 0.0048190180831806867 -0.0020050890968244381 0.0082066513451029173 0 -0.0017437340004163142
leaf_weight=2067.0595840513706 2893.2561540305614 3827.8458007872105 891.99577906727791 2210.263202637434 1558.5090450644493 1062.3176884651184 4557.4019100368023 3004.7916058599949 2817.7369304299355 543.87445712089539 4219.4850645959377 175.10448426008224 130.09940275549889 1216.8721406161785
leaf_count=3283 4254 5707 1261 3217 2187 1626 6894 4644 4192 859 6366 243 187 1864
internal_value=-6.97306e-06 -0.000921538 0.00224145 -0.000201748 0.00176299 -0.00206291 0.000380973 -0.000780335 0.00143247 0.00442803 -0.00239504 0.00567841 0.00287191 -0.00114114
internal_weight=31176.6 22166 9010.58 13600.3 7399.6 8565.73 6767.67 6832.64 5710.99 1610.97 6286.54 718.979 1688.61 2279.19
internal_count=46784 33601 13183 20462 10820 13139 10111 10351 8446 2363 9649 1102 2374 3490
is_linear=0
shrinkage=0.02


Tree=36
num_leaves=15
num_cat=0
split_feature=44 44 44 44 44 46 13 44 13 15 1 13 1 40
split_gain=191.627 44.4684 27.1146 10.1023 6.83847 6.13123 5.61058 4.92006 3.92276 3.67087 3.58477 2.92606 2.75997 1.81916
threshold=1.3034661488191503 1.8947776014517053 0.88952398139387856 2.4645443338780546 1.6881363217430467 1.3166666666666669 2.1880020564231093 0.72050816511253324 0.13225278764451434 9.2687519030027747 31.729833333333335 0.36029461421249215 21.598875000000003 -0.16624104677356596
decision_type=2 2 2 2 2 2 2 2 2 2 2 2 2 2
left_child=2 4 5 8 10 7 12 -1 -3 -5 -2 -6 -4 -8
right_child=1 3 6 9 11 -7 13 -9 -10 -11 -12 -13 -14 -15
leaf_value=-0.0028011338312636585 0.00023727674287734386 0.001847441543915633 -0.001327958256543949 0.0015468005134771803 0.0010860695387532799 0.0015198059426291531 0.0037777034209704958 -0.0017624665599469992 0.0032198166242108795 0.0049874631637606163 0.0012383669536651151 0.0025181997281331233 -0.00056679344576728268 0.00059759779473418965
leaf_weight=4517.3519174456596 4591.765771985054 1494.4918839335442 2994.5057543814182 149.14064857363701 1179.1250971257687 161.01372867822647 81.347979068756104 3212.955846786499 2068.4817173480988 1307.9043847322464 2100.6385877728462 1182.6972458362579 5474.5489795207977 660.64370658993721
leaf_count=7103 6715 2064 4346 265 1646 314 135 4848 3084 1937 3121 1838 8267 1101
internal_value=-6.80606e-06 0.0017212 -0.00142947 0.0032314 0.000882257 -0.00229027 -0.000690591 -0.00237129 0.00264834 0.00464474 0.000553273 0.00180897 -0.000837358 0.000968906
internal_weight=31176.6 14074.2 17102.4 5020.02 9054.23 7891.32 9211.05 7730.31 3562.97 1457.05 6692.4 2361.82 8469.05 741.992
internal_count=46784 20670 26114 7350 13320 12265 13849 11951 5148 2202 9836 3484 12613 1236
is_linear=0
shrinkage=0.02


Tree=37
num_leaves=15
num_cat=0
split_feature=46 34 34 24 24 24 34 34 34 16 15 15 2 34
split_gain=150.238 41.7401 24.9792 15.2988 9.46578 9.2815 7.79077 6.0828 5.21483 4.91564 4.63251 3.71956 3.4667 3.1833
threshold=1.5857142857142861 0.29269892015596316 1.3089130910873916 0.64137686461498167 0.71833803581807099 1.3655571501124617 0.5300729241195552 0.49335254769103892 0.36275070660520597 10.830000000000004 11.567451723691207 16.002512416384999 29.643416666666671 1.5836888989424318
decision_type=2 2 2 2 2 2 2 2 2 2 2 2 2 2
left_child=1 3 5 9 6 7 -3 -2 -7 -1 -4 -5 -6 -12
right_child=2 4 10 11 12 8 -8 -9 -10 -11 13 -13 -14 -15
leaf_value=-0.0028272399636250839 7.1815787043362289e-05 -0.0012791416961553737 0.0028933855806317515 -0.0012458431172939711 0.00015280522179881076 0.00080892857544979891 0.00017577610432589587 0.0015281890779026662 0.0031582854290510506 -0.00091604474323065332 0.0033701891454003402 0.00061369730875800112 0.0012687858966629409 0.0058776943699162853
leaf_weight=4652.5547325909138 1576.585266917944 3114.7724779248238 679.98035201430321 4985.1968803703785 2724.9518117010593 497.18738833069801 2769.1673141717911 4360.5135506689548 1782.2360056936741 629.74340158700943 333.58797973394394 462.19376742839813 1909.8522581160069 698.09006252884865
leaf_count=7139 2410 4705 1014 7659 3947 778 4247 6300 2542 1029 484 657 2838 1035
internal_value=-6.59795e-06 -0.000955929 0.00202395 -0.00183351 -5.96217e-05 0.00156343 -0.000592886 0.00114329 0.00265139 -0.00260172 0.00422438 -0.00108606 0.00061517 0.00508467
internal_weight=31176.6 21248.4 9928.18 10729.7 10518.7 8216.52 5883.94 5937.1 2279.42 5282.3 1711.66 5447.39 4634.8 1031.68
internal_count=46784 32221 14563 16484 15737 12030 8952 8710 3320 8168 2533 8316 6785 1519
is_linear=0
shrinkage=0.02


Tree=38
num_leaves=15
num_cat=0
split_feature=44 44 44 44 44 46 44 34 19 15 46 50 27 19
split_gain=177.551 41.1607 25.0181 9.35588 6.41023 5.1164 4.38329 3.75649 3.58535 3.45602 3.16771 3.04901 2.98585 2.60663
threshold=1.3034661488191503 1.8947776014517053 0.83041747760564311 2.4645443338780546 1.6415569361317266 1.1180555555555558 1.0410199307512256 0.53428097870815117 0.81909191975199225 8.5964905900842705 1.2928571428571431 1.1500000000000004 1.0001416618206476 1.7263450937950202
decision_type=2 2 2 2 2 2 2 2 2 2 2 2 2 2
left_child=2 4 5 10 8 9 13 -5 -2 -1 -3 -6 -8 -4
right_child=1 3 6 7 11 -7 12 -9 -10 -11 -12 -13 -14 -15
leaf_value=-0.0026628202375484872 0.00015909431053413102 -0.0015647229035484417 -0.0014232091880883014 0 0.00073529907240172906 0.00029735202950092538 -0.00014782023379892258 0.004702905869128326 0.0012267462844761177 -0.0013881369339475381 0.0026336623446583897 0.0020934855013267002 -0.0012443969111447003 -0.00010430219435220099
leaf_weight=5303.5707523524761 4294.0520141124725 69.149462074041367 3950.4657858610153 72.783784776926041 1057.3681679964066 275.65883347392082 4497.3555761277676 1384.2612485289574 1794.7151833474636 1065.0285232961178 3493.8241392076015 1908.0913372635841 1283.791792601347 726.49664875864983
leaf_count=8135 6264 134 5973 117 1620 519 6742 2085 2682 1708 5014 2754 1926 1111
internal_value=-6.39715e-06 0.00165692 -0.00137583 0.0031099 0.000849724 -0.00233611 -0.000764457 0.00447036 0.000475735 -0.00245173 0.00254854 0.0016134 -0.000393407 -0.00122061
internal_weight=31176.6 14074.2 17102.4 5020.02 9054.23 6644.26 10458.1 1457.05 6088.77 6368.6 3562.97 2965.46 5781.15 4676.96
internal_count=46784 20670 26114 7350 13320 10362 15752 2202 8946 9843 5148 4374 8668 7084
is_linear=0
shrinkage=0.02


Tree=39
num_leaves=15
num_cat=0
split_feature=47 47 34 34 24 34 50 24 13 3 13 1 1 32
split_gain=137.296 43.5907 18.3425 13.2701 9.16492 8.95823 6.76223 5.97688 5.93955 4.24383 3.98536 3.814 3.68145 2.30478
threshold=1.1866953458707294 1.922770752813258 0.28691114898871178 1.6495712487565182 0.64137686461498167 0.4095769874046456 1.3500000000000003 0.74704237448515109 0.036318817743398811 49.044775313240386 2.2095498486475935 23.578500000000005 25.451333333333338 0.55000000000000016
decision_type=2 2 2 2 2 2 2 2 2 2 2 2 2 2
left_child=2 5 4 8 11 12 -7 10 -3 -5 -4 -1 -2 -9
right_child=1 3 7 9 -6 6 -8 13 -10 -11 -12 -13 -14 -15
leaf_value=-0.0028910322413888403 -0.0010281764317575284 0.0013824180156180104 -0.0010493186554482046 0.0043096079972230975 -0.0012216120051771607 0.00039253088755754009 0.0016669705407209164 -0.00070224263351262588 0.0028569010906573495 0.0082943681239694873 0.0010416050370806735 -0.0016858291448682004 0.00022507878158481494 0.0011951746026256295
leaf_weight=3566.6224398612976 1464.2969650328159 1874.215885668993 4193.4023912847042 758.40215259790421 3803.3121443688869 3775.9661614894867 3017.8649922013283 344.12664848566055 2766.4021237194538 135.13022994995117 392.98876801133156 1575.2783446013927 2576.3470875024796 932.25691500306129
leaf_count=5518 2167 2538 6309 1155 5797 5590 4380 508 4172 196 653 2421 4005 1375
internal_value=-6.25662e-06 0.00125572 -0.00140189 0.00269993 -0.00197208 0.000516747 0.000960441 -0.000529834 0.0022644 0.00494057 -0.000867601 -0.00252455 -0.000226901 0.00067549
internal_weight=31176.6 16368.6 14808 5534.15 8945.21 10834.5 6793.83 5862.77 4640.62 893.532 4586.39 5141.9 4040.64 1276.38
internal_count=46784 24203 22581 8061 13736 16142 9970 8845 6710 1351 6962 7939 6172 1883
is_linear=0
shrinkage=0.02


Tree=40
num_leaves=15
num_cat=0
split_feature=44 44 44 44 20 16 46 13 44 13 13 42 12 42
split_gain=162.752 36.6177 20.5245 11.0437 4.58062 4.4362 4.36777 3.71616 3.52357 3.50928 2.85958 2.45223 2.18638 1.97572
threshold=1.3504594507058583 1.8947776014517053 0.79379959429668812 2.4234090182427734 -0.44254539011205901 9.0633333333333344 0.95000000000000007 2.2095498486475935 1.0463122077618292 0.95989711988227289 0.13225278764451434 0.65000000000000002 18.122072904609571 0.35000000000000003
decision_type=2 2 2 2 2 2 2 2 2 2 2 2 2 2
left_child=2 4 6 10 11 -5 12 8 -4 -6 -3 -2 -1 -9
right_child=1 3 7 5 9 -7 -8 13 -10 -11 -12 -13 -14 -15
leaf_value=-0.0030370502235452959 -0.0001684828052143481 0.0016994207386777647 -0.0012423277142374692 0.001576570951987174 0.00083658458338204788 0.0048202188318780519 -0.00041328708809791273 -0.00036461320365537914 -0.00052509195632765876 0.001914560297932107 0.0029015499387539884 0.0011157421708292239 -0.0021001296734722203 0.0014954688130257136
leaf_weight=1448.7614849805832 1962.4397359192371 1455.4589034020901 5024.3776739537716 205.27981153130531 3521.8822702467442 1409.5574525594711 522.47989094257355 491.11432728171349 6195.9688822627068 1890.8947769403458 1939.2556485533714 845.73217359185219 3967.7860476970673 414.40120723843575
leaf_count=2251 2931 2025 7568 344 4975 2084 932 813 9194 2927 2914 1242 6109 686
internal_value=1.31449e-05 0.00169864 -0.00122079 0.00304702 0.000875229 0.00441653 -0.00218478 -0.000747534 -0.000847319 0.00121558 0.00239039 0.000215245 -0.0023536 0.000477038
internal_weight=31295.4 13230.5 18064.9 5009.55 8220.95 1614.84 5939.03 12125.9 11220.3 5412.78 3394.71 2808.17 5416.55 905.516
internal_count=46995 19442 27553 7367 12075 2428 9292 18261 16762 7902 4939 4173 8360 1499
is_linear=0
shrinkage=0.02


Tree=41
num_leaves=15
num_cat=0
split_feature=47 47 47 50 42 15 47 1 13 17 13 40 36 12
split_gain=117.333 28.2583 23.5991 9.74299 9.64514 5.27315 4.46262 4.45761 4.20594 3.76214 3.21833 2.74969 2.24932 1.91257
threshold=1.4779503177992599 2.5743460728161662 0.72019120886711629 1.4500000000000002 0.35000000000000003 15.721895031161436 3.3663875187017012 27.188833333333335 1.2375989382065458 2.3208627725083284 0.95989711988227289 -0.019028538952421795 1.5857142857142861 18.77456232052489
decision_type=2 2 2 2 2 2 2 2 2 2 2 2 2 2
left_child=2 3 9 8 7 -6 12 -4 -2 11 -5 -1 -3 -8
right_child=1 6 4 10 5 -7 13 -9 -10 -11 -12 -13 -14 -15
leaf_value=-0.0016887903972081847 0.00031221927048038605 0.0027132420607374232 -0.0013405889817190201 0.0015563084534710981 -0.00010699577042426712 0.0017274926088134957 0.0041055982271903813 -0.00035011082516391077 0.0015325201744152295 -0.0004798829572468715 0.0027653072723421985 -0.0026427954653701589 0.0044866046250699263 0.007276297148173151
leaf_weight=2514.6998645663261 3831.8749249279499 762.90697020292282 4676.4202947020531 2637.016883701086 6062.1564767360687 696.40415269136429 163.47683176398277 3027.3757563531399 1619.3356178998947 605.50271141529083 1394.1951712965965 2547.6454934179783 535.35475918650627 221.02437824010849
leaf_count=3848 5608 1087 6980 3677 9130 1036 246 4665 2572 919 2104 3992 816 315
internal_value=1.28929e-05 0.00165738 -0.000898794 0.00123147 -0.000469071 8.10064e-05 0.00404713 -0.000952848 0.000676985 -0.00199298 0.00197808 -0.00217173 0.00345798 0.00598232
internal_weight=31295.4 11165.2 20130.2 9482.42 14462.4 6758.56 1682.76 7703.8 5451.21 5667.85 4031.21 5062.35 1298.26 384.501
internal_count=46995 16425 30570 13961 21811 10166 2464 11645 8180 8759 5781 7840 1903 561
is_linear=0
shrinkage=0.02


Tree=42
num_leaves=15
num_cat=0
split_feature=47 47 34 24 34 34 24 15 37 32 27 3 42 47
split_gain=112.711 27.1516 25.9525 10.6217 9.553 8.66487 7.7117 7.46623 5.52063 4.75863 3.99755 3.75857 2.34064 2.26542
threshold=1.4779503177992599 2.5743460728161662 0.22335013136820767 0.77939883545167443 0.71451588967910762 0.68678384031203998 1.2339579115401853 8.5964905900842705 1.7375664141734928 0.55000000000000016 0.35566502587822785 48.836530183007824 0.25000000000000006 2.9025707629667412
decision_type=2 2 2 2 2 2 2 2 2 2 2 2 2 2
left_child=2 4 7 5 6 -4 -2 10 13 -6 -1 -10 -5 -3
right_child=1 8 3 12 9 -7 -8 -9 11 -11 -12 -13 -14 -15
leaf_value=-0.0030926080536858181 3.404143535340006e-05 0.0020675160907188757 -0.001023025166206273 -0.00012444452370720941 0.0010275469358251926 0.0006844253291167317 0.0015653547326581136 -0.00083918525546616764 0.0044257475305727054 0.0024743955938663466 -0.0018472695595945412 0.0079601650783149343 0.00088236104390542153 0.0041412211456059115
leaf_weight=1434.7825383543968 3241.3514685332775 564.47953534126282 6622.0878998637199 1384.9185445904732 1465.9304998517036 1440.1045920848846 2228.0834970474243 2457.7279979884624 566.07806253433228 2547.0571323931217 4115.5245957672596 172.04771795868874 2675.0585812330246 380.15762355923653
leaf_count=2310 4751 806 9971 2077 2173 2229 3355 3791 875 3682 6286 257 3906 526
internal_value=1.26732e-05 0.00162444 -0.000880868 -0.000296108 0.00120693 -0.000716699 0.000660024 -0.00176451 0.00396698 0.00194913 -0.00217199 0.00528237 0.000536571 0.0029196
internal_weight=31295.4 11165.2 20130.2 12122.2 9482.42 8062.19 5469.43 8008.04 1682.76 4012.99 5550.31 738.126 4059.98 944.637
internal_count=46995 16425 30570 18183 13961 12200 8106 12387 2464 5855 8596 1132 5983 1332
is_linear=0
shrinkage=0.02


Tree=43
num_leaves=15
num_cat=0
split_feature=44 44 44 44 1 14 36 16 15 25 16 13 42 12
split_gain=146.393 33.0393 18.4158 9.81951 4.69199 4.3704 4.1602 4.10936 3.5018 2.89285 2.79135 2.70702 2.64791 2.37738
threshold=1.3504594507058583 1.8947776014517053 0.79379959429668812 2.4234090182427734 25.355708333333336 8.5000000000000018 0.5634920634920636 9.0633333333333344 6.9231680333352026 0.77500000000000013 9.3600000000000048 0.13225278764451434 0.25000000000000006 18.122072904609571
decision_type=2 2 2 2 2 2 2 2 2 2 2 2 2 2
left_child=2 5 6 11 9 10 13 -5 -6 -4 -2 -3 -7 -1
right_child=1 3 4 7 8 12 -8 -9 -10 -11 -12 -13 -14 -15
leaf_value=-0.0028782713367807894 0.00063543156563323577 0.00160003796468575 -0.00073362546069310141 0.0014497055491135508 0.0010783088091220563 -9.7028438822124085e-05 0.00053823842568948628 0.004572215275146941 -0.00046640796216409266 -0.001605800697032256 0.0022568371630713843 0.0027695037611337281 0.00082149028014334073 -0.0019249537858565392
leaf_weight=1494.5884002149105 689.02713561058044 1455.4589034020901 3999.0898287296295 205.27981153130531 661.35180941224098 1696.1104186475277 228.15253156423569 1409.5574525594711 4930.8116923570633 2534.6087602376938 1205.7378306686878 1939.2556485533714 4630.0735717713833 4216.2864918410778
leaf_count=2331 1053 2025 5923 344 1031 2516 423 2084 7598 3709 1872 2914 6634 6538
internal_value=1.24687e-05 0.00161103 -0.00115779 0.00289187 -0.00070944 0.000828803 -0.00207097 0.00418375 -0.000281616 -0.00107389 0.00167378 0.00227229 0.000573694 -0.00217712
internal_weight=31295.4 13230.5 18064.9 5009.55 12125.9 8220.95 5939.03 1614.84 5592.16 6533.7 1894.76 3394.71 6326.18 5710.87
internal_count=46995 19442 27553 7367 18261 12075 9292 2428 8629 9632 2925 4939 9150 8869
is_linear=0
shrinkage=0.02


Tree=44
num_leaves=15
num_cat=0
split_feature=44 44 44 44 50 1 36 16 15 18 50 51 13 5
split_gain=140.612 31.7344 17.6856 9.42947 4.51985 4.50649 3.99797 3.9421 3.36371 2.95314 2.88735 2.87961 2.53184 2.23386
threshold=1.3504594507058583 1.8947776014517053 0.79379959429668812 2.4234090182427734 1.5500000000000003 25.355708333333336 0.5634920634920636 9.0633333333333344 6.9231680333352026 0.96096569588228831 0.75000000000000011 1.3500000000000003 0.99249139117505625 31.683154045517298
decision_type=2 2 2 2 2 2 2 2 2 2 2 2 2 2
left_child=2 4 6 11 -2 9 10 -5 -7 -4 -1 -3 -6 -8
right_child=1 3 5 7 12 8 13 -9 -10 -11 -12 -13 -14 -15
leaf_value=-0.0026810586760603388 0.00049449206967201124 0.0018946012529745407 -0.0001578492363670026 0.0014209912351990364 0.0010616101603380774 0.0010568076443824754 -0.0024552004865736293 0.0044809005308803773 -0.00045708358913212774 -0.0012569724838561161 -0.0017471805713107286 0.0033044242340612767 0.0024259757689911406 0.0018252978034667341
leaf_weight=2347.6813217401505 5666.66993445158 2605.7611817717552 1225.5201691687107 205.27981153130531 1720.550195991993 661.35180941224098 66.292651325464249 1409.5574525594711 4930.8116923570633 5308.1784197986126 3363.1935703158379 788.95337018370628 833.72882625460625 161.85988023877144
leaf_count=3615 8356 3851 1779 344 2424 1031 109 2084 7598 7853 5254 1088 1295 314
internal_value=1.22424e-05 0.00157893 -0.00113467 0.00283423 0.000812269 -0.000695274 -0.00202958 0.00410035 -0.000275943 -0.00105245 -0.00213364 0.00222695 0.00151241 0.000527567
internal_weight=31295.4 13230.5 18064.9 5009.55 8220.95 12125.9 5939.03 1614.84 5592.16 6533.7 5710.87 3394.71 2554.28 228.153
internal_count=46995 19442 27553 7367 12075 18261 9292 2428 8629 9632 8869 4939 3719 423
is_linear=0
shrinkage=0.02


Tree=45
num_leaves=15
num_cat=0
split_feature=44 44 44 36 50 44 34 13 43 34 1 24 43 4
split_gain=139.356 28.473 19.6878 8.57381 5.48587 4.74778 4.01284 3.94411 3.58083 3.46783 3.31758 1.99716 1.85073 1.82373
threshold=1.4794188970058786 0.89508435342878623 2.0059464131314129 2.8166666666666669 0.95000000000000007 1.2625644762519213 0.17737390290058766 2.1688401192191686 1.0000000180025095e-35 0.22335013136820767 24.266833333333334 1.2874061276334536 0.19999999999999998 47.044418652125252
decision_type=2 2 2 2 2 2 2 2 2 2 2 2 2 2
left_child=1 9 6 4 -4 8 12 -8 -3 10 -1 -7 -2 -5
right_child=2 5 3 13 -6 11 7 -9 -10 -11 -12 -13 -14 -15
leaf_value=-0.0026038935583061057 -0.0041154809525915277 0.00037790269039495909 0.00081348135126964912 0.0049160130337644091 0.0030333357619186647 0.00016036142024230548 0.0010823956526202507 0.0029826990805212885 -0.00086874077629936377 -0.0013550936606894599 -0.0014965826662625664 -0.0031862269043018243 -9.5059197579715744e-05 0.010031460991869402
leaf_weight=3599.1648904681206 72.230189859867096 1044.3820267617702 531.38078132271767 73.679028332233429 3309.7662387192249 4330.8773528337479 5965.5363703370094 478.26855653524399 7169.945507645607 2628.188163548708 1639.3070270121098 70.332856595516205 133.90787664055824 74.500345200300217
leaf_count=5623 126 1574 899 123 4724 6361 8625 763 10752 4120 2524 118 243 110
internal_value=-4.99932e-05 -0.00101485 0.0018064 0.00291859 0.00272943 -0.000424867 0.00113701 0.00122587 -0.00070897 -0.00195936 -0.00225999 0.000103188 -0.00157786 0.00765384
internal_weight=31121.5 20482.2 10639.3 3989.33 3841.15 12615.5 6649.94 6443.8 8214.33 7866.66 5238.47 4401.21 206.138 148.179
internal_count=46685 31072 15613 5856 5623 18805 9757 9388 12326 12267 8147 6479 369 233
is_linear=0
shrinkage=0.02


Tree=46
num_leaves=15
num_cat=0
split_feature=44 44 44 35 2 44 3 42 43 13 13 16 13 3
split_gain=133.853 27.3475 18.9144 7.08597 5.05693 4.59542 3.47475 3.42811 2.97646 2.79086 2.69743 2.64857 2.62833 1.99899
threshold=1.4794188970058786 0.89508435342878623 2.0059464131314129 2.4500000000000006 20.422722222222223 1.1451377873138782 49.044775313240386 0.55000000000000016 1.0000000180025095e-35 2.1688401192191686 2.3501592356687904 7.0400000000000018 0.61066865149121263 39.582337932180408
decision_type=2 2 2 2 2 2 2 2 2 2 2 2 2 2
left_child=1 10 7 4 -4 8 -5 12 -3 -9 13 -7 -2 -1
right_child=2 5 3 6 -6 11 -8 9 -10 -11 -12 -13 -14 -15
leaf_value=-0.0023068508536846556 0.00027631601471941761 0.0003883040617068882 -6.9093473172829095e-05 0.0043958587569928338 0.0028018830241826323 -0.00067092979554330182 0.0094249010099261791 0.0014693667744722896 -0.0010137180364242933 0.0039167253434376961 -0.00054909900469802479 0.00017893820578163215 0.0013303992608927307 -0.0016154006861760501
leaf_weight=4288.3694339990616 2243.4220348894596 678.14376002550125 257.09615749120712 256.4386351108551 3396.3653358817101 2084.2430518865585 79.426265090703964 2523.9134419262409 4937.9813224375248 206.77761161327362 555.30661800503731 4915.1696094870567 1675.8299049437046 3022.9840290248394
leaf_count=6434 3202 1025 405 410 4931 3045 110 3599 7433 319 986 7302 2637 4847
internal_value=-4.89681e-05 -0.000994587 0.0017704 0.00286056 0.00259719 -0.000416365 0.00566349 0.00111424 -0.000842567 0.00166108 -0.00192025 -7.28215e-05 0.00073003 -0.00202285
internal_weight=31121.5 20482.2 10639.3 3989.33 3653.46 12615.5 335.865 6649.94 5616.13 2730.69 7866.66 6999.41 3919.25 7311.35
internal_count=46685 31072 15613 5856 5336 18805 520 9757 8458 3918 12267 10347 5839 11281
is_linear=0
shrinkage=0.02


Tree=47
num_leaves=15
num_cat=0
split_feature=47 47 47 36 50 1 40 50 50 17 31 0 40 4
split_gain=102.248 25.373 14.9564 9.04342 7.95326 5.4954 5.2986 4.8802 4.82869 3.54335 2.94552 2.7383 2.60842 2.1559
threshold=1.3334123123153587 2.0715044468466339 0.71355521043901005 2.7071428571428577 1.4500000000000002 25.540333333333333 -0.11883022853042573 0.95000000000000007 0.65000000000000013 2.3208627725083284 0.76819961302373763 32.789085455112648 -0.019028538952421795 45.329468539004786
decision_type=2 2 2 2 2 2 2 2 2 2 2 2 2 2
left_child=2 4 9 7 5 -2 11 -3 -8 12 -6 -4 -1 -5
right_child=1 3 6 13 10 -7 8 -9 -10 -11 -12 -13 -14 -15
leaf_value=-0.0016307832768488459 -0.00058148515766193024 0.00073368596916888727 -4.9113226447720075e-05 0.0040206411566003951 0.0020836953541196819 0.00068470043314539444 -0.0017796529212760963 0.0026425085614849354 -0.00064912048637900174 -0.00044512776856077256 0.00089904829694120952 0.0021243941626979874 -0.0025803303329475663 0.009168419750882225
leaf_weight=2420.0873213112354 2168.6785390079021 655.03009030222893 2058.7647860646248 70.557807505130768 1534.1552981138229 3700.770398825407 1892.4151234030724 3435.0782434046268 7844.6568628549576 590.74153789877892 1965.6177869737148 258.23476642370224 2431.1664986014366 95.512151122093201
leaf_count=3713 3148 1039 3118 118 2235 5657 2878 4903 11803 894 2823 376 3835 145
internal_value=-4.79399e-05 0.00125066 -0.00105985 0.00253168 0.000667249 0.000215121 -0.00066549 0.00233976 -0.000870188 -0.00193096 0.0014221 0.00019044 -0.00210957 0.00711466
internal_weight=31121.5 13625.4 17496.1 4256.18 9369.22 5869.45 12054.1 4090.11 9737.07 5442 3499.77 2317 4851.25 166.07
internal_count=46685 20068 26617 6205 13863 8805 18175 5942 14681 8442 5058 3494 7548 263
is_linear=0
shrinkage=0.02


Tree=48
num_leaves=15
num_cat=0
split_feature=47 47 47 35 1 13 36 13 43 1 17 4 4 47
split_gain=98.3013 27.2417 12.1409 8.90394 6.34373 5.7332 4.62649 4.16603 3.66623 3.55724 3.40134 2.74414 1.82674 1.67082
threshold=1.2662820119618263 2.0715044468466339 0.71355521043901005 2.4500000000000006 31.300166666666673 0.22565765860405665 0.68333333333333346 0.012706500820191152 -1.0000000180025095e-35 25.63816666666667 2.3208627725083284 47.300911284225386 48.543056848127613 0.5147240895786408
decision_type=2 2 2 2 2 2 2 2 2 2 2 2 2 2
left_child=2 4 10 7 6 -6 -2 -3 -4 -10 13 -5 -12 -1
right_child=1 3 8 11 5 -7 -8 -9 9 -11 12 -13 -14 -15
leaf_value=-0.0024742355946683857 -0.00022712534593289399 0.0013787790196571124 0.0011831381984418893 0.0039778707334171106 0.00032259227839666517 0.0019048560075725929 0.00082813835213560428 0.0027346741427777149 -0.0011246976865828808 -0.00037543568415157331 0.00079362198921787189 0.0078322564021774416 -0.0014267908718551797 -0.0017034943792300834
leaf_weight=2272.4056570529938 3924.3819835484028 1552.8156391084194 379.93856960535049 219.53417232632637 1602.5920159816742 2193.9201510250568 2867.9076567292213 2347.0179464221001 5944.5987573862076 4509.9544273912907 259.2060122191906 136.81053447723389 331.53552567958832 2578.8481628596783
leaf_count=3617 5766 2134 563 353 2296 3412 4219 3514 8849 6933 384 204 510 3931
internal_value=-4.69495e-05 0.00112962 -0.00112066 0.00248134 0.000584983 0.0012401 0.000217079 0.00219834 -0.000731804 -0.000802566 -0.00189245 0.00552104 -0.000436255 -0.00206745
internal_weight=31121.5 14845 16276.5 4256.18 10588.8 3796.51 6792.29 3899.83 10834.5 10454.6 5442 356.345 590.742 4851.25
internal_count=46685 21898 24787 6205 15693 5708 9985 5648 16345 15782 8442 557 894 7548
is_linear=0
shrinkage=0.02


Tree=49
num_leaves=15
num_cat=0
split_feature=37 24 37 24 37 2 24 50 3 13 37 38 33 13
split_gain=78.4636 29.7652 20.9918 12.8348 8.04911 7.93538 5.06561 4.76869 4.60823 3.31213 2.70805 2.60016 2.55608 2.37695
threshold=0.50633147710158244 0.79424150199803323 1.5472598872316639 1.0145868140907697 0.95592337527774218 29.643416666666671 1.3229815893810917 0.75000000000000011 49.044775313240386 0.20411914417461663 0.017333951101593553 2.5000000000000004 -0.54999999999999993 2.2095498486475935
decision_type=2 2 2 2 2 2 2 2 2 2 2 2 2 2
left_child=1 7 3 4 -2 12 -7 10 -4 -5 -1 -10 -3 -9
right_child=2 5 8 9 -6 6 -8 13 11 -11 -12 -13 -14 -15
leaf_value=-0.0037695145413246508 0 -0.0023746845489206496 0.0030772390724179244 0.0012214584693825176 0.0014514992033366105 0.00031789268759477399 0.0020376541853450022 -0.0013333938574304738 0.0044191545671655782 0.0024948510257233113 -0.0019304304069530872 0.0095999694665612999 -0.00038205509657064028 2.8913658185556433e-06
leaf_weight=370.96402904391289 4999.6382924318314 274.91526126861572 1139.3398305773735 1515.4749100506306 2203.1011768877506 2888.4726688861847 905.05324268341064 6527.2544907331467 122.29604303836823 1907.2788905799389 3331.9646007716656 72.556710422039032 4299.6846968531609 563.47236758470535
leaf_count=562 7520 398 1719 2097 3270 4340 1386 9875 190 2842 5093 97 6356 940
internal_value=-4.59673e-05 -0.000839618 0.00122471 0.000926126 0.000444915 5.44859e-05 0.000731683 -0.00153361 0.0035902 0.001935 -0.00211931 0.00647705 -0.000504975 -0.00122582
internal_weight=31121.5 19161.8 11959.7 10625.5 7202.74 8368.13 3793.53 10793.7 1334.19 3422.75 3702.93 194.853 4574.6 7090.73
internal_count=46685 28950 17735 15729 10790 12480 5726 16470 2006 4939 5655 287 6754 10815
is_linear=0
shrinkage=0.02


Tree=50
num_leaves=15
num_cat=0
split_feature=44 44 44 36 37 46 42 17 51 44 46 17 26 30
split_gain=114.321 20.5862 15.5363 6.73355 4.05035 3.94645 3.89247 2.89988 2.8348 2.65638 2.59751 2.56101 2.44587 0.754323
threshold=1.3504594507058583 1.9084622859820122 0.88952398139387856 1.788888888888889 0.0019896142343955505 1.267857142857143 0.35000000000000003 1.7545003011224176 -0.54999999999999993 1.698557558395853 1.3166666666666669 1.6230825742732733 0.41428571428571431 0.004224331266045751
decision_type=2 2 2 2 2 2 2 2 2 2 2 2 2 2
left_child=2 6 4 5 -1 -3 11 -5 13 -8 -6 -2 -10 -4
right_child=1 3 8 7 10 -7 9 -9 12 -11 -12 -13 -14 -15
leaf_value=-0.0036344000770347942 -0.00060385247908073894 -0.0021021073015323809 -0.0014311137979966695 0.0020436582968949017 -0.0016641210928684889 0.0021788549747404108 0.00082296767709307179 0.0047726654372610448 0.00021915326307526882 0.0018302372060061925 0.0010196652930074741 0.00061596344073763039 -0.00062509255192787921 -0.0040011967536402364
leaf_weight=427.22144168615341 962.98790812492371 84.204736649990082 111.14256146550179 232.50831952691078 7270.2225152850151 3885.73169028759 3321.4290162920952 629.47015416622162 1620.4587409198284 1581.5735947489738 141.26552668213844 2359.5122264027596 8390.5398173034191 109.93047386407852
leaf_count=690 1441 168 160 363 11204 5622 4825 943 2453 2293 272 3527 12581 157
internal_value=-2.27475e-05 0.00140266 -0.0010533 0.00243956 -0.00172379 0.00208452 0.000791891 0.00405456 -0.000538429 0.00115054 -0.00161136 0.000259255 -0.000487421 -0.00277835
internal_weight=31128.2 13057.4 18070.8 4831.91 7838.71 3969.94 8225.5 861.978 10232.1 4903 7411.49 3322.5 10011 221.073
internal_count=46699 19182 27517 7096 12166 5790 12086 1306 15351 7118 11476 4968 15034 317
is_linear=0
shrinkage=0.02


Tree=51
num_leaves=15
num_cat=0
split_feature=46 34 34 50 50 16 46 34 16 15 37 4 15 0
split_gain=83.6621 20.2363 19.6612 10.301 4.67974 4.23162 4.18118 4.01346 3.69379 3.64032 3.06863 2.62759 1.44828 1.28407
threshold=1.3875000000000002 0.21287377261255683 1.5259641788073444 1.3500000000000003 0.75000000000000011 8.6450000000000031 1.8944444444444446 0.58767449480110912 7.1400000000000006 5.2986286036968755 0.0019896142343955505 49.097731794417264 17.275938850030588 24.690873041578563
decision_type=2 2 2 2 2 2 2 2 2 2 2 2 2 2
left_child=1 5 3 6 12 10 -2 -5 -4 -6 -1 -10 -3 -7
right_child=2 4 8 7 9 13 -8 -9 11 -11 -12 -13 -14 -15
leaf_value=-0.0037887974076058397 6.7716492784637708e-06 -0.0011744422250753563 -0.00042537449172642169 0.00090008349970142529 -0.0010038595761974693 -0.00028846541400536651 0.0010906621719737953 0.0019926932974799728 0.0033790520826081157 8.8608117764419624e-05 -0.0019113781961195024 0.0058050008502023836 0.0013667804434698979 -0.0013276640495974244
leaf_weight=392.15034180879593 4120.2102761864662 2560.2664668560028 77.381011307239532 2286.5167215168476 1495.8444733023643 703.26268994808197 2188.4604791402817 3442.1858547031879 827.4847386777401 6521.8760301470757 4492.6327654719353 257.05426120758057 87.743640780448914 1675.1289723515511
leaf_count=648 6158 3874 125 3388 2215 1144 3317 4835 1253 9802 6916 369 140 2515
internal_value=-2.22804e-05 -0.000912198 0.00118571 0.000944404 -0.000356414 -0.00172665 0.000384581 0.00155881 0.00367114 -0.000114163 -0.00206563 0.00397287 -0.0010855 -0.00102509
internal_weight=31128.2 17928.9 13199.3 12037.4 10665.7 7263.17 6308.67 5728.7 1161.92 8017.72 4884.78 1084.54 2648.01 2378.39
internal_count=46699 27254 19445 17698 16031 11223 9475 8223 1747 12017 7564 1622 4014 3659
is_linear=0
shrinkage=0.02


Tree=52
num_leaves=15
num_cat=0
split_feature=44 44 44 34 13 19 5 23 13 34 34 13 34 34
split_gain=106.377 23.9312 10.8529 9.74185 6.10812 4.32381 3.42817 3.0297 3.00636 2.91711 2.55839 2.55474 1.79317 1.63843
threshold=1.2625644762519213 1.698557558395853 0.78042914669619001 1.7242163764766658 0.13225278764451434 2.1684762857482132 48.018009771187579 0.70274576716884574 2.2095498486475935 0.16011533621864107 0.027469779805584252 2.0327059798543403 0.92338961714705392 0.35029299548283949
decision_type=2 2 2 2 2 2 2 2 2 2 2 2 2 2
left_child=2 7 10 4 -3 8 -5 12 -4 -9 -1 -12 -2 -7
right_child=1 3 5 6 -6 13 -8 9 -10 -11 11 -13 -14 -15
leaf_value=-0.0034571064635950839 -0.00062102988206361881 0.0010367379399517573 -0.0010002374341281347 0.0032172526350325455 0.0022962896599395374 -0.00024282491105441246 0.0061963205090316224 -0.0012870774904724172 0.00037076798757065306 0.00071784319555883997 -0.001887385709197082 -0.00045472798182157146 0.0015342748873260553 0.0013011185880114615
leaf_weight=382.67833396792412 1357.7788331508636 2735.1846242547035 8795.7880007624626 582.61470544338226 3658.5677324831486 626.76980459690094 232.69330638647079 300.19153609871864 677.80200922489166 5866.1363496184349 4685.876246213913 579.91352447867393 170.20595157146454 475.99776515364647
leaf_count=627 1963 3790 13102 910 5576 985 338 475 1124 8630 7207 1005 251 716
internal_value=-2.18159e-05 0.00119767 -0.00114261 0.00202585 0.00175952 -0.000762744 0.00409281 0.000420098 -0.000901034 0.000618232 -0.00185158 -0.00173174 -0.000372717 0.000415699
internal_weight=31128.2 14903.4 16224.8 7209.06 6393.75 10576.4 815.308 7694.31 9473.59 6166.33 5648.47 5265.79 1527.98 1102.77
internal_count=46699 21933 24766 10614 9366 15927 1248 11319 14226 9105 8839 8212 2214 1701
is_linear=0
shrinkage=0.02


Tree=53
num_leaves=15
num_cat=0
split_feature=44 44 34 34 47 44 2 42 13 4 34 46 13 21
split_gain=102.245 18.4842 14.014 7.02904 5.27989 3.89235 3.83851 3.60456 3.31434 3.30156 2.88184 2.77285 2.40795 2.32017
threshold=1.3504594507058583 1.9084622859820122 0.24203664268889308 1.7242163764766658 0.47164132626261768 1.1508035865010757 18.427083333333336 0.35000000000000003 1.7267933148638044 49.097731794417264 0.16746517111466733 1.6125000000000003 2.1688401192191686 0.9346934662105042
decision_type=2 2 2 2 2 2 2 2 2 2 2 2 2 2
