tree
version=v4
num_class=1
num_tree_per_iteration=1
label_index=0
max_feature_idx=53
objective=regression
feature_names=MIN_Season MIN_L5 MIN_L10 USAGE_RATE_Season USAGE_RATE_L5 USAGE_RATE_L10 DAYS_REST IS_HOME GAMES_7D IS_4_IN_6 IS_B2B IS_FRESH PACE_ROLLING USAGE_VACUUM STAR_COUNT GAME_SCORE_Season GAME_SCORE_L5 EXP_POSS EXP_POSS_SEASON MIN_STREAK USAGE_RATE_STREAK USAGE_RATE_CONSISTENCY GAME_SCORE_STREAK GAME_SCORE_CONSISTENCY STL_Season STL_L5 STL_L10 STL_L20 STL_L5_Median STL_L10_Median STL_STREAK STL_CONSISTENCY OPP_STL_ALLOWED OPP_STL_ALLOWED_DIFF BLK_Season BLK_L5 BLK_L10 BLK_L20 BLK_L5_Median BLK_L10_Median BLK_STREAK BLK_CONSISTENCY OPP_BLK_ALLOWED OPP_BLK_ALLOWED_DIFF TOV_Season TOV_L5 TOV_L10 TOV_L20 TOV_L5_Median TOV_L10_Median TOV_STREAK TOV_CONSISTENCY OPP_TOV_ALLOWED OPP_TOV_ALLOWED_DIFF
feature_infos=[6.5459706856228053:41.996888198531956] [5.3722222222222227:48.233333333333334] [6.0533333333333328:45.767333333333326] [3.0454631429302661:50] [3.3518198366569907:50] [6.2706233500235475:50] [1:7] [0:1] [1:5] [0:1] [0:1] [0:1] [15.241541405796715:21.438673522433501] [0:7.0170031880977675] [3:18] [-2.4090852280485029:31.857915805770357] [-2.8333333333333335:41.920000000000002] [0.1175011049851578:3.7391863506726466] [0.055717144287036502:3.6910777435278641] [-9.1463954284185007:11.588257533555982] [-16.156007792588895:18.091371160270725] [0:3] [-7.9387719672752972:8.5630863458271698] [0:3] [0:4.3900960605301114] [0:5.7999999999999998] [0:3.7000000000000002] [0:4.3425703298474252] [0:6] [0:4] [-1.9186716648220876:1.5669322140191619] [0:3] [0:3] [-1:2.8999999999999999] [0:4.4510769110826942] [0:6.5999999999999996] [0:5.2000000000000002] [0:5.3472551484272941] [0:7] [0:5] [-1.3789880224276776:1.497700333104941] [0:3] [0:4.7000000000000002] [-1:4.7000000000000002] [0:5.4929277980322642] [0:7.2000000000000002] [0:6.5] [0:6.389430749543676] [0:8] [0:7] [-1.6250470243291826:1.7497079954432606] [0:3] [0:5.7000000000000002] [-1.8999999999999999:4.7000000000000002]
tree_sizes=1694 1781 1780 1774 1768 1772 1780 1770 1775 1774 1781 1780 1781 1777 1782 1775 1776 1781 1787 1752 1785 1779 1771 1779 1776 1780 1780 1780 1788 1781 1788 1779 1783 1785 1776 1776 1776 1784 1781 1794 1787 1760 1779 1784 1735 1771 1774 1771 1789 1758 1780 1792 1780 1778 1785 1771 1784 1759 1786 1763 1785 1786 1786 1751 1785 1790 1780 1792 1793 1796 1788 1788 1795 1783 1786 1786 1779 1780 1776 1787 1780 1785 1794 1791 1791 1785 1785 1790 1676 1768 1788 1782 1795 1785 1788 1782 1792 1795 1782 1780 1791 1792 1772 1784 1790 1788 1804 1787 1795 1778 1793 1791 1789 1797 1781 1783 1793 1788 1780 1797 1799 1799 1777 1769 1794 1692 1789 1796 1802 1795 1802 1791 1804 1778 1794 1677 1790 1788 1685 1689 1784 1801 1795 1787 1795 1803 1797 1790 1583 1794 1800 1768 1793 1678 1660 1787 1685 1462 1576 1578 1798 1749 1796 1677 1772 1666 1679 1753 1792 1775 1687 1798 1801 1797 1785 1793 1760 1552 1774 1789 1566 1685 1786 1787 1799 1577 1552 1808 1677 1683 1755 1554 1668 1806 1789 1351 1779 1781 1802 1794 1782 1675 1573 1797 1689 1800 1523 1688 1667 1695 1800 1812 1775 1806 1796 1685 1781 1555 1686 1801 1764 1790 1794 1571 1584 1805 1693 1772 1782 1030 1776 1589 1681 1808 1799 1802 1353 1357 1241 1245 1125 1031 1144 1785 1128 1805 1800 1808 1803 1805 1556 1239 1807 1123 1243 1352 1667 1552 1240 1220 1462 1445 1797 1810 1803 1793 1800 1764 1791 1679 1683 1685 1243 1447 1801 1465 1344 1467 1806 1462 1797 1806 1790 1688 1813 1801 1793 1587 1582 1702 1789 1664 1784 1678 1803 1813 1809 1589 1807 1663 1811 1687 1690 1668 1563 1478 1798 1814 1804 1599 1694 1362 1458 1589 1562 1809 1250 1241 1681 1354 1664 1801 1803 1802 1696 1672 1469 1691 1585 1144 1340 1675 1465 1462 1331 1796 1702 1786 1708 1478 1805 1817 1798 1808 1668 1480 1814 1468 1661 1800 1137 1337 1368 1250 1250 1453 1227 1362 1134 1029 916 913 1342 813 916 1022 1694 1669 1356 1570 1361 1252 1139 1146 1573 1132 1133 922 1236 1139 1575 1372 1807 1453 1472 1793 1683 1806 1447 1140 1787 1795 1668 1679 1559 1350 1583 1810 1579 1027 1457 1469 1473 1570 1463 1121 1243 1119 1247 1344 1007 1361 1248 1469 1145 1583 1138 1339 1560 1349 1252 1813 1816 1486 917 1333 1219 1321 1214 1696 1252 1467 1551 1359 1580 1584 1464 1343 1223 1677 1342 1583 1707 1694 1719 1570 1696 1245 1467 1672 1271 1816 1470 1368 991 1252 1129 1128 1590 1032 1363 1691 1577 1356 1586 1554 1360 1228 1465 1245 1365 1337 1129 1022 805 1772 1370 1796 1035 1701 912 701 1133 1033 1133 1135 1030 1352 1137 1136 1480 1457 1028 1356 1033 1373 1024 1026 1803 1491 1338 1591 1572 1448 1139 1687 1771 1368 1598 1142 1470 1581 927 1365 1681 1256 1340 1367 1580 1369 1544 1689 1002 1354 1413 922 1684 1793 1366 1450 1151 1143 1809 1795 1150 1129 1823 1582 1577 1597 1787 1363 1376 1482 1594 1670 1242 1132 1350 1248 1461 1261 1372 816 713 1356 1357 1248 1246 1119 1480 1471 1598 1479 1031 924 1255 1355 1038 1474 1469 1486 1805 1572 1247 1700 1136 1342 1362 1235 897 1257 1345 1369 901 1367 1491 1036 1257 1038 1641 1563 1026 1473 1475 1147 1354 1012 1679 1481

Tree=0
num_leaves=15
num_cat=0
split_feature=44 44 44 16 44 44 3 16 1 44 46 44 46 46
split_gain=1621.05 310.468 174.537 44.0013 37.4514 35.681 22.8595 18.1364 17.4428 16.328 15.5037 11.2619 10.7244 8.35055
threshold=1.6770752261360606 1.0011374677711347 2.3886347153809218 8.8900000000000023 0.63533962302684766 3.1710858428065989 48.499398183008744 5.7225000000000019 23.152833333333337 1.2585042054227984 1.3875000000000002 1.1484554764618615 0.84523809523809534 2.7888888888888892
decision_type=2 2 2 2 2 2 2 2 2 2 2 2 2 2
left_child=1 4 6 11 12 8 10 -6 -4 -5 -2 -3 -1 -7
right_child=2 3 5 9 7 13 -8 -9 -10 -11 -12 -13 -14 -15
leaf_value=0.72355307724183759 0.72925615852516434 0.72731353228255391 0.73209901635292918 0.72988946945551014 0.72487676904335352 0.73639923113112837 0.73692049569595852 0.7269731223961382 0.73960653581810709 0.73215351567980225 0.73439515987236559 0.72934572149742771 0.72772938134556842 0.74383224381140078
leaf_weight=4176.5183847844601 249.49238020181656 1647.5079514980316 133.67214113473892 2065.9058455526829 2735.2378983199596 73.875847727060318 1618.015189409256 4341.3408834040165 2912.6271437704563 3298.4948599934578 3184.3298866450787 3311.5581399798393 273.8375226855278 1134.4826823771
leaf_count=6170 439 2522 224 3088 4091 138 2499 6422 4346 4890 4744 4990 502 1682
internal_value=0.730483 0.727505 0.737472 0.730026 0.72525 0.740458 0.734952 0.72616 0.739282 0.73128 0.734018 0.728668 0.723806 0.743397
internal_weight=31156.9 21850.4 9306.5 10323.5 11526.9 4254.66 5051.84 7076.58 3046.3 5364.4 3433.82 4959.07 4450.36 1208.36
internal_count=46747 32675 14072 15490 17185 6390 7682 10513 4570 7978 5183 7512 6672 1820
is_linear=0
shrinkage=1


Tree=1
num_leaves=15
num_cat=0
split_feature=44 44 44 44 44 44 5 2 15 17 17 46 44 46
split_gain=1556.96 298.182 167.81 37.1555 35.9648 34.5042 19.9254 18.4513 15.0803 11.0124 10.3562 10.2914 9.83034 8.40087
threshold=1.6770752261360606 1.0011374677711347 2.3416722225643078 3.1710858428065989 0.63533962302684766 1.2358750243634387 43.604183114170617 24.253000000000004 10.695210579444002 1.526789076235106 1.2455866427232156 0.84523809523809534 1.9427774072445188 1.3875000000000002
decision_type=2 2 2 2 2 2 2 2 2 2 2 2 2 2
left_child=1 4 6 7 11 10 13 -4 -7 -6 -3 -1 -8 -2
right_child=2 5 3 -5 9 8 12 -9 -10 -11 -12 -13 -14 -15
leaf_value=-0.0068078526062927518 -0.0018737045868779266 -0.0039542292398019891 0.0019638617920434923 0.012639637606235977 -0.0048362733070385529 -0.00027694180688738948 0.0037319287530451495 0.0088400559676449185 0.0017756192382221087 -0.0031593198558019422 -0.0013749962067473723 -0.0027154099811094131 0.0059603075398780916 0.0027907214971959367
leaf_weight=4176.5183847844601 172.45413252711296 764.70441260933876 169.6844779253006 1208.3585301041603 4604.8611142635345 3739.6356736123562 1384.8211068511009 3118.3650013208389 2311.3188858926296 2471.7176674604416 3507.807824909687 273.8375226855278 2019.4637107253075 1233.3483118116856
leaf_count=6170 320 1212 286 1820 6877 5708 2094 4638 3336 3636 5234 502 3058 1856
internal_value=-1.64587e-05 -0.00293457 0.00683296 0.00961226 -0.00514541 -0.000464515 0.00422991 0.00848965 0.000505763 -0.00425302 -0.00184061 -0.00655962 0.00505949 0.00220957
internal_weight=31156.9 21850.4 9306.5 4496.41 11526.9 10323.5 4810.09 3288.05 6050.95 7076.58 4272.51 4450.36 3404.28 1405.8
internal_count=46747 32675 14072 6744 17185 15490 7328 4924 9044 10513 6446 6672 5152 2176
is_linear=0
shrinkage=0.02


Tree=2
num_leaves=15
num_cat=0
split_feature=44 44 44 16 44 44 4 1 16 44 44 18 4 2
split_gain=1495.41 286.382 161.168 41.2775 35.6788 33.4894 19.1249 18.1062 17.0043 16.059 10.5254 7.16816 7.16472 6.99427
threshold=1.6770752261360606 0.99474181036041276 2.3416722225643078 8.8900000000000023 3.1710858428065989 0.63533962302684766 46.636944668337769 23.366166666666668 5.7225000000000019 1.2585042054227984 1.1484554764618615 2.388515770317277 38.018383516304269 20.422722222222223
decision_type=2 2 2 2 2 2 2 2 2 2 2 2 2 2
left_child=1 5 6 10 7 12 13 -4 -7 -5 -3 -6 -1 -2
right_child=2 3 4 9 11 8 -8 -9 -10 -11 -12 -13 -14 -15
leaf_value=-0.0068842856613222014 -0.00048091666469757407 -0.0030530772390558818 0.0017914564278147245 -0.00062974265292685481 0.0064955638133939869 -0.0054432885792236475 0.005292448973869701 0.0086635432689769181 -0.0033961795259963151 0.0016004443806348645 -0.0011196131132679532 0.012839848705121932 -0.0049245309031043967 0.0031357048745765726
leaf_weight=3404.8554455637932 234.62773677706718 1730.0709870755672 166.42654964327812 2112.4508189857006 89.96801620721817 2698.7314495146275 2641.8899489045143 3121.6229296028614 4248.7393231987953 3298.4948599934578 3311.5581399798393 1118.3905138969421 1045.5004619061947 1933.5695762336254
leaf_count=5079 384 2648 273 3157 167 4035 3990 4651 6283 4890 4990 1653 1593 2954
internal_value=-1.61132e-05 -0.00287596 0.00669653 -0.000483745 0.00942031 -0.00506844 0.00414544 0.00832005 -0.00419415 0.000728014 -0.00178603 0.0123873 -0.00642855 0.00273965
internal_weight=31156.9 21850.4 9306.5 10452.6 4496.41 11397.8 4810.09 3288.05 6947.47 5410.95 5041.63 1208.36 4450.36 2168.2
internal_count=46747 32675 14072 15685 6744 16990 7328 4924 10318 8047 7638 1820 6672 3338
is_linear=0
shrinkage=0.02


Tree=3
num_leaves=15
num_cat=0
split_feature=47 46 47 16 18 3 47 3 47 47 16 15 47 18
split_gain=1404.85 233.565 159.185 52.2831 44.0879 36.6107 31.0965 17.339 14.5649 12.7329 9.49221 7.6576 5.73027 5.53497
threshold=1.70098931438544 0.95000000000000007 2.4317277646628157 8.8900000000000023 1.4271655190980199 48.368201712032793 3.2641312217909051 46.035455606065476 0.48937895688945038 1.288767015740637 9.7800000000000029 17.969499824751093 0.72324372922639679 2.7825563349902951
decision_type=2 2 2 2 2 2 2 2 2 2 2 2 2 2
left_child=1 4 5 9 8 10 11 -5 -1 -3 -2 -4 -6 -7
right_child=2 3 6 7 12 13 -8 -9 -10 -11 -12 -13 -14 -15
leaf_value=-0.0068434564800397227 0.0015315826453229642 -0.0028854697499034348 0.0074835355760565882 4.9761263006049231e-05 -0.0039367101031021322 0.0043612584306191426 0.011873653443687879 0.002656644966431932 -0.0049946993565043079 -0.00086589553334420798 0.0037238846042022856 0.0099006951761980242 -0.0023218699507013695 0.0071757287039047523
leaf_weight=2814.7914954721928 1309.5153501033783 3172.8670106232166 2114.2891900837421 4013.6268402040005 1586.0058440566063 402.02469825744629 1350.5212289690971 1370.373521566391 4666.538235783577 2090.0541173219681 2085.3111628293991 787.21292522549629 2124.2442477047443 1269.5208892822266
leaf_count=4181 1944 4804 3224 5926 2366 689 2019 2104 7036 3140 3125 1154 3163 1872
internal_value=-1.57731e-05 -0.00279021 0.00648451 -0.000668307 -0.00480748 0.00408371 0.0093395 0.00071588 -0.00569326 -0.00208597 0.00288257 0.00814915 -0.0030166 0.00651081
internal_weight=31156.9 21838.5 9318.4 10646.9 11191.6 5066.37 4252.02 5384 7481.33 5262.92 3394.83 2901.5 3710.25 1671.55
internal_count=46747 32720 14027 15974 16746 7630 6397 8030 11217 7944 5069 4378 5529 2561
is_linear=0
shrinkage=0.02


Tree=4
num_leaves=15
num_cat=0
split_feature=46 46 18 46 18 46 46 15 3 3 3 3 3 46
split_gain=1332.55 204.561 177.996 43.9152 42.4881 41.3266 30.3168 22.123 12.9501 7.91657 7.88707 6.49 6.47308 5.60188
threshold=1.5277777777777779 2.2928571428571431 1.4341829025828514 3.183333333333334 2.7250171914967032 0.95000000000000007 0.73214285714285732 12.142898400107759 49.239975602751215 39.398733469834447 48.499398183008744 42.695218771642317 49.52868437642158 0.47222222222222227
decision_type=2 2 2 2 2 2 2 2 2 2 2 2 2 2
left_child=2 4 6 8 11 -4 13 -7 -3 -8 -6 -2 -5 -1
right_child=1 3 5 12 10 7 9 -9 -10 -11 -12 -13 -14 -15
leaf_value=-0.006668747440009868 0.0010337946742682692 0.0062512774644609683 -0.0029394195237068877 0.0096020617703698428 0.003920074963131283 -0.00091249984551595 -0.0041250491607020788 0.001844074437360937 0.0087586831684140949 -0.0019037016389695065 0.0067351322148006864 0.0026581352273552473 0.012394118998281821 -0.0053512599999627807
leaf_weight=2553.2125861346722 2049.1458457410336 2270.8624320626259 3646.1767181456089 687.06651049852371 712.39861410856247 5151.9491792619228 3397.0950514674187 1501.2883884012699 1390.2063908576965 820.50324898958206 1017.5210974216461 1950.4295299351215 913.20429354906082 3095.8368709087372
leaf_count=3799 3073 3393 5432 1013 1002 7752 5090 2164 2116 1308 1517 3045 1387 4656
internal_value=-1.53974e-05 0.00558629 -0.00306916 0.00843415 0.00296736 -0.00122841 -0.00498899 -0.000288615 0.0072104 -0.00369638 0.0055875 0.00182935 0.0112151 -0.00595065
internal_weight=31156.9 10990.8 20166.1 5261.34 5729.5 10299.4 9866.65 6653.24 3661.07 4217.6 1729.92 3999.58 1600.27 5649.05
internal_count=46747 16546 30201 7909 8637 15348 14853 9916 5509 6398 2519 6118 2400 8455
is_linear=0
shrinkage=0.02


Tree=5
num_leaves=15
num_cat=0
split_feature=44 44 44 44 44 44 15 46 15 1 1 1 5 44
split_gain=1365.31 240.792 145.369 43.3028 26.4928 25.0191 20.4561 10.9059 10.849 10.8133 10.4175 10.3105 9.77682 9.77346
threshold=1.6770752261360606 1.0745368885938087 2.4605122073613432 0.7769798684742999 3.3502711954475348 2.0849364922471745 8.8298677155445979 0.84523809523809534 10.876431266712988 20.68383333333334 25.264166666666672 20.578833333333339 48.427239667801246 1.3523911806645075
decision_type=2 2 2 2 2 2 2 2 2 2 2 2 2 2
left_child=1 3 5 7 10 12 -3 -1 -6 -7 -4 -5 -2 -8
right_child=2 6 4 11 8 9 13 -9 -10 -11 -12 -13 -14 -15
leaf_value=-0.0058178156823277495 0.002412327738624675 -0.0012530151416125718 0.0037123026656857832 -0.0042638043200161234 0.0055265383176900619 -0.00023861927175912936 -0.00034729898867699309 -0.0033559825229029002 0.013243103303723025 0.0062073004441388566 0.0087244782732631247 -0.0025188952603337218 0.004890424377986956 0.0014846833413083174
leaf_weight=6395.733087182045 2316.1188636422157 4075.7358337640762 188.10619369149208 2270.2063494026661 90.074908941984177 106.2316238284111 2063.0428409278393 845.20856809616089 769.31684267520905 2101.2359942495823 2845.550636947155 3527.6422413289547 901.48004579544067 2650.2681120038033
leaf_count=9410 3528 6302 299 3441 147 166 3035 1364 1119 3126 4263 5260 1386 3898
internal_value=-3.85034e-05 -0.00277473 0.00636931 -0.0044992 0.00932019 0.00424724 -0.000214863 -0.00553284 0.0124606 0.00589264 0.00841964 -0.00320509 0.00311233 0.000680886
internal_weight=31146 21827.8 9318.12 13038.8 3893.05 5425.07 8789.05 7240.94 859.392 2207.47 3033.66 5797.85 3217.6 4713.31
internal_count=46744 32710 14034 19475 5828 8206 13235 10774 1266 3292 4562 8701 4914 6933
is_linear=0
shrinkage=0.02


Tree=6
num_leaves=15
num_cat=0
split_feature=44 44 44 44 44 15 44 2 15 2 47 17 47 44
split_gain=1311.35 231.264 139.646 41.5835 28.6916 19.6801 19.5563 13.6992 10.4017 9.67849 9.67133 9.53773 8.25508 7.63992
threshold=1.6770752261360606 1.0745368885938087 2.3886347153809218 0.7769798684742999 3.3502711954475348 9.6473924911809164 1.9584202608083192 24.253000000000004 10.876431266712988 18.529916666666669 1.4694303871240884 1.5007062648481739 0.59366375678669547 1.3523911806645075
decision_type=2 2 2 2 2 2 2 2 2 2 2 2 2 2
left_child=1 3 6 12 7 10 -2 -4 -6 -8 -3 -5 -1 -7
right_child=2 5 4 11 8 13 9 -9 -10 -11 -12 -13 -14 -15
leaf_value=-0.0059761060292446988 0.0026560185580963326 -0.0016341126551056668 0.0016994496700520117 -0.0039013792746968251 0.0054184083832449527 -0.00019504179723369737 -0.0019297707695757503 0.008325821846399864 0.012978928094261974 0.0053655258961232046 0.00029093361532228987 -0.0022579438039908774 -0.0045592638603266658 0.0016033698864508412
leaf_weight=4396.1851107776165 2378.2979480624199 3433.547856926918 134.93501394987106 3105.8098013699055 90.074908941984177 1604.4918015003204 71.835849672555923 3267.7318202257156 769.31684267520905 2605.9227262437344 1487.1092447042465 2692.0387893617153 2844.7565445005894 2263.8978835642338
leaf_count=6478 3631 5304 234 4726 147 2353 121 4876 1119 3906 2271 3975 4296 3307
internal_value=-3.7684e-05 -0.0027193 0.00624222 -0.00440931 0.00891069 -0.000210567 0.00398819 0.00806714 0.0122125 0.00516479 -0.00105042 -0.00314107 -0.00542226 0.000855144
internal_weight=31146 21827.8 9318.12 13038.8 4262.06 8789.05 5056.06 3402.67 859.392 2677.76 4920.66 5797.85 7240.94 3868.39
internal_count=46744 32710 14034 19475 6376 13235 7658 5110 1266 4027 7575 8701 10774 5660
is_linear=0
shrinkage=0.02


Tree=7
num_leaves=15
num_cat=0
split_feature=44 44 44 44 44 44 16 16 1 15 1 16 4 44
split_gain=1259.5 222.116 134.34 39.9327 24.4006 23.1969 22.9449 15.0373 10.1691 9.97258 9.76777 9.53142 8.54795 8.12592
threshold=1.6770752261360606 1.0745368885938087 2.4605122073613432 0.7769798684742999 3.3502711954475348 2.0849364922471745 9.1225000000000005 5.7225000000000019 20.68383333333334 10.876431266712988 22.95516666666667 10.090000000000002 41.560700032758156 1.4103805812616625
decision_type=2 2 2 2 2 2 2 2 2 2 2 2 2 2
left_child=1 3 5 12 10 11 -3 -5 -7 -6 -4 -2 -1 -8
right_child=2 6 4 7 9 8 13 -9 -10 -11 -12 -13 -14 -15
leaf_value=-0.0055930869664940824 0.001437549042407185 -0.0012562518138478826 0.0020055351416673143 -0.0045614655388058296 0.0053123941204287631 -0.00028094698439775208 3.2580067737185073e-05 -0.0023685086260742476 0.0059671973649861867 0.012720022811220278 0.0083086555177537252 0.0037625975421233379 -0.0035580671592574682 0.0017468685951803062
leaf_weight=6238.8755157589912 1083.0178343653679 4278.1612495481968 107.66333624720573 1868.5775907337666 90.074908941984177 106.2316238284111 2531.8952255249023 3929.2709999978542 2101.2359942495823 769.31684267520905 2925.9934943914413 2134.5810750722885 1002.0661395192146 1978.9903116226196
leaf_count=9264 1689 6497 179 2848 147 166 3769 5853 3126 1119 4383 3225 1510 2969
internal_value=-3.68945e-05 -0.00266498 0.00611761 -0.00432122 0.00895443 0.0040775 -0.000206332 -0.00307833 0.00566201 0.0119694 0.00808972 0.00298449 -0.0053139 0.00078732
internal_weight=31146 21827.8 9318.12 13038.8 3893.05 5425.07 8789.05 5797.85 2207.47 859.392 3033.66 3217.6 7240.94 4510.89
internal_count=46744 32710 14034 19475 5828 8206 13235 8701 3292 1266 4562 4914 10774 6738
is_linear=0
shrinkage=0.02


Tree=8
num_leaves=15
num_cat=0
split_feature=46 46 46 17 17 17 46 46 17 46 46 14 17 13
split_gain=1155.91 201.379 115.688 50.1503 34.0605 30.7948 18.8011 12.5 10.2703 7.32899 6.82626 5.52168 5.39481 5.13892
threshold=1.7321428571428574 1.0500000000000003 2.683333333333334 1.509466334518166 2.4514864527504279 2.5243298206718583 3.183333333333334 0.73214285714285732 1.553459051573973 0.5277777777777779 2.0500000000000003 10.500000000000002 2.8386076248562282 1.0000000180025095e-35
decision_type=2 2 2 2 2 2 2 2 2 2 2 2 2 2
left_child=1 3 5 7 8 10 13 -1 -3 -5 -2 -8 -6 -4
right_child=2 4 6 9 12 -7 11 -9 -10 -11 -12 -13 -14 -15
leaf_value=-0.0054321486179420416 0.0016885712415303739 -0.0018615998411165044 0.0061058468189169306 -0.0043957166015270929 0.0013304769739202731 0.0056184225774088348 0.011440878825360943 -0.003837093464832408 -0.00028000117314758871 -0.001853118878357931 0.0038233054231201036 0.0086091508598891003 0.0035673086873118328 0.0085085122250888861
leaf_weight=6017.0839175581932 1389.2381342947483 2503.0541345179081 687.41491311788559 531.1510668694973 1131.5523908138275 3195.9673981070518 1130.0037607550621 3044.2392844259739 4826.8544814288616 3446.0828927457333 1096.3355940878391 463.97929325699806 722.6553718149662 960.3395086824894
leaf_count=9025 2150 3823 954 785 1668 4679 1729 4661 7250 5076 1737 658 1039 1510
internal_value=-3.61005e-05 -0.00247791 0.0060431 -0.00407564 -0.000208168 0.00431703 0.00906064 -0.00489834 -0.000821818 -0.00219723 0.0026365 0.0106347 0.00221055 0.00752084
internal_weight=31146 22222.7 8923.28 13038.6 9184.12 5681.54 3241.74 9061.32 7329.91 3977.23 2485.57 1593.98 1854.21 1647.75
internal_count=46744 33327 13417 19547 13780 8566 4851 13686 11073 5861 3887 2387 2707 2464
is_linear=0
shrinkage=0.02


Tree=9
num_leaves=15
num_cat=0
split_feature=46 46 46 18 16 18 46 17 46 16 5 5 13 46
split_gain=1110.24 193.415 111.123 49.7076 34.3352 31.628 18.0495 13.4526 12.2995 8.82945 8.14122 5.29287 4.928 4.67175
threshold=1.7321428571428574 1.0500000000000003 2.683333333333334 1.4927095508190895 10.020000000000003 2.4141847878294471 3.183333333333334 2.8386076248562282 0.5277777777777779 11.930000000000001 43.604183114170617 48.486506679571256 1.0000000180025095e-35 3.8166666666666669
decision_type=2 2 2 2 2 2 2 2 2 2 2 2 2 2
left_child=1 3 5 8 10 -2 12 -6 -1 -5 -3 -7 -4 -8
right_child=2 4 6 9 7 11 13 -9 -10 -11 -12 -13 -14 -15
leaf_value=-0.0057635662611650526 0.0023741654495521057 -0.0017385103451992741 0.0059840841542339682 -0.0026811811858220153 0.00065486537676126902 0.0045196944495410835 0.0096310444759070829 0.0037429185537159082 -0.0042219957451147348 -0.00045658211222422896 8.6303667692256441e-05 0.0061604765085640544 0.0083386955524913913 0.012262026302128134
leaf_weight=3553.4500585496426 2245.9198085665703 3882.746770888567 687.41491311788559 3238.9601368606091 3326.891607016325 1521.9717397987843 1126.9170986115932 681.48564222455025 5315.190610319376 930.95635586977005 1292.9923584461212 1913.6495781242847 960.3395086824894 467.06595540046692
leaf_count=5282 3505 5867 954 4867 5007 2224 1713 981 8020 1378 1925 2837 1510 674
internal_value=-3.53104e-05 -0.0024284 0.00592258 -0.00399422 -0.000203971 0.00423084 0.00888004 0.00118398 -0.00484195 -0.00218738 -0.00128085 0.00543958 0.0073709 0.0104226
internal_weight=31146 22222.7 8923.28 13038.6 9184.12 5681.54 3241.74 4008.38 8868.64 4169.92 5175.74 3435.62 1647.75 1593.98
internal_count=46744 33327 13417 19547 13780 8566 4851 5988 13302 6245 7792 5061 2464 2387
is_linear=0
shrinkage=0.02


Tree=10
num_leaves=15
num_cat=0
split_feature=44 44 44 44 44 47 16 0 16 16 16 44 47 44
split_gain=1119.15 203.455 123.544 29.863 24.1809 23.6083 18.6198 12.7697 12.3407 11.3799 9.84918 9.10539 8.25282 6.01075
threshold=1.6641291950333759 0.99474181036041276 2.3886347153809218 1.3053202952160399 0.58460345892721188 3.2641312217909051 13.600000000000003 23.673216414296856 8.5225000000000044 8.7100000000000062 7.0900000000000025 1.880981178502801 1.5639370389968734 3.6014307786808648
decision_type=2 2 2 2 2 2 2 2 2 2 2 2 2 2
left_child=1 4 6 10 -1 7 12 -4 -6 -5 -3 -8 -2 -7
right_child=2 3 5 9 8 13 11 -9 -10 -11 -12 -13 -14 -15
leaf_value=-0.0057276991832077252 0.00012353460621159304 -0.0025940205258955596 0.001262562229959247 -0.00052353542055204446 -0.0042470525536482335 0.0093122477241434683 0.0030082891562300492 0.0074876014825825199 -0.0024868345405287362 0.0014549115582748685 -0.00083612415480730981 0.0058532043199802488 0.0030274993544884242 0.012316597120167416
leaf_weight=3582.5517354309559 474.32521736621857 2045.7229245901108 143.27330073714256 1930.9993385672569 5527.8893181681633 858.69225347042084 668.82804071903229 2831.7769150435925 2301.7483752667904 2897.2672111093998 3454.9980409443378 1551.7740868031979 2458.7104314267635 491.12279188632965
leaf_count=5392 793 3139 264 2928 8182 1314 1009 4212 3424 4302 5158 2334 3689 699
internal_value=-1.89199e-05 -0.00251951 0.00571504 -0.000484574 -0.00436001 0.00820922 0.00361764 0.00719222 -0.00373163 0.000661699 -0.00149241 0.00500432 0.00256169 0.0104294
internal_weight=31219.7 21741.2 9478.5 10329 11412.2 4324.87 5153.64 2975.05 7829.64 4828.27 5500.72 2220.6 2933.04 1349.82
internal_count=46839 32525 14314 15527 16998 6489 7825 4476 11606 7230 8297 3343 4482 2013
is_linear=0
shrinkage=0.02


Tree=11
num_leaves=15
num_cat=0
split_feature=44 44 44 44 44 44 44 46 17 2 17 21 17 2
split_gain=1074.94 195.401 118.709 28.6817 23.2218 18.9342 18.7616 10.0498 9.46852 8.5577 8.03349 7.37509 6.66654 6.06287
threshold=1.6641291950333759 0.99474181036041276 2.4129065544414288 1.3053202952160399 0.66941220590414396 2.066776590791263 3.3502711954475348 0.81666666666666676 2.6171499932130482 24.253000000000004 2.2441047585350478 0.99298546283672939 1.526789076235106 24.35283333333334
decision_type=2 2 2 2 2 2 2 2 2 2 2 2 2 2
left_child=1 4 5 13 7 11 9 -1 -8 -4 -5 -2 -6 -3
right_child=2 3 6 10 12 -7 8 -9 -10 -11 -12 -13 -14 -15
leaf_value=-0.0055301658098953497 0.00083534629105990778 -0.0021817994366147664 0.0020417694523067291 1.4746961148036807e-05 -0.0039441674970904549 0.0051161615952315031 0.0046630239040266717 -0.0020546580587142253 0.011484803549098112 0.0076001840663391931 0.0017038951694985586 0.0031521559243643609 -0.0025637877054747907 -0.00084124704721206926
leaf_weight=4734.7100617289543 721.06879529356956 2539.9189609587193 121.74194315075874 3024.1277824640274 4056.230264633894 2036.8521924316883 100.76563504338264 371.44034978747368 787.27413228154182 3189.3765550553799 1804.1387672126293 2521.4237841963768 2249.8087527155876 2960.8020045757294
leaf_count=6983 1123 3861 215 4602 6058 3063 179 650 1135 4776 2628 3823 3307 4436
internal_value=-1.84807e-05 -0.00246918 0.00560106 -0.000474912 -0.00427289 0.00359934 0.00811242 -0.00528021 0.0107342 0.00740019 0.000648432 0.00264086 -0.00345424 -0.00146262
internal_weight=31219.7 21741.2 9478.5 10329 11412.2 5279.34 4199.16 5106.15 888.04 3311.12 4828.27 3242.49 6306.04 5500.72
internal_count=46839 32525 14314 15527 16998 8009 6305 7633 1314 4991 7230 4946 9365 8297
is_linear=0
shrinkage=0.02


Tree=12
num_leaves=15
num_cat=0
split_feature=44 44 44 44 44 16 16 44 16 15 44 46 16 46
split_gain=1032.9 224.684 76.9018 37.8556 22.4831 19.1485 14.2919 13.539 11.6797 11.3478 10.2632 10.056 9.45401 6.65523
threshold=1.7917742124285965 0.99474181036041276 2.564550895684091 1.3053202952160399 0.58460345892721188 16.510000000000009 8.7100000000000062 3.3502711954475348 8.5225000000000044 13.783456899059354 2.0849364922471745 0.78888888888888908 9.3600000000000048 2.0500000000000003
decision_type=2 2 2 2 2 2 2 2 2 2 2 2 2 2
left_child=1 4 5 12 11 10 -5 13 -6 -9 -2 -1 -3 -4
right_child=2 3 7 6 8 -7 -8 9 -10 -11 -12 -13 -14 -15
leaf_value=-0.0058086604421621951 0.0024335270101621558 -0.0021026580064619871 0.0022153038668286922 -0.00038816599596871006 -0.0040829288522882022 0.0063978159639882237 0.0016115596282055805 0.0053395532053246023 -0.0023704464602534621 0.011568284690220827 0.0046552690781086585 -0.0017053281258555698 -0.00039928924435233507 0.0077800787022470489
leaf_weight=3315.3065717816353 1632.2612889409065 3332.4410281479359 96.349861323833466 2285.5166280865669 5527.8893181681633 1396.9712810516357 3781.9805890619755 153.04670503735542 2301.7483752667904 734.99306228756905 1775.6665832102299 267.2451636493206 2168.2799373865128 2449.983588129282
leaf_count=4905 2510 5042 180 3479 8182 2081 5627 260 3424 1054 2656 487 3255 3697
internal_value=-1.80605e-05 -0.00219668 0.00605623 -0.00023142 -0.00418753 0.00441509 0.000856772 0.00834546 -0.00358151 0.0105205 0.00359613 -0.00550648 -0.00143343 0.00757534
internal_weight=31219.7 22980.4 8239.27 11568.2 11412.2 4804.9 6067.5 3434.37 7829.64 888.04 3407.93 3582.55 5500.72 2546.33
internal_count=46839 34401 12438 17403 16998 7247 9106 5191 11606 1314 5166 5392 8297 3877
is_linear=0
shrinkage=0.02


Tree=13
num_leaves=15
num_cat=0
split_feature=47 47 47 16 5 47 16 47 15 5 47 15 16 5
split_gain=972.451 135.279 127.56 43.5845 29.1582 22.9366 19.5454 11.5491 9.5375 9.16323 7.06852 5.79568 5.62443 4.37225
threshold=1.6295705000996299 0.87275051556172001 2.4317277646628157 9.3100000000000005 48.486506679571256 3.3220722970250995 9.5400000000000045 0.59366375678669547 7.8395992497317746 44.902846458806259 1.9420139482313499 17.773895837682975 16.510000000000009 46.059866010678668
decision_type=2 2 2 2 2 2 2 2 2 2 2 2 2 2
left_child=1 6 4 8 10 11 7 -1 -3 -5 -2 -4 -6 -8
right_child=2 3 5 9 12 -7 13 -9 -10 -11 -12 -13 -14 -15
leaf_value=-0.0053047892837839684 0.0014029324875416344 -0.0026018386870811485 0.0061252576142857727 -0.00017284486173760181 0.0041502768846677762 0.0099967712617956457 -0.0024621239737517768 -0.0037772497529363642 -0.00093861580137504538 0.0016554839623771384 0.0031013892592688802 0.0081047367754369277 0.0064530529736971445 0.0014028113338566104
leaf_weight=4340.6539102494717 2212.0356544852257 4313.4574761688709 2167.7726924717426 3235.7989848852158 976.50866565108299 1232.3516753315926 1482.8657521605492 3835.346136957407 2063.933367729187 1650.1398468315601 1816.5033267736435 923.9862035214901 845.89425039291382 122.43203791975975
leaf_count=6460 3300 6577 3292 4824 1470 1841 2198 5767 3061 2480 2746 1366 1278 179
internal_value=-1.76542e-05 -0.00247235 0.00505779 -0.000976606 0.00312811 0.00766389 -0.00419315 -0.00459055 -0.0020656 0.00044302 0.00217242 0.00672492 0.00523053 -0.00215975
internal_weight=31219.7 21044.6 10175.1 11263.3 5850.94 4324.11 9781.3 8176 6377.39 4885.94 4028.54 3091.76 1822.4 1605.3
internal_count=46839 31546 15293 16942 8794 6499 14604 12227 9638 7304 6046 4658 2748 2377
is_linear=0
shrinkage=0.02


Tree=14
num_leaves=15
num_cat=0
split_feature=47 47 47 16 3 47 17 3 47 47 47 15 17 17
split_gain=934.023 129.922 122.51 41.8603 32.0979 22.0316 20.4619 13.0288 9.25607 8.38542 7.54764 5.2944 4.41963 3.46678
threshold=1.6295705000996299 0.87275051556172001 2.4317277646628157 9.3100000000000005 48.499398183008744 3.2641312217909051 1.526789076235106 46.035455606065476 1.288767015740637 0.59366375678669547 1.9420139482313499 17.773895837682975 2.2319082303258737 2.5243298206718583
decision_type=2 2 2 2 2 2 2 2 2 2 2 2 2 2
left_child=1 6 4 8 10 11 9 -5 -3 -1 -2 -4 -8 -6
right_child=2 3 5 7 13 -7 12 -9 -10 -11 -12 -13 -14 -15
leaf_value=-0.0051989626231152535 0.0013538266959603315 -0.0025445094735310342 0.0059457639435667358 -0.00015137235447180509 0.0029128403367367282 0.0096407874508581629 -0.0027882709637973898 0.0022475605508465884 -0.00089685872994859142 -0.003832561556212641 0.003070319884522576 0.0078957042023581597 -0.00030812545737041581 0.0057977164219862607
leaf_weight=4263.9808147549629 2304.444003880024 4356.2249089181423 2098.0415332317352 3690.6540772914886 212.65997418761253 1361.1317995488644 1842.5791035592556 1195.2847544252872 2021.1659349799156 3322.6797667145729 1899.441101193428 864.93723854422569 352.05815225839615 1434.3968180418015
leaf_count=6353 3405 6599 3185 5469 399 2036 2696 1835 3039 5027 2839 1278 528 2151
internal_value=-1.72407e-05 -0.00242295 0.00495691 -0.000957099 0.00306575 0.00751093 -0.00410935 0.000434131 -0.00202434 -0.00460301 0.00213286 0.0065233 -0.00239561 0.00543528
internal_weight=31219.7 21044.6 10175.1 11263.3 5850.94 4324.11 9781.3 4885.94 6377.39 7586.66 4203.89 2962.98 2194.64 1647.06
internal_count=46839 31546 15293 16942 8794 6499 14604 7304 9638 11380 6244 4463 3224 2550
is_linear=0
shrinkage=0.02


Tree=15
num_leaves=15
num_cat=0
split_feature=44 44 44 44 44 3 44 1 46 17 17 17 1 14
split_gain=920.017 174.359 86.9196 25.444 21.8217 18.0206 17.0683 9.87782 9.22379 9.04021 5.77954 5.62411 5.59264 4.76129
threshold=1.7274722166475198 1.0192174496492952 2.4605122073613432 0.7769798684742999 1.2890751289003484 48.89106040687134 3.0322658499932884 25.540333333333333 1.3875000000000002 1.0021728087233737 2.1809182462421441 1.9587202286991559 23.680500000000006 10.500000000000002
decision_type=2 2 2 2 2 2 2 2 2 2 2 2 2 2
left_child=1 3 5 9 12 8 11 -6 -2 -1 -8 -4 -3 -7
right_child=2 4 6 -5 7 13 10 -9 -10 -11 -12 -13 -14 -15
leaf_value=-0.0054558916355984064 -0.0010659093360618147 -0.0020908258502825485 0.002148993548037876 -0.0026922292936697985 -0.00053576521006658208 0.0064096982915071701 0.0032775491866903123 0.0011951067339263325 0.0031982773239384527 -0.0039817528001205079 0.0095843567003186005 0.0067954742370913901 -0.00069619046234681205 0.003657410199344594
leaf_weight=2952.4835043847561 210.98922249674797 2002.1848664283752 118.52135467529297 4710.7085227072239 2086.193780452013 985.5397689640522 68.314066737890244 3551.9940190911293 3452.3708611726761 4147.7018031179905 1496.0166999697685 2197.6971192955971 2780.4211523532867 378.6993921995163
leaf_count=4413 373 3049 207 7011 3110 1544 132 5341 5156 6149 2248 3250 4155 574
internal_value=2.95005e-07 -0.00217548 0.00543068 -0.00383904 -0.000288682 0.00368881 0.0076818 0.000552929 0.00294951 -0.00459752 0.00931986 0.00656409 -0.00128276 0.00565948
internal_weight=31139.8 22231.7 8908.15 11810.9 10420.8 5027.6 3880.55 5638.19 3663.36 7100.19 1564.33 2316.22 4782.61 1364.24
internal_count=46712 33228 13484 17573 15655 7647 5837 8451 5529 10562 2380 3457 7204 2118
is_linear=0
shrinkage=0.02


Tree=16
num_leaves=15
num_cat=0
split_feature=44 44 44 44 16 16 44 44 16 4 1 14 16 2
split_gain=883.662 167.63 83.4826 30.8535 21.2089 19.4397 16.3875 8.45513 7.88327 7.76217 6.80452 6.23438 5.62101 5.29831
threshold=1.7274722166475198 1.0685126295859784 2.4605122073613432 0.7769798684742999 9.1225000000000005 13.600000000000003 3.0322658499932884 1.4355138598773125 8.8900000000000023 37.904013302907636 19.611166666666669 10.500000000000002 7.8225000000000025 27.226166666666668
decision_type=2 2 2 2 2 2 2 2 2 2 2 2 2 2
left_child=1 3 5 9 -3 10 12 -6 -5 -1 -2 -7 -4 -8
right_child=2 4 6 8 7 11 13 -9 -10 -11 -12 -13 -14 -15
leaf_value=-0.0049144230664161116 -0.00042619268547190774 -0.0010890463486694694 0.0025259538601345023 -0.0030526088061467527 8.8911393344991957e-05 0.0056301569732640968 0.0039721764704274921 0.0017788176144846002 -0.0014603759519657294 -0.0033960578521959306 0.0028026935111073988 0.003251926647371374 0.0066951963135870197 0.0094218745408681231
leaf_weight=5177.0787726342678 285.94201996922493 4572.2269451618195 149.37413528561592 3780.3229038715363 2809.3805638551712 1659.3285350203514 86.055640816688538 2062.5302364528179 1907.0416916906834 1923.1065348684788 2434.3697058856487 647.95898395776749 2166.8443386852741 1478.2751258909702
leaf_count=7690 453 6926 240 5658 4154 2524 151 3086 2842 2872 3726 944 3217 2229
internal_value=3.1447e-07 -0.00213203 0.00532233 -0.00362435 -0.000110009 0.00361517 0.00752854 0.000806824 -0.00252117 -0.00450565 0.00245956 0.00497 0.00643304 0.00913392
internal_weight=31139.8 22231.7 8908.15 12787.5 9444.14 5027.6 3880.55 4871.91 5687.36 7100.19 2720.31 2307.29 2316.22 1564.33
internal_count=46712 33228 13484 19062 14166 7647 5837 7240 8500 10562 4179 3468 3457 2380
is_linear=0
shrinkage=0.02


Tree=17
num_leaves=15
num_cat=0
split_feature=44 44 44 44 16 16 44 17 44 16 45 16 17 14
split_gain=848.739 161.002 80.1827 29.6284 20.3706 17.7466 16.6383 8.55152 8.11984 7.7505 7.13197 5.96053 5.40758 5.28307
threshold=1.7274722166475198 1.0685126295859784 2.4360226194168972 0.7769798684742999 9.1225000000000005 13.600000000000003 3.0322658499932884 1.0021728087233737 1.4355138598773125 4.8225000000000025 1.5500000000000003 7.8225000000000025 2.1809182462421441 10.500000000000002
decision_type=2 2 2 2 2 2 2 2 2 2 2 2 2 2
left_child=1 3 5 7 -3 10 11 -1 -6 -5 -2 -4 -8 -7
right_child=2 4 6 9 8 13 12 -9 -10 -11 -12 -13 -14 -15
leaf_value=-0.0052504788623939681 0.00039718349548647011 -0.0010672749358379132 0.0023661576463403773 -0.0038231867201952386 8.7134441108710874e-05 0.005431381615253715 0.0031041985942737581 -0.0038166688828050448 0.0017432757149085344 -0.0020581962442189146 0.0029281066322259116 0.0065241977079884697 0.0092075550447332805 0.003199560970499807
leaf_weight=2952.4835043847561 578.93431866168976 4572.2269451618195 158.16608902812004 1320.0630303025246 2809.3805638551712 1610.5158576965332 68.314066737890244 4147.7018031179905 2062.5302364528179 4367.3015652596951 2087.6102848947048 2280.9019995331764 1496.0166999697685 627.68916898965836
leaf_count=4413 931 6926 253 2002 4154 2448 132 6149 3086 6498 3170 3386 2248 916
internal_value=3.49057e-07 -0.00208943 0.00521615 -0.00355195 -0.000107763 0.00349565 0.00731873 -0.00441561 0.000790744 -0.00247082 0.00238307 0.00626082 0.00895171 0.00481336
internal_weight=31139.8 22231.7 8908.15 12787.5 9444.14 4904.75 4003.4 7100.19 4871.91 5687.36 2666.54 2439.07 1564.33 2238.21
internal_count=46712 33228 13484 19062 14166 7465 6019 10562 7240 8500 4101 3639 2380 3364
is_linear=0
shrinkage=0.02


Tree=18
num_leaves=15
num_cat=0
split_feature=44 44 44 44 44 44 3 15 17 15 17 15 17 23
split_gain=815.209 154.776 77.1534 22.4334 19.9118 17.7288 15.791 8.76752 8.20897 6.98548 6.8409 6.01297 5.18157 4.69264
threshold=1.7274722166475198 1.0192174496492952 2.3886347153809218 0.7769798684742999 1.2890751289003484 3.0322658499932884 48.89106040687134 10.280949288877787 1.0021728087233737 7.3309746208881519 1.9490251727096035 5.8788651412057691 2.1809182462421441 1.0233860662545025
decision_type=2 2 2 2 2 2 2 2 2 2 2 2 2 2
left_child=1 3 6 8 11 9 10 -6 -1 -4 -2 -3 -7 -5
right_child=2 4 5 13 7 12 -8 -9 -10 -11 -12 -13 -14 -15
leaf_value=-0.0051455405259424073 0.00078775712973165601 -0.0027232150425846344 0.00063618903424373274 -0.0030700076012374483 -0.00018214997965780474 0.0030438806105306093 0.0053180707523842827 0.0013991108225453375 -0.0037403723108750259 0.0062496760886960436 0.0030666425928014729 -0.00087956492666665888 0.0090236498051524186 -0.0017657719505703084
leaf_weight=2952.4835043847561 667.06740680336952 873.94611155986786 96.420268684625626 2777.5762384831905 3079.3836573064327 68.314066737890244 1190.3804745078087 2558.8041422367096 4147.7018031179905 2601.2119379639626 2788.7376308441162 3908.6599072217941 1496.0166999697685 1933.1322842240334
leaf_count=4413 1095 1365 175 4143 4737 132 1864 3714 6149 3843 4127 5839 2248 2868
internal_value=3.9212e-07 -0.00204769 0.00511213 -0.00361505 -0.000269937 0.00705762 0.00332311 0.000533949 -0.00432738 0.00605336 0.00263036 -0.00121955 0.00877312 -0.00253789
internal_weight=31139.8 22231.7 8908.15 11810.9 10420.8 4261.96 4646.19 5638.19 7100.19 2697.63 3455.81 4782.61 1564.33 4710.71
internal_count=46712 33228 13484 17573 15655 6398 7086 8451 10562 4018 5222 7204 2380 7011
is_linear=0
shrinkage=0.02


Tree=19
num_leaves=15
num_cat=0
split_feature=49 3 18 45 17 45 45 1 3 16 16 3 14 3
split_gain=689.662 133.103 99.2737 38.7369 24.5303 21.7508 15.3662 12.3786 10.1991 8.43871 6.21304 4.9345 4.6685 3.98376
threshold=1.2500000000000002 48.012771315514151 1.4498860692549822 2.6333333333333337 2.4949237111117148 3.2916666666666674 0.90000000000000013 25.540333333333333 49.801401710980393 11.930000000000001 3.6499999999999999 48.678958434657623 10.500000000000002 43.398367480347382
decision_type=2 2 2 2 2 2 2 2 2 2 2 2 2 2
left_child=2 3 6 7 9 8 10 -2 -3 -4 -1 -6 -7 -8
right_child=1 5 4 -5 11 12 13 -9 -10 -11 -12 -13 -14 -15
leaf_value=-0.0051709900270244013 -0.0001587430671457762 0.0049297869533835694 -0.0015873438111211604 0.0056551435389517899 0.0009970363385301273 0.0093383989719257599 -0.0026641362504357374 0.0019097269192174724 0.0074155672990634759 0 -0.0038102150879994866 0.004074614590327548 0.0064688979362877014 0.00014304080462691681
leaf_weight=1942.8496131896973 1671.9702064394951 3048.8466595113277 6456.0608614385128 946.0979620218277 1221.4993025064468 911.70111885666847 2771.9543579518795 3693.5075185596943 885.95011830329895 1676.1024586856365 5076.5867173373699 254.62721121311188 371.43903377652168 210.6429942548275
leaf_count=2951 2445 4558 9684 1422 1723 1388 4139 5586 1460 2512 7579 394 535 336
internal_value=3.99709e-07 0.00388208 -0.00228141 0.00192495 -0.000827936 0.00624585 -0.00367623 0.00126348 0.0054955 -0.00125916 -0.00418964 0.00153947 0.00852689 -0.00246257
internal_weight=31139.8 11529.5 19610.3 6311.58 9608.29 5217.94 10002 5365.48 3934.8 8132.16 7019.44 1476.13 1283.14 2982.6
internal_count=46712 17394 29318 9453 14313 7941 15005 8031 6018 12196 10530 2117 1923 4475
is_linear=0
shrinkage=0.02


Tree=20
num_leaves=15
num_cat=0
split_feature=47 18 47 15 47 47 18 47 14 47 51 13 1 18
split_gain=726.095 118.345 82.3082 35.1528 20.5124 18.3078 16.7371 12.4032 7.35766 7.35482 4.97608 4.74452 4.60524 3.67396
threshold=1.7130747867078235 1.4927095508190895 2.4317277646628157 13.08968494856455 0.81873624279458446 1.0074750559361527 2.5107842151405642 3.2641312217909051 10.500000000000002 0.36157044474069761 0.9069007843014264 0.24075079837500812 20.901333333333337 2.6004647567959256
decision_type=2 2 2 2 2 2 2 2 2 2 2 2 2 2
left_child=1 4 6 5 9 -3 -2 11 -9 -1 -8 -4 -6 -5
right_child=2 3 7 13 12 -7 10 8 -10 -11 -12 -13 -14 -15
leaf_value=-0.0054479571221492567 0.0017187683456905579 -0.0022210067780522513 0.0050386851657984464 0.00097313139750852611 -0.0029400536406988865 -0.00037340769108097692 0.004873358154312132 0.0092811982015919125 0.0058110394637458608 -0.0038258264857071712 0.0030458890716900154 0.0067367781715489466 -0.0015575702417745347 0.0028430864312746769
leaf_weight=1496.6696400344372 2420.6874949634075 3397.6499557495117 1340.2711430490017 772.75350859761238 2485.8045896589756 5862.3974446356297 1392.8380338251591 969.53290578722954 371.43353641033173 5195.3155991435051 1147.2430931329727 1570.3271170556545 1655.5991559326649 985.80986347794533
leaf_count=2232 3755 5072 1926 1138 3768 8796 2016 1462 540 7777 1687 2455 2510 1424
internal_value=-3.47043e-05 -0.00202036 0.00467367 -0.000559687 -0.0035047 -0.00105273 0.00291814 0.00671736 0.00833753 -0.00419163 0.00405495 0.00596227 -0.00239081 0.0020291
internal_weight=31064.3 21852 9212.33 11018.6 10833.4 9260.05 4960.77 4251.56 1340.97 6691.99 2540.08 2910.6 4141.4 1758.56
internal_count=46558 32717 13841 16430 16287 13868 7458 6383 2002 10009 3703 4381 6278 2562
is_linear=0
shrinkage=0.02


Tree=21
num_leaves=15
num_cat=0
split_feature=44 44 44 5 16 2 44 16 44 44 4 44 51 1
split_gain=724.068 125.403 89.9776 21.9372 21.2814 17.9912 15.7674 11.4829 8.22993 8.09152 5.98582 4.47266 4.10192 3.88924
threshold=1.4898796082461898 2.2983626931276437 0.85666707644973983 48.427239667801246 9.1225000000000005 24.35283333333334 3.3502711954475348 9.8450000000000042 1.1484554764618615 1.8520702432112615 37.904013302907636 1.0815630881408576 0.64735868616984349 25.355708333333336
decision_type=2 2 2 2 2 2 2 2 2 2 2 2 2 2
left_child=2 3 7 9 8 12 -7 10 -4 -2 -1 -6 -3 -5
right_child=1 5 4 13 11 6 -8 -9 -10 -11 -12 -13 -14 -15
leaf_value=-0.0045116843994900437 0.00087019128407878608 -0.0021842688194692182 -0.0025492775092640996 0.0017437521119720197 -0.0010434001328454099 0.0061335654354810337 0.0092251053375502854 -0.0019750431406206888 -0.001073738469728115 0.0025769851224973668 -0.0031807728392192853 0.00028352299852477358 0.0031616999275963955 0.0044381014972567226
leaf_weight=5642.86040148139 3140.077519595623 94.739227920770645 3616.4704800546169 267.40723273158073 1490.489328622818 3702.306294053793 835.89967784285545 1107.7450388073921 2658.1889093220234 1744.9095106720924 1892.7854262888432 3165.937600761652 135.67291852831841 1568.8435147702694
leaf_count=8376 4743 177 5471 392 2221 5529 1228 1685 3982 2648 2813 4682 205 2406
internal_value=-3.39536e-05 0.00395076 -0.00237358 0.00218753 -0.00116618 0.00643193 0.00670902 -0.00389878 -0.00192632 0.00148271 -0.00417965 -0.000139335 0.000920675 0.0040535
internal_weight=31064.3 11489.9 19574.5 6721.24 10931.1 4768.62 4538.21 8643.39 6274.66 4884.99 7535.65 4656.43 230.412 1836.25
internal_count=46558 17328 29230 10189 16356 7139 6757 12874 9453 7391 11189 6903 382 2798
is_linear=0
shrinkage=0.02


Tree=22
num_leaves=15
num_cat=0
split_feature=44 44 44 16 16 44 16 0 44 47 15 44 44 44
split_gain=695.453 104.076 99.7514 20.6275 18.0106 15.6983 12.9108 11.1874 8.26355 7.9759 7.76933 5.7488 4.63343 4.1377
threshold=1.5568577700605322 2.2983626931276437 0.92000546375144643 9.1225000000000005 13.09 3.3502711954475348 9.8450000000000042 23.579304353941474 1.1484554764618615 0.36157044474069761 13.783456899059354 1.8520702432112615 1.880981178502801 1.2358750243634387
decision_type=2 2 2 2 2 2 2 2 2 2 2 2 2 2
left_child=2 4 6 8 11 7 9 -3 -4 -1 -7 -2 -6 -5
right_child=1 5 3 13 12 10 -8 -9 -10 -11 -12 -13 -14 -15
leaf_value=-0.0052854040175071742 0.00062908477147475541 0.00058555707390502067 -0.002443828189713101 -0.00047777217668649682 0.0026062997787484185 0.0043510027690573565 -0.0018283097215550353 0.0059750986328991054 -0.00091544454978086955 -0.0036437627349753345 0.0096424609226264547 0.0023048751673686615 0.0043778628983721923 0.00069710116062746716
leaf_weight=1481.0549890697002 1904.3671562075615 165.46558326482773 2743.3765089213848 2316.2732636034489 1107.918454349041 145.9087036550045 1380.6021957099438 3738.4321290254593 2988.9515034854412 7020.1515698730946 718.81170240044594 1467.5342328548431 1411.7025777101517 2473.7825113236904
leaf_count=2214 2899 298 4161 3439 1686 253 2097 5567 4478 10418 1021 2247 2119 3661
internal_value=-3.32463e-05 0.00410608 -0.00219651 -0.000839861 0.00232427 0.00630347 -0.00363963 0.00574964 -0.00164924 -0.00393212 0.00877324 0.00136233 0.00360553 0.000126932
internal_weight=31064.3 10660.1 20404.2 10522.4 5891.52 4768.62 9881.81 3903.9 5732.33 8501.21 864.72 3371.9 2519.62 4790.06
internal_count=46558 16090 30468 15739 8951 7139 14729 5865 8639 12632 1274 5146 3805 7100
is_linear=0
shrinkage=0.02


Tree=23
num_leaves=15
num_cat=0
split_feature=44 44 44 3 1 44 0 47 15 18 15 3 23 14
split_gain=668.383 115.557 83.2023 18.7748 15.4266 15.0784 10.7384 8.47551 8.46225 8.3963 7.45093 6.85694 4.8192 3.08434
threshold=1.4898796082461898 2.2983626931276437 0.85666707644973983 48.499398183008744 20.470833333333342 3.3502711954475348 23.579304353941474 0.37269354804979937 11.889062397039586 1.4035076477650268 13.783456899059354 40.437148988246477 1.0602146913668578 11.500000000000002
decision_type=2 2 2 2 2 2 2 2 2 2 2 2 2 2
left_child=2 3 7 9 11 6 -3 -1 -6 -2 -7 -4 -9 -5
right_child=1 5 4 13 8 10 -8 12 -10 -11 -12 -13 -14 -15
leaf_value=-0.0050271231043509746 -0.0021228376545933784 0.0005739857770464046 -0.0031056203229093966 0.0044709835475642539 -0.00096866906047956549 0.0042651593743409421 0.0058556605605387061 -0.0038396625537719647 0.00071245617733837758 0.0017071467044144399 0.0094501467524166702 -0.0010983556553354301 -0.0027217042758799093 0.0018797693623918983
leaf_weight=1703.9540811479092 236.04429763555527 165.46558326482773 1842.7694161534309 1269.0698213577271 6516.0343068242073 145.9087036550045 3738.4321290254593 4381.8550955951214 1458.7684187889099 4979.6645397245884 718.81170240044594 1113.5141769945621 2557.5816898345947 236.45911905169487
leaf_count=2545 403 298 2748 2016 9750 253 5567 6479 2108 7415 1021 1750 3850 355
internal_value=-3.25343e-05 0.00379588 -0.00228041 0.0021032 -0.00111931 0.0061777 0.00563477 -0.00374708 -0.000659799 0.00153115 0.00859866 -0.0023542 -0.00342997 0.00407367
internal_weight=31064.3 11489.9 19574.5 6721.24 10931.1 4768.62 3903.9 8643.39 7974.8 5215.71 864.72 2956.28 6939.44 1505.53
internal_count=46558 17328 29230 10189 16356 7139 5865 12874 11858 7818 1274 4498 10329 2371
is_linear=0
shrinkage=0.02


Tree=24
num_leaves=15
num_cat=0
split_feature=47 18 47 47 47 18 5 47 5 14 4 13 51 18
split_gain=620.783 102.09 70.7838 28.3268 15.2671 14.1882 12.3975 10.5867 7.98899 7.12671 5.21904 4.61952 4.30104 2.93539
threshold=1.7130747867078235 1.418716070861991 2.4317277646628157 1.288767015740637 0.60137026945839056 2.4964824236177674 48.427239667801246 3.2641312217909051 45.872658581414051 10.500000000000002 45.329468539004786 0.24075079837500812 0.9069007843014264 1.0204216022163353
decision_type=2 2 2 2 2 2 2 2 2 2 2 2 2 2
left_child=1 4 5 8 13 -2 -5 11 -3 -9 -6 -4 -7 -1
right_child=2 3 7 6 10 12 -8 9 -10 -11 -12 -13 -14 -15
leaf_value=-0.0048483067131675347 0.0015715323361029595 -0.0016311407453361727 0.0046104414656339288 0.0002016373537669572 -0.0028676872189849728 0.0044852611778774107 0.0032724057536769723 0.0086412640301069561 0.00033033398652573646 0.0052383920144982409 -0.00030482278071705763 0.0062802193402829078 0.0027981561993038117 -0.0037116113021254215
leaf_weight=2180.3034327626228 2382.6317509412766 6577.4588361680508 1340.2711430490017 3909.4784628152847 5429.4836611747742 1405.2261767089367 607.43975630402565 969.53290578722954 940.47670510411263 371.43353641033173 347.46612405776978 1570.3271170556545 1172.9106942713261 1859.8927788436413
leaf_count=3241 3694 9770 1926 5823 8228 2037 920 1462 1426 540 533 2455 1727 2776
internal_value=-3.18578e-05 -0.0018679 0.00432168 -0.00063203 -0.0033815 0.00269343 0.000618076 0.00621702 -0.00138441 0.00771536 -0.00271543 0.00551845 0.00372436 -0.0043296
internal_weight=31064.3 21852 9212.33 12034.9 9817.15 4960.77 4516.92 4251.56 7517.94 1340.97 5776.95 2910.6 2578.14 4040.2
internal_count=46558 32717 13841 17939 14778 7458 6743 6383 11196 2002 8761 4381 3764 6017
is_linear=0
shrinkage=0.02


Tree=25
num_leaves=15
num_cat=0
split_feature=47 47 18 18 47 47 47 15 5 47 13 18 18 47
split_gain=597.256 98.5366 74.8671 21.408 16.6323 15.8733 14.768 9.01458 7.58042 6.7629 5.80348 5.18468 4.5636 2.6676
threshold=1.5330581254917812 2.4084258052861283 1.4498860692549822 2.7825563349902951 3.3880610288052275 1.0074750559361527 0.59366375678669547 13.470293715398389 44.091813835551221 1.1090555121922301 0.24075079837500812 2.5384005732442954 1.0204216022163353 4.4476321854647409
decision_type=2 2 2 2 2 2 2 2 2 2 2 2 2 2
left_child=2 3 6 8 10 11 12 -7 -2 -8 -3 -4 -1 -6
right_child=1 4 5 -5 13 7 9 -9 -10 -11 -12 -13 -14 -15
leaf_value=-0.0049145936971055383 0.00068841501831465226 0.0043250384408914438 -0.0019854681743530357 0.0038490368273363879 0.0076676013006672199 -0.00051479747791320131 -0.0030487321579534348 0.0017384963957834743 0.0022996807493715294 -0.0014126734564854078 0.0060536895996675371 0.0013832816647599523 -0.003520431228817426 0.010935248033721492
leaf_weight=2142.4574098289013 2669.0823629796505 1554.582655608654 3852.6683617830276 2058.0975629985332 957.55103647708893 4926.7369739413261 4727.7759311795235 826.73927691578865 2112.6125701367855 1324.833930015564 1778.1306359767914 186.94107866287231 1878.0237564444542 144.98614749312401
leaf_count=3189 4043 2226 5773 3010 1468 7406 7138 1190 3247 2025 2800 279 2803 185
internal_value=-2.55522e-05 0.0036503 -0.00211244 0.00214142 0.00597294 -0.000865588 -0.00332323 -0.000188784 0.00140305 -0.00269286 0.00525342 -0.00182649 -0.00426792 0.00812538
internal_weight=31141.2 11275 19866.2 6839.79 4435.25 9793.09 10073.1 5753.48 4781.69 6052.61 3332.71 4039.61 4020.48 1102.54
internal_count=46782 16979 29803 10300 6679 14648 15155 8596 7290 9163 5026 6052 5992 1653
is_linear=0
shrinkage=0.02


Tree=26
num_leaves=15
num_cat=0
split_feature=44 44 44 44 44 44 1 44 1 3 4 3 2 1
split_gain=591.654 112.908 67.6876 21.1506 18.3221 10.47 9.53428 9.30221 8.71166 6.39775 5.75324 5.07548 4.65136 3.95989
threshold=1.6641291950333759 0.92000546375144643 2.6646574979010613 1.2890751289003484 2.0286040423349641 3.6014307786808648 20.68383333333334 0.63533962302684766 24.266833333333334 33.343792700180977 41.173758013785665 48.499398183008744 23.772277777777784 20.470833333333342
decision_type=2 2 2 2 2 2 2 2 2 2 2 2 2 2
left_child=1 7 4 9 11 12 -6 10 -5 -3 -1 -2 -4 -9
right_child=2 3 5 8 6 -7 -8 13 -10 -11 -12 -13 -14 -15
leaf_value=-0.0044047635781136176 0.0013982325214756397 -0.0024048447656373384 0.00062363123670234547 -0.00075747353287976629 -0.0009244075957684847 0.0092780473154044293 0.004170462148314665 -0.0034446370623513341 0.001028833602176705 -0.00092275210404551742 -0.0021897309246462536 0.0034623431430403392 0.0062241910629246139 -0.0023460771460945447
leaf_weight=3821.2184581160545 2365.6423260867596 1520.4426044225693 65.420023053884506 1599.3116143643856 149.41439217329025 521.67462635040283 3464.7418376505375 2627.9274048507214 3405.1002223193645 5203.5054543316364 563.67514103651047 610.53636741638184 2348.4922994375229 2874.1169188320637
leaf_count=5699 3568 2251 112 2399 239 736 5173 3892 5112 7875 874 994 3606 4252
internal_value=-2.49852e-05 -0.00185537 0.00412681 -0.000527029 0.00299731 0.00665534 0.00395667 -0.00342967 0.000455893 -0.00125999 -0.00412343 0.00182706 0.00607719 -0.00287366
internal_weight=31141.2 21615.3 9525.92 11728.4 6590.33 2935.59 3614.16 9886.94 5004.41 6723.95 4384.89 2976.18 2413.91 5502.04
internal_count=46782 32354 14428 17637 9974 4454 5412 14717 7511 10126 6573 4562 3718 8144
is_linear=0
shrinkage=0.02


Tree=27
num_leaves=15
num_cat=0
split_feature=46 46 18 18 46 46 18 46 5 18 16 51 46 27
split_gain=540.65 84.1621 76.4074 22.3788 18.1969 16.2547 12.7188 8.10264 8.02725 5.87944 4.90653 4.48525 4.457 3.77195
threshold=1.5857142857142861 2.3875000000000006 1.4498860692549822 2.7250171914967032 3.1547619047619051 0.95000000000000007 1.0204216022163353 1.0500000000000003 46.059866010678668 1.9582317979003017 12.522500000000003 0.45556329166889414 3.7250000000000005 1.3960105583431486
decision_type=2 2 2 2 2 2 2 2 2 2 2 2 2 2
left_child=2 3 6 9 10 13 11 -8 -7 -2 -3 -1 -6 -4
right_child=1 4 5 -5 12 8 7 -9 -10 -11 -12 -13 -14 -15
leaf_value=-0.0046879104639116825 0.00024136285229284951 0.0034480583031220925 -0.0019936793288782358 0.003728529108596397 0.0064182629861632076 -0.00050623611638862538 -0.0030154762322836142 -0.0012421937162464449 0.0012205084568261636 0.001775690744780822 0.0051926679088612352 -0.0032708188893065498 0.008752647905527898 0.00087804147023780614
leaf_weight=2280.4313171803951 1676.2864842116833 1011.6718231141567 3313.0789596140385 2033.3142495155334 1024.9753479659557 5173.7488113343716 4841.5359479486942 1341.6248775422573 1356.2732220292091 2534.7504412829876 2153.3124991357327 1628.2172998487949 584.42771670222282 187.57069301605225
leaf_count=3399 2573 1522 4946 2959 1580 7731 7302 2051 2050 3870 3254 2435 844 266
internal_value=-2.44742e-05 0.00353602 -0.00197479 0.0020041 0.00553582 -0.000737104 -0.00320361 -0.00263285 -0.0001458 0.0011677 0.0046407 -0.00410213 0.00728197 -0.00183654
internal_weight=31141.2 11018.7 20122.5 6244.35 4774.39 10030.7 10091.8 6183.16 6530.02 4211.04 3164.98 3908.65 1609.4 3500.65
internal_count=46782 16602 30180 9402 7200 14993 15187 9353 9781 6443 4776 5834 2424 5212
is_linear=0
shrinkage=0.02


Tree=28
num_leaves=15
num_cat=0
split_feature=44 44 44 44 44 16 44 0 16 16 18 44 4 44
split_gain=547.243 104.777 62.7788 19.6421 16.9812 11.7417 9.81293 8.82299 7.16375 6.80891 6.48279 4.98379 4.83274 3.21014
threshold=1.6641291950333759 0.92000546375144643 2.6646574979010613 1.2890751289003484 2.0286040423349641 5.7225000000000019 3.3502711954475348 22.054884723109726 5.3100000000000032 11.510000000000003 2.5107842151405642 0.77082156093482734 42.887252733535313 0.55197550150447661
decision_type=2 2 2 2 2 2 2 2 2 2 2 2 2 2
left_child=1 5 4 8 12 13 -4 -6 -3 -5 -8 -7 -2 -1
right_child=2 3 6 9 7 11 10 -9 -10 -11 -12 -13 -14 -15
leaf_value=-0.0047113304662097155 0.00060582153228274098 -0.0024394428639364554 0.0056259871256200541 -0.0001121555824944759 -0.001025522543732857 -0.0030951110557520881 0.0023517544907594914 0.0040046602584640897 -0.00085968906063797843 0.0014184765172092413 0.0087583491067921414 -0.0017724880802845193 0.0023288701857826465 -0.0035931824019674358
leaf_weight=1815.4168679714203 999.63336491584778 1486.3190959095955 2065.2500024735928 3185.4706944227219 141.29041233658791 3363.1593347787857 75.292172193527222 3472.8658174872398 5237.6289628446102 1818.9411422610283 795.04477417469025 1809.5890046358109 1976.5453285872936 2898.7727154493332
leaf_count=2712 1550 2248 3162 4811 254 5009 138 5158 7878 2700 1154 2662 3012 4334
internal_value=-2.39373e-05 -0.0017843 0.00396899 -0.000504644 0.00288112 -0.00330086 0.0064042 0.00380479 -0.001211 0.000442526 0.00822225 -0.00263521 0.00175429 -0.00402771
internal_weight=31141.2 21615.3 9525.92 11728.4 6590.33 9886.94 2935.59 3614.16 6723.95 5004.41 870.337 5172.75 2976.18 4714.19
internal_count=46782 32354 14428 17637 9974 14717 4454 5412 10126 7511 1292 7671 4562 7046
is_linear=0
shrinkage=0.02


Tree=29
num_leaves=15
num_cat=0
split_feature=44 44 44 44 44 16 44 1 1 16 5 44 17 14
split_gain=525.62 100.633 60.2993 18.8652 16.3038 11.2741 9.44535 8.7921 8.04701 6.87941 5.12602 4.78383 4.40489 3.42871
threshold=1.6641291950333759 0.92000546375144643 2.6646574979010613 1.2890751289003484 2.0286040423349641 5.7225000000000019 3.6014307786808648 19.721833333333336 24.266833333333334 5.3100000000000032 45.772522742453098 0.77082156093482734 2.0889187647948195 10.500000000000002
decision_type=2 2 2 2 2 2 2 2 2 2 2 2 2 2
left_child=1 5 4 9 10 -1 12 -6 -5 -3 -2 -7 -4 -8
right_child=2 3 6 8 7 11 13 -9 -10 -11 -12 -13 -14 -15
leaf_value=-0.003947271336336702 0.0009072224789331586 -0.0023907195756772059 0.0018480236454913642 -0.00073238858201120111 -0.0014792394517316951 -0.0030332456217785258 0.0099776185856292818 0.0039135048480979304 0.00098435461630977448 -0.00084250184404780144 0.0025834676909569053 -0.0017370774428455749 0.0059255675219343166 0.006153491010056529
leaf_weight=4714.1895834207535 1542.3942183852196 1486.3190959095955 121.05945348739624 1599.3116143643856 121.53959989547729 3363.1593347787857 350.30141973495483 3492.6166299283504 3405.1002223193645 5237.6289628446102 1433.7844751179218 1809.5890046358109 2292.8528690040112 171.373206615448
leaf_count=7046 2374 2248 215 2399 195 5009 496 5217 5112 7878 2188 2662 3503 240
internal_value=-2.34489e-05 -0.00174868 0.00388979 -0.000494575 0.00282356 -0.00323496 0.00627648 0.00372867 0.000433646 -0.00118683 0.00171931 -0.00258258 0.00572691 0.00876876
internal_weight=31141.2 21615.3 9525.92 11728.4 6590.33 9886.94 2935.59 3614.16 5004.41 6723.95 2976.18 5172.75 2413.91 521.675
internal_count=46782 32354 14428 17637 9974 14717 4454 5412 7511 10126 4562 7671 3718 736
is_linear=0
shrinkage=0.02


Tree=30
num_leaves=15
num_cat=0
split_feature=44 44 44 44 17 17 44 17 46 44 1 23 44 23
split_gain=514.229 79.8671 76.669 14.7716 12.5399 11.7437 11.5906 11.1842 8.28872 6.6894 5.78225 4.62965 3.50143 3.33327
threshold=1.5777561968581717 0.92000546375144643 2.3886347153809218 3.6014307786808648 2.5243298206718583 1.5791032998521501 0.63533962302684766 1.868854041184987 0.81666666666666676 1.3053202952160399 22.013000000000005 1.40415780691315 1.880981178502801 1.0532885895461432
decision_type=2 2 2 2 2 2 2 2 2 2 2 2 2 2
left_child=1 6 4 7 10 13 8 -4 -1 -7 -2 -8 -6 -3
right_child=2 5 3 -5 12 9 11 -9 -10 -11 -12 -13 -14 -15
leaf_value=-0.0041240384721824676 -0.0002500409441496166 -0.0019245110312121965 -0.00018549005182267453 0.0089232035715878025 0.0021193499326806228 -0.00067994257591287609 -0.0027239762376998849 0.0054619544503382213 -0.0005167002447440019 0.00058530109886822208 0.0017684141947995431 -0.0008998686817332501 0.0035781894314246394 -0.00068042388551488547
leaf_weight=4133.1906101107597 739.10421052575111 2613.1094591617584 142.29000335931778 509.25185525417328 1049.2278554439545 3880.8286499083042 4829.2899363338947 3581.2713280320168 278.98537939786911 2927.7354113459587 2327.2521584928036 651.20830059051514 2058.3491008579731 1333.0414215624332
leaf_count=6065 1158 4013 260 723 1547 5753 7137 5375 504 4318 3654 987 3020 2061
internal_value=-6.20152e-06 -0.00183364 0.0036182 0.00569255 0.00219303 -0.000639277 -0.00313067 0.00524348 -0.00389855 -0.000134398 0.00127879 -0.00250946 0.00309053 -0.00150734
internal_weight=31054.1 20647.4 10406.7 4232.81 6173.93 10754.7 9892.67 3723.56 4412.18 6808.56 3066.36 5480.5 3107.58 3946.15
internal_count=46575 30838 15737 6358 9379 16145 14693 5635 6569 10071 4812 8124 4567 6074
is_linear=0
shrinkage=0.02


Tree=31
num_leaves=15
num_cat=0
split_feature=47 47 47 16 3 47 16 16 51 47 3 3 16 3
split_gain=475.024 92.4757 61.4343 19.3807 18.0903 16.0134 10.1562 7.46466 7.35972 6.16933 5.70191 5.37492 4.5942 2.01688
threshold=1.5111611499167856 2.3159284267339935 0.85863527663926309 9.1225000000000005 48.499398183008744 2.8985299103739357 9.5400000000000045 12.522500000000003 0.71253607680482611 4.4476321854647409 41.19848847263399 39.97576142634707 13.980000000000004 45.434239109482021
decision_type=2 2 2 2 2 2 2 2 2 2 2 2 2 2
left_child=2 4 6 11 7 12 10 -2 -5 -7 -1 -4 -3 -8
right_child=1 5 3 8 -6 9 13 -9 -10 -11 -12 -13 -14 -15
leaf_value=-0.0035285930681908085 0.00056889871876417196 0.0032249843309669342 -0.0020277959911141792 0.0011950796112177816 0.003612313226760905 0.0062810598179919019 -0.0017443668687054951 0.0022012548631175832 -0.00047477144118383445 0.010826179346305481 -0.0017976574852473738 -0.00073912170194729134 0.0049927488227863156 0.0010189878513073485
leaf_weight=7074.8984436392784 3379.739529132843 1107.0059541761875 3711.0497363805771 1752.185532450676 1515.3781647384167 2147.9144494235516 1420.9422533512115 1694.8022952377796 2641.2583446204662 136.33861273527145 888.45431637763977 2037.7846926748753 1438.2397212088108 108.14363422989845
leaf_count=10454 5046 1671 5492 2584 2363 3265 2106 2495 3963 176 1418 3212 2161 169
internal_value=-6.0769e-06 0.00323681 -0.00189276 -0.00080888 0.00169301 0.00533969 -0.00304938 0.0011167 0.000189161 0.00656595 -0.00333723 -0.00157316 0.00423096 -0.00154132
internal_weight=31054.1 11419.4 19634.7 10142.3 6589.92 4829.5 9492.44 5074.54 4393.44 2284.25 7963.35 5748.83 2545.25 1529.09
internal_count=46575 17177 29398 15251 9904 7273 14147 7541 6547 3441 11872 8704 3832 2275
is_linear=0
shrinkage=0.02


Tree=32
num_leaves=15
num_cat=0
split_feature=3 17 45 45 17 49 3 3 49 16 45 16 45 49
split_gain=417.251 84.9624 62.9892 20.8329 20.2495 13.9648 10.8238 7.9317 7.78328 6.51762 6.19707 4.43556 3.31597 3.05893
threshold=45.125971039443073 1.5007062648481739 2.5500000000000003 1.9000000000000001 2.5403139050022387 1.0000000180025095e-35 49.667644400228575 48.93942627040159 0.75000000000000011 7.2600000000000025 2.6333333333333337 8.3450000000000042 3.7750000000000004 3.7500000000000004
decision_type=2 2 2 2 2 2 2 2 2 2 2 2 2 2
left_child=1 5 4 8 11 -1 12 -6 -3 -7 -5 -2 -4 -8
right_child=2 3 6 10 7 9 13 -9 -10 -11 -12 -13 -14 -15
leaf_value=-0.003650265009211701 -0.00018857844712736935 -0.0018315960442861685 0.0043087297481964751 0.0010146119058645391 0.0023443369700158097 -0.0026055663508309239 0.0063292357035489586 0.0042891876194599606 -0.00036399263986840825 -0.0012310639624524557 0.0038164765366099462 0.0015233793015070338 0.0064742128459385068 0.0086426363521394239
leaf_weight=4412.7413393259048 1024.6294499337673 1862.3040517568588 1861.0648238062859 1574.9215231537819 2013.8648216724396 4637.7176193296909 985.07194775342941 1500.6951492726803 6569.5330467522144 2019.824172347784 400.16465452313423 1443.4947789013386 372.93315908312798 375.17514276504517
leaf_count=6575 1668 2697 2735 2331 2871 7036 1560 2278 9675 3052 606 2383 542 566
internal_value=-5.89919e-06 -0.00155429 0.00346507 -0.000255725 0.0022039 -0.00277387 0.00555914 0.00317959 -0.000689679 -0.00219055 0.00159063 0.000809043 0.00468017 0.0069864
internal_weight=31054.1 21477.2 9576.93 10406.9 5982.68 11070.3 3594.25 3514.56 8431.84 6657.54 1975.09 2468.12 2234 1360.25
internal_count=46575 31972 14603 15309 9200 16663 5403 5149 12372 10088 2937 4051 3277 2126
is_linear=0
shrinkage=0.02


Tree=33
num_leaves=15
num_cat=0
split_feature=44 44 44 16 16 44 44 17 46 44 1 16 5 14
split_gain=459.073 71.6987 68.4105 15.7145 15.5904 12.1966 10.6094 8.08245 7.7352 5.99081 5.90841 4.84035 4.3357 4.3299
threshold=1.5777561968581717 0.92000546375144643 2.4605122073613432 6.6200000000000019 12.360000000000005 3.6014307786808648 0.63533962302684766 1.9587202286991559 0.81666666666666676 1.2358750243634387 22.013000000000005 7.4200000000000017 48.486506679571256 10.500000000000002
decision_type=2 2 2 2 2 2 2 2 2 2 2 2 2 2
left_child=1 6 4 -3 10 7 8 -4 -1 -5 -2 -8 -6 -7
right_child=2 3 5 9 12 13 11 -9 -10 -11 -12 -13 -14 -15
leaf_value=-0.0039138537937533323 -0.00034328496586924625 -0.0017381009883793025 0.00038423706026362688 -0.00065181328892650729 0.0024128986019431521 0.0097801481282086076 -0.0028501995434733608 0.0052934344794235049 -0.00042898720719867128 0.00048491077892407706 0.0016538786803850371 -0.0016158960826061853 0.0038853196745677167 0.0055093455746888544
leaf_weight=4133.1906101107597 771.76233774423599 3345.6064918339252 144.96694299578667 3725.9912906885147 1733.2435769438744 346.13360300660133 3322.8127595186234 3193.9227319657803 278.98537939786911 3683.1171594560146 2435.7140609920025 2157.6854774057865 1617.885006070137 163.11825224757195
leaf_count=6065 1210 5096 263 5582 2592 492 4922 4811 504 5467 3686 3202 2452 231
internal_value=-5.71827e-06 -0.00173239 0.00341878 -0.000600693 0.00217309 0.00553704 -0.00296132 0.00508364 -0.00369606 -8.54125e-05 0.0011703 -0.00236684 0.00312864 0.00845863
internal_weight=31054.1 20647.4 10406.7 10754.7 6558.6 3848.14 9892.67 3338.89 4412.18 7409.11 3207.48 5480.5 3351.13 509.252
internal_count=46575 30838 15737 16145 9940 5797 14693 5074 6569 11049 4896 8124 5044 723
is_linear=0
shrinkage=0.02


Tree=34
num_leaves=15
num_cat=0
split_feature=44 44 44 44 44 1 44 1 14 17 3 51 3 14
split_gain=441.681 97.2581 38.272 15.3609 14.3899 9.01632 8.49796 7.09024 6.53364 5.81616 5.80983 4.97436 3.91774 3.45529
threshold=1.8227730657141994 0.99474181036041276 2.6914742286977944 1.3053202952160399 0.63533962302684766 22.228833333333338 3.7185999048324474 21.405500000000007 10.500000000000002 2.1554815336883713 46.448506137652309 1.6576507812245593 43.890012435961687 10.500000000000002
decision_type=2 2 2 2 2 2 2 2 2 2 2 2 2 2
left_child=1 4 5 12 11 -2 9 -5 -7 -4 -6 -1 -3 -8
right_child=2 3 6 7 10 8 13 -9 -10 -11 -12 -13 -14 -15
leaf_value=-0.0038412261527434027 0.0002936330181529498 -0.0011634057966390182 0.0013548197056969411 -0.00086347757802452297 -0.0022394666725728735 0.0037844215717834223 0.010080519148206799 0.00087750727863842302 0.0021495288778403373 0.0057387332312292486 0.0017287194644793943 -0.0014968369455059876 0.00016391745853881669 0.0055519608387904467
leaf_weight=3994.2850371003151 446.02379575371742 4401.4133854210377 135.94200271368027 1140.9365274906158 6820.9652018249035 3336.9222187399864 270.3461654484272 5054.5110352635384 1447.0488830506802 2225.0264295339584 146.60469490289688 417.89095240831375 1098.1310143470764 118.08833637833595
leaf_count=5858 706 6552 244 1738 10089 5091 375 7577 2073 3395 261 711 1740 165
internal_value=-5.56802e-06 -0.00140854 0.00404961 -0.000126734 -0.00272472 0.00303942 0.00596398 0.000555104 0.0032931 0.0054919 -0.00215407 -0.00362223 -0.000896589 0.00876489
internal_weight=31054.1 23074.7 7979.4 11695 11379.7 5229.99 2749.4 6195.45 4783.97 2360.97 6967.57 4412.18 5499.54 388.435
internal_count=46575 34526 12049 17607 16919 7870 4179 9315 7164 3639 10350 6569 8292 540
is_linear=0
shrinkage=0.02


Tree=35
num_leaves=15
num_cat=0
split_feature=47 47 47 15 3 18 3 47 3 34 3 47 17 21
split_gain=416.215 78.4777 40.453 24.7103 14.6696 11.4128 9.39645 6.76205 6.30287 4.64482 4.37383 3.70784 2.75075 2.2485
threshold=1.7649153305246776 0.85863527663926309 2.6384112807486457 9.1134184691585585 47.925821951533116 1.3261537592492343 48.734309037205598 0.36157044474069761 39.97576142634707 0.22095152830001577 49.70295917443331 2.1683927557647427 1.9490251727096035 1.003059580149003
decision_type=2 2 2 2 2 2 2 2 2 2 2 2 2 2
left_child=1 5 4 8 11 7 -5 -1 -3 -7 12 -2 -4 -6
right_child=2 3 10 6 13 9 -8 -9 -10 -11 -12 -13 -14 -15
leaf_value=-0.0045638596067663637 0.0011952902695578829 -0.0016539574765694928 0.001181234031913222 0.00030581998485242344 0.0050450878823769104 -0.0029154690934052986 0.0032498666452380736 -0.0029678458123326879 -0.00041573164769507674 -0.0013492983006370136 0.0064286907144423533 0.0026601982987374136 0.005008894290760204 0.0034719556811634647
leaf_weight=1430.5637859404087 1991.5533038973808 4605.0349687635899 86.775275707244873 5222.7378419041634 518.73665925860405 1180.8945002257824 472.49308967590332 4679.049958884716 2598.0026697218418 2251.9924700260162 1238.1257917284966 1100.5137398540974 1956.9439251720905 1843.1952690184116
leaf_count=2130 2981 6866 138 7585 857 1800 777 7019 4154 3315 1934 1640 2858 2730
internal_value=-6.50314e-06 -0.00144864 0.00369642 -0.000430291 0.00263552 -0.00282368 0.000552877 -0.00334456 -0.00120898 -0.00189235 0.00545379 0.00172129 0.00485258 0.00382566
internal_weight=31176.6 22440.8 8735.84 12898.3 5454 9542.5 5695.23 6109.61 7203.04 3432.89 3281.84 3092.07 2043.72 2361.93
internal_count=46784 33646 13138 19382 8208 14264 8362 9149 11020 5115 4930 4621 2996 3587
is_linear=0
shrinkage=0.02


Tree=36
num_leaves=15
num_cat=0
split_feature=44 44 44 44 2 44 44 17 17 47 13 13 13 45
split_gain=410.171 93.2032 35.3928 15.6191 13.1308 10.0343 9.31355 6.27194 6.07354 4.7129 4.57105 4.52491 3.5552 3.52448
threshold=1.7644287388289783 1.0011374677711347 2.2774165576104806 0.56064813948442749 23.772277777777784 3.3502711954475348 1.3053202952160399 1.4595448962175739 1.9490251727096035 0.77190689699804971 1.1219777884053352 2.0636390412724137 1.2884214142317998 1.5500000000000003
decision_type=2 2 2 2 2 2 2 2 2 2 2 2 2 2
left_child=1 3 8 9 13 -6 11 -8 -2 -1 -5 -3 -10 -4
right_child=2 6 4 10 5 -7 7 -9 12 -11 -12 -13 -14 -15
leaf_value=-0.0040349722807618612 0.00030032483736982754 -0.00090113264112073768 -0.0039437060062010136 -0.0025276318574114411 0.0046311223918108317 0.0070765326018639241 -0.001214543782528561 0.00071825701978774071 0.0021881347003332129 -0.00050835144342044358 -0.0015040253838875656 0.00096017131553030393 0.0037991364023344108 0.001654541004386226
leaf_weight=3054.3286592662334 556.9856199324131 4830.8594198524952 62.360924690961838 5704.4893371164799 3793.9213738143444 851.50162360072136 771.39492163062096 4966.7616109251976 2310.9689204990864 167.01592499017715 2619.8446412086487 579.03584125638008 759.81176763772964 147.33266335725784
leaf_count=4544 921 7201 123 8286 5657 1256 1249 7353 3401 307 4088 951 1218 229
internal_value=-6.3286e-06 -0.00140921 0.00374497 -0.00266853 0.00486347 0.00508437 -0.000103823 0.000456351 0.00224345 -0.00385566 -0.00220712 -0.000699783 0.00259222 0
internal_weight=31176.6 22693.7 8482.88 11545.7 4855.12 4645.42 11148.1 5738.16 3627.77 3221.34 8324.33 5409.9 3070.78 209.694
internal_count=46784 33979 12805 17225 7265 6913 16754 8602 5540 4851 12374 8152 4619 352
is_linear=0
shrinkage=0.02


Tree=37
num_leaves=15
num_cat=0
split_feature=47 47 47 16 3 18 5 47 5 13 13 34 16 13
split_gain=384.464 72.5385 37.4293 23.5674 13.6897 10.7434 10.0471 6.35422 5.22693 4.8924 4.1788 4.10047 3.5069 3.15112
threshold=1.7649153305246776 0.85863527663926309 2.6384112807486457 8.4100000000000055 47.925821951533116 1.3581865045948334 48.374003264555363 0.36157044474069761 45.668383955610864 1.0000000180025095e-35 1.5523532672750735 0.22095152830001577 26.430000000000007 0.063119205751047666
decision_type=2 2 2 2 2 2 2 2 2 2 2 2 2 2
left_child=1 5 4 8 10 7 -5 -1 -3 12 -2 -7 -4 -6
right_child=2 3 9 6 13 11 -8 -9 -10 -11 -12 -13 -14 -15
leaf_value=-0.004370031955011751 0.0012852178444922181 -0.0015318101492452299 0.0039548178365076871 9.5458431711946715e-05 0.0027630328652796183 -0.0027650826884515751 0.0024356076509080551 -0.0028395757895537579 0.00042804435620352055 0.0058856085330314025 0.0031818206962761987 -0.0012345636229169584 0.0084932999021338964 0.0043056636650433576
leaf_weight=1451.7893750071526 2507.645819991827 5373.4377824664116 1219.4592660367489 6094.4837389290333 965.98250612616539 1085.8309226036072 834.13862904906273 4896.4029997289181 596.20841962099075 1985.6599724590778 584.42122375965118 2108.4774177372456 76.725754112005234 1395.9494221508503
leaf_count=2162 3642 8166 1702 9026 1360 1658 1286 7345 904 3106 979 3099 122 2227
internal_value=-6.1806e-06 -0.00139223 0.00355269 -0.000413141 0.00253207 -0.00271423 0.000379254 -0.00319242 -0.00133432 0.00524321 0.00164875 -0.00175936 0.00424384 0.00368186
internal_weight=31176.6 22440.8 8735.84 12898.3 5454 9542.5 6928.62 6348.19 5969.65 3281.84 3092.07 3194.31 1296.19 2361.93
internal_count=46784 33646 13138 19382 8208 14264 10312 9507 9070 4930 4621 4757 1824 3587
is_linear=0
shrinkage=0.02


Tree=38
num_leaves=15
num_cat=0
split_feature=46 46 17 3 46 46 46 4 3 15 13 37 21 17
split_gain=357.837 56.5083 53.7834 15.6062 12.3026 11.6445 11.245 7.6507 6.29087 6.23193 5.40509 3.30566 2.89229 1.63921
threshold=1.5277777777777779 2.2928571428571431 1.4756197443865642 48.368201712032793 3.1547619047619051 0.41428571428571431 0.95000000000000007 44.675474067546737 44.907836583633205 12.309782839563718 1.8222534345581682 0.056312417535594558 1.0066982479401798 2.7051675330203193
decision_type=2 2 2 2 2 2 2 2 2 2 2 2 2 2
left_child=2 3 5 10 8 -1 11 -7 -3 -8 -2 -4 -6 -5
right_child=1 4 6 13 12 7 9 -9 -10 -11 -12 -13 -14 -15
leaf_value=-0.0038324165086260926 0.00066370135267545681 0.0018472215946285851 -0.0032967522277609048 0.002013305421552663 0.0066255291194574333 -0.0023483621137270734 -0.00033239410318539612 0.0004883588289816362 0.0041100581252466956 0.0011912000617511141 0.0028642271281653785 -0.0012176785131723326 0.0047950426491820816 0.0037552290246495178
leaf_weight=2295.7765944898129 3839.6506840586662 613.38747370243073 349.32935562729836 316.88633075356483 926.77040204405785 7973.7555313706398 4875.4289337098598 392.62127864360809 3025.7414153516293 1374.9951528906822 508.54368206858635 2913.0366677641869 702.2253665626049 1068.4643807411194
leaf_count=3432 5608 921 512 570 1422 12116 7316 604 4541 1982 863 4267 1026 1604
internal_value=-5.99273e-06 0.00289496 -0.00158855 0.00151753 0.00439104 -0.00256404 -0.000493839 -0.00221396 0.00373262 1.44713e-06 0.000924561 -0.00144525 0.00584942 0.00336746
internal_weight=31176.6 11001.7 20174.9 5733.55 5268.12 10662.2 9512.79 8366.38 3639.13 6250.42 4348.19 3262.37 1629 1385.35
internal_count=46784 16555 30229 8645 7910 16152 14077 12720 5462 9298 6471 4779 2448 2174
is_linear=0
shrinkage=0.02


Tree=39
num_leaves=15
num_cat=0
split_feature=44 44 44 44 2 16 16 44 16 46 44 5 45 5
split_gain=365.653 83.8001 31.5832 14.1083 12.1118 11.8508 9.69735 9.18397 6.47891 6.41506 5.78451 4.54334 3.24113 2.94706
threshold=1.7644287388289783 1.0011374677711347 2.2774165576104806 0.56064813948442749 23.772277777777784 6.4400000000000022 13.600000000000003 3.3502711954475348 3.1366666666666672 0.78888888888888908 1.4531758464822579 40.682815819699719 1.5500000000000003 40.397762891524245
decision_type=2 2 2 2 2 2 2 2 2 2 2 2 2 2
left_child=1 3 6 9 12 11 13 -6 -5 -1 -7 -3 -4 -2
right_child=2 5 4 8 7 10 -8 -9 -10 -11 -12 -13 -14 -15
leaf_value=-0.0039003831754219715 -0.00028283174108030524 -0.0017845726941455281 -0.0038572222242665879 -0.0035676181384320443 0.0043711296545199041 -9.8681175975778951e-05 0.0032814719995717685 0.0067112078006662905 -0.0018703072115144794 -0.00037851096548070757 0.0010048851796338309 -3.9420456733114571e-05 0.0015081992744385309 0.0015783069848442311
leaf_weight=2991.8119875490665 420.20151311159134 1878.2349439263344 62.360924690961838 1047.2651251554489 3793.9213738143444 5484.3393365442753 1604.4723889529705 851.50162360072136 7277.0688531696796 229.53259670734406 2893.8332060277462 891.64430716633797 147.33266335725784 1603.0924060046673
leaf_count=4425 672 2908 123 1572 5657 8160 2421 1256 10802 426 4310 1376 229 2447
internal_value=-5.81216e-06 -0.00133039 0.00353605 -0.0025245 0.00459274 -9.25612e-05 0.00211736 0.00480492 -0.00208585 -0.00365293 0.000281448 -0.00122684 -6.15558e-05 0.00118695
internal_weight=31176.6 22693.7 8482.88 11545.7 4855.12 11148.1 3627.77 4645.42 8324.33 3221.34 8378.17 2769.88 209.694 2023.29
internal_count=46784 33979 12805 17225 7265 16754 5540 6913 12374 4851 12470 4284 352 3119
is_linear=0
shrinkage=0.02


Tree=40
num_leaves=15
num_cat=0
split_feature=46 46 46 5 5 46 17 1 13 5 23 34 46 13
split_gain=337.387 48.1999 47.6496 12.4643 11.2749 10.5194 9.15725 8.5617 8.28505 4.44611 4.15672 3.39518 3.26763 2.53505
threshold=1.5277777777777779 2.2928571428571431 0.88194444444444453 48.486506679571256 40.682815819699719 3.683333333333334 1.5007062648481739 20.470833333333342 0.28228905397220766 48.158371181586219 1.1535905619382383 0.23921611432080117 0.35416666666666669 0.25905609100165178
decision_type=2 2 2 2 2 2 2 2 2 2 2 2 2 2
left_child=2 3 6 10 7 8 12 -4 -3 -6 -2 -8 -1 -5
right_child=1 5 4 13 9 -7 11 -9 -10 -11 -12 -13 -14 -15
leaf_value=-0.0037936549122954111 0.00056633975317025892 0.0028879388607827429 -0.0024163463977934126 0.0021614193710938127 -0.00015706747603249808 0.006450770678351897 -0.0024905840280301066 -0.00074664685799136633 0.0046118110926269195 0.0015888241611499777 0.0019489618197617339 -0.00088045101117589623 -0.002725120004619852 0.0038945926470368639
leaf_weight=1537.599586635828 3116.1858970224857 2211.8654679059982 1702.0506581962109 678.47453683614731 3758.0328615009785 700.74301591515541 857.55869808793068 4525.7648638188839 2392.4171088039875 687.59587395191193 1225.4606259465218 1429.1612812876701 5689.2325952649117 783.24721592664719
leaf_count=2302 4639 3159 2547 982 5605 1026 1276 6789 3787 1058 1876 2081 8625 1243
internal_value=-3.41065e-05 0.00276467 -0.00157482 0.00150158 -0.000656006 0.00414344 -0.00260425 -0.00120521 0.00378746 0.00011131 0.000959615 -0.0014903 -0.00295483 0.00310101
internal_weight=31295.4 11108.4 20187 5803.37 10673.4 5305.03 9513.55 6227.82 4604.28 4445.63 4341.65 2286.72 7226.83 1461.72
internal_count=46995 16712 30283 8740 15999 7972 14284 9336 6946 6663 6515 3357 10927 2225
is_linear=0
shrinkage=0.02


Tree=41
num_leaves=15
num_cat=0
split_feature=44 44 44 16 44 14 16 2 44 46 23 14 23 5
split_gain=335.7 81.5325 21.4936 11.7433 11.6485 9.44534 8.21246 6.73319 6.42346 5.76605 5.37026 5.22884 2.89373 2.45992
threshold=1.8520702432112615 1.055374760879509 2.6396550472426026 6.4400000000000022 0.7769798684742999 10.500000000000002 7.8799999999999999 24.953166666666672 1.4355138598773125 0.84523809523809534 1.1735937559826242 11.500000000000002 1.1535905619382383 40.682815819699719
decision_type=2 2 2 2 2 2 2 2 2 2 2 2 2 2
left_child=1 4 5 13 9 6 -2 -4 -5 -1 -6 -9 -7 -3
right_child=2 3 7 8 10 12 -8 11 -10 -11 -12 -13 -14 -15
leaf_value=-0.0030506248725276144 0.00053654442170739927 -0.0016257448289222949 0 -9.4306715321787373e-05 -0.0019898219172749922 0.00084261581770190804 0.0036826312863801275 0.0054583110045868287 0.0010175115722922204 -0.0012592271466262169 -0.00055727664097699446 0.003125554163020934 0.0029456820168410605 -0.00030159883331924063
leaf_weight=6367.7710890471935 384.20265966653824 1601.6446459889412 107.92628547549248 4585.322813808918 4013.0986533761024 1099.4196560978889 2897.5209001898766 2431.910291403532 3777.5860313475132 837.14875775575638 1447.4149734675884 494.53894308209419 353.38875877857208 896.49582761526108
leaf_count=9406 606 2489 181 6815 6028 1557 4429 3713 5661 1346 2169 700 532 1363
internal_value=-3.33977e-05 -0.00122407 0.00357039 4.64929e-05 -0.00231424 0.0027214 0.0033179 0.00488911 0.000406837 -0.00284427 -0.00161227 0.00506992 0.0013644 -0.00115518
internal_weight=31295.4 23526.5 7768.91 10861 12665.4 4734.53 3281.72 3034.38 8362.91 7204.92 5460.51 2926.45 1452.81 2498.14
internal_count=46995 35277 11718 16328 18949 7124 5035 4594 12476 10752 8197 4413 2089 3852
is_linear=0
shrinkage=0.02


Tree=42
num_leaves=15
num_cat=0
split_feature=44 44 44 2 5 4 44 4 44 13 3 14 44 45
split_gain=322.653 53.6715 42.7834 11.5371 9.60416 9.55069 8.8356 7.78342 6.53568 5.99237 3.59808 3.41035 3.39133 2.35925
threshold=1.5777561968581717 0.96375436838027639 2.2774165576104806 21.65556481481482 44.185919830178797 48.826019101348272 3.1710858428065989 39.875536847278191 0.56064813948442749 2.1039095109982928 46.448506137652309 10.500000000000002 1.9256958461318359 2.3666666666666671
decision_type=2 2 2 2 2 2 2 2 2 2 2 2 2 2
left_child=1 7 5 -4 9 12 -5 8 -1 -3 -9 -7 -2 -6
right_child=2 4 3 6 13 11 -8 10 -10 -11 -12 -13 -14 -15
leaf_value=-0.0035589374312408207 0.00063945897226352357 -0.0009564735393476978 -0.0018767141728236693 0.0038476571927603394 0.00053665850725547197 0.0034736657847678084 0.0058720638333597877 -0.0016719508066174987 -0.0023468751918795079 0.00095416327269543866 0.0011616827542419953 0.0014676267219434595 0.0018994746932381931 0.0039819557254169033
leaf_weight=2697.0041449368 2530.5691106319427 6808.696658462286 118.52265602350235 3583.7797991037369 2421.5841720700264 1192.5003057420254 1186.9321298003197 2282.6287329494953 5653.0859400629997 719.87495830655098 188.86872008442879 508.00207117199898 1321.8871199786663 81.453767776489258
leaf_count=4028 3859 10121 203 5341 3633 1843 1786 3329 8435 1183 345 753 1998 138
internal_value=-3.27133e-05 -0.00147004 0.00283642 0.00420183 -0.000414858 0.00163133 0.00435567 -0.00244701 -0.00274032 -0.000772247 -0.0014506 0.00288269 0.00107516 0.000655857
internal_weight=31295.4 20853.2 10442.2 4889.23 10031.6 5552.96 4770.71 10821.6 8350.09 7528.57 2471.5 1700.5 3852.46 2503.04
internal_count=46995 31212 15783 7330 15075 8453 7127 16137 12463 11304 3674 2596 5857 3771
is_linear=0
shrinkage=0.02


Tree=43
num_leaves=15
num_cat=0
split_feature=49 5 18 5 18 14 51 49 37 51 49 16 49 5
split_gain=272.574 50.4802 43.1183 12.4011 11.3351 11.0152 7.7982 7.29655 5.35474 4.89706 4.70521 3.27354 3.05435 2.8565
threshold=1.2500000000000002 48.078799495080986 1.4498860692549822 44.185919830178797 2.6955283487838284 10.500000000000002 0.48454727423716915 2.7500000000000004 0.38012736117329532 0.83415671402945102 2.2500000000000004 15.440000000000003 3.7500000000000004 40.774466150922741
decision_type=2 2 2 2 2 2 2 2 2 2 2 2 2 2
left_child=2 4 6 8 10 7 13 -3 -4 -8 -2 -5 -7 -1
right_child=1 5 3 11 -6 12 9 -9 -10 -11 -12 -13 -14 -15
leaf_value=-0.0030910967318657353 0.00047582500320016169 0.0036450897115919067 -0.001508234194218247 0.00029904059462030691 0.0028504218733694138 0.0020999248693124579 -0.00057683121714633876 0.0054603093253910986 -0.00040775500593158729 -0.0021339959217760262 0.0023179567256892686 0.002039743863409152 0.004951524585605732 -0.0013314570548843237
leaf_weight=4552.9566695988178 4210.1938373148441 2188.4174413979053 3426.1886204481125 2028.1111913323402 1268.9827780127525 1440.0422478020191 1036.6878825724125 1597.3044261932373 3724.3224694728851 4020.892720669508 642.77857515215874 554.71905261278152 174.96798002719879 428.82439449429512
leaf_count=6903 6418 3355 5116 3063 1837 2075 1572 2438 5507 6013 1001 811 249 637
internal_value=-3.20036e-05 0.00241248 -0.00145715 -0.000507151 0.00116619 0.0038224 -0.00237691 0.0044161 -0.000936725 -0.00181714 0.00072273 0.000678052 0.00242079 -0.00294223
internal_weight=31295.4 11522.7 19772.7 9733.34 6121.96 5400.73 10039.4 3785.72 7150.51 5057.58 4852.97 2582.83 1615.01 4981.78
internal_count=46995 17373 29622 14497 9256 8117 15125 5793 10623 7585 7419 3874 2324 7540
is_linear=0
shrinkage=0.02


Tree=44
num_leaves=15
num_cat=0
split_feature=44 44 44 16 44 46 2 44 13 46 44 16 13 5
split_gain=299.232 72.7972 19.3749 10.9045 10.4877 8.2133 6.1644 5.72215 5.57305 5.38254 4.92595 4.12211 2.48165 1.34665
threshold=1.8520702432112615 1.055374760879509 2.6396550472426026 6.4400000000000022 0.7769798684742999 1.3875000000000002 24.953166666666672 1.4355138598773125 0.30395473764897935 0.84523809523809534 3.6014307786808648 5.6633333333333367 2.5497892656651691 41.518204592393623
decision_type=2 2 2 2 2 2 2 2 2 2 2 2 2 2
left_child=1 4 5 12 9 13 -4 -5 -7 -1 -8 -6 -3 -2
right_child=2 3 6 7 11 8 10 -9 -10 -11 -12 -13 -14 -15
leaf_value=-0.0028879452330896893 -0.003940008852719187 -0.0012451120447550552 0 -8.055592839081128e-05 -0.0023051497310358194 0.0019850625234734617 0.004406688452713972 0.00096867963729874347 0.0033990613585527206 -0.0011571370497903408 0.0066718680038932842 -0.0011260086093605648 0.0018949841825550344 0
leaf_weight=6367.7710890471935 75.187665581703186 2397.244058907032 107.92628547549248 4585.322813808918 1809.7099967896938 2248.0536206960678 2433.0540182888508 3777.5860313475132 2347.6551977992058 837.14875775575638 493.39521619677544 3650.803630053997 100.89641469717026 63.635490655899048
leaf_count=9406 147 3664 181 6815 2739 3196 3714 5661 3676 1346 699 5458 188 105
internal_value=-3.13187e-05 -0.00115548 0.00337108 4.50455e-05 -0.0021856 0.00256482 0.00462329 0.000392314 0.00271072 -0.0026886 0.00479631 -0.00151933 -0.00111287 -0.00216419
internal_weight=31295.4 23526.5 7768.91 10861 12665.4 4734.53 3034.38 8362.91 4595.71 7204.92 2926.45 5460.51 2498.14 138.823
internal_count=46995 35277 11718 16328 18949 7124 4594 12476 6872 10752 4413 8197 3852 252
is_linear=0
shrinkage=0.02


Tree=45
num_leaves=15
num_cat=0
split_feature=3 1 49 49 3 2 16 14 49 13 3 3 16 16
split_gain=263.016 53.4597 36.8765 14.2055 13.3352 11.367 7.49689 7.21893 6.30091 5.48475 4.80423 3.9202 3.37508 2.79153
threshold=45.125971039443073 24.479166666666675 2.2500000000000004 1.2500000000000002 40.437148988246477 28.627500000000005 13.500000000000004 10.500000000000002 1.0000000180025095e-35 0.63168558349281245 49.667644400228575 48.734309037205598 4.5225000000000017 18.27
decision_type=2 2 2 2 2 2 2 2 2 2 2 2 2 2
left_child=1 4 5 6 8 12 -3 10 -1 -5 -4 -7 -2 -9
right_child=2 3 7 9 -6 11 -8 13 -10 -11 -12 -13 -14 -15
leaf_value=-0.0030669652035048242 -0.0014454735582407031 -0.00093351283270978822 0.0041637346559946723 0.00027370808585842611 -0.00080675080764809474 0.0018826198456230714 0.00090958617814801011 0.002067526671423799 -0.0020042271074602546 0.0019746734779323275 0.0059653420549369753 0.0032511073774009508 0.00098090304960970717 0.0042139705859774888
leaf_weight=3862.7659275531769 251.28220865130424 5267.7135710716248 1589.5122735798359 1737.2830684483051 2564.107774913311 1906.4850135445595 1053.4197311401367 663.97270092368126 5589.889398753643 1367.1301062107086 1059.8385471701622 1599.6598602235317 2187.4893055260181 420.91772410273552
leaf_count=5742 416 7843 2384 2500 3894 2816 1536 948 8255 2191 1670 2491 3394 605
internal_value=2.67062e-05 -0.00120827 0.00276327 -7.95233e-05 -0.00209262 0.00178104 -0.000624588 0.00432251 -0.00244012 0.00102679 0.00489217 0.00251133 0.000725821 0.00291573
internal_weight=31121.5 21442.3 9679.16 9425.55 12016.8 5944.92 6321.13 3734.24 9452.66 3104.41 2649.35 3506.14 2438.77 1084.89
internal_count=46685 31961 14724 14070 17891 9117 9379 5607 13997 4691 4054 5307 3810 1553
is_linear=0
shrinkage=0.02


Tree=46
num_leaves=15
num_cat=0
split_feature=46 46 18 3 16 46 1 14 46 16 3 16 14 14
split_gain=280.473 43.6788 43.0229 14.0359 9.44324 6.78166 6.58055 5.78854 5.10052 3.72625 3.7222 3.27223 3.20016 3.15287
threshold=1.5277777777777779 2.6458333333333335 1.4341829025828514 45.013382068588051 11.440000000000003 0.61250000000000016 21.810833333333338 10.500000000000002 0.89444444444444449 7.8799999999999999 49.667644400228575 18.27 12.500000000000002 10.500000000000002
decision_type=2 2 2 2 2 2 2 2 2 2 2 2 2 2
left_child=2 3 5 12 8 -1 -5 10 -4 -7 -3 -9 -2 -6
right_child=1 7 4 6 13 9 -8 11 -10 -11 -12 -13 -14 -15
leaf_value=-0.0029206988084918666 0.00093615744669855387 0.0043491032174115558 -0.001713691297379106 -0.00014627114222625232 0.00083805756204929124 -0.0021396824969681129 0.0027145260167016961 0.0021905487985315005 -0.00053063752212120373 -0.00087737748874755083 0.0060514245288322503 0.0046485568920102477 -0.0015521308075147594 -0.00054522925611962404
leaf_weight=4380.4947034716606 3105.6736072003841 1377.5938093960285 2088.289063423872 341.49673846364021 2238.1639679074287 4195.3665886521339 4115.8501169085503 589.22662171721458 4967.6549367308617 1247.6440107226372 958.50966402888298 375.4862140417099 216.84081465005875 923.17635449767113
leaf_count=6549 4683 2064 3137 511 3350 6371 6223 840 7403 1877 1513 538 304 1322
internal_value=2.62202e-05 0.00257967 -0.00138522 0.00175888 -0.000475204 -0.0023304 0.00249314 0.00450898 -0.000882579 -0.0018526 0.00505643 0.00316524 0.000769918 0.000430859
internal_weight=31121.5 11080.7 20040.8 7779.86 10217.3 9823.51 4457.35 3300.82 7055.94 5443.01 2336.1 964.713 3322.51 3161.34
internal_count=46685 16676 30009 11721 15212 14797 6734 4955 10540 8248 3577 1378 4987 4672
is_linear=0
shrinkage=0.02


Tree=47
num_leaves=15
num_cat=0
split_feature=46 46 18 4 15 46 13 13 16 16 13 16 51 18
split_gain=269.392 41.9593 41.3196 12.4846 10.9649 6.51041 5.58045 5.474 3.9574 3.93992 3.90089 3.57683 2.52673 2.42469
threshold=1.5277777777777779 2.6458333333333335 1.4341829025828514 47.4732674413628 11.889062397039586 0.61250000000000016 1.0000000180025095e-35 1.4112966526561002 18.27 15.767500000000004 1.2115235075966029 7.8799999999999999 0.73380420584863837 3.2479911140282192
decision_type=2 2 2 2 2 2 2 2 2 2 2 2 2 2
left_child=2 3 5 9 7 -1 8 -4 -3 -2 -5 -7 -6 -8
right_child=1 6 4 10 12 11 13 -9 -10 -11 -12 -13 -14 -15
leaf_value=-0.0028623115232320191 0.00076879882488669813 0.0024318496223260759 -0.0010776837648363831 0.0021792553971791452 0.0014925402202715893 -0.0020969092395386382 0.0047455784222570413 0.00014772096645035716 0.0047402979827347817 0.0026062386083588337 0.0036909677004395738 -0.00085985801797430501 7.3117787642544921e-05 0.0067340949079904011
leaf_weight=4380.4947034716606 3777.9636434316635 782.7038232088089 6288.4654024541378 2464.5092310011387 1098.2024429440498 4195.3665886521339 1655.9963048994541 1879.6828069388866 521.2098174393177 539.05623704195023 998.33216574788094 1247.6440107226372 950.93367022275925 340.90636363625526
leaf_count=6549 5716 1093 9211 3610 1599 6371 2636 3010 748 804 1591 1877 1392 478
internal_value=2.56975e-05 0.0025282 -0.00135757 0.00172369 -0.000465727 -0.00228386 0.00441919 -0.000794498 0.0033681 0.00100165 0.00261984 -0.00181561 0.000839424 0.00509645
internal_weight=31121.5 11080.7 20040.8 7779.86 10217.3 9823.51 3300.82 8168.15 1303.91 4317.02 3462.84 5443.01 2049.14 1996.9
internal_count=46685 16676 30009 11721 15212 14797 4955 12221 1841 6520 5201 8248 2991 3114
is_linear=0
shrinkage=0.02


Tree=48
num_leaves=15
num_cat=0
split_feature=3 2 49 3 49 2 16 5 13 16 13 3 16 23
split_gain=234.967 46.0965 32.4687 14.0142 13.6134 10.0827 6.16089 5.63772 5.47576 5.37717 3.88194 3.58609 3.09621 2.03723
threshold=45.125971039443073 23.948708333333339 2.2500000000000004 40.437148988246477 1.2500000000000002 28.627500000000005 13.500000000000004 49.999882700699111 0.63168558349281245 9.4225000000000012 1.0000000180025095e-35 48.734309037205598 4.5225000000000017 1.1735937559826242
decision_type=2 2 2 2 2 2 2 2 2 2 2 2 2 2
left_child=1 3 5 9 6 12 -3 10 -6 -1 -4 -7 -2 -5
right_child=2 4 7 13 8 11 -8 -9 -10 -11 -12 -13 -14 -15
leaf_value=-0.0024945402800775097 -0.0013832388776120134 -0.00092386250214946883 0.0023868118958163148 -0.00097891904126160456 0.00020519197857041979 0.0017761207780439864 0.00077087578834996329 0.0050511979306699581 0.0018628513824050208 -0.00077776956709369751 0.0041245527726541152 0.0030855974520810625 0.0009401704187543805 0.00032409727432308337
leaf_weight=8439.6603725552559 251.28220865130424 5454.1578685045242 917.07174003124237 1804.7173688113689 1860.6722181737423 1906.4850135445595 1010.1086827218533 1482.4965869188309 1413.9486135840416 820.40755867958069 1334.6729188263416 1599.6598602235317 2187.4893055260181 638.63689506053925
leaf_count=12513 416 8115 1278 2762 2670 2816 1472 2262 2259 1189 2067 2491 3394 981
internal_value=2.52513e-05 -0.001142 0.0026118 -0.00198786 -0.000124283 0.00168994 -0.000657339 0.00407504 0.000924705 -0.00234372 0.003424 0.00237783 0.00069574 -0.000634264
internal_weight=31121.5 21442.3 9679.16 11703.4 9738.89 5944.92 6464.27 3734.24 3274.62 9260.07 2251.74 3506.14 2438.77 2443.35
internal_count=46685 31961 14724 17445 14516 9117 9587 5607 4929 13702 3345 5307 3810 3743
is_linear=0
shrinkage=0.02


Tree=49
num_leaves=15
num_cat=0
split_feature=44 44 44 1 16 13 16 3 44 2 4 13 1 2
split_gain=256.58 64.3651 22.4214 12.075 7.44836 7.40679 6.94375 6.77779 5.22705 4.0776 4.06262 3.96624 3.39281 3.03782
threshold=1.7917742124285965 0.92000546375144643 2.6396550472426026 25.540333333333333 7.1400000000000006 0.92275465498357045 13.600000000000003 40.437148988246477 3.6014307786808648 18.733472222222225 39.49451687250906 0.37813894263039494 30.424333333333337 24.253000000000004
decision_type=2 2 2 2 2 2 2 2 2 2 2 2 2 2
left_child=1 4 6 7 10 -5 9 -3 13 -2 -1 -6 -10 -4
right_child=2 3 8 5 11 -7 -8 -9 12 -11 -12 -13 -14 -15
leaf_value=-0.0029392582004048235 -0.0017669559092678329 -0.0014067562893876698 0 -9.2810696647056896e-05 -0.0022370240406415381 0.0012454516509899614 0.0029765668659637368 -5.1947299552686667e-05 0.0019086705663699122 0.0016923176569190316 -0.0015672362634904162 -0.00088056411733029893 0.0068837494057703546 0.0041200246050040398
leaf_weight=5222.6266908943653 139.69093295931816 3322.3713599741459 76.648717790842056 4292.3349341750145 1721.7901262044907 2676.963671028614 2572.7563938498497 2686.7328992187977 70.983254164457321 2522.2402714490891 1084.9559721946716 1802.5502854883671 457.96616941690445 2470.8555330038071
leaf_count=7792 244 4926 129 6258 2458 4216 3847 4086 114 3811 1624 2789 634 3757
internal_value=2.47899e-05 -0.00107107 0.00303316 -0.000145473 -0.00229158 0.000420002 0.00223145 -0.00080289 0.00439171 0.00150584 -0.00270542 -0.00154698 0.00624465 0.00399846
internal_weight=31121.5 22810.3 8311.14 12978.4 9831.92 6969.3 5234.69 6009.1 3076.45 2661.93 6307.58 3524.34 528.949 2547.5
internal_count=46685 34149 12536 19486 14663 10474 7902 9012 4634 4055 9416 5247 748 3886
is_linear=0
shrinkage=0.02


Tree=50
num_leaves=15
num_cat=0
split_feature=44 44 44 2 44 44 4 4 13 13 15 13 13 4
split_gain=242.956 42.7448 31.9285 8.39025 7.30489 7.21583 6.37349 5.47192 5.26729 4.48363 4.3011 3.76066 2.95833 1.87234
threshold=1.4531758464822579 2.1222892460942782 0.7769798684742999 24.555250000000004 2.9501062889358338 1.1557060136954094 48.244623683534556 30.455306025203601 2.4769091732542825 1.8222534345581682 8.5068965551437596 2.2733024859372173 1.0000000180025095e-35 45.914071168010615
decision_type=2 2 2 2 2 2 2 2 2 2 2 2 2 2
left_child=2 6 7 13 -5 9 10 -1 -9 -4 -2 -7 -8 -3
right_child=1 3 5 4 -6 11 12 8 -10 -11 -12 -13 -14 -15
leaf_value=-0.0031085986292045263 -0.00027247088327368897 -0.0006509053440614973 -0.0013200501815752942 0.0031685326680318498 0.0047593211443100938 -0.00027801062059272063 0.0010979073425560122 -0.0021283806251803316 0.00098029655062527158 0.000121536589727413 0.0010902866228428858 0.0018530092655585843 0.0028381603591015763 0.0022992150117547455
leaf_weight=2848.1375815868378 1291.4846307933331 218.3600070476532 6280.686746776104 3810.859336078167 1736.9504979252815 4298.5611115992069 683.01450371742249 4073.4813344478607 224.69940331578255 985.53545930981636 3177.5422950685024 356.3097904920578 1006.1624867022038 136.4135385453701
leaf_count=4282 2082 374 9290 5626 2635 6353 976 5980 389 1628 4682 587 1614 201
internal_value=4.05658e-05 0.00226231 -0.00136433 0.00347903 0.00366993 -0.000729265 0.00109373 -0.00242181 -0.00196316 -0.00112317 0.000694287 -0.000112017 0.00214254 0.000461943
internal_weight=31128.2 12060.8 19067.4 5902.58 5547.81 11921.1 6158.2 7146.32 4298.18 7266.22 4469.03 4654.87 1689.18 354.774
internal_count=46699 18190 28509 8836 8261 17858 9354 10651 6369 10918 6764 6940 2590 575
is_linear=0
shrinkage=0.02


Tree=51
num_leaves=15
num_cat=0
split_feature=44 44 44 16 16 13 16 13 4 51 13 13 44 46
split_gain=233.349 41.0614 30.6643 10.7492 9.21902 7.98678 5.77182 5.76679 5.25362 5.07432 5.06126 5.05059 3.72798 1.9818
threshold=1.4531758464822579 2.0849364922471745 0.7769798684742999 10.020000000000003 4.9450000000000012 0.15637367337194158 10.020000000000003 2.0844300144300152 30.455306025203601 0.78982831068483772 2.4769091732542825 1.0000000180025095e-35 1.2890751289003484 0.89444444444444449
decision_type=2 2 2 2 2 2 2 2 2 2 2 2 2 2
left_child=2 6 8 9 12 -5 13 -6 -1 -3 -10 -8 -4 -2
right_child=1 3 4 5 7 -7 11 -9 10 -11 -12 -13 -14 -15
leaf_value=-0.0030464703007503325 -0.0024109520557632552 -0.00031634109597242243 -0.0021420012284499887 0.0028267895309794407 -0.00059728556619387382 0.0044386624729676003 0.00057520947376203007 0.0010637511333345543 -0.0020858339061877724 0.0025723786651333058 0.00096086364137088333 0.002127448539630079 0.00016890293340010356 0.00037190852556417817
leaf_weight=2848.1375815868378 104.64223852753639 388.18188297748566 2056.0868315398693 2265.666055560112 8631.4287873506546 2879.7587983012199 1395.7555904686451 919.99191999435425 4073.4813344478607 623.21882727742195 224.69940331578255 2186.9690383374691 313.5855692923069 2216.5948644280434
leaf_count=4282 204 628 3116 3222 12753 4470 1973 1500 5980 907 389 3421 489 3365
internal_value=3.97807e-05 0.00221716 -0.00133705 0.00336042 -0.000714661 0.00373223 0.00102251 -0.000436059 -0.0023734 0.00145537 -0.00192386 0.00152618 -0.00183209 0.000240184
internal_weight=31128.2 12060.8 19067.4 6156.83 11921.1 5145.42 5903.96 9551.42 7146.32 1011.4 4298.18 3582.72 2369.67 2321.24
internal_count=46699 18190 28509 9227 17858 7692 8963 14253 10651 1535 6369 5394 3605 3569
is_linear=0
shrinkage=0.02


Tree=52
num_leaves=15
num_cat=0
split_feature=44 44 44 16 16 44 4 13 4 13 15 4 44 13
split_gain=224.121 39.4808 29.45 9.87526 8.85288 6.69591 6.04201 5.53918 5.044 4.86333 4.01986 3.93599 3.58235 2.75258
threshold=1.4531758464822579 2.1222892460942782 0.7769798684742999 10.020000000000003 4.9450000000000012 3.3502711954475348 48.244623683534556 2.0844300144300152 30.455306025203601 2.4769091732542825 8.5068965551437596 47.044418652125252 1.2890751289003484 1.0000000180025095e-35
decision_type=2 2 2 2 2 2 2 2 2 2 2 2 2 2
left_child=2 6 8 11 12 -5 10 -6 -1 -10 -2 -3 -4 -8
right_child=1 3 4 5 7 -7 13 -9 9 -11 -12 -13 -14 -15
leaf_value=-0.0029855836387446899 -0.00027369557985316897 0.00030891455281962594 -0.0020992028318369532 0.0033725396801846954 -0.00058534261375801889 0.0054242167099380623 0.0010623587710135638 0.0010425222629358748 -0.0020441376966017087 0.00094181589770942614 0.0010436440386537517 0.0029452589741313325 0.00016554628373381301 0.00274215400791669
leaf_weight=2848.1375815868378 1291.4846307933331 541.82482543587685 2056.0868315398693 4178.1783340573311 8631.4287873506546 782.2459537088871 683.01450371742249 919.99191999435425 4073.4813344478607 224.69940331578255 3177.5422950685024 400.33426639437675 313.5855692923069 1006.1624867022038
leaf_count=4282 2082 845 3116 6248 12753 1159 976 1500 5980 389 4682 584 489 1614
internal_value=3.90037e-05 0.0021729 -0.00131032 0.00334227 -0.000700356 0.00370015 0.00104973 -0.000427315 -0.00232595 -0.00188535 0.000660763 0.00144359 -0.0017954 0.00207091
internal_weight=31128.2 12060.8 19067.4 5902.58 11921.1 4960.42 6158.2 9551.42 7146.32 4298.18 4469.03 942.159 2369.67 1689.18
internal_count=46699 18190 28509 8836 17858 7407 9354 14253 10651 6369 6764 1429 3605 2590
is_linear=0
shrinkage=0.02


Tree=53
num_leaves=15
num_cat=0
split_feature=44 44 44 44 44 4 4 13 5 14 17 15 13 13
split_gain=215.265 37.9193 28.2837 7.38721 6.76125 5.80381 4.8427 4.67549 4.43214 4.14525 3.87953 3.86145 3.41589 2.6417
threshold=1.4531758464822579 2.1222892460942782 0.7769798684742999 2.9501062889358338 1.1557060136954094 48.244623683534556 30.455306025203601 2.3785982876930603 44.185919830178797 10.500000000000002 2.1212257840111151 8.5068965551437596 2.2733024859372173 1.0000000180025095e-35
decision_type=2 2 2 2 2 2 2 2 2 2 2 2 2 2
left_child=2 5 6 9 8 11 -1 -8 -4 -3 -5 -2 -6 -7
right_child=1 3 4 10 12 13 7 -9 -10 -11 -12 -13 -14 -15
