tree
version=v4
num_class=1
num_tree_per_iteration=1
label_index=0
max_feature_idx=179
objective=regression
feature_names=FG_PCT FG3_PCT FT_PCT BLKA PFD DD2 TD3 TEAM_COUNT IS_HOME DAYS_REST IS_B2B IS_FRESH TEAM_WIN OPP_WIN_PCT PACE_ROLLING CAREER_GAMES PTS_L5 PTS_L10 PTS_L15 PTS_Season PTS_L5_Median PTS_L10_Median REB_L5 REB_L10 REB_L15 REB_Season REB_L5_Median REB_L10_Median AST_L5 AST_L10 AST_L15 AST_Season AST_L5_Median AST_L10_Median FG3M_L5 FG3M_L10 FG3M_L15 FG3M_Season FG3M_L5_Median FG3M_L10_Median STL_L5 STL_L10 STL_L15 STL_Season STL_L5_Median STL_L10_Median TOV_L5 TOV_L10 TOV_L15 TOV_Season TOV_L5_Median TOV_L10_Median FGM_L5 FGM_L10 FGM_L15 FGM_Season FGM_L5_Median FGM_L10_Median FTM_L5 FTM_L10 FTM_L15 FTM_Season FTM_L5_Median FTM_L10_Median DREB_L5 DREB_L10 DREB_L15 DREB_Season DREB_L5_Median DREB_L10_Median OREB_L5 OREB_L10 OREB_L15 OREB_Season OREB_L5_Median OREB_L10_Median FPTS_L5 FPTS_L10 FPTS_L15 FPTS_Season FPTS_L5_Median FPTS_L10_Median PRA_L5 PRA_L10 PRA_L15 PRA_Season PRA_L5_Median PRA_L10_Median PR_L5 PR_L10 PR_L15 PR_Season PR_L5_Median PR_L10_Median PA_L5 PA_L10 PA_L15 PA_Season PA_L5_Median PA_L10_Median RA_L5 RA_L10 RA_L15 RA_Season RA_L5_Median RA_L10_Median SB_L5 SB_L10 SB_L15 SB_Season SB_L5_Median SB_L10_Median MIN_L5 MIN_L10 MIN_L15 MIN_Season MIN_L5_Median MIN_L10_Median FGA_L5 FGA_L10 FGA_L15 FGA_Season FGA_L5_Median FGA_L10_Median FTA_L5 FTA_L10 FTA_L15 FTA_Season FTA_L5_Median FTA_L10_Median MIN_SHARE IS_STARTER USAGE_RATE USAGE_RATE_L5 USAGE_RATE_Season PTS_LOC_MEAN REB_LOC_MEAN AST_LOC_MEAN FG3M_LOC_MEAN PRA_LOC_MEAN PTS_HOT_STREAK REB_HOT_STREAK AST_HOT_STREAK OPP_PTS_ALLOWED OPP_REB_ALLOWED OPP_AST_ALLOWED OPP_FG3M_ALLOWED OPP_STL_ALLOWED OPP_TOV_ALLOWED OPP_FGM_ALLOWED OPP_FTM_ALLOWED OPP_DREB_ALLOWED OPP_OREB_ALLOWED OPP_FPTS_ALLOWED OPP_PRA_ALLOWED OPP_PR_ALLOWED OPP_PA_ALLOWED OPP_RA_ALLOWED OPP_SB_ALLOWED OPP_PTS_ALLOWED_DIFF OPP_REB_ALLOWED_DIFF OPP_AST_ALLOWED_DIFF OPP_FG3M_ALLOWED_DIFF OPP_STL_ALLOWED_DIFF OPP_TOV_ALLOWED_DIFF OPP_FGM_ALLOWED_DIFF OPP_FTM_ALLOWED_DIFF OPP_DREB_ALLOWED_DIFF OPP_OREB_ALLOWED_DIFF OPP_FPTS_ALLOWED_DIFF OPP_PRA_ALLOWED_DIFF OPP_PR_ALLOWED_DIFF OPP_PA_ALLOWED_DIFF OPP_RA_ALLOWED_DIFF OPP_SB_ALLOWED_DIFF OPP_PACE_L5 OPP_DEF_RTG_L5 PTS_VS_OPP REB_VS_OPP AST_VS_OPP
feature_infos=[0:1] [0:1] [0:1] [0:7] [0:17] [0:1] [0:1] none [0:1] [1:7] [0:1] [0:1] [0:1] [0:1] [13.755934917400776:26.296171505707264] [1:174] [0:32] [0:29.100000000000001] [0:29.133333333333333] [0:30] [0:32] [0:30] [0:17.600000000000001] [0:16.300000000000001] [0:15.066666666666666] [0:18] [0:20] [0:16.5] [0:13.4] [0:11.9] [0:11] [0:11] [0:13] [0:12.5] [0:5.5999999999999996] [0:4.2999999999999998] [0:4.4000000000000004] [0:5] [0:7] [0:4.5] [0:4] [0:3.5] [0:3.1333333333333333] [0:4] [0:4] [0:4] [0:7] [0:6] [0:5.8666666666666663] [0:10] [0:8] [0:7] [0:11.800000000000001] [0:11.5] [0:10.933333333333334] [0:11] [0:12] [0:12] [0:9.8000000000000007] [0:8.6999999999999993] [0:7.8666666666666663] [0:10] [0:11] [0:9] [0:13.800000000000001] [0:11.6] [0:11.066666666666666] [0:16] [0:13] [0:11.5] [0:8] [0:6.2000000000000002] [0:5.8666666666666663] [0:8] [0:8] [0:7] [0:65.640000000000015] [0:62.960000000000001] [0:61.360000000000007] [-2:59.586420646927635] [0:69.900000000000006] [0:64.049999999999997] [0:48.799999999999997] [0:43.200000000000003] [0:44.399999999999999] [0:45] [0:47] [0:45] [0:46] [0:41.299999999999997] [0:42.266666666666666] [0:43] [0:45] [0:43] [0:37.600000000000001] [0:34.5] [0:34.200000000000003] [0:32.03058623855042] [0:39] [0:33.5] [0:22.199999999999999] [0:19.600000000000001] [0:18.733333333333334] [0:20] [0:23] [0:20] [0:6.2000000000000002] [0:6] [0:5.2666666666666666] [0:6] [0:7] [0:6.5] [0:41.134333333333338] [0:39.681166666666662] [0:39.207111111111111] [0:39.288583796767277] [0:42.25] [0:39.63666666666667] [0:25] [0:24.100000000000001] [0:22.333333333333332] [0:22.041149743608837] [0:25] [0:23.5] [0:10.666666666666666] [0:9.5999999999999996] [0:8.7333333333333325] [0:12] [0:12] [0:10] [0.020591763294682101:0.19992003198720509] [0:1] [0:50] [0:50] [0:50] [0:33] [0:18] [0:11] [0:6] [0:47] [-15.127323002051124:10.932259178452815] [-5.1273573425338874:4.4239013065543675] [-3.2566999200068758:4.3854545223049097] [0:32] [0:15.199999999999999] [0:11.199999999999999] [0:5.2000000000000002] [0:4.2000000000000002] [0:6.2000000000000002] [0:11.4] [0:9.5999999999999996] [0:12] [0:6] [-0.40000000000000141:62.939999999999998] [0:47.799999999999997] [0:45.200000000000003] [0:35.399999999999999] [0:21.600000000000001] [0:5.4000000000000004] [-7:25] [-3:12.199999999999999] [-2:10] [0:5.2000000000000002] [-1:3.7999999999999998] [-1:5.2000000000000002] [-3:8.4000000000000004] [-1:8.5999999999999996] [-2:10] [0:6] [-16.480000000000004:45.939999999999998] [-13:34.799999999999997] [-11:34.200000000000003] [-9:26.399999999999999] [-5:16.600000000000001] [-1:4.4000000000000004] [73.448000000000008:91.272000000000006] [81.591785826648803:120.46191678830758] [0:37] [0:20] [0:19]
tree_sizes=2828 2899 2937 2934 2942 2938 2931 2937 2868 2942 2940 2930 2938 2959 2839 2928 2950 2933 2935 2851 2947 2928 2948 2953 2952 2949 2940 2943 2963 2939 2933 2844 2937 2955 2949 2963 2975 2966 2929 2949 2941 2965 2953 2868 2954 2942 2923 2870 2951 2592 2802 2862 2848 2862 2885 2801 2974 2892 2969 2993 2892 2972 2881 2870 2906 2700 2984 2949 2709 2594 2890 2886 2801 2988 2917 2883 2814 2893 2602 2799 2713 2896 2516 2884 2763 2857 2963 2797 2639 2795 2385 2625 2981 2788 3028 2297 2628 2694 2308 2612 2294 2629 2704 2202 2799 2895 2909 2916 2721 2890 2614 2677 2708 2808 2302 2494 2633 2528 2729 2757 2841 2953 2852 2553 2799 2374 2900 2896 2797 2680 1926 2023 1904 2279 2741 2455 2116 2478 2646 2090 2746 2592 1639 2620 2764 2709 2269 2700 2573 2821 2648 2599 2248 2156 2408 2641 2710 2795 2555 1961 2169 2797 2717 2914 2787 1576 1607 1476 1679 1496 2829 2710 1398 2503 2814 2688 2435 2092 2633 2106 2374 1992 1517 2110 1225 2734 1306 1304 1388 1492 2081 2154 1951 2071 1410 2639 2464 2725 2530 2714 2927 2541 2891 2611 2935 2449 2654 2831 2668 1664 2279 2437 1154 2108 2335 2475 2437 2893 2705 1196 2602 1864 1881 1865 1778 2658 1202 1043 2126 1352 1884 1781 2145 1798 1243 1677 1592 1791 1698 1144 1781 1788 2436 1673 2224 2558 1984 2534 2719 2708 2664 2786 2037 2761 2121 2943 2258 2777 2322 2318 2761 2756 2391 1874 2378 2595 2637 2215 2707 2237 2104 1879 1155 2192 1659 1956 1677 2095 2094 2545 2025 2260 1843 2037 1830 2821 2187 2454 3003 2673 1684 1161 818 2266 1402 1943 2017 991 1244 1724 2273 2015 2539 2476 2535 2554 1938 2219 2202 2793 1997 1134 1640 1794 1137 2091 1798 2113 2947 2015 2246 2020 2020 1412 2130 1485 2109 1506 1719 1753 2843 2942 2768 1685 2696 1672 1477 1650 1303 1577 2176 1932 1591 1858 2110 1482 2358 2143 2915 1478 2221 2556 2109 1755 2781 1881 1746 1700 1680 1916 2467 2024 2394 2371 2349 2195 1876 2394 1776 2383 2351 2329 2114 2569 2301 1858 2304 2866 1612 1939 964 2043 2719 1287 1602 2785 2710 2271 2713 2286 1866 1801 2552 1783 2558 2552 1708 2450 1845 2631 2415 2056 2215 796 2405 2785 2218 1200 2013 1683 2107 1925 2357 2115 2021 2621 2871 2113 2245 2683 1455 2022 1965 2669 1669 2132 2871 2304 2212 2217 2425 2265 2064 2449 2338 2799 2589 2305 2453 2701 1909 2223 2119 2835 2673 2644 2293 2650 2116 2630 1949 2759 2440 2705 2547 1789 2665 2122 1513 2965 2201 2459 2009 2742 2285 2123 2582 2360 2372 2718 2046 2877 2755 2651 1883 2563 2617 1890 2279 2725 2737 2547 2940 2374 2942 2285 1697 1713 2566 1613 1425 2808 1761 1750 1702 2789 2443 2622 2739 1890 1930 1865 2229 2297 2040 2716 2904 2080 2779 2893 2205 2205 1660 1785 2463 1501 2008 2013 1240 2823 2259 1997 1901 2060 2036 2553 2212 1761 2564 2048 1741 1596 1729 1900 1993 2285 2070 2596 2283 2469 2856 2550 2929 2496 2676 2500 2786 2721 2701 2750 2272 2849 2395 2245 2523 2060 1762 2116 2917 2858 2181 2737 1988 1992 2376 2873 2682 2240 2672 2471 1516 1884 2656 1391 2660 1848 2035 2196 2780 1408 2140 2259 2924 2239 2410 2698 1757 2313 1694 2690 2539 3025 2187 2299 2143 2659 2544 1825 2750 2584 2233 2332 2222 2763 2427 2123 2512 1862 2374 2174 2458 1565 1397 1511 1411 2826 2841 2306 2547 2387 2042 2668 2368 2611 1970 2678 2253 2059 2277 1746 1591 1937 1500 1495 1497 2306 2299 2949 2876 1886 2467 2803 2533 2315 2073 2608 2671 2578 2372 1407 2353 2526 1489 2700 1580 2681 2180 2098 2826 2203 1357 1070 1934 2926 1259 2559 1673 2567 1646 1604 2505 2832 2566 2407 2451 2191 2386 2342 2254 2297 2011 2279 2115 1653 2493 1750 2373 2575 1614 1971 2878 1864 2873 2767 1566 2452 2454 2203 2055 1592 2533 2730 2044 2405 2620 2425 2693 2363 2400 2157 2568 2722 2398 2299 2307 2735 2752 2710 2804 2861 2898 2595 2822 2694 2052 1672 2537 1342 1489 1661 1342 1842 1780 1751 1922 2222 2310 2547 1957 2643 1968 2380 2171 2406 2537 1480 1582 1682 1579 1929 1663 2295 1678 1870 1677 2653 2652 2699 2403 2285 2036 2072 2683 2126 2750 2792 2600 2496 2496 2410 2575 2641 2591 2410 2576 2343 1706 2355 2478 2669 1622 2595 2550 2797 2553 2338 2471 2327 2476 2716 2265 2282 2283 2053 1600 2330 2486 2472 2317 2128

Tree=0
num_leaves=32
num_cat=0
split_feature=130 132 0 0 0 130 5 5 132 130 132 130 0 130 132 4 0 132 5 90 130 132 2 2 132 27 25 130 130 24 25
split_gain=492458 159164 58606.7 48433 34286.3 29461.6 20374.7 17235.5 15523.5 12632.2 11253.6 10868.8 9030.99 6211.84 5409.55 4512 4271.39 4055.33 3662.42 2545.05 2478.31 2383.44 1955.67 1734.91 1424.53 1114.71 1039.6 381.295 375.11 311.859 186.794
threshold=0.11719556888222551 46.757918340652161 0.26500000000000007 0.41900000000000004 0.35500000000000004 0.087797767782775274 1.0000000180025095e-35 1.0000000180025095e-35 45.669355569654677 0.15458520739630185 35.928466749292291 0.15895385640513079 0.095500000000000015 0.062976844910877863 44.356539789697699 4.5000000000000009 0.45250000000000007 33.773249717271355 1.0000000180025095e-35 24.833333333333339 0.15850940774244887 28.417012464046024 0.47750000000000009 0.57700000000000007 48.260033369383869 4.2500000000000009 6.5621179665816127 0.075066633349991613 0.097287392139854809 2.5166666666666671 4.5250558314686744
decision_type=2 2 2 2 2 2 2 2 2 2 2 2 2 2 2 2 2 2 2 2 2 2 2 2 2 2 2 2 2 2 2
left_child=2 4 12 9 17 13 11 10 21 18 -6 -5 22 24 -15 -11 -10 25 -3 -8 -19 -7 27 28 -4 -2 -9 -1 -14 -25 -24
right_child=1 3 5 6 7 8 19 26 16 15 -12 -13 23 14 -16 -17 -18 20 -20 -21 -22 -23 30 29 -26 -27 -28 -29 -30 -31 -32
leaf_value=12.865444223053862 13.093170415021282 13.437050635345388 13.005933864922122 13.735281461837321 13.352184322930347 13.140138009506812 14.043687538652803 13.696689801749859 13.347693755084338 13.616251740088158 13.531251745832551 13.94288110311019 13.00473851173054 13.102466635362592 13.264530741163082 13.821367274419082 13.533845439027736 13.226673861694486 13.788385179931005 14.258950766929166 13.394718970444467 13.260824820944933 12.970510714346331 13.103468660518297 13.099854634468853 13.220873592851692 13.873846169341389 12.934047385950876 13.081246068489303 13.194318305982698 13.065267096173814
leaf_weight=1037 366 636 753 962 1125 391 283 118 362 415 1120 717 490 858 538 304 432 422 50 172 209 800 322 136 430 163 130 246 174 132 65
leaf_count=1037 366 636 753 962 1125 391 283 118 362 415 1120 717 490 858 538 304 432 422 50 172 209 800 322 136 430 163 130 246 174 132 65
internal_value=13.3446 13.5784 13.1099 13.7695 13.3931 13.1964 13.8896 13.4767 13.3123 13.5868 13.4416 13.8244 12.9585 13.1073 13.1648 13.7038 13.4491 13.2136 13.4636 14.1278 13.2823 13.221 12.9026 13.0591 13.0397 13.132 13.7922 12.8781 13.0241 13.1471 12.9853
internal_weight=14358 7192 7166 3539 3653 4564 2134 2493 1985 1405 2245 1679 2602 2579 1396 719 794 1160 686 455 631 1191 1670 932 1183 529 248 1283 664 268 387
internal_count=14358 7192 7166 3539 3653 4564 2134 2493 1985 1405 2245 1679 2602 2579 1396 719 794 1160 686 455 631 1191 1670 932 1183 529 248 1283 664 268 387
is_linear=0
shrinkage=1


Tree=1
num_leaves=32
num_cat=0
split_feature=85 2 132 5 1 5 1 1 5 25 2 89 2 132 2 66 1 88 1 78 132 132 132 30 23 22 132 120 132 136 132
split_gain=392325 69193.5 69124 33403.8 31643.3 22957.4 19298.9 19068.5 17679.1 9144.46 8314.96 8029.47 6974.72 5950.54 5571.32 5046.48 3889.98 3674.54 3550.5 2686.06 2571.29 2379.11 1896.74 1832 1656.23 1591.47 1445.2 775.822 272.988 227.285 195.075
threshold=18.49080878757794 0.15500000000000003 49.998486041300801 1.0000000180025095e-35 0.10550000000000002 1.0000000180025095e-35 0.10550000000000002 0.25850000000000006 1.0000000180025095e-35 3.0745533210767229 0.55950000000000011 10.816666666666668 0.22500000000000003 40.195964311214858 0.51900000000000013 2.3452380952380958 0.25850000000000006 9.3666666666666689 0.5415000000000002 36.356666666666676 28.280950725838064 38.438418510475216 29.048658201856885 4.6181818181818191 2.8819444444444451 5.7750000000000012 22.98170730946622 17.500000000000004 38.543981781308908 3.3758116883116887 41.844159019477168
decision_type=2 2 2 2 2 2 2 2 2 2 2 2 2 2 2 2 2 2 2 2 2 2 2 2 2 2 2 2 2 2 2
left_child=1 4 5 7 9 10 8 12 11 26 16 -3 -4 24 -9 22 -2 -15 -12 23 -11 -17 -6 -5 -8 29 -1 -21 -27 -7 -10
right_child=2 6 3 19 15 25 13 14 30 20 18 -13 -14 17 -16 21 -18 -19 -20 27 -22 -23 -24 -25 -26 28 -28 -29 -30 -31 -32
leaf_value=-0.42575264813586622 -0.088805024828892715 -0.18008783018317803 0 0.6659570554073726 -0.23671733353306765 0.12546826332265681 -0.068886644465698255 0.29879004755668276 0.34907317365726953 -0.29645273868389055 0.11742110491729096 -0.021374741102017973 0.27744688119135619 0.044975590418798825 0.51315917715266579 -0.089351326358433736 0.085959398170342122 0.19437151952446591 0.3327859823197023 0.77616681014930111 -0.18461934449965345 0.072017826994179218 -0.13381031130413168 0.34230483602548573 0.059983696159140447 0.39666149931056527 -0.34984581235400269 1.0465652449544272 0.5492830432950534 0.32168341066767864 0.52116222919282462
leaf_weight=649 525 1427 174 266 394 14.999999999999998 413 256 34 651 870 794 868 453 918 360 331 632 142 179 691 244 1091 37 258 45 1343 36 161 50 51
leaf_count=649 525 1427 174 266 394 15 413 256 34 651 870 794 868 453 918 360 331 632 142 179 691 244 1091 37 258 45 1343 36 161 50 51
internal_value=-0.000554435 -0.15042 0.291106 0.424318 -0.243903 0.12066 -0.0255706 0.356274 -0.101626 -0.320377 0.0705627 -0.123403 0.231186 0.0743056 0.466859 -0.121709 -0.0211899 0.132149 0.148092 0.713529 -0.239143 -0.0241389 -0.161328 0.628329 -0.0193067 0.463678 -0.37488 0.828399 0.519071 0.280315 0.45962
internal_weight=14358 9485 4873 2734 5423 2139 4062 2216 2306 3334 1868 2221 1042 1756 1174 2089 856 1085 1012 518 1342 604 1485 303 671 271 1992 215 206 65 85
internal_count=14358 9485 4873 2734 5423 2139 4062 2216 2306 3334 1868 2221 1042 1756 1174 2089 856 1085 1012 518 1342 604 1485 303 671 271 1992 215 206 65 85
is_linear=0
shrinkage=0.04


Tree=2
num_leaves=32
num_cat=0
split_feature=130 89 0 0 0 130 5 2 5 0 2 5 0 2 130 0 5 89 135 2 0 0 2 2 2 2 137 130 25 25 130
split_gain=428437 93982.7 51712.5 39426.2 37628.5 25702.9 17589.4 13011 11145 7635.65 7290.04 5888.11 5865.2 5498.93 5284.14 4260.86 3547.19 3507.01 2899.48 2404.33 2239.87 2088.27 1511.11 1430.43 1026.84 1024.38 686.214 342.805 329.286 260.859 188.583
threshold=0.11719556888222551 17.725000000000005 0.26500000000000007 0.34050000000000008 0.40450000000000003 0.087210561385973662 1.0000000180025095e-35 0.22500000000000003 1.0000000180025095e-35 0.095500000000000015 0.51900000000000013 1.0000000180025095e-35 0.27550000000000008 0.15500000000000003 0.062976844910877863 0.20550000000000004 1.0000000180025095e-35 15.236111111111112 16.898254954155579 0.57700000000000007 0.5355000000000002 0.53100000000000014 0.47750000000000009 0.57700000000000007 0.30950000000000005 0.57700000000000007 3.9428104575163405 0.076282691987339654 3.8953235772809607 2.5639656543448863 0.097287392139854809
decision_type=2 2 2 2 2 2 2 2 2 2 2 2 2 2 2 2 2 2 2 2 2 2 2 2 2 2 2 2 2 2 2
left_child=2 3 9 15 8 14 10 16 12 22 -6 -9 -3 21 25 24 -5 -15 -8 -17 -16 -7 27 28 -2 -4 -10 -1 -11 -25 -24
right_child=1 4 5 7 6 13 18 11 26 23 -12 -13 -14 17 20 19 -18 -19 -20 -21 -22 -23 30 29 -26 -27 -28 -29 -30 -31 -32
leaf_value=-0.44610575987163342 -0.29128871280875918 -0.0040279558504236583 -0.3022444563809556 0.036446504871543314 0.2676019520895016 -0.14916411491659762 0.60743167301990098 0.21023747873813706 0.54276650016117467 -0.31642856373899919 0.46376651036888172 0.45929074528505676 0.20704792246006104 -0.015599942198068744 -0.20873456532613563 -0.12313106973882171 0.38727644243928572 0.14398740665000453 0.82261352369400331 0.014524545037376215 -0.10195401245803665 -0.024774827212811039 -0.35196394091590738 -0.23193379469697115 -0.15565514013236775 -0.20057440534515475 0.3106780663711437 -0.37978082472922736 -0.23880533867040948 -0.1483385600402167 -0.24689247364468042
leaf_weight=1053 170 302 978 951 421 588 332 1596 130 526 1160 168 694 796 843 409 47 303 175 401 509 342 339 127 203 205 33 230 138 141 48
leaf_count=1053 170 302 978 951 421 588 332 1596 130 526 1160 168 694 796 843 409 47 303 175 401 509 342 339 127 203 205 33 230 138 141 48
internal_value=-0.000511184 0.217573 -0.219387 0.0863346 0.376909 -0.138178 0.478348 0.169066 0.193775 -0.361668 0.411836 0.234329 0.143133 -0.0320331 -0.223064 -0.106788 0.053529 0.0285318 0.683921 -0.0550772 -0.168694 -0.103539 -0.413051 -0.269077 -0.218402 -0.284906 0.499065 -0.434676 -0.300877 -0.189038 -0.339946
internal_weight=14358 7192 7166 3945 3247 4564 2088 2762 1159 2602 1581 1764 996 2029 2535 1183 998 1099 507 810 1352 930 1670 932 373 1183 163 1283 664 268 387
internal_count=14358 7192 7166 3945 3247 4564 2088 2762 1159 2602 1581 1764 996 2029 2535 1183 998 1099 507 810 1352 930 1670 932 373 1183 163 1283 664 268 387
is_linear=0
shrinkage=0.04


Tree=3
num_leaves=32
num_cat=0
split_feature=130 132 130 4 132 132 24 130 130 130 132 130 25 130 132 25 65 25 130 130 73 132 73 130 130 73 2 25 132 2 2
split_gain=394958 130384 44255.6 28613.8 22940.9 17552.9 10764.5 9174.52 7378.99 5272.47 5214.54 4617.44 4134.54 3866.64 3810.18 3497.66 2907.05 2876.61 2689.37 2475.88 1971.84 1829.36 1774.02 1757.55 1692.78 1379.73 906.27 853.213 378.895 346.35 33.1963
threshold=0.11719556888222551 46.757918340652161 0.074391970681325956 3.5000000000000004 45.340182256979709 34.266014795839212 6.8090909090909095 0.15801266033649838 0.14969598534066303 0.15611777444611027 39.497334886512057 0.15020406463434946 5.040561150261909 0.09803848075962017 29.351165371731557 5.230013756493137 3.9500000000000006 5.1880388474876584 0.049229551890721257 0.16226470098284188 1.2385491234124066 26.043821106582659 0.81979979180237805 0.049229551890721257 0.10187406296851571 1.2385491234124066 0.65150000000000008 3.5513279764400445 30.340330716569394 0.57700000000000007 0.65150000000000008
decision_type=2 2 2 2 2 2 2 2 2 2 2 2 2 2 2 2 2 2 2 2 2 2 2 2 2 2 2 2 2 2 2
left_child=2 5 10 8 14 11 9 16 17 -5 23 22 -10 25 27 -9 -7 -3 29 -8 -15 -13 -2 30 -16 -6 -20 -4 -25 -12 -1
right_child=1 3 4 6 13 7 19 15 12 -11 18 21 -14 20 24 -17 -18 -19 26 -21 -22 -23 -24 28 -26 -27 -28 -29 -30 -31 -32
leaf_value=-0.4076561218792002 -0.16726128401153859 0.13809241185546023 -0.28088997881012517 0.32121503275979324 -0.08671441752056705 0.014749774758627272 0.54070002930597827 0.16002736557601346 0.28521724194245646 0.49716098389824093 -0.34102268519713314 -0.059931764519940249 0.46670782039201897 0.037181660168203144 -0.18015595116285579 0.33495608318319114 0.15204383753136044 0.28675481483562404 -0.24002407491127134 0.72307202223139433 0.18512196790428739 0.070813045949500317 -0.052682898514809347 -0.34222608025294365 -0.089463156862346141 0.040852804968973006 -0.14945622777003761 -0.20189668894884316 -0.28570159568176484 -0.25634208498665467 -0.33464470912208244
leaf_weight=797 512 600 605 463 492 927 246 502 558 713 465 286 326 461 953 292 335 323 576 310 209 422 377 718 511 186 271 380 358 125 59
leaf_count=797 512 600 605 463 492 927 246 502 558 713 465 286 326 461 953 292 335 323 576 310 209 422 377 718 511 186 271 380 358 125 59
internal_value=-0.000488552 0.208902 -0.210639 0.381882 -0.116932 0.04123 0.498124 0.118471 0.270142 0.428391 -0.31615 -0.058226 0.352829 0.0155873 -0.18984 0.224874 0.0513351 0.190501 -0.257815 0.644061 0.0836466 0.0179774 -0.118847 -0.359303 -0.148627 -0.0516993 -0.211367 -0.250773 -0.323847 -0.323784 -0.403223
internal_weight=14358 7192 7166 3539 3797 3653 1732 2056 1807 1176 3369 1597 884 1348 2449 794 1262 923 1437 556 670 708 889 1932 1464 678 847 985 1076 590 856
internal_count=14358 7192 7166 3539 3797 3653 1732 2056 1807 1176 3369 1597 884 1348 2449 794 1262 923 1437 556 670 708 889 1932 1464 678 847 985 1076 590 856
is_linear=0
shrinkage=0.04


Tree=4
num_leaves=32
num_cat=0
split_feature=130 132 0 0 0 130 132 0 130 132 4 0 132 67 2 130 0 0 132 132 130 0 0 132 130 2 2 130 4 23 144
split_gain=364248 111799 55847.2 37124.6 27909.7 26302.4 14358.2 13888.6 11101.2 10339.5 8409.68 5923.65 5176.04 4666.54 3968.99 3921.88 3884.65 3452.59 3026.81 2961.97 2942.25 2281.57 2030 1750.31 1579.56 1396.72 1312.13 1246.8 882.71 264.279 185.001
threshold=0.12302598700649671 47.741062464533599 0.35150000000000003 0.41900000000000004 0.43650000000000005 0.087797767782775274 47.504407556122892 0.087000000000000008 0.16098617357987674 32.533441778500752 4.5000000000000009 0.26500000000000007 41.094904508658409 4.7333192247749745 0.57700000000000007 0.16275612193903052 0.52100000000000013 0.31050000000000005 32.679154995331473 40.195964311214858 0.057418257034669407 0.53100000000000014 0.27550000000000008 23.892668111434769 0.055734632683658157 0.47750000000000009 0.55950000000000011 0.089709312010661305 2.5000000000000004 4.2928571428571436 4.9000000000000012
decision_type=2 2 2 2 2 2 2 2 2 2 2 2 2 2 2 2 2 2 2 2 2 2 2 2 2 2 2 2 2 2 2
left_child=2 4 7 10 11 12 18 25 16 23 17 26 24 -10 27 -11 -5 -3 -7 -13 -14 -8 -12 -6 -4 29 -2 -9 -16 -1 -27
right_child=1 3 5 8 9 6 21 14 13 15 22 19 20 -15 28 -17 -18 -19 -20 -21 -22 -23 -24 -25 -26 30 -28 -29 -30 -31 -32
leaf_value=-0.41189923794471683 -0.21887542199710658 0.042358987359917485 -0.30916253933075938 0.32528448727159864 -0.054364740592515177 -0.13398034406690992 0.094925451169764877 -0.29366392009772185 0.52189466559298059 0.17995992308349537 0.18532901109782132 -0.057379053456515505 -0.20633170373941909 0.71542211473162742 -0.17695228335790034 0.33063825624683935 0.48324117766092989 0.2094497903113679 -0.0093326299392305651 0.079844120367463051 -0.056593957875241914 0.23591948820430883 0.41437320858623494 0.085521738124872904 -0.20753064163032245 -0.32733561920592991 -0.096122612871272883 -0.21493483867927674 -0.075290864486678113 -0.34514482262103635 -0.23663736474236774
leaf_weight=1125 314 314 386 482 227 548 420 873 497 759 81 649 338 374 379 442 558 538 721 409 555 330 325 382 731 338 257 552 219 172 63
leaf_count=1125 314 314 386 482 227 548 420 873 497 759 81 649 338 374 379 442 558 538 721 409 555 330 325 382 731 338 257 552 219 172 63
internal_value=-0.000465745 0.217694 -0.186485 0.389032 0.0597055 -0.0832451 0.0187327 -0.298191 0.500113 0.167749 0.219894 -0.0603839 -0.185619 0.606085 -0.227078 0.23576 0.410612 0.148057 -0.0632578 -0.00428982 -0.113525 0.157315 0.369537 0.0333681 -0.243023 -0.382638 -0.16403 -0.263428 -0.14001 -0.403459 -0.314031
internal_weight=14358 6608 7750 3169 3439 4029 2019 3721 1911 1810 1258 1629 2010 871 2023 1201 1040 852 1269 1058 893 750 406 609 1117 1698 571 1425 598 1297 401
internal_count=14358 6608 7750 3169 3439 4029 2019 3721 1911 1810 1258 1629 2010 871 2023 1201 1040 852 1269 1058 893 750 406 609 1117 1698 571 1425 598 1297 401
is_linear=0
shrinkage=0.04


Tree=5
num_leaves=32
num_cat=0
split_feature=130 132 0 0 0 130 132 130 0 132 130 130 0 0 65 132 0 130 132 4 130 130 78 0 0 130 130 130 24 136 4
split_gain=334662 108328 42549 32553.5 31297 19509.8 13153.5 11155.2 11093.8 10968.5 9299.97 7000.44 6376.28 4136.69 4053.72 4009.74 3921.95 3063.33 2718.27 2489.09 2304.72 1955.46 1560.06 1198.03 1084.79 942.385 806.713 770.993 573.029 322.777 204.326
threshold=0.11719556888222551 49.65170680991163 0.35150000000000003 0.46300000000000008 0.41050000000000003 0.081963185074129613 32.435354799744786 0.15850940774244887 0.095500000000000015 49.867718074287865 0.15020406463434946 0.14925453939696817 0.26500000000000007 0.31450000000000006 5.5857142857142863 40.08561119165109 0.34050000000000008 0.15310677994336166 32.149783099949303 1.5000000000000002 0.057418257034669407 0.14925453939696817 38.023333333333341 0.52500000000000013 0.17900000000000002 0.055734632683658157 0.076965683824754258 0.088322505413959654 2.870833333333334 5.0065789473684221 1.0000000180025095e-35
decision_type=2 2 2 2 2 2 2 2 2 2 2 2 2 2 2 2 2 2 2 2 2 2 2 2 2 2 2 2 2 2 2
left_child=2 4 8 7 12 15 21 16 26 18 22 -8 24 -9 -12 25 -3 -14 -7 27 -17 -6 -5 -11 -2 -4 30 -10 -21 -28 -1
right_child=1 3 5 10 6 9 11 13 19 23 14 -13 17 -15 -16 20 -18 -19 -20 28 -22 -23 -24 -25 -26 -27 29 -29 -30 -31 -32
leaf_value=-0.39918565028558328 -0.22517609946514366 0.048920430812205727 -0.29743682659851001 0.36566863310134445 -0.045329756117116905 -0.14222703432306719 0.1207602846195955 0.20190952883535029 -0.27973071249686682 0.086857100190327871 0.53439357371504659 0.28440482523339428 -0.071619427103591607 0.41886501513931557 0.72970944377155678 -0.20448613062709872 0.22202648306760644 0.06548719142363392 -0.02420246122518914 -0.19377549263853436 -0.067136278570256502 0.082325227491714781 0.60050632697289141 0.20477411069579707 -0.12202118776914732 -0.21412365487677867 -0.32999448571802242 -0.21193198249182379 -0.11343938880712066 -0.22169384922203442 -0.35744932557247466
leaf_weight=796 289 350 398 528 416 521 750 194 858 316 559 955 570 558 273 348 524 478 778 321 449 354 53 249 392 546 282 437 272 69 521
leaf_count=796 289 350 398 528 416 521 750 194 858 316 559 955 570 558 273 348 524 478 778 321 449 354 53 249 392 546 282 437 272 69 521
internal_value=-0.00064012 0.191052 -0.194527 0.372935 0.0594849 -0.0976265 0.150668 0.250514 -0.29268 -0.00766679 0.513393 0.212592 -0.071056 0.363414 0.599684 -0.19385 0.152912 -0.00907613 -0.071652 -0.225928 -0.127385 0.0133992 0.388589 0.139236 -0.166202 -0.24967 -0.367962 -0.257127 -0.157312 -0.30975 -0.383103
internal_weight=14404 7243 7161 3039 4204 3605 2475 1626 3556 1864 1413 1705 1729 752 832 1741 874 1048 1299 1888 797 770 581 565 681 944 1668 1295 593 351 1317
internal_count=14404 7243 7161 3039 4204 3605 2475 1626 3556 1864 1413 1705 1729 752 832 1741 874 1048 1299 1888 797 770 581 565 681 944 1668 1295 593 351 1317
is_linear=0
shrinkage=0.04


Tree=6
num_leaves=32
num_cat=0
split_feature=130 132 130 4 132 132 130 130 89 136 25 132 130 130 132 136 130 1 1 136 73 73 130 132 130 73 132 1 1 1 1
split_gain=308508 99929.7 35304.3 21461 17760.4 17012.1 9968.9 8343.11 6000.84 4731.82 4547.33 3998.3 3905.41 3520.47 3412.01 3262.96 2489.1 2319.79 2069.02 2024.61 1905.52 1538.38 1337.32 1314.5 1273.62 1234.2 798.724 431.913 397.375 359.792 298.378
threshold=0.11719556888222551 48.504370569206429 0.073650674662668655 4.5000000000000009 45.340182256979709 34.375790433475451 0.15801266033649838 0.16672080626353489 24.350000000000005 5.2186956521739143 4.915629256208903 40.08561119165109 0.15369398634016321 0.09803848075962017 24.732251598844353 3.8905982905982905 0.048313343328335805 0.59150000000000003 0.34300000000000003 5.6717798594847784 0.82634586640523788 1.2385491234124066 0.14353240046643342 26.043821106582659 0.051765783774779209 1.2267029391113404 48.730123117480453 0.46450000000000008 0.59150000000000003 0.65150000000000008 0.46450000000000008
decision_type=2 2 2 2 2 2 2 2 2 2 2 2 2 2 2 2 2 2 2 2 2 2 2 2 2 2 2 2 2 2 2
left_child=2 5 11 7 14 12 15 9 18 -3 -8 24 20 25 28 -7 29 -16 -5 -9 -2 -15 -10 -14 30 -6 -18 -26 -4 -13 -1
right_child=1 3 4 8 13 6 10 19 22 -11 -12 16 23 21 17 -17 26 -19 -20 -21 -22 -23 -24 -25 27 -27 -28 -29 -30 -31 -32
leaf_value=-0.3580541411255157 -0.14725193348521676 0.17177844650800303 -0.25837429299685399 0.36284351210682964 -0.082582507968111701 0.00044373333641183467 0.14592830769907505 0.34631220419097519 0.39271903313586587 0.31469706347000409 0.32618750325078455 -0.30512957193762513 -0.043242017646746789 0.038476996634868352 -0.15779662521398571 0.12231183929827891 -0.23298781711010513 -0.030681867406127654 0.50816629526141721 0.50988084012486456 -0.035241825577966283 0.1709455078960937 0.64775554983581574 0.073163282615976377 -0.29718857238622198 0.038215720416280137 -0.15062519248208808 -0.22259366935834191 -0.16036558187757219 -0.18517383444309235 -0.27002325931932564
leaf_weight=918 563 970 566 429 502 827 550 353 46 608 382 501 255 461 1540 610 322 271 278 205 429 201 346 392 789 184 496 178 86 53 93
leaf_count=918 563 970 566 429 502 827 550 353 46 608 382 501 255 461 1540 610 322 271 278 205 429 201 346 392 789 184 496 178 86 53 93
internal_value=-0.000612692 0.183437 -0.18677 0.34876 -0.103435 0.0499166 0.118433 0.274508 0.492501 0.227094 0.220221 -0.281482 -0.0491321 0.0132825 -0.167286 0.0522526 -0.228423 -0.138818 0.420947 0.407618 -0.0989424 0.0789994 0.619449 0.0272848 -0.318082 -0.0501633 -0.183419 -0.283828 -0.245851 -0.294192 -0.350372
internal_weight=14404 7243 7161 3235 3811 4008 2369 2136 1099 1578 932 3350 1639 1348 2463 1437 1372 1811 707 558 992 662 392 647 1978 686 818 967 652 554 1011
internal_count=14404 7243 7161 3235 3811 4008 2369 2136 1099 1578 932 3350 1639 1348 2463 1437 1372 1811 707 558 992 662 392 647 1978 686 818 967 652 554 1011
is_linear=0
shrinkage=0.04


Tree=7
num_leaves=32
num_cat=0
split_feature=130 132 0 0 0 130 5 5 0 132 5 132 130 0 130 132 5 4 130 132 0 0 72 25 130 4 130 25 4 22 136
split_gain=284404 92363.2 37998.8 29657 28490.9 16748.2 12931.8 10328.1 9454.42 9236.86 8196.92 8094.63 6770.08 5682.18 5090.76 3682.77 3134.43 2148.27 2108.7 1666.28 1632.66 1505.38 1016.46 958.326 939.583 653.843 628.246 530.118 521.536 302.152 178.972
threshold=0.11719556888222551 49.65170680991163 0.35150000000000003 0.43100000000000005 0.41050000000000003 0.083399966683324958 1.0000000180025095e-35 1.0000000180025095e-35 0.095500000000000015 45.883325230918821 1.0000000180025095e-35 38.762443805800054 0.15850940774244887 0.26500000000000007 0.15850940774244887 41.844159019477168 1.0000000180025095e-35 1.5000000000000002 0.057418257034669407 32.149783099949303 0.55300000000000016 0.52500000000000013 0.93095238095238109 5.9308141683070046 0.058175079127103103 1.5000000000000002 0.088322505413959654 2.7819254697699538 4.5000000000000009 2.9000000000000004 5.056349206349207
decision_type=2 2 2 2 2 2 2 2 2 2 2 2 2 2 2 2 2 2 2 2 2 2 2 2 2 2 2 2 2 2 2
left_child=2 4 8 10 13 15 11 12 25 19 14 -6 -5 23 -3 24 -15 26 -17 -7 -9 -11 -8 -2 -4 29 -10 -19 -12 -1 -27
right_child=1 3 5 7 6 9 22 20 17 21 28 -13 -14 16 -16 18 -18 27 -20 -21 -22 -23 -24 -25 -26 30 -28 -29 -30 -31 -32
leaf_value=-0.36603524591884062 -0.17926978368274454 0.087774003964708233 -0.26604927200712797 0.32282438185379148 0.037792997483481437 -0.12750403017003242 0.2569108539022551 0.56383082692299358 -0.25988051636861187 0.060461942060010154 0.37128844759769924 0.19288513043906202 0.5040921478508128 -0.028302059747931509 0.25845408146637433 -0.18458615792953331 0.27060791600251394 -0.18952435230530193 -0.050781772549876383 -0.028495537504690728 0.75812753540855593 0.17900665734101118 0.43341306252165984 -0.043826113750092432 -0.18754749871350296 -0.29161867969834454 -0.19852695523329852 -0.11208485513506528 0.52795375862768146 -0.3177342383396552 -0.17675023639034218
leaf_weight=1015 582 651 464 761 1198 500 80 201 858 398 96 978 603 990 492 326 58 262 448 597 148 303 219 99 569 218 437 331 87 401 34
leaf_count=1015 582 651 464 761 1198 500 80 201 858 398 96 978 603 990 492 326 58 262 448 597 148 303 219 99 569 218 437 331 87 401 34
internal_value=-0.00058304 0.17613 -0.17932 0.344077 0.0546439 -0.0877493 0.141644 0.454013 -0.272075 -0.00129579 0.2017 0.107586 0.403428 -0.0699062 0.161489 -0.173698 -0.0113924 -0.210448 -0.107392 -0.0737386 0.649129 0.11198 0.38772 -0.159725 -0.223147 -0.341575 -0.239433 -0.146698 0.449477 -0.35271 -0.277274
internal_weight=14404 7243 7161 3039 4204 3605 2475 1713 3556 1798 1326 2176 1364 1729 1143 1807 1048 1888 774 1097 349 701 299 681 1033 1668 1295 593 183 1416 252
internal_count=14404 7243 7161 3039 4204 3605 2475 1713 3556 1798 1326 2176 1364 1729 1143 1807 1048 1888 774 1097 349 701 299 681 1033 1668 1295 593 183 1416 252
is_linear=0
shrinkage=0.04


Tree=8
num_leaves=31
num_cat=0
split_feature=130 0 0 90 130 0 5 5 2 2 2 2 5 0 130 85 2 89 0 2 0 2 130 136 130 137 130 25 67 153
split_gain=263416 54865.7 47896.7 37474.4 23116.1 10717.8 10065.7 8757.72 8735.09 5527.44 4918.25 4170.35 4164.91 3649.95 3569.7 3540.69 3330.95 2297.87 2100.45 1688.8 1513.04 1352.62 996.359 955.314 722.252 647.713 432.529 297.869 277.329 125.036
threshold=0.1277777777777778 0.34050000000000008 0.35150000000000003 19.621428571428577 0.087797767782775274 0.087000000000000008 1.0000000180025095e-35 1.0000000180025095e-35 0.55950000000000011 0.15500000000000003 0.55950000000000011 0.51900000000000013 1.0000000180025095e-35 0.52100000000000013 0.057418257034669407 17.400585169054327 0.57700000000000007 17.31666666666667 0.52100000000000013 0.65150000000000008 0.22450000000000003 0.47750000000000009 0.09115858737298016 4.202272727272728 0.096010328169248663 4.4833147942157963 0.040975345660503058 3.5335725937302294 3.970251511414606 16.710000000000012
decision_type=2 2 2 2 2 2 2 2 2 2 2 2 2 2 2 2 2 2 2 2 2 2 2 2 2 2 2 2 2 2
left_child=2 7 5 8 14 21 11 10 12 23 20 -5 -3 -10 26 -11 22 -12 -8 -16 -2 28 -7 -6 -18 29 -4 -23 -1 -9
right_child=1 3 4 6 9 16 18 25 13 15 17 -13 -14 -15 19 -17 24 -19 -20 -21 -22 27 -24 -25 -26 -27 -28 -29 -30 -31
leaf_value=-0.35235391485617151 -0.19774477097360976 0.070081602930273462 -0.26215477309110691 0.22330814848943559 -0.070766474152473141 -0.25215844297735202 0.4788420136312837 0.24537896080017091 0.18260200603855029 0.032387128246856807 -0.036953021087698372 0.39078103795293295 0.33931777598015705 0.30421802500402989 -0.14425716218410972 0.16819572242181807 -0.16030979974311302 0.096258313167181253 0.65656896612945947 -0.041619381800476883 -0.069591492663247947 -0.28240009127832655 -0.18456003844554902 0.012516255279674251 -0.075902571660758963 0.12123839942711157 -0.19799516813938048 -0.19837084440477029 -0.26942501683888703 0.42076019439422824
leaf_weight=1208 238 1103 306 323 659 894 256 15.999999999999998 934 845 412 991 99 699 875 482 315 414 229 365 391 288 617 330 344 19 474 113 97 68
leaf_count=1208 238 1103 306 323 659 894 256 16 934 845 412 991 99 699 875 482 315 414 229 365 391 288 617 330 344 19 474 113 97 68
internal_value=-0.000552162 0.196413 -0.149077 0.265434 -0.0577088 -0.251226 0.408201 -0.00893166 0.174669 0.0285438 -0.0343037 0.349918 0.0926552 0.234893 -0.15655 0.0818535 -0.192002 0.0298625 0.564532 -0.114135 -0.118443 -0.32632 -0.224768 -0.0429966 -0.116527 0.344788 -0.223625 -0.259558 -0.346509 0.392292
internal_weight=14404 6192 8212 4634 4336 3876 1799 1558 2835 2316 1455 1314 1202 1633 2020 1327 2170 826 485 1240 629 1706 1511 989 659 103 780 401 1305 84
internal_count=14404 6192 8212 4634 4336 3876 1799 1558 2835 2316 1455 1314 1202 1633 2020 1327 2170 826 485 1240 629 1706 1511 989 659 103 780 401 1305 84
is_linear=0
shrinkage=0.04


Tree=9
num_leaves=32
num_cat=0
split_feature=131 132 4 132 132 89 25 4 136 1 1 1 1 1 25 4 73 1 73 1 4 4 1 178 132 65 4 132 25 140 1
split_gain=229513 94520.4 25574.8 12796.1 11660.4 9298.41 8339.26 6417.74 5988.88 5463.37 5113.59 4166.63 3480.17 3386.4 2801.93 2455.6 2375.04 2211.71 2104.8 2134.07 1219.72 1106.59 996.28 1007.42 990.67 837.688 473.246 366.405 315.282 288.8 68.9552
threshold=1.0000000180025095e-35 45.990771829761989 3.5000000000000004 38.329074094778711 31.438609123850231 21.612500000000004 5.6562845474185552 2.5000000000000004 5.2186956521739143 0.34300000000000003 0.34300000000000003 0.36950000000000005 0.15500000000000003 0.40850000000000003 3.9763519813918391 6.5000000000000009 0.81979979180237805 0.36950000000000005 0.79908477632852903 0.36950000000000005 2.5000000000000004 1.5000000000000002 0.36950000000000005 5.2582680226439651 21.372019793072429 2.8166666666666669 1.0000000180025095e-35 28.417012464046024 2.3094367712706987 -2.2983893932804111 0.59150000000000003
decision_type=2 2 2 2 2 2 2 2 2 2 2 2 2 2 2 2 2 2 2 2 2 2 2 2 2 2 2 2 2 2 2
left_child=3 4 8 12 18 13 9 11 10 -6 -3 14 16 -4 -5 -7 26 -10 19 -2 -8 -18 23 -9 -20 -13 -1 30 -29 -24 -14
right_child=1 2 5 7 6 15 20 22 17 -11 -12 25 27 -15 -16 -17 21 -19 24 -21 -22 -23 29 -25 -26 -27 -28 28 -30 -31 -32
leaf_value=-0.31962474433458316 -0.18372153694335644 0.064133734974234552 0.2451745533310393 -0.20892644478457428 -0.042267482258059312 0.43186578767675643 0.11629220245702535 -0.066210343600828156 0.22344788214327108 0.093670864953179805 0.21645557401031376 -0.081714442037885998 -0.22190804821196058 0.40125815294078643 -0.092012444528638299 0.58699308875511436 -0.23891847160921539 0.37148386738394901 -0.10461971176311083 -0.04899762366147619 0.22521607623859929 -0.13502869175241525 0.26187899268014092 0.080333261690998525 -0.0040231039243054413 0.043382247539390115 -0.26950878455738619 -0.17054217766854304 -0.099956832761339459 0.082240335058217026 -0.1762618529839175
leaf_weight=808 483 803 684 1411 1197 633 317 259 545 780 630 506 156 340 432 245 779 238 230 310 356 217 15.999999999999998 104 485 102 632 252 185 99 170
leaf_count=808 483 803 684 1411 1197 633 317 259 545 780 630 506 156 340 432 245 779 238 230 310 356 217 16 104 485 102 632 252 185 99 170
internal_value=-0.000526136 0.136859 0.272657 -0.186056 0.0023165 0.380258 0.0528395 -0.125541 0.180105 0.0113936 0.131259 -0.151674 -0.241378 0.297514 -0.181621 0.476085 -0.264805 0.269074 -0.086429 -0.131252 0.174289 -0.216525 0.00850761 -0.0240566 -0.0365397 -0.0606661 -0.297936 -0.166208 -0.141114 0.110318 -0.199033
internal_weight=14404 8276 4118 6128 4158 1902 2650 2929 2216 1977 1433 2451 3199 1024 1843 878 2436 783 1508 793 673 996 478 363 715 608 1440 763 437 115 326
internal_count=14404 8276 4118 6128 4158 1902 2650 2929 2216 1977 1433 2451 3199 1024 1843 878 2436 783 1508 793 673 996 478 363 715 608 1440 763 437 115 326
is_linear=0
shrinkage=0.04


Tree=10
num_leaves=32
num_cat=0
split_feature=130 132 0 0 0 130 132 0 132 5 5 132 132 0 5 132 2 130 130 5 5 0 0 135 130 2 136 126 130 130 130
split_gain=232444 65857.4 46039 23228 21055.1 20581.4 11350.1 9217.45 7727.14 7430.27 4918.43 4827.02 4501.74 3704.14 3089.66 3032.85 2870.32 2675.03 2671.74 2556.18 2352.69 2100.06 1659.16 1547.58 1427.3 1089.75 853.01 732.113 521.798 190.391 187.955
threshold=0.12888555722138928 49.998486041300801 0.35150000000000003 0.43100000000000005 0.43650000000000005 0.093136764950857862 49.65170680991163 0.10550000000000002 38.543981781308908 1.0000000180025095e-35 1.0000000180025095e-35 38.438418510475216 41.844159019477168 0.31450000000000006 1.0000000180025095e-35 30.875850824784688 0.22500000000000003 0.16834082958520738 0.062976844910877863 1.0000000180025095e-35 1.0000000180025095e-35 0.52500000000000013 0.17900000000000002 17.289915966386555 0.058175079127103103 0.47750000000000009 5.4083333333333341 3.6076923076923082 0.097287392139854809 0.097287392139854809 0.055734632683658157
decision_type=2 2 2 2 2 2 2 2 2 2 2 2 2 2 2 2 2 2 2 2 2 2 2 2 2 2 2 2 2 2 2
left_child=2 4 7 10 11 12 15 25 19 17 13 22 24 -3 -10 -7 28 -5 -14 -6 -13 -8 -2 -11 -4 30 -18 -12 -9 -27 -1
right_child=1 3 5 9 8 6 21 16 14 23 27 20 18 -15 -16 -17 26 -19 -20 -21 -22 -23 -24 -25 -26 29 -28 -29 -30 -31 -32
leaf_value=-0.33802679153985571 -0.20922577547644736 0.063605207413089948 -0.23786533631520435 0.34646979185704191 0.059016007370117668 -0.10867872029048298 0.10758563704811289 -0.23778137372416144 0.20875930730645059 0.53017274255165936 0.30015672329493931 0.01893322969445848 -0.15095863951600547 0.22654021206941771 0.39265199076709389 0.014467794397971577 -0.14337404432428297 0.48093613062320645 -0.01576332815832153 0.28218775028478904 0.26799858140407645 0.24418051843469538 -0.069596466085768707 0.71909089491410694 -0.14956509230577023 -0.25973713365729212 -0.037941641751141057 0.48007618945056862 -0.18054408228037183 -0.18134211358296795 -0.30048577280899219
leaf_weight=771 170 344 453 732 820 476 427 868 770 220 79 698 376 643 183 969 762 377 616 90 65 316 678 136 875 343 148 94 406 78 562
leaf_count=771 170 344 453 732 820 476 427 868 770 220 79 698 376 643 183 969 762 377 616 90 65 316 678 136 875 343 148 94 406 78 562
internal_value=-0.000259772 0.187888 -0.136134 0.339043 0.0735746 -0.04882 0.0391773 -0.236029 0.165093 0.44493 0.20491 -0.0323121 -0.131784 0.169939 0.244637 -0.026166 -0.180953 0.392773 -0.0671613 0.0815204 0.0406405 0.16606 -0.0979129 0.605069 -0.179923 -0.304391 -0.126322 0.401226 -0.219778 -0.245917 -0.322558
internal_weight=14545 6099 8446 2625 3474 4508 2188 3938 1863 1465 1160 1611 2320 987 953 1445 2184 1109 992 910 763 743 848 356 1328 1754 910 173 1274 421 1333
internal_count=14545 6099 8446 2625 3474 4508 2188 3938 1863 1465 1160 1611 2320 987 953 1445 2184 1109 992 910 763 743 848 356 1328 1754 910 173 1274 421 1333
is_linear=0
shrinkage=0.04


Tree=11
num_leaves=32
num_cat=0
split_feature=130 0 0 4 130 85 0 88 88 4 130 0 0 4 4 0 0 0 0 0 0 0 4 130 130 77 130 130 25 0 130
split_gain=214368 46344.8 43610.5 27381.9 19797.4 9107.01 8716.63 7417.9 5758.06 4655.23 4376 4157.35 3499.49 2803.91 2337.15 2286.44 1891.47 1760.54 1587.07 1542.54 1385.49 1234.43 991.778 962.903 802.631 745.578 661.079 324.421 270.633 208.592 100.59
threshold=0.13004747626186908 0.34050000000000008 0.35150000000000003 3.5000000000000004 0.096010328169248663 22.362813555844838 0.10550000000000002 18.675000000000004 17.100000000000005 2.5000000000000004 0.064980009995002461 0.50950000000000017 0.50950000000000017 4.5000000000000009 2.5000000000000004 0.52500000000000013 0.53100000000000014 0.17150000000000001 0.53100000000000014 0.50950000000000017 0.52500000000000013 0.22450000000000003 1.5000000000000002 0.069140429785107468 0.047517907712810205 35.135000000000012 0.076965683824754258 0.10571380976178572 4.0916012161910169 0.087000000000000008 0.052619523571547505
decision_type=2 2 2 2 2 2 2 2 2 2 2 2 2 2 2 2 2 2 2 2 2 2 2 2 2 2 2 2 2 2 2
left_child=2 8 6 7 10 19 26 12 17 16 24 -7 -3 21 23 -9 -6 29 -12 -5 -11 -10 -19 -8 -4 -15 30 -16 -28 -2 -1
right_child=1 3 4 5 9 11 14 15 13 20 18 -13 -14 25 27 -17 -18 22 -20 -21 -22 -23 -24 -25 -26 -27 28 -29 -30 -31 -32
leaf_value=-0.31793366386130834 -0.27652948057037036 0.062462453479732762 -0.2259166471811338 0.19888350615686548 -0.036178534621249259 0.37081552550304997 -0.23410069602414724 0.20001055380466118 -0.083046295546585644 0.073661276577926066 -0.11617639333066629 0.53058235234871842 0.18042815962741329 0.13778175878292112 -0.11748326989237255 0.32571708975376673 0.055616654905953002 -0.11597121002879954 -0.032317279347051274 0.31772247715751045 0.18897682100431298 0.057692306629140877 -0.012312552398680152 -0.1708437118053763 -0.15303293086100617 0.29766183838428267 -0.26794332258657833 -0.041537318888700235 -0.19136531062383277 -0.16789132236944487 -0.28666288758094088
leaf_weight=835 47 934 441 380 805 638 579 567 131 334 765 472 709 141 180 407 646 241 686 346 338 402 379 1275 582 73 300 184 126 108 494
leaf_count=835 47 934 441 380 805 638 579 567 131 334 765 472 709 141 180 407 646 241 686 346 338 402 379 1275 582 73 300 184 126 108 494
internal_value=-0.000240596 0.183643 -0.128454 0.248752 -0.0445427 0.367163 -0.22549 0.165515 -0.00690699 0.04505 -0.121407 0.43938 0.113488 0.0722631 -0.172569 0.252963 0.0047021 -0.0832141 -0.0766068 0.256064 0.13196 0.0229583 -0.0527948 -0.190774 -0.184741 0.194031 -0.292166 -0.079432 -0.246054 -0.203193 -0.306649
internal_weight=14545 5975 8570 4453 4597 1836 3973 2617 1522 2123 2474 1110 1643 747 2218 974 1451 775 1451 726 672 533 620 1854 1023 214 1755 364 426 155 1329
internal_count=14545 5975 8570 4453 4597 1836 3973 2617 1522 2123 2474 1110 1643 747 2218 974 1451 775 1451 726 672 533 620 1854 1023 214 1755 364 426 155 1329
is_linear=0
shrinkage=0.04


Tree=12
num_leaves=32
num_cat=0
split_feature=130 132 0 0 130 0 132 0 132 5 132 132 5 0 132 5 130 5 4 5 4 0 4 130 0 132 127 130 130 136 4
split_gain=197650 57162.9 41038.7 19312.5 18716.5 17569.4 10737.3 8094.02 6621.47 6538.37 4533.25 4316.43 4210.55 3113.57 2952.03 2690 2532.65 2525.97 2321.45 2207.45 2142.82 1953.75 1692.76 1424.41 841.999 647.771 636.035 620.06 597.766 230.176 95.1941
threshold=0.13060553056804933 49.998486041300801 0.35150000000000003 0.43100000000000005 0.096010328169248663 0.43650000000000005 49.65170680991163 0.10550000000000002 38.543981781308908 1.0000000180025095e-35 41.719622162100045 34.375790433475451 1.0000000180025095e-35 0.31450000000000006 30.875850824784688 1.0000000180025095e-35 0.062976844910877863 1.0000000180025095e-35 3.5000000000000004 1.0000000180025095e-35 1.5000000000000002 0.52500000000000013 6.5000000000000009 0.073650674662668655 0.21250000000000002 49.509165538930532 3.7514926673929812 0.093790604697651117 0.076965683824754258 4.7607164727495421 1.0000000180025095e-35
decision_type=2 2 2 2 2 2 2 2 2 2 2 2 2 2 2 2 2 2 2 2 2 2 2 2 2 2 2 2 2 2 2
left_child=2 5 7 12 10 11 14 28 19 18 23 24 13 -3 -6 -10 -12 -13 -5 -7 27 -8 -11 -4 -2 -22 -14 -9 30 -30 -1
right_child=1 3 4 9 6 8 21 20 15 22 16 17 26 -15 -16 -17 -18 -19 -20 -21 25 -23 -24 -25 -26 -27 -28 -29 29 -31 -32
leaf_value=-0.30617280620898274 -0.18828851445234532 0.063917791815527536 -0.19889121796703577 0.30057525011126496 -0.10230405212297011 0.053285391850029569 0.1104715131572878 -0.21355479003833433 0.1945875787461781 0.51404556185528771 -0.13751897600374327 0.0039213544882871192 0.28184157602802201 0.21568526082243908 0.02016470883848602 0.36816814106124923 -0.0086224434651361696 0.24630669580289979 0.42169837968519192 0.26323080522121667 -0.14255624324510283 0.24140375203575143 0.73810779943865945 -0.11703907152234191 -0.083015724946317079 -0.067558224825499433 0.45063838447066795 -0.15768357790980939 -0.25308351705944171 -0.17435979683195205 -0.27641721973084571
leaf_weight=789 175 333 799 480 471 783 437 946 749 267 376 899 77 625 943 179 690 73 599 88 440 318 82 609 409 325 95 520 337 92 540
leaf_count=789 175 333 799 480 471 783 437 946 749 267 376 899 77 625 943 179 690 73 599 88 440 318 82 609 409 325 95 520 337 92 540
internal_value=-0.000230383 0.177901 -0.122262 0.32028 -0.0413968 0.0692495 0.044359 -0.216334 0.154327 0.418064 -0.116563 -0.0291659 0.196315 0.163118 -0.0206917 0.228614 -0.05422 0.0224808 0.368312 0.0749175 -0.165547 0.165994 0.569635 -0.163653 -0.11497 -0.110894 0.378185 -0.193921 -0.280587 -0.236877 -0.294411
internal_weight=14545 5913 8632 2558 4643 3355 2169 3989 1799 1428 2474 1556 1130 958 1414 928 1066 972 1079 871 2231 755 349 1408 584 765 172 1466 1758 429 1329
internal_count=14545 5913 8632 2558 4643 3355 2169 3989 1799 1428 2474 1556 1130 958 1414 928 1066 972 1079 871 2231 755 349 1408 584 765 172 1466 1758 429 1329
is_linear=0
shrinkage=0.04


Tree=13
num_leaves=32
num_cat=0
split_feature=131 132 0 0 0 5 132 132 4 0 5 0 5 4 4 5 0 0 132 2 2 2 5 2 30 1 73 178 67 73 136
split_gain=169369 73589.5 24107 22001.6 19101.9 12406.1 9421.04 6625.42 5700.97 5330.81 4525.26 4360.76 4348.17 3070.1 2779.26 2606.08 1937.33 1606.25 1577.59 1319.31 1165.3 1014.67 847.961 718.931 490.111 436.624 311.239 274.472 230.584 102.909 77.5149
threshold=1.0000000180025095e-35 48.620561493072792 0.38700000000000007 0.43650000000000005 0.35150000000000003 1.0000000180025095e-35 32.533441778500752 38.329074094778711 3.5000000000000004 0.26500000000000007 1.0000000180025095e-35 0.095500000000000015 1.0000000180025095e-35 4.5000000000000009 2.5000000000000004 1.0000000180025095e-35 0.54750000000000021 0.52750000000000019 21.372019793072429 0.57700000000000007 0.57700000000000007 0.22500000000000003 1.0000000180025095e-35 0.22500000000000003 4.4833333333333343 0.22650000000000003 0.52141847109864392 3.430664857012395 1.8282646068359276 0.6385419825752604 4.7410600255427848
decision_type=2 2 2 2 2 2 2 2 2 2 2 2 2 2 2 2 2 2 2 2 2 2 2 2 2 2 2 2 2 2 2
left_child=4 3 12 9 11 8 18 21 -4 19 -8 23 13 -3 17 -11 -7 -9 -5 -2 28 25 -16 29 -14 -6 -22 -23 -13 -1 -25
right_child=1 2 5 6 7 16 10 14 -10 15 -12 20 24 -15 22 -17 -18 -19 -20 -21 26 27 -24 30 -26 -27 -28 -29 -30 -31 -32
leaf_value=-0.30106414004771781 -0.18979863500221533 0.031045274820543971 0.21549979609924216 -0.10290118612992416 -0.19283655267773406 0.43783282178292093 0.12662523188228622 -0.097824913987070217 0.35256999674066697 -0.037958195449406124 0.31947398092615736 -0.21918758694211268 0.36529998267475683 0.1880369639838799 0.057589651882269423 0.21669597836423801 0.61201633707000491 -0.006581118429945707 0.021422182730538038 -0.089751489420125868 -0.1574223043748729 -0.11816239563180934 0.3445698959350586 -0.23175786812948476 0.14969892407982957 -0.13856622070733335 -0.087104257345472363 -0.047940337195185548 -0.18026903586424317 -0.27004853241092341 -0.17094455603970826
leaf_weight=731 541 738 1056 222 593 298 1397 695 918 1360 226 580 98 272 313 66 185 555 605 353 202 272 15.999999999999998 303 24 437 217 137 555 516 64
leaf_count=731 541 738 1056 222 593 298 1397 695 918 1360 226 580 98 272 313 66 185 555 605 353 202 272 16 303 24 437 217 137 555 516 64
internal_value=-0.000212634 0.1172 0.253984 0.0142345 -0.158861 0.324329 0.0978029 -0.0867784 0.279465 -0.074021 0.153752 -0.227455 0.10107 0.0735443 -0.0301497 -0.0259538 0.506246 -0.0573723 -0.0120723 -0.150516 -0.179272 -0.148818 0.0730588 -0.273636 0.325252 -0.17005 -0.121455 -0.0949115 -0.200423 -0.288573 -0.221903
internal_weight=14545 8359 3589 4770 6186 2457 2450 3018 1974 2320 1623 3168 1132 1010 1579 1426 483 1250 827 894 1554 1439 329 1614 122 1030 419 409 1135 1247 367
internal_count=14545 8359 3589 4770 6186 2457 2450 3018 1974 2320 1623 3168 1132 1010 1579 1426 483 1250 827 894 1554 1439 329 1614 122 1030 419 409 1135 1247 367
is_linear=0
shrinkage=0.04


Tree=14
num_leaves=31
num_cat=0
split_feature=91 0 0 132 4 5 0 132 5 4 5 1 2 2 5 0 25 0 91 5 0 0 25 73 4 2 137 67 64 2
split_gain=154827 43856.9 35187.7 19716.4 15518.8 10829.8 9171.1 6163.9 5634.11 5509.63 4940.55 3837.88 3434.89 3081.53 2795.94 2492.51 2203.64 2036.95 1937.29 1848.82 1710.57 1166.09 937.564 818.361 777.498 768.816 345.435 238.598 113.617 102.577
threshold=15.691805414158752 0.35150000000000003 0.34050000000000008 49.998486041300801 1.5000000000000002 1.0000000180025095e-35 0.087000000000000008 41.505957236270284 1.0000000180025095e-35 3.5000000000000004 1.0000000180025095e-35 0.10550000000000002 0.55950000000000011 0.57700000000000007 1.0000000180025095e-35 0.52750000000000019 3.413182164960892 0.52100000000000013 9.9711379548949761 1.0000000180025095e-35 0.20550000000000004 0.17150000000000001 3.5897031891987248 0.84399232173141481 1.5000000000000002 0.57700000000000007 3.6690476190476193 3.970251511414606 3.9000000000000004 0.78200000000000014
decision_type=2 2 2 2 2 2 2 2 2 2 2 2 2 2 2 2 2 2 2 2 2 2 2 2 2 2 2 2 2 2
left_child=1 6 10 8 11 9 25 19 15 -5 12 16 21 22 -9 -4 -3 -7 -13 -6 -14 -2 -8 -10 -15 27 29 -1 -27 -12
right_child=2 4 3 5 7 17 13 14 23 -11 26 18 20 24 -16 -17 -18 -19 -20 -21 -22 -23 -24 -25 -26 28 -28 -29 -30 -31
leaf_value=-0.27704169927476902 -0.21995513627946378 -0.16434916533785832 0.044706329009306288 0.20337353122525786 -0.023395826885297916 0.41357146955121515 -0.18730441410296148 0.10449467368079156 0.12324164140184721 0.34798069715248803 0.23848497676849367 -0.069434807253195285 -0.074553919211581901 -0.13398822873755706 0.35754640511298341 0.15901314959277582 -0.064886561578643281 0.59303869213750648 0.019254876051153551 0.24308146091165214 0.0701015389409166 -0.071170900846243931 -0.11727590706842909 0.33652416224690862 -0.049530103691524927 -0.20532729589590554 0.127089724583096 -0.20427919650908133 -0.10510378384590149 0.3745597403133617
leaf_weight=1340 111 851 655 841 983 243 1312 1217 36 865 28 970 174 254 73 573 618 208 662 42 513 348 413 213 561 255 21 99 25 41
leaf_count=1340 111 851 655 841 983 243 1312 1217 36 865 28 970 174 254 73 573 618 208 662 42 513 348 413 213 561 255 21 99 25 41
internal_value=-0.000200869 -0.0927889 0.18371 0.246394 -0.0172545 0.323484 -0.188802 0.0610873 0.133595 0.276938 -0.000658213 -0.0757419 -0.0232158 -0.140367 0.119216 0.0981755 -0.122617 0.498042 -0.0334719 -0.0121336 0.0333755 -0.107759 -0.170657 0.306627 -0.0760547 -0.260183 0.282203 -0.272257 -0.197001 0.325647
internal_weight=14545 9675 4870 3634 5416 2157 4259 2315 1477 1706 1236 3101 1146 2540 1290 1228 1469 451 1632 1025 687 459 1725 249 815 1719 90 1439 280 69
internal_count=14545 9675 4870 3634 5416 2157 4259 2315 1477 1706 1236 3101 1146 2540 1290 1228 1469 451 1632 1025 687 459 1725 249 815 1719 90 1439 280 69
is_linear=0
shrinkage=0.04


Tree=15
num_leaves=32
num_cat=0
split_feature=131 132 0 0 0 4 4 132 2 0 0 0 91 121 132 19 132 0 178 132 0 0 2 0 2 0 2 23 25 25 71
split_gain=147254 63471.8 23971.4 15773.1 15297.7 8330.94 7539 6060.4 6056.3 4385.33 3333.62 3220.1 2672.14 2567.45 2523.42 2239.04 1740.1 1703.93 1555.73 1264.04 1206.09 1134.73 1124.31 663.388 638.192 601.18 340.402 169.823 144.616 101.421 89.5346
threshold=1.0000000180025095e-35 45.990771829761989 0.46300000000000008 0.41450000000000004 0.26500000000000007 4.5000000000000009 4.5000000000000009 32.533441778500752 0.15500000000000003 0.30200000000000005 0.26500000000000007 0.63400000000000012 17.884909394147282 15.512835971786986 49.65170680991163 17.680500183916703 37.975170087334483 0.095500000000000015 4.7524257547472519 24.296062140255092 0.53100000000000014 0.52750000000000019 0.55950000000000011 0.55300000000000016 0.22500000000000003 0.56800000000000006 0.47750000000000009 5.6833333333333345 3.7932499942170956 3.2688852578701737 0.64583333333333337
decision_type=2 2 2 2 2 2 2 2 2 2 2 2 2 2 2 2 2 2 2 2 2 2 2 2 2 2 2 2 2 2 2
left_child=4 3 5 10 17 9 12 19 16 -3 22 -9 -4 -8 23 -7 25 24 -12 -5 -18 -16 -2 -10 30 -6 28 -28 -19 -26 -1
right_child=1 2 6 7 8 15 13 11 14 -11 18 -13 -14 -15 21 -17 20 26 -20 -21 -22 -23 -24 -25 29 -27 27 -29 -30 -31 -32
leaf_value=-0.27623135817732741 -0.18201173131183665 -0.02126827999954373 0.20127428461994748 -0.07421341493918332 -0.1969925992048614 0.19559008488157847 0.39487535444480615 0.08154093441442424 -0.11105078083681752 0.12495780291661678 -0.069176637519316825 0.21320114411904384 0.31977230196185119 0.60241059958514054 -0.01973811784497435 0.355644136701673 -0.1310334027844548 -0.21256201882558109 0.038656104529142775 0.023839367032734562 -0.036259497334622734 0.088635143785728274 -0.085785481420884505 -0.039465879036336922 -0.21995185849440727 -0.13911897061491793 -0.15176898361300875 -0.037552961703609014 -0.15218216032658863 -0.16685102832070028 -0.24629612336956289
leaf_weight=829 518 453 560 339 712 368 511 1065 509 1185 751 413 702 126 395 234 690 370 298 549 314 252 318 353 236 519 260 24 101 119 423
leaf_count=829 518 453 560 339 712 368 511 1065 509 1185 751 413 702 126 395 234 690 370 298 549 314 252 318 353 236 519 260 24 101 119 423
internal_value=-5.18854e-06 0.108746 0.220214 0.000174888 -0.149427 0.131441 0.32474 0.0689306 -0.099072 0.0845331 -0.0861094 0.118513 0.267495 0.437251 -0.0371024 0.25854 -0.140857 -0.229129 -0.0385282 -0.0136505 -0.101495 0.0225734 -0.145633 -0.08186 -0.252607 -0.172795 -0.178748 -0.142379 -0.200147 -0.20294 -0.266427
internal_weight=14496 8390 4139 4251 6106 2240 1899 2366 3744 1638 1885 1478 1262 637 1509 602 2235 2362 1049 888 1004 647 836 862 1607 1231 755 284 471 355 1252
internal_count=14496 8390 4139 4251 6106 2240 1899 2366 3744 1638 1885 1478 1262 637 1509 602 2235 2362 1049 888 1004 647 836 862 1607 1231 755 284 471 355 1252
is_linear=0
shrinkage=0.04


Tree=16
num_leaves=32
num_cat=0
split_feature=131 132 0 0 0 5 5 132 5 2 0 0 2 132 5 132 0 2 31 0 0 2 109 0 2 0 2 73 23 71 25
split_gain=135748 58905.5 18992.4 18844.8 14104.6 8384.43 6177.34 6088.26 5699.02 5583.89 4373.1 4020.72 2955.79 2360.91 2127 1615.32 1569.81 1252.59 1201.6 1138.57 1044.05 787.57 767.035 608.09 587.705 557.436 315.677 197.395 113.89 87.6061 87.0067
threshold=1.0000000180025095e-35 49.998486041300801 0.46300000000000008 0.41050000000000003 0.26500000000000007 1.0000000180025095e-35 1.0000000180025095e-35 37.975170087334483 1.0000000180025095e-35 0.30950000000000005 0.27550000000000008 0.26500000000000007 0.51900000000000013 49.65170680991163 1.0000000180025095e-35 37.975170087334483 0.095500000000000015 0.30950000000000005 4.0349189140980632 0.53100000000000014 0.52750000000000019 0.51900000000000013 2.497280912398709 0.55300000000000016 0.47750000000000009 0.56800000000000006 0.65150000000000008 1.1554341190599835 5.7071428571428582 0.64583333333333337 3.2688852578701737
decision_type=2 2 2 2 2 2 2 2 2 2 2 2 2 2 2 2 2 2 2 2 2 2 2 2 2 2 2 2 2 2 2
left_child=4 3 6 11 16 7 10 -5 12 15 -3 17 -4 23 -13 25 24 -2 -7 -17 -15 -10 -8 -11 29 -6 27 -18 -28 -1 -26
right_child=1 2 8 5 9 18 22 -9 21 13 -12 14 -14 20 -16 19 26 -19 -20 -21 -22 -23 -24 -25 30 -27 28 -29 -30 -31 -32
leaf_value=-0.26519583672488639 -0.18014611633314923 -0.023386261789931997 0.18654282865571895 0.0033951565308051618 -0.18912946004744755 0.32576434800818965 0.28794898464319246 0.12644587610084465 0.35422756134691852 -0.10646703534982843 0.149431318098911 -0.035075260482139714 0.33471739745410561 -0.017635712356808459 0.20609570408836611 -0.12598896419035813 -0.19855219217060199 -0.086460269113685165 0.13093998180533484 -0.034534412722250045 0.087160537617906958 0.52720391965602009 0.4613864302596426 -0.037816613508712453 -0.21034150450101463 -0.13343918969735774 -0.13525838213755187 -0.12991832557347696 -0.021458442708424161 -0.23605117428037858 -0.16022820073831434
leaf_weight=833 458 287 291 1345 712 238 187 1232 68 507 1264 1207 913 391 60 696 463 465 68 319 247 247 60 352 231 520 183 93 15.999999999999998 426 117
leaf_count=833 458 287 291 1345 712 238 187 1232 68 507 1264 1207 913 391 60 696 463 465 68 319 247 247 60 352 231 520 183 93 16 426 117
internal_value=-4.76495e-06 0.104412 0.235445 0.0186901 -0.14347 0.0858643 0.147272 0.0622636 0.339562 -0.0951187 0.117459 -0.0697369 0.299184 -0.0352174 -0.023421 -0.134974 -0.220001 -0.133169 0.283333 -0.0973434 0.0230389 0.491731 0.332626 -0.0784552 -0.242537 -0.165818 -0.171642 -0.18746 -0.126358 -0.25563 -0.194264
internal_weight=14496 8390 3317 5073 6106 2883 1798 2577 1519 3744 1551 2190 1204 1497 1267 2247 2362 923 306 1015 638 315 247 859 1607 1232 755 556 199 1259 348
internal_count=14496 8390 3317 5073 6106 2883 1798 2577 1519 3744 1551 2190 1204 1497 1267 2247 2362 923 306 1015 638 315 247 859 1607 1232 755 556 199 1259 348
is_linear=0
shrinkage=0.04


Tree=17
num_leaves=32
num_cat=0
split_feature=130 132 130 0 0 0 132 0 4 132 4 132 132 0 0 23 2 18 0 0 132 0 130 21 130 0 2 23 2 130 138
split_gain=143488 37683.8 26565.9 15265.8 13559.2 9053.54 8861.4 5534.12 4922.82 3512.72 3482.63 3333.13 2696.16 2498.94 2458.32 2282.91 1748.99 1737.01 1548.58 1362.19 1145.33 1063.99 905.474 742.67 635.653 552.299 511.543 486.01 312.958 57.8282 13.7681
threshold=0.13377061469265369 45.990771829761989 0.082741962352157208 0.46900000000000003 0.41050000000000003 0.35500000000000004 49.998486041300801 0.095500000000000015 4.5000000000000009 40.87784816523321 6.5000000000000009 36.862598353912524 24.546251527549021 0.34050000000000008 0.63400000000000012 4.4722222222222232 0.57700000000000007 18.654761904761909 0.22450000000000003 0.58100000000000007 33.658443433774892 0.52500000000000013 0.048313343328335805 21.750000000000004 0.17291770781276028 0.5355000000000002 0.35400000000000004 4.3166666666666673 0.73000000000000009 0.055734632683658157 0.16441441441441437
decision_type=2 2 2 2 2 2 2 2 2 2 2 2 2 2 2 2 2 2 2 2 2 2 2 2 2 2 2 2 2 2 2
left_child=2 5 7 8 9 20 12 28 13 26 15 19 -6 -3 -13 -5 22 -10 -11 -7 27 -8 -9 -12 -22 -18 -4 -2 29 -1 -30
right_child=1 3 4 10 6 11 21 16 17 18 23 14 -14 -15 -16 -17 25 -19 -20 -21 24 -23 -24 -25 -26 -27 -28 -29 30 -31 -32
leaf_value=-0.25520424936211528 -0.15021045762922669 0.046239305956749875 -0.17654456626258705 0.2633076964763062 -0.1265721037440572 0.0042186658657554603 0.088490195808133235 -0.20205629088441565 0.21635318476520726 -0.13490336791454136 0.47148646718048448 0.11853167278808657 0.00012155005413261172 0.1698104226936222 0.28772806094723985 0.37775451210996852 -0.10978193662952468 0.36604989621142298 -0.024105104708975388 0.10293046148276201 -0.042288456864842019 0.18080187299537387 -0.14224270778633566 0.71223291524251298 0.084856468237097693 -0.029963079174950686 -0.12120067165061783 -0.053447605393292776 -0.16083977424138343 -0.22887606881961173 -0.20164994639695458
leaf_weight=837 238 421 732 518 332 565 396 574 377 276 137 705 1384 698 171 662 391 194 744 369 377 414 1498 33 74 217 450 131 73 393 115
leaf_count=837 238 421 732 518 332 565 396 574 377 276 137 705 1384 698 171 662 391 194 744 369 377 414 1498 33 74 217 450 131 73 393 115
internal_value=-1.09432e-06 0.156987 -0.100864 0.252869 -0.0362349 0.0460758 0.0270064 -0.175386 0.1725 -0.108752 0.353173 0.0960051 -0.0244771 0.123447 0.152 0.327916 -0.141423 0.268046 -0.0542438 0.043324 -0.0641031 0.135924 -0.158949 0.524064 -0.0212056 -0.0814444 -0.155658 -0.116225 -0.239357 -0.247084 -0.187223
internal_weight=14496 5670 8826 3040 4728 2630 2526 4098 1690 2202 1350 1810 1716 1119 876 1180 2680 571 1020 934 820 810 2072 170 451 608 1182 369 1418 1230 188
internal_count=14496 5670 8826 3040 4728 2630 2526 4098 1690 2202 1350 1810 1716 1119 876 1180 2680 571 1020 934 820 810 2072 170 451 608 1182 369 1418 1230 188
is_linear=0
shrinkage=0.04


Tree=18
num_leaves=32
num_cat=0
split_feature=130 132 0 130 0 0 132 0 5 4 132 4 0 132 2 0 0 17 61 132 130 31 67 0 2 130 23 23 25 25 130
split_gain=132326 33925.4 25649.5 12885.9 12424.1 10526.9 9599.1 5193.85 5130.57 4061.66 3317.33 2914.8 2909.54 1950.82 1920.89 1878.45 1742.47 1641.49 1422.15 1386.2 1172 1048.62 717.979 662.287 655.837 626.787 606.404 532.04 510.386 145.033 119.493
threshold=0.13485340663001832 49.998486041300801 0.35150000000000003 0.081963185074129613 0.46900000000000003 0.35500000000000004 49.998486041300801 0.10550000000000002 1.0000000180025095e-35 4.5000000000000009 37.566812001333183 3.5000000000000004 0.54350000000000021 48.827541898822524 0.57700000000000007 0.52500000000000013 0.31450000000000006 21.950000000000003 3.6955234109655049 37.067850379952297 0.051765783774779209 3.9442896585084628 2.9436344091099191 0.55300000000000016 0.30950000000000005 0.049229551890721257 4.354166666666667 4.5857142857142863 4.2667984812366271 5.3194850245734688 0.090392303848075908
decision_type=2 2 2 2 2 2 2 2 2 2 2 2 2 2 2 2 2 2 2 2 2 2 2 2 2 2 2 2 2 2 2
left_child=2 5 7 13 9 19 12 24 10 16 -7 23 -5 25 22 -8 -3 -13 -11 27 -15 -10 -9 -6 29 -4 -21 -2 -16 -1 -26
right_child=1 4 3 6 11 8 15 14 21 18 -12 17 -14 20 28 -17 -18 -19 -20 26 -22 -23 -24 -25 30 -27 -28 -29 -30 -31 -32
leaf_value=-0.2388908722587868 -0.12104928432982885 0.040474348309041314 -0.19508997640946374 -0.08039654075181972 0.23057328118428419 0.03212587755812802 0.06848282880616445 -0.17017389074713613 0.30429483018050324 0.21542918198588912 0.13817907231141677 0.39726025871898324 0.01384047832281394 -0.13024848563756261 -0.096400498888093017 0.17760165327512994 0.16778221198466184 0.61170505156415578 0.35572483735929283 -0.032921665140283669 -0.0078104610661677253 0.12900423073476436 -0.10758908756248166 0.3382527718643607 -0.18903896683503937 -0.13011193729140622 0.064485195714707247 -0.032399085694177807 -0.021350775693952301 -0.17915345719721928 -0.13473963196919514
leaf_weight=1249 335 239 342 1064 216 884 603 1193 239 279 1014 587 1031 205 537 437 624 69 213 254 318 75 404 190 300 861 169 162 200 94 109
leaf_count=1249 335 239 342 1064 216 884 603 1193 239 279 1014 587 1031 205 537 437 624 69 213 254 318 75 404 190 300 861 169 162 200 94 109
internal_value=3.91723e-06 0.153438 -0.0951667 -0.0330543 0.265983 0.0664997 0.0152743 -0.16902 0.113771 0.185348 0.0888509 0.368453 -0.0340416 -0.120775 -0.129791 0.114527 0.132661 0.421166 0.277072 -0.0471526 -0.0560453 0.263251 -0.15446 0.282035 -0.221122 -0.148808 0.00607595 -0.0923457 -0.0761244 -0.234917 -0.175123
internal_weight=14496 5549 8947 4861 2417 3132 3135 4086 2212 1355 1898 1062 2095 1726 2334 1040 863 656 492 920 523 314 1597 406 1752 1203 423 497 737 1343 409
internal_count=14496 5549 8947 4861 2417 3132 3135 4086 2212 1355 1898 1062 2095 1726 2334 1040 863 656 492 920 523 314 1597 406 1752 1203 423 497 737 1343 409
is_linear=0
shrinkage=0.04


Tree=19
num_leaves=31
num_cat=0
split_feature=130 132 0 130 0 132 0 130 0 132 78 0 25 0 0 0 130 0 132 130 132 5 0 24 130 1 130 73 130 124
split_gain=122016 32235.3 22814 12955.9 12897.3 9110.53 8353.15 4148.4 3375.9 3360.56 2882.61 2722.19 2264.64 2106.44 1942.3 1775.02 1754.84 1749.95 1683.56 1382.33 1250.5 1129.66 668.116 662.293 619.192 581.538 349.059 288.047 143.2 123.906
threshold=0.13377061469265369 46.757918340652161 0.26500000000000007 0.081963185074129613 0.46900000000000003 49.998486041300801 0.45250000000000007 0.16518823921372647 0.54350000000000021 33.186972257751961 38.023333333333341 0.46000000000000008 4.77386103939679 0.10550000000000002 0.31450000000000006 0.36600000000000005 0.18132641068774066 0.63400000000000012 49.1370654382862 0.048313343328335805 27.730759525408484 1.0000000180025095e-35 0.54350000000000021 4.741666666666668 0.057418257034669407 0.32050000000000006 0.055734632683658157 0.48399216298103875 0.064980009995002461 2.1000000000000005
decision_type=2 2 2 2 2 2 2 2 2 2 2 2 2 2 2 2 2 2 2 2 2 2 2 2 2 2 2 2 2 2
left_child=2 6 13 18 7 8 12 15 -5 22 16 -7 20 26 -9 -3 -6 -11 24 -20 -2 -14 -8 28 -4 -12 -1 -28 -15 -25
right_child=1 4 3 5 10 11 9 14 -10 17 25 -13 21 23 -16 -17 -18 -19 19 -21 -22 -23 -24 29 -26 -27 27 -29 -30 -31
leaf_value=-0.23008946462120347 -0.14882183949824354 0.047015396380359641 -0.17892437583963108 -0.083319902189666298 0.28366791117976337 0.025512446756219945 -0.037563098580554385 0.11363397482493977 0.011275495773564233 0.12811298577472871 0.39048104604047623 0.14601248304330433 0.028065608645137047 -0.18717674502910772 0.27199966825631677 0.15835624472966214 0.43486536227580302 0.25472651880191183 -0.1540693439007334 -0.033217493920312501 -0.034050834953772681 0.22240676632277459 0.064067378723723992 -0.10836813512870244 -0.12617817311613735 0.54641852491425313 -0.2197735067736078 -0.16928526750663306 -0.14675717356569132 -0.040721242256135479
leaf_weight=930 189 435 634 1513 940 578 146 165 1003 611 104 624 399 205 539 487 148 248 224 465 758 53 347 79 875 101 365 454 776 101
leaf_count=930 189 435 634 1513 940 578 146 165 1003 611 104 624 399 205 539 487 148 248 224 465 758 53 347 79 875 101 365 454 776 101
internal_value=9.61763e-06 0.144777 -0.0929999 -0.0478734 0.237333 -0.0023483 0.04649 0.162106 -0.0456237 0.117336 0.331635 0.0881755 -0.0220255 -0.184668 0.235209 0.105992 0.304809 0.165052 -0.124825 -0.0727626 -0.0571599 0.0515225 0.0339392 -0.142508 -0.148498 0.470739 -0.212507 -0.192152 -0.155481 -0.071083
internal_weight=14496 5670 8826 5916 2919 3718 2751 1626 2516 1352 1293 1202 1399 2910 704 922 1088 859 2198 689 947 452 493 1161 1509 205 1749 819 981 180
internal_count=14496 5670 8826 5916 2919 3718 2751 1626 2516 1352 1293 1202 1399 2910 704 922 1088 859 2198 689 947 452 493 1161 1509 205 1749 819 981 180
is_linear=0
shrinkage=0.04


Tree=20
num_leaves=32
num_cat=0
split_feature=130 132 130 132 0 0 0 0 4 132 0 0 130 0 130 0 0 132 5 5 132 0 5 130 5 132 73 25 4 130 72
split_gain=109305 28960.2 22659.4 11375 10425.7 9823.81 6724.11 5372.65 4483.36 3631.06 3333.61 2785.73 2594.83 2428.25 1977.96 1778.98 1775.08 1773.94 1764.5 1737.12 1348.81 1136.65 1131.07 809.271 799.94 796.299 747.09 477.459 172.531 62.5017 56.7634
threshold=0.13485340663001832 49.998486041300801 0.087797767782775274 40.999219968798755 0.43100000000000005 0.45250000000000007 0.45250000000000007 0.095500000000000015 6.5000000000000009 34.375790433475451 0.55300000000000016 0.54750000000000021 0.16732883558220893 0.22450000000000003 0.17183491587539562 0.5355000000000002 0.26500000000000007 32.031076428071643 1.0000000180025095e-35 1.0000000180025095e-35 27.730759525408484 0.29500000000000004 1.0000000180025095e-35 0.057418257034669407 1.0000000180025095e-35 22.143072074497578 0.88686411416072752 7.8687720064827404 1.5000000000000002 0.042936864900882853 1.4833333333333336
decision_type=2 2 2 2 2 2 2 2 2 2 2 2 2 2 2 2 2 2 2 2 2 2 2 2 2 2 2 2 2 2 2
left_child=2 5 7 10 12 13 16 28 11 25 26 -6 22 27 -11 23 -5 -17 -8 -15 -12 -14 -3 -9 -10 -7 -4 -2 29 -1 -30
right_child=1 4 3 6 8 9 18 15 24 14 20 -13 21 19 -16 17 -18 -19 -20 -21 -22 -23 -24 -25 -26 -27 -28 -29 30 -31 -32
leaf_value=-0.22956537580446565 -0.12068593813807965 0.074171686147227259 -0.13900977670732431 -0.10331650576760262 0.23604120548975882 -0.041036222081308103 0.10318029965520059 -0.17383961135448875 0.41791807758126942 0.14020332983116401 -0.081584335609568945 0.36554833678364357 0.093924824064383738 0.00048061735021324612 0.267397774701437 -0.14109230645917784 0.0072786783228965648 -0.032268403671855989 0.31848096896309885 0.18450401819762538 0.034225871146892538 0.25519647270009654 0.23149277473472016 -0.12110757460709973 0.60347623048770205 0.072596222108839717 -0.07993363681571429 0.064651455796494769 -0.17894145346104925 -0.20634482837004739 -0.094678546400957325
leaf_weight=546 311 533 992 319 705 131 971 724 121 752 264 444 90 1131 268 391 842 619 64 87 407 356 84 1387 77 388 536 23 170 761 20
leaf_count=546 311 533 992 319 705 131 971 724 121 752 264 444 90 1131 268 391 842 619 64 87 407 356 84 1387 77 388 536 23 170 761 20
internal_value=-0.000771134 0.139715 -0.0865247 -0.021498 0.243614 0.0586258 0.0428824 -0.148383 0.317534 0.130185 -0.0857777 0.286501 0.149625 -0.0123885 0.173971 -0.118396 -0.0231995 -0.074548 0.116939 0.0138392 -0.0114132 0.223086 0.0961057 -0.139305 0.494094 0.0438711 -0.118388 -0.107679 -0.210718 -0.2163 -0.170904
internal_weight=14514 5501 9013 4395 2410 3091 2196 4618 1347 1539 2199 1149 1063 1552 1020 3121 1161 1010 1035 1218 671 446 617 2111 198 519 1528 334 1497 1307 190
internal_count=14514 5501 9013 4395 2410 3091 2196 4618 1347 1539 2199 1149 1063 1552 1020 3121 1161 1010 1035 1218 671 446 617 2111 198 519 1528 334 1497 1307 190
is_linear=0
shrinkage=0.04


Tree=21
num_leaves=32
num_cat=0
split_feature=130 132 130 132 0 0 0 0 0 132 91 132 91 25 2 0 0 0 0 0 130 0 139 0 2 132 0 0 2 138 25
split_gain=100970 25666.8 22587.9 11325.3 9353 8618.23 5743.42 4953.6 4036.91 3216 3165.81 2334.83 2247.09 2234.39 1740.62 1695.71 1607.66 1555.93 1542.92 1390.2 1213.36 987.321 975.443 893.621 876.054 786.333 727.299 678.651 344.615 56.6662 51.5007
threshold=0.13793486419828732 49.998486041300801 0.087797767782775274 49.998486041300801 0.43100000000000005 0.45250000000000007 0.54350000000000021 0.095500000000000015 0.41900000000000004 35.928466749292291 21.78189541822583 27.730759525408484 24.84988710572296 4.7136555840332797 0.22500000000000003 0.63400000000000012 0.54750000000000021 0.27000000000000007 0.62850000000000017 0.22450000000000003 0.16732883558220893 0.22450000000000003 25.858803986710967 0.55300000000000016 0.30950000000000005 21.638402928389223 0.30200000000000005 0.5355000000000002 0.57700000000000007 0.11237373737373736 2.2853987586863274
decision_type=2 2 2 2 2 2 2 2 2 2 2 2 2 2 2 2 2 2 2 2 2 2 2 2 2 2 2 2 2 2 2
left_child=2 5 7 6 12 13 17 28 21 25 16 -8 20 19 23 -11 -6 -4 -12 -2 -3 -5 -10 -9 -15 -7 -14 -16 30 -30 -1
right_child=1 4 3 8 10 9 11 14 22 15 18 -13 26 24 27 -17 -18 -19 -20 -21 -22 -23 -24 -25 -26 -27 -28 -29 29 -31 -32
leaf_value=-0.21992937264514642 -0.12608199336961695 0.075398864468131585 -0.13913333476498602 -0.10254517867901512 0.20410156903897617 -0.038737833791997009 -0.078126260584271176 -0.15301359433770642 0.11633331885067165 0.14396260680890147 0.34772652051872727 0.058818483159466507 0.12745703858321747 -0.012663961153535457 -0.094561521722810835 0.27051201756582527 0.33072053455462891 -0.069496771840888691 0.523800367662692 -0.015006460165987379 0.17737091964126825 0.024943435731522773 0.23667099513980372 -0.095950517465574287 0.10228965812683177 0.07865003723487847 0.29979387087454373 -0.026573598095128586 -0.11531370622734372 -0.16765064006625946 -0.1983616998247002
leaf_weight=692 236 475 790 119 437 114 273 1412 663 658 485 725 55 159 699 232 267 1483 104 751 311 501 130 654 315 441 172 356 68 134 603
leaf_count=692 236 475 790 119 437 114 273 1412 663 658 485 725 55 159 699 232 267 1483 104 751 311 501 130 654 315 441 172 356 68 134 603
internal_value=-0.000733093 0.140188 -0.0797026 -0.0177994 0.239795 0.0610619 -0.0586738 -0.142464 0.0767813 0.130273 0.311115 0.0212926 0.148431 -0.00745212 -0.113669 0.177355 0.25273 -0.0937771 0.380074 -0.0417206 0.116013 0.000278974 0.136475 -0.135035 0.0638025 0.0544913 0.259167 -0.0716937 -0.202318 -0.151032 -0.210131
internal_weight=14514 5212 9302 4684 2306 2906 3271 4618 1413 1445 1293 998 1013 1461 3121 890 704 2273 589 987 786 620 793 2066 474 555 227 1055 1497 202 1295
internal_count=14514 5212 9302 4684 2306 2906 3271 4618 1413 1445 1293 998 1013 1461 3121 890 704 2273 589 987 786 620 793 2066 474 555 227 1055 1497 202 1295
is_linear=0
shrinkage=0.04


Tree=22
num_leaves=32
num_cat=0
split_feature=130 132 130 132 0 0 0 4 0 132 0 0 0 132 130 132 130 130 132 5 178 130 0 155 72 5 137 130 4 130 72
split_gain=93085 23667.3 20822.1 10649.5 8694.11 8007.69 6132.49 4872.57 4567.49 3235.18 3115.39 3077.15 2349.32 2251.74 1628.86 1838.79 1597.03 1447.27 1239.47 1202.2 1052.47 1051.73 1029.72 758.555 696.269 509.163 496.162 306.02 152.199 59.6629 52.1735
threshold=0.13793486419828732 49.998486041300801 0.087797767782775274 40.999219968798755 0.38700000000000007 0.52750000000000019 0.52500000000000013 6.5000000000000009 0.095500000000000015 36.122357890102911 0.55300000000000016 0.54750000000000021 0.26500000000000007 36.862598353912524 0.057418257034669407 49.1370654382862 0.17291770781276028 0.17087310669601888 27.730759525408484 1.0000000180025095e-35 5.3124326194739986 0.16732883558220893 0.27000000000000007 27.700000000000006 0.69615384615384623 1.0000000180025095e-35 4.0808631211857032 0.042936864900882853 1.5000000000000002 0.042936864900882853 1.4833333333333336
decision_type=2 2 2 2 2 2 2 2 2 2 2 2 2 2 2 2 2 2 2 2 2 2 2 2 2 2 2 2 2 2 2
left_child=2 5 8 10 19 9 12 11 28 22 24 -6 -5 25 27 -16 -11 -15 -12 21 -8 -3 -2 -9 -4 -7 -21 -10 29 -1 -30
right_child=1 4 3 6 7 13 20 23 14 16 18 -13 -14 17 15 -17 -18 -19 -20 26 -22 -23 -24 -25 -26 -27 -28 -29 30 -31 -32
leaf_value=-0.21215614366270091 -0.11140368039850733 0.047052061944336726 -0.13095327596809408 -0.094205728174532544 0.21104905703879301 0.063070976554595065 0.10121034544159258 0.41169139935438492 -0.17188831279857611 0.0305512290140919 -0.075018286723148184 0.34164562519066816 0.023992086056391221 0.16040592966111292 -0.11219168757137277 -0.028046356562955718 0.14505682898137887 0.30136918891393222 0.033367043769074137 0.28510949027026355 0.20133067658983295 0.15548699449951564 -0.016738206149528978 0.62633848204793807 -0.076881378515220908 0.18765356976604464 0.075477178481389892 -0.12841935607340771 -0.16462953253659493 -0.18998314898412738 -0.084913415883862697
leaf_weight=546 268 361 950 337 939 355 452 198 494 838 273 427 1310 376 1409 591 253 174 437 80 273 238 581 38 652 61 25 627 170 761 20
leaf_count=546 268 361 950 337 939 355 452 198 494 838 273 427 1310 376 1409 591 253 174 437 80 273 238 581 38 652 61 25 627 170 761 20
internal_value=-0.000697701 0.134609 -0.0765212 -0.0170867 0.230258 0.0586277 0.0424458 0.281741 -0.136779 0.011737 -0.0781539 0.252205 -0.000254181 0.152629 -0.10913 -0.0873684 0.0572711 0.205707 -0.00837255 0.112749 0.139254 0.0904238 -0.0467693 0.450008 -0.109041 0.0819572 0.237001 -0.147783 -0.194254 -0.199482 -0.15699
internal_weight=14514 5212 9302 4684 2306 2906 2372 1602 4618 1940 2312 1366 1647 966 3121 2000 1091 550 710 704 725 599 849 236 1602 416 105 1121 1497 1307 190
internal_count=14514 5212 9302 4684 2306 2906 2372 1602 4618 1940 2312 1366 1647 966 3121 2000 1091 550 710 704 725 599 849 236 1602 416 105 1121 1497 1307 190
is_linear=0
shrinkage=0.04


Tree=23
num_leaves=32
num_cat=0
split_feature=130 91 0 130 0 0 5 5 2 121 0 130 2 2 5 0 17 0 130 2 2 130 0 130 178 25 24 73 0 2 178
split_gain=85832.9 19228.9 17215.3 9975.85 8644.11 7790.82 4986.15 3761.29 3005.58 2626.98 2571.8 2554 1726.62 1538.97 1532.47 1367.65 1200.52 1191.58 1069.91 1044.96 812.11 634.94 548.059 407.169 332.408 196.378 182.102 134.75 119.524 68.787 15.6504
threshold=0.13377061469265369 18.759881192807097 0.26500000000000007 0.098713143428285868 0.36600000000000005 0.34050000000000008 1.0000000180025095e-35 1.0000000180025095e-35 1.0000000180025095e-35 15.512835971786986 0.52100000000000013 0.06769531900716301 0.47750000000000009 0.55950000000000011 1.0000000180025095e-35 0.53100000000000014 21.650000000000002 0.17150000000000001 0.14444860902881893 0.55950000000000011 0.57700000000000007 0.042936864900882853 0.10550000000000002 0.065554722638680604 5.750840508165223 5.6050219039327942 6.0690476190476197 0.64474836322145246 0.10550000000000002 0.26800000000000007 4.2900891796850447
decision_type=2 2 2 2 2 2 2 2 2 2 2 2 2 2 2 2 2 2 2 2 2 2 2 2 2 2 2 2 2 2 2
left_child=2 5 12 11 14 17 9 8 -5 -6 13 21 22 -7 19 -13 -8 28 -12 -3 -19 -4 27 30 -25 -16 -24 -1 -2 -9 -14
right_child=1 4 3 7 6 10 16 29 -10 -11 18 15 23 -15 25 -17 -18 20 -20 -21 -22 -23 26 24 -26 -27 -28 -29 -30 -31 -32
leaf_value=-0.20439101673910862 -0.18548041732752765 -0.038103837048415384 -0.16452035816799035 -0.041101238145413124 0.17860257610331043 0.0031925232668727262 0.32716826102450342 0.1695726039474075 0.046186178406130582 0.31662848185724207 0.067054198095086073 -0.081280634803457749 -0.16077212759676271 0.094536148481570242 0.086236731341390899 -0.010228719709962501 0.51708802913383201 -0.070599030397497625 0.16678014205913522 0.085021182738080889 0.015026477073377838 -0.10698614961120118 -0.152709600108693 -0.10704371942999752 -0.030445394354926218 0.25666124804370299 -0.060232714452861269 -0.17545467387066876 -0.11170192309969287 0.29190629661975265 -0.12049713334216866
leaf_weight=818 66 147 453 1089 1128 518 438 17 1497 278 229 1129 210 685 14.999999999999998 704 66 324 731 431 388 1017 616 536 111 75 39 540 102 72 45
leaf_count=818 66 147 453 1089 1128 518 438 17 1497 278 229 1129 210 685 15 704 66 324 731 431 388 1017 616 536 111 75 39 540 102 72 45
internal_value=-0.00066228 0.121671 -0.0779933 -0.0391114 0.202021 0.0535312 0.245323 0.018302 0.00942419 0.206205 0.0943368 -0.0855972 -0.157669 0.0552608 0.0779309 -0.0540246 0.353507 -0.0467524 0.143137 0.0536829 -0.0239988 -0.124868 -0.178335 -0.111322 -0.0940094 0.23018 -0.14736 -0.193094 -0.142095 0.271781 -0.154427
internal_weight=14514 5621 8893 5978 2578 3043 1910 2675 2586 1406 2163 3303 2915 1203 668 1833 504 880 960 578 712 1470 2013 902 647 90 655 1358 168 89 255
internal_count=14514 5621 8893 5978 2578 3043 1910 2675 2586 1406 2163 3303 2915 1203 668 1833 504 880 960 578 712 1470 2013 902 647 90 655 1358 168 89 255
is_linear=0
shrinkage=0.04


Tree=24
num_leaves=32
num_cat=0
split_feature=89 0 0 5 2 2 0 1 2 5 5 2 1 1 31 5 17 0 0 0 179 136 178 2 1 31 78 178 136 25 25
split_gain=71606.8 18924.9 17940.6 10421.9 7310.66 7086.04 3861.25 3444.13 2798 2706.9 2451.29 2169.47 1944.1 1811.65 1751.11 1500.12 1274.13 961.168 922.74 789.423 668.669 547.756 488.677 445.097 343.637 331.528 320.642 287.789 157.54 136.013 120.16
threshold=15.105555555555556 0.35150000000000003 0.34050000000000008 1.0000000180025095e-35 0.55950000000000011 0.57700000000000007 0.10550000000000002 0.25850000000000006 0.55950000000000011 1.0000000180025095e-35 1.0000000180025095e-35 0.57700000000000007 0.10550000000000002 0.11800000000000001 4.3134404428307427 1.0000000180025095e-35 20.633333333333336 0.52500000000000013 0.20550000000000004 0.21250000000000002 4.4972734875777487 4.3246621621621637 4.9939738169001116 0.30950000000000005 1.0000000180025095e-35 4.4369834212566648 22.443333333333339 6.8512999273562007 5.8129166666666672 3.5335725937302294 2.8416905350813644
decision_type=2 2 2 2 2 2 2 2 2 2 2 2 2 2 2 2 2 2 2 2 2 2 2 2 2 2 2 2 2 2 2
left_child=1 6 8 5 10 17 23 -7 19 13 12 21 -3 -6 16 18 -5 -4 -10 28 -11 -8 -16 30 -13 -17 -12 -21 -2 -25 -1
right_child=2 4 3 14 9 7 11 -9 15 20 26 24 -14 -15 22 25 -18 -19 -20 27 -22 -23 -24 29 -26 -27 -28 -29 -30 -31 -32
leaf_value=-0.19507907789145651 -0.17604509713619051 -0.089431050183529578 0.015426717297252106 0.30891225456469967 -0.009079000280383609 0.11653689896428421 -0.13253762706316591 0.22244449198803609 -0.057571713768601748 0.29240350763896511 0.26963894284948892 -0.064579896477052035 -0.026942728969390185 0.069217597243198925 0.023386082324074273 0.25964224422505472 0.4787050362206548 0.093805955556215959 0.048381330461808154 -0.06482695716824631 0.0092498254639761801 -0.067890736585047476 0.21200812952534681 -0.14937035618360381 -0.011926407220796787 0.060353211269146056 0.052008367592947823 0.018499708898906602 -0.087644730367393148 -0.091803782391517916 -0.16679101213762262
leaf_weight=874 115 1509 589 473 850 855 1398 1175 171 83 39 484 1690 1063 32 55 90 435 553 260 15.999999999999998 253 72 301 337 19 15.999999999999998 88 52 97 470
leaf_count=874 115 1509 589 473 850 855 1398 1175 171 83 39 484 1690 1063 32 55 90 435 553 260 16 253 72 301 337 19 16 88 52 97 470
internal_value=-0.000632492 -0.065374 0.121271 0.166111 -0.0148069 0.134704 -0.128536 0.177959 -0.00584817 0.0451082 -0.0518583 -0.0962875 -0.0564484 0.0344463 0.309287 0.0410348 0.337262 0.048815 0.0232837 -0.07841 0.247502 -0.122704 0.155166 -0.174174 -0.043033 0.210742 0.209461 -0.0437554 -0.149568 -0.135748 -0.185387
internal_weight=14514 9480 5034 3721 5266 3054 4214 2030 1313 2012 3254 2472 3199 1913 667 798 563 1024 724 515 99 1651 104 1742 821 74 55 348 167 398 1344
internal_count=14514 9480 5034 3721 5266 3054 4214 2030 1313 2012 3254 2472 3199 1913 667 798 563 1024 724 515 99 1651 104 1742 821 74 55 348 167 398 1344
is_linear=0
shrinkage=0.04


Tree=25
num_leaves=32
num_cat=0
split_feature=130 132 130 0 132 0 0 0 5 4 0 132 130 130 130 25 5 5 132 132 132 0 130 0 25 30 2 61 124 0 59
split_gain=76627.9 21213.4 16042.6 10519.1 8012.31 4667.55 4316.24 4067.74 3516.57 3205.28 2422.37 2318.86 2258.22 2147.18 1849.21 1692.13 1382.83 971.539 935.399 922.036 883.483 854.37 812.044 766.495 707.835 645.695 616.502 514.441 203.265 197.969 113.434
threshold=0.13793486419828732 41.961141847858109 0.093790604697651117 0.46900000000000003 40.87784816523321 0.45250000000000007 0.27000000000000007 0.5355000000000002 1.0000000180025095e-35 6.5000000000000009 0.55300000000000016 48.620561493072792 0.17087310669601888 0.16672080626353489 0.048313343328335805 5.230013756493137 1.0000000180025095e-35 1.0000000180025095e-35 24.546251527549021 27.244611029466686 24.296062140255092 0.28900000000000003 0.069140429785107468 0.69000000000000006 3.5513279764400445 4.4833333333333343 0.38750000000000007 3.8746245933293539 0.45000000000000007 0.10550000000000002 2.4365079365079372
decision_type=2 2 2 2 2 2 2 2 2 2 2 2 2 2 2 2 2 2 2 2 2 2 2 2 2 2 2 2 2 2 2
left_child=2 7 6 8 10 21 26 15 12 13 24 22 -3 -5 -13 19 -7 -17 -12 -2 28 -6 -8 -22 -4 -10 29 -11 -9 -1 -28
right_child=1 3 4 9 5 16 11 20 25 27 18 14 -14 -15 -16 17 -18 -19 -20 -21 23 -23 -24 -25 -26 -27 30 -29 -30 -31 -32
leaf_value=-0.18086347307087039 -0.11916062437595797 0.061305889435552409 -0.12039234732200109 0.19760739775242686 -0.060463787102948273 0.092318721199797518 -0.13413758402996565 -0.07055399516261654 0.27309585689176524 0.35558795994492204 -0.090808837367749112 -0.12799625360749373 0.16413765856473905 0.30210540442420075 -0.00032652891583948989 0.024603795298321133 0.26581908843421048 0.21776580453656383 0.02760360896762366 -0.02851106327438346 0.08935753698409199 0.012865306399544226 -0.082829774997815589 0.19642201916302476 -0.061602599275134361 0.11871186082791059 -0.12612404406788591 0.51608795525841678 0.039083170717691386 -0.14609315849883431 -0.04538726174742428
leaf_weight=1193 239 1057 828 808 383 929 1026 39 242 105 138 243 506 535 705 300 79 47 453 715 339 749 975 159 552 57 492 69 80 399 32
leaf_count=1193 239 1057 828 808 383 929 1026 39 242 105 138 243 506 535 705 300 79 47 453 715 339 749 975 159 552 57 492 69 80 399 32
internal_value=0.00139443 0.122514 -0.0685322 0.182802 -0.00981699 0.04376 -0.11617 0.0162424 0.118942 0.260987 -0.067979 -0.0848153 0.0947243 0.239529 -0.0332067 -0.0238792 0.106295 0.0516031 -0.000199144 -0.0513766 0.100701 -0.0119885 -0.10922 0.124036 -0.0969718 0.244418 -0.159776 0.423124 0.00268748 -0.172297 -0.121345
internal_weight=14473 5297 9176 3379 4111 2140 5065 1918 1862 1517 1971 2949 1563 1343 948 1301 1008 347 591 954 617 1132 2001 498 1380 299 2116 174 119 1592 524
internal_count=14473 5297 9176 3379 4111 2140 5065 1918 1862 1517 1971 2949 1563 1343 948 1301 1008 347 591 954 617 1132 2001 498 1380 299 2116 174 119 1592 524
is_linear=0
shrinkage=0.04


Tree=26
num_leaves=32
num_cat=0
split_feature=130 132 130 132 0 0 0 0 91 132 0 0 132 4 25 130 130 0 132 132 2 0 5 130 73 0 0 91 0 37 5
split_gain=70780.1 17633.8 17134.5 8613.53 8264.78 5025.17 4944.42 4493.04 3277.28 2397.33 2235.46 2184.52 1872.51 1820.25 1548.7 1446.51 1324.05 1319.91 1003.81 992.86 966.244 962.529 937.508 784.609 769.425 622.509 442.174 291.172 264.446 239.923 177.456
threshold=0.14284940862901882 45.456530369194134 0.096709978344161271 40.87784816523321 0.50950000000000017 0.46000000000000008 0.52750000000000019 0.35850000000000004 26.008250876328066 48.620561493072792 0.36600000000000005 0.54350000000000021 27.730759525408484 6.5000000000000009 5.230013756493137 0.055734632683658157 0.16567549558554059 0.63400000000000012 24.546251527549021 30.610134537435176 0.38750000000000007 0.63400000000000012 1.0000000180025095e-35 0.068493581581784271 0.80659219658864589 0.24400000000000002 0.15600000000000003 29.719825217603439 0.12900000000000003 0.16436713286625729 1.0000000180025095e-35
decision_type=2 2 2 2 2 2 2 2 2 2 2 2 2 2 2 2 2 2 2 2 2 2 2 2 2 2 2 2 2 2 2
left_child=2 6 7 11 8 22 12 20 10 23 -3 24 29 16 -14 -11 -6 -7 -13 30 26 -21 -5 -9 -4 -10 -1 -15 -22 -2 -8
right_child=1 4 3 5 13 17 19 9 25 15 -12 18 14 27 -16 -17 -18 -19 -20 21 28 -23 -24 -25 -26 -27 -28 -29 -30 -31 -32
leaf_value=-0.17324121494312711 -0.023902512118551465 0.062654872852069249 -0.11210116849841389 -0.008611166804778074 0.2229010646959779 0.086754841441724365 0.041784135944925076 -0.12396347348023737 0.053993515732553274 -0.089546258537777437 0.16173090495852294 -0.090563388622962065 -0.0083087420422139676 0.39824922906453886 0.097437517022875064 0.027128707099311953 0.33549988401066722 0.1861597071586949 0.029970555500304533 0.1064591814193753 -0.13156996230512813 0.22146431746862646 0.16888669092968259 -0.06961847509150193 -0.052195797238437217 0.28438329800164086 -0.13464581630551001 0.58896303792269722 -0.083020178502536152 -0.1110410889678104 0.16957206168541544
leaf_weight=1229 66 589 874 1246 391 723 188 830 21 251 967 143 799 98 305 519 318 306 469 259 329 219 48 889 572 280 843 25 428 231 18
leaf_count=1229 66 589 874 1246 391 723 188 830 21 251 967 143 799 98 305 519 318 306 469 259 329 219 48 889 572 280 843 25 428 231 18
internal_value=0.00134513 0.127406 -0.0607136 -0.00213227 0.195073 0.0506429 0.0400562 -0.108958 0.147923 -0.0696908 0.124326 -0.0616985 -0.00300964 0.299851 0.0209945 -0.0109993 0.274011 0.116547 0.00164749 0.128085 -0.14345 0.159686 -0.001836 -0.0959459 -0.0884856 0.26867 -0.157649 0.443673 -0.104344 -0.0919078 0.0541145
internal_weight=14473 4774 9699 4381 2689 2323 2085 5318 1857 2489 1556 2058 1401 832 1104 770 709 1029 612 684 2829 478 1294 1719 1446 301 2072 123 757 297 206
internal_count=14473 4774 9699 4381 2689 2323 2085 5318 1857 2489 1556 2058 1401 832 1104 770 709 1029 612 684 2829 478 1294 1719 1446 301 2072 123 757 297 206
is_linear=0
shrinkage=0.04


Tree=27
num_leaves=32
num_cat=0
split_feature=130 132 130 132 0 0 0 0 0 91 132 132 5 0 90 132 0 132 130 132 5 130 130 5 132 130 132 0 29 0 0
split_gain=65257.4 16335 15796.8 8293.85 6584.38 5592.81 3730.09 3698.94 2923.01 2635.66 2067.87 2052.94 1680.41 1617.29 1582.51 1452.5 1305.02 1302.27 1289.96 1257.11 1045.25 981.88 830.963 755.297 701.773 630.033 542.93 343.105 267.375 258.779 100.777
threshold=0.14284940862901882 49.767217249053481 0.093790604697651117 49.998486041300801 0.50950000000000017 0.46000000000000008 0.54350000000000021 0.35850000000000004 0.46000000000000008 26.008250876328066 32.322091792109752 49.767217249053481 1.0000000180025095e-35 0.36600000000000005 30.433333333333334 24.546251527549021 0.63400000000000012 27.730759525408484 0.055734632683658157 37.067850379952297 1.0000000180025095e-35 0.17343411627519573 0.061256871564217857 1.0000000180025095e-35 27.553632242250718 0.17525820423121774 44.501664016958138 0.6170000000000001 3.7888888888888892 0.64850000000000019 0.1145
decision_type=2 2 2 2 2 2 2 2 2 2 2 2 2 2 2 2 2 2 2 2 2 2 2 2 2 2 2 2 2 2 2
left_child=2 5 7 6 9 12 19 22 23 13 27 24 17 -3 21 -8 -12 -2 -13 -4 -10 -6 30 -5 -9 -11 -24 -7 -14 -16 -1
right_child=1 4 3 8 14 10 15 11 20 25 16 18 28 -15 29 -17 -18 -19 -20 -21 -22 -23 26 -25 -26 -27 -28 -29 -30 -31 -32
leaf_value=-0.16734745508769941 -0.097264451918305878 0.069312153110307931 -0.096696648972376786 0.012131610958143881 0.25238804472642978 -0.0090810164983899221 -0.0869747348090711 -0.13021908732199428 0.11703528296907909 0.21414663291324432 0.11792215113998351 -0.0849352252633922 0.20867450212493655 0.16582175349142886 0.42435476716359455 0.046245413934567381 0.22539837957777414 0.00702343001283304 0.030472719890574759 -0.035820065221069529 0.27816101365835488 0.36671754277170188 -0.13182309061634134 0.18177599097369762 -0.074978848600938633 0.34263425407745762 -0.074423489353261887 0.072099392037717092 0.068033978201548259 0.67719785287039613 -0.14156426963575297
leaf_weight=1005 232 442 1236 753 431 164 155 563 601 166 634 240 62 763 42 802 257 1066 431 972 72 184 922 43 1094 112 380 167 36 15.999999999999998 430
leaf_count=1005 232 442 1236 753 431 164 155 563 601 166 634 240 62 763 42 802 257 1066 431 972 72 184 922 43 1094 112 380 167 36 16 430
internal_value=0.00129978 0.122343 -0.0582887 -0.00491282 0.203843 0.0551446 -0.0413675 -0.107106 0.0735892 0.156471 0.117576 -0.0699654 0.000423876 0.130555 0.307645 0.024562 0.149254 -0.0117043 -0.0108973 -0.069942 0.134859 0.287409 -0.138639 0.0216255 -0.0938511 0.267487 -0.115179 0.0320055 0.158855 0.509486 -0.15978
internal_weight=14473 4774 9699 4634 2156 2618 3165 5065 1469 1483 1222 2328 1396 1205 673 957 891 1298 671 2208 673 615 2737 796 1657 278 1302 331 98 58 1435
internal_count=14473 4774 9699 4634 2156 2618 3165 5065 1469 1483 1222 2328 1396 1205 673 957 891 1298 671 2208 673 615 2737 796 1657 278 1302 331 98 58 1435
is_linear=0
shrinkage=0.04


Tree=28
num_leaves=32
num_cat=0
split_feature=130 132 130 132 0 0 0 5 4 0 130 5 73 0 5 0 132 5 0 132 0 137 130 24 31 60 130 0 137 132 2
split_gain=60226.4 16974.9 12794 8347.02 8015.82 5622.1 3737.14 2704.72 2598.85 1908.67 1783.62 1752.17 1715.46 1713.82 1490.33 1323.57 1060.77 1026.91 943.597 707.061 700.024 653.73 643.69 592.829 494.864 439.271 386.981 268.709 268.63 217.879 182.109
threshold=0.13793486419828732 43.323286357475077 0.076965683824754258 37.975170087334483 0.46900000000000003 0.45250000000000007 0.53100000000000014 1.0000000180025095e-35 6.5000000000000009 0.5355000000000002 0.17087310669601888 1.0000000180025095e-35 0.57933391834704306 0.55300000000000016 1.0000000180025095e-35 0.20550000000000004 27.244611029466686 1.0000000180025095e-35 0.95850000000000013 24.296062140255092 0.095500000000000015 4.0808631211857032 0.15252373813093453 3.1483516483516487 3.3671268083570012 4.276190476190477 0.046493419956688306 0.59550000000000003 5.5584795321637435 20.042805595825545 0.73000000000000009
decision_type=2 2 2 2 2 2 2 2 2 2 2 2 2 2 2 2 2 2 2 2 2 2 2 2 2 2 2 2 2 2 2
left_child=2 6 9 13 7 15 14 10 12 20 -3 -7 -6 23 16 -5 -2 22 27 -15 30 -9 -8 -4 -16 -10 -22 -11 -19 -20 -1
right_child=1 4 3 5 8 11 17 21 25 18 -12 -13 -14 19 24 -17 -18 28 29 -21 26 -23 -24 -25 -26 -27 -28 -29 -30 -31 -32
leaf_value=-0.16196787998539056 -0.091939048936599405 0.056397688174135693 -0.12033763327472465 -0.098817866500450935 0.14195633821908982 0.066288060441451885 0.01587376009732255 0.24964722687972221 0.33222193034882408 0.11670169037719105 0.1496453627565488 0.24742213067852081 0.24600836291247127 -0.087496952697486793 0.2153343095070607 -0.011423077096478074 -0.0078764104369304505 0.24061506343296596 -0.15086080138357802 0.0022241145008244619 -0.15139626654443011 0.092970654089893912 0.10548819746321879 -0.071823680324697728 0.010721451524828302 0.49102924857366653 -0.10437354069296467 -0.02864344376182143 0.051026841857216565 -0.084845061530469515 -0.11371392266528001
leaf_weight=1132 314 995 1011 345 364 1361 193 236 120 20 491 90 901 200 54 1391 1008 86 134 464 381 55 385 687 29 51 1190 388 14.999999999999998 222 160
leaf_count=1132 314 995 1011 345 364 1361 193 236 120 20 491 90 901 200 54 1391 1008 86 134 464 381 55 385 687 29 51 1190 388 15 222 160
internal_value=0.00125925 0.108637 -0.0607337 -0.0225353 0.166285 0.0196975 0.019701 0.109337 0.236566 -0.119139 0.0873308 0.0777698 0.216274 -0.0794973 -0.0175442 -0.0288639 -0.0279275 0.0966442 -0.0627773 -0.0249306 -0.134138 0.220677 0.0756905 -0.100792 0.14535 0.383467 -0.115914 -0.0211075 0.213656 -0.110234 -0.156134
internal_weight=14473 5297 9176 5549 3213 3187 2084 1777 1436 3627 1486 1451 1265 2362 1405 1736 1322 679 764 664 2863 291 578 1698 83 171 1571 408 101 356 1292
internal_count=14473 5297 9176 5549 3213 3187 2084 1777 1436 3627 1486 1451 1265 2362 1405 1736 1322 679 764 664 2863 291 578 1698 83 171 1571 408 101 356 1292
is_linear=0
shrinkage=0.04


Tree=29
num_leaves=32
num_cat=0
split_feature=130 132 130 132 0 0 0 0 91 0 132 132 0 132 25 130 130 0 0 0 132 130 134 0 0 132 2 0 132 0 24
split_gain=55655.1 14143.3 13594 7083.85 5811.95 4801.32 3521.13 3175.9 2797.23 2456.85 1937.41 1794.12 1669.96 1601.42 1521.86 1513.35 1289.72 1196.15 1193.42 845.599 838.285 729.68 669.225 589.282 583.33 581.236 515.648 408.515 326.975 129.668 118.172
threshold=0.14284940862901882 49.767217249053481 0.096709978344161271 49.998486041300801 0.54000000000000015 0.46000000000000008 0.27000000000000007 0.6130000000000001 26.008250876328066 0.46000000000000008 48.620561493072792 32.322091792109752 0.36600000000000005 25.298002949476722 4.7136555840332797 0.048313343328335805 0.16567549558554059 0.27000000000000007 0.63400000000000012 0.63950000000000007 40.523233567275113 0.069140429785107468 49.652117235563274 0.31700000000000006 0.30600000000000005 26.723951485799336 0.47750000000000009 0.6735000000000001 23.554945489689015 0.15600000000000003 2.4833333333333338
decision_type=2 2 2 2 2 2 2 2 2 2 2 2 2 2 2 2 2 2 2 2 2 2 2 2 2 2 2 2 2 2 2
left_child=2 5 6 7 8 14 26 17 12 24 21 28 -3 -9 20 -12 27 -4 -13 -11 -2 -8 -18 -10 -5 -16 29 -6 -7 -1 -28
right_child=1 4 3 9 16 11 10 13 23 19 15 18 -14 -15 25 -17 22 -19 -20 -21 -22 -23 -24 -25 -26 -27 30 -29 -30 -31 -32
leaf_value=-0.15404913117977065 -0.060683944629373779 0.06254099546599684 -0.10202707650817304 -0.024758528992762492 0.21591831053039851 -0.019446975325306405 -0.11557802468206907 -0.074784347551139913 0.13471305519181331 0.10464778668670732 -0.11059053374097849 0.10788444787109114 0.15794894493250619 0.080552221067886884 -0.05410135521287994 0.0036794457725972114 0.34477079523034448 -0.039241796102298027 0.21060841193247581 0.21483540461063386 0.016607588009097764 -0.068481463948440957 0.5612207478114537 0.28618713646975519 0.049000411032638934 0.076420418302107329 -0.117575521817071 0.34128781442405759 0.061230664121414008 -0.12585516241836994 -0.078365642604035335
leaf_weight=1230 558 442 681 259 217 134 1026 136 54 493 243 634 891 467 62 767 209 1697 257 146 374 1103 30 254 502 402 322 59 197 401 226
leaf_count=1230 558 442 681 259 217 134 1026 136 54 493 243 634 891 467 62 767 209 1697 257 146 374 1103 30 254 502 402 322 59 197 401 226
internal_value=0.00121532 0.112998 -0.0538147 -0.0016354 0.188835 0.0504714 -0.0967869 -0.0364908 0.15179 0.0725385 -0.0696099 0.108317 0.126422 0.0454125 -0.000223481 -0.0239325 0.306081 -0.0572766 0.137823 0.130274 -0.0296867 -0.0912453 0.375288 0.260425 0.0238926 0.0588533 -0.135861 0.244433 0.0286172 -0.147242 -0.10167
internal_weight=14473 4774 9699 4381 2156 2618 5318 2981 1641 1400 3139 1222 1333 603 1396 1010 515 2378 891 639 932 2129 239 308 761 464 2179 276 331 1631 548
internal_count=14473 4774 9699 4381 2156 2618 5318 2981 1641 1400 3139 1222 1333 603 1396 1010 515 2378 891 639 932 2129 239 308 761 464 2179 276 331 1631 548
is_linear=0
shrinkage=0.04


Tree=30
num_leaves=32
num_cat=0
split_feature=130 4 4 0 0 5 130 0 1 136 91 137 23 139 5 1 0 130 135 0 5 130 67 0 137 29 136 24 4 137 136
split_gain=51262.3 12601.2 10082.1 6981.11 5460.94 3591.03 3578.79 2666.92 2641.09 2069.92 1756.97 1496.39 1357.7 1267.03 1231.1 949.781 915.308 879.687 763.659 727.189 671.326 618.038 575.649 514.334 415.068 395.911 360.278 264.044 215.841 201.958 147.364
threshold=0.14353240046643342 2.5000000000000004 3.5000000000000004 0.25550000000000006 0.40450000000000003 1.0000000180025095e-35 0.076282691987339654 0.41050000000000003 0.22650000000000003 3.6262254901960786 15.455484778211808 3.8914004914004923 4.4722222222222232 22.967405143875737 1.0000000180025095e-35 0.34300000000000003 0.17150000000000001 0.16928202565383973 16.898254954155579 0.58550000000000002 1.0000000180025095e-35 0.045693819756788261 2.7790849049395669 0.10550000000000002 2.9461872586872593 1.9500000000000002 4.3246621621621637 4.741666666666668 5.5000000000000009 0.59729729729729741 4.6811868686868694
decision_type=2 2 2 2 2 2 2 2 2 2 2 2 2 2 2 2 2 2 2 2 2 2 2 2 2 2 2 2 2 2 2
left_child=1 3 4 23 14 8 21 22 19 -8 25 18 15 -10 16 -6 -2 -14 -7 -4 -12 -5 29 30 -16 -9 -13 -25 -24 -3 -1
right_child=2 7 5 6 12 11 9 10 13 -11 20 26 17 -15 24 -17 -18 -19 -20 -21 -22 -23 28 27 -26 -27 -28 -29 -30 -31 -32
leaf_value=-0.14582365481272067 -0.12829842715063808 0.010753084632483393 0.059149221303312828 -0.12989297699914107 0.019307100652795665 0.25315654915761598 -0.049014419475462354 0.052473684814154702 0.14252724603497646 0.015510218188263652 0.11016825862537749 0.010783594516148935 0.11150653550752708 0.23710271773569841 0.27242834514682579 0.10478239006373413 -0.007965298032648482 0.20366503795613827 0.37457443092435688 0.17595826839202899 0.23565848429708769 -0.078083445691418854 0.0076787435518860447 -0.11287188202392284 0.058905159548612744 -0.016017430416126795 0.1817139583964337 -0.053877665104922992 0.11045101110616777 -0.063443933264810695 -0.10893746698023976
leaf_weight=1455 112 70 485 524 348 202 1991 428 479 1323 455 31 474 450 28 519 932 262 169 103 81 1290 318 918 31 196 54 145 35 347 225
leaf_count=1455 112 70 485 524 348 202 1991 428 479 1323 455 31 474 450 28 519 932 262 169 103 81 1290 318 918 31 196 54 145 35 347 225
internal_value=-0.00112047 -0.0531211 0.107785 -0.0755779 0.0575955 0.176524 -0.0480018 0.0384484 0.146666 -0.0232586 0.0767212 0.275038 0.104697 0.188651 -0.0109031 0.0705712 -0.021044 0.144666 0.309762 0.0800131 0.129744 -0.0931465 -0.0192411 -0.127075 0.164546 0.0309672 0.120689 -0.104916 0.0183041 -0.0509853 -0.140988
internal_weight=14480 9801 4679 7871 2706 1973 5128 1930 1517 3314 1160 456 1603 929 1103 867 1044 736 371 588 536 1814 770 2743 59 624 85 1063 353 417 1680
internal_count=14480 9801 4679 7871 2706 1973 5128 1930 1517 3314 1160 456 1603 929 1103 867 1044 736 371 588 536 1814 770 2743 59 624 85 1063 353 417 1680
is_linear=0
shrinkage=0.04


Tree=31
num_leaves=31
num_cat=0
split_feature=4 0 5 131 1 91 5 25 0 4 1 31 67 121 25 0 1 4 0 1 29 25 0 136 1 3 1 41 83 67
