{"learner":{"attributes":{"best_iteration":"62","best_ntree_limit":"63","best_score":"0.8411543905120688","scikit_learn":"{\"n_estimators\": 800, \"objective\": \"reg:squarederror\", \"max_depth\": 6, \"max_leaves\": null, \"max_bin\": null, \"grow_policy\": null, \"learning_rate\": 0.04, \"verbosity\": 0, \"booster\": null, \"tree_method\": null, \"gamma\": 0.05, \"min_child_weight\": 3, \"max_delta_step\": null, \"subsample\": 0.85, \"sampling_method\": null, \"colsample_bytree\": 0.75, \"colsample_bylevel\": null, \"colsample_bynode\": null, \"reg_alpha\": 0.1, \"reg_lambda\": 1.5, \"scale_pos_weight\": null, \"base_score\": null, \"missing\": NaN, \"num_parallel_tree\": null, \"random_state\": 42, \"n_jobs\": -1, \"monotone_constraints\": null, \"interaction_constraints\": null, \"importance_type\": null, \"gpu_id\": null, \"validate_parameters\": null, \"predictor\": null, \"enable_categorical\": false, \"feature_types\": null, \"max_cat_to_onehot\": null, \"max_cat_threshold\": null, \"eval_metric\": null, \"early_stopping_rounds\": 50, \"callbacks\": null, \"evals_result_\": {\"validation_0\": {\"rmse\": [0.8988438354802659, 0.8940501527348204, 0.8897263139929139, 0.885716685427956, 0.8820929774708468, 0.8787261019760259, 0.8756394382821265, 0.8727169065821989, 0.8700543403085977, 0.8675949773219587, 0.8653187970474285, 0.8632357449625186, 0.8613354895263652, 0.859564325553606, 0.8579073377915478, 0.8564205677672891, 0.855060843171952, 0.8537847608379499, 0.8526288074524448, 0.8515567863856218, 0.8506404890771513, 0.8497870675658796, 0.8490100699389466, 0.8482904194228985, 0.8475556271491093, 0.8469193152979555, 0.8463471330012758, 0.845814979313051, 0.8453581233142153, 0.8449174997960418, 0.8444949922863991, 0.8441230143975147, 0.8438049046675293, 0.8435163374001605, 0.8432566199710566, 0.843063234424813, 0.8428434625065825, 0.8426307008938116, 0.842476519435555, 0.8423129936740208, 0.8421894578086229, 0.8420771574583753, 0.8419512751414161, 0.8418477145484126, 0.8417553888084987, 0.8416965878131615, 0.8415994726659055, 0.8415522444775335, 0.8415012066400668, 0.8414454117888022, 0.8414116514387523, 0.8413432030910992, 0.8413037896470211, 0.8412882834937696, 0.8412718495025359, 0.8412614808400368, 0.8412663797567651, 0.8412451618370385, 0.8412356645989488, 0.8412026316475412, 0.8411851033323009, 0.8411575971601113, 0.8411543905120688, 0.8411922010708142, 0.84119819610739, 0.841216942233173, 0.8412258993401176, 0.8412556234427221, 0.8412392199046415, 0.8412430213086111, 0.8412607642091194, 0.8412537111815305, 0.8412656876503141, 0.8412785819405914, 0.8412713266087887, 0.8412741290997932, 0.8412841965978873, 0.8413017405989023, 0.8413406851253851, 0.8413396759480922, 0.841355845411877, 0.8413890556176625, 0.8413878370185902, 0.841393064177279, 0.8414299765033727, 0.8414338134537531, 0.8414463893271034, 0.8414546756679749, 0.8414695064845988, 0.8414738581056854, 0.8414586355234462, 0.8414555059533292, 0.8414591307811303, 0.8414701815492164, 0.8415032832724045, 0.841512428968474, 0.8415284874833912, 0.8415482089531637, 0.8415600560857518, 0.8415760559043166, 0.841597699727754, 0.8416001803446121, 0.8415886410649751, 0.8415941068611497, 0.8416125855025481, 0.8416363738669536, 0.8416453317459255, 0.8416586748853366, 0.841691918967098, 0.8416837318921517, 0.8417084798674342, 0.8417118334651662, 0.8417392634392846]}}, \"_estimator_type\": \"regressor\"}"},"feature_names":["H_L5","H_L10","H_L20","H_season_avg","TB_L5","TB_L10","TB_L20","TB_season_avg","HR_L5","HR_L10","HR_L20","HR_season_avg","RBI_L5","RBI_L10","RBI_L20","RBI_season_avg","R_L5","R_L10","R_L20","R_season_avg","SO_L5","SO_L10","SO_L20","SO_season_avg","BB_L5","BB_L10","BB_L20","BB_season_avg","AB_L5","AB_L10","AB_L20","AB_season_avg","SB_L5","SB_L10","SB_L20","SB_season_avg","is_home","games_played"],"feature_types":["float","float","float","float","float","float","float","float","float","float","float","float","float","float","float","float","float","float","float","float","float","float","float","float","float","float","float","float","float","float","float","float","float","float","float","float","int","float"],"gradient_booster":{"model":{"gbtree_model_param":{"num_parallel_tree":"1","num_trees":"113","size_leaf_vector":"0"},"tree_info":[0,0,0,0,0,0,0,0,0,0,0,0,0,0,0,0,0,0,0,0,0,0,0,0,0,0,0,0,0,0,0,0,0,0,0,0,0,0,0,0,0,0,0,0,0,0,0,0,0,0,0,0,0,0,0,0,0,0,0,0,0,0,0,0,0,0,0,0,0,0,0,0,0,0,0,0,0,0,0,0,0,0,0,0,0,0,0,0,0,0,0,0,0,0,0,0,0,0,0,0,0,0,0,0,0,0,0,0,0,0,0,0,0],"trees":[{"base_weights":[3.7571424E-1,2.382016E-1,4.4872496E-1,1.6942951E-1,2.8621972E-1,3.7288588E-1,4.9889132E-1,1.331065E-1,2.3521757E-1,2.5757566E-1,3.3894888E-1,3.3245024E-1,4.1055045E-1,4.6504763E-1,5.333172E-1,1.4679319E-1,6.37313E-2,2.0391119E-1,2.7730793E-1,2.2466496E-1,2.8358173E-1,3.1403348E-1,3.995075E-1,3.610568E-1,3.0463254E-1,3.8959488E-1,4.6702817E-1,5.141923E-1,4.4612303E-1,5.7380944E-1,4.8656532E-1,1.3288108E-1,2.1114258E-1,-1.6991427E-2,1.0950066E-1,1.1757972E-1,2.226841E-1,2.8192285E-1,8.988764E-3,2.0468064E-1,2.74929E-1,2.8261852E-1,1.32E0,1.0857143E0,3.1257263E-1,4.1883644E-1,1.20872274E-1,3.5303512E-1,4.8031145E-1,1.3124245E-1,3.1478608E-1,3.8183737E-1,5.349523E-1,4.5768148E-1,7.0283914E-1,4.399666E-1,5.428201E-1,3.9350605E-1,4.6541247E-1,5.4079074E-1,6.1675036E-1,4.7929206E-1,6.394099E-1,2.5086138E-1,1.2220333E-1,1.8810773E-1,4.1370717E-1,-3.7678722E-2,2.3505154E-1,2.2280991E-1,6.7910895E-2,3.339535E-1,7.101879E-2,8E-1,2.1615064E-1,2.7479777E-1,5.323308E-1,-1.9555555E-1,2.0851064E-1,1.9421244E-1,3.4706768E-1,3.8595787E-1,2.3612365E-1,2.6245221E-1,3.2032737E-1,1.32E0,3.1111112E-1,2.6932007E-1,3.3626747E-1,3.9749694E-1,5.958592E-1,4.3448275E-1,3.3755274E-3,3.2900628E-1,3.9268437E-1,-1.1707317E-1,5.0731707E-1,-2.1722846E-2,2.0318584E-1,3.028799E-1,4.3718675E-1,3.9934552E-1,3.2244325E-1,4.324183E-1,7.309463E-1,4.8828667E-1,3.9008975E-1,7.9036146E-1,3.6338028E-1,4.237693E-1,7.717791E-1,7.4371004E-1,5.318921E-1,3.1036615E-1,4.1615418E-1,4.341195E-1,4.9628E-1,5.776061E-1,5.040843E-1,5.147233E-1,6.546259E-1,3.9567158E-1,4.9329782E-1,5.145359E-1,8.2099736E-1],"categories":[],"categories_nodes":[],"categories_segments":[],"categories_sizes":[],"default_left":[1,1,1,1,1,1,1,1,1,1,1,1,1,1,1,1,1,1,1,1,1,1,1,1,1,1,1,1,1,1,1,1,1,1,1,1,1,1,1,1,1,1,0,1,1,1,1,1,1,1,1,1,1,1,1,1,1,1,1,1,1,1,1,0,0,0,0,0,0,0,0,0,0,0,0,0,0,0,0,0,0,0,0,0,0,0,0,0,0,0,0,0,0,0,0,0,0,0,0,0,0,0,0,0,0,0,0,0,0,0,0,0,0,0,0,0,0,0,0,0,0,0,0,0,0],"id":0,"left_children":[1,3,5,7,9,11,13,15,17,19,21,23,25,27,29,31,33,35,37,39,41,43,45,47,49,51,53,55,57,59,61,63,65,67,69,71,73,75,77,79,81,83,-1,85,87,89,91,93,95,97,99,101,103,105,107,109,111,113,115,117,119,121,123,-1,-1,-1,-1,-1,-1,-1,-1,-1,-1,-1,-1,-1,-1,-1,-1,-1,-1,-1,-1,-1,-1,-1,-1,-1,-1,-1,-1,-1,-1,-1,-1,-1,-1,-1,-1,-1,-1,-1,-1,-1,-1,-1,-1,-1,-1,-1,-1,-1,-1,-1,-1,-1,-1,-1,-1,-1,-1,-1,-1,-1,-1],"loss_changes":[1.1712422E3,1.3352417E2,2.8959277E2,3.9687897E1,3.579785E1,4.594336E1,5.296582E1,1.0150864E1,7.6645203E0,1.3074829E1,1.238678E1,1.1422852E1,1.8229248E1,2.1083008E1,4.2496094E1,7.9425964E0,6.5570745E0,5.437866E0,3.0856934E0,6.725769E0,7.886902E0,6.0545654E0,1.2992401E1,6.5600586E0,1.2985596E1,1.25303955E1,8.749878E0,1.3190674E1,1.6609863E1,1.6637207E1,1.116626E1,9.201782E0,7.2351E0,3.3383846E0,5.280429E0,6.084524E0,1.0164429E1,4.1165924E0,1.8785511E0,7.1372223E0,8.144531E0,6.3672485E0,0E0,1.1264114E0,5.888733E0,8.148834E0,5.8681526E0,6.176819E0,7.379776E0,4.586273E0,9.96283E0,1.105957E1,1.0994919E1,8.075928E0,4.1628876E0,9.045074E0,9.437988E0,8.200317E0,1.1393066E1,8.769409E0,1.9771606E1,1.1429932E1,9.992355E0,0E0,0E0,0E0,0E0,0E0,0E0,0E0,0E0,0E0,0E0,0E0,0E0,0E0,0E0,0E0,0E0,0E0,0E0,0E0,0E0,0E0,0E0,0E0,0E0,0E0,0E0,0E0,0E0,0E0,0E0,0E0,0E0,0E0,0E0,0E0,0E0,0E0,0E0,0E0,0E0,0E0,0E0,0E0,0E0,0E0,0E0,0E0,0E0,0E0,0E0,0E0,0E0,0E0,0E0,0E0,0E0,0E0,0E0,0E0,0E0,0E0,0E0],"parents":[2147483647,0,0,1,1,2,2,3,3,4,4,5,5,6,6,7,7,8,8,9,9,10,10,11,11,12,12,13,13,14,14,15,15,16,16,17,17,18,18,19,19,20,20,21,21,22,22,23,23,24,24,25,25,26,26,27,27,28,28,29,29,30,30,31,31,32,32,33,33,34,34,35,35,36,36,37,37,38,38,39,39,40,40,41,41,43,43,44,44,45,45,46,46,47,47,48,48,49,49,50,50,51,51,52,52,53,53,54,54,55,55,56,56,57,57,58,58,59,59,60,60,61,61,62,62],"right_children":[2,4,6,8,10,12,14,16,18,20,22,24,26,28,30,32,34,36,38,40,42,44,46,48,50,52,54,56,58,60,62,64,66,68,70,72,74,76,78,80,82,84,-1,86,88,90,92,94,96,98,100,102,104,106,108,110,112,114,116,118,120,122,124,-1,-1,-1,-1,-1,-1,-1,-1,-1,-1,-1,-1,-1,-1,-1,-1,-1,-1,-1,-1,-1,-1,-1,-1,-1,-1,-1,-1,-1,-1,-1,-1,-1,-1,-1,-1,-1,-1,-1,-1,-1,-1,-1,-1,-1,-1,-1,-1,-1,-1,-1,-1,-1,-1,-1,-1,-1,-1,-1,-1,-1,-1],"split_conditions":[3.3603897E0,2.975E0,9.1880906E-1,6.9344085E-1,8.3009434E-1,3.6485295E0,3.8255424E0,1.0038462E0,2.9E0,3.1E0,4.1445994E-1,8.9880526E-1,3.800641E0,6.625753E-1,8.674084E-1,1.1547619E0,2.6464286E0,2.6387215E0,2.025E0,7.533357E-1,3.4499998E0,8.304328E-1,9.393382E-1,3.6919484E0,3.159542E0,1.5E0,4.5E-1,1.3072453E-2,9.486842E-1,1.1338935E0,3.05E0,1.846591E-1,1.2390351E-1,1.7E0,1.9669914E-1,1.5476191E-1,2.6547008E0,8.5E-1,2.1291666E0,3.4103913E0,6.0423516E-2,5.5E-1,5.28E-2,1.25E0,1.1E0,2.8790343E-1,4.4722223E-1,1.4226191E0,4.868421E-1,1.05E0,7.8888893E-1,6.2828946E-1,7.777778E-2,5.8571434E-1,1.5E0,6.509782E-1,1.8957771E-2,2.6339713E-1,3.6926105E0,5E-1,2.75E1,1.859436E-1,8.95E1,1.0034455E-2,4.888133E-3,7.524309E-3,1.6548287E-2,-1.5071488E-3,9.402062E-3,8.912397E-3,2.7164358E-3,1.3358139E-2,2.8407515E-3,3.2E-2,8.646025E-3,1.09919105E-2,2.1293232E-2,-7.822222E-3,8.340425E-3,7.7684973E-3,1.3882707E-2,1.54383145E-2,9.4449455E-3,1.0498089E-2,1.2813095E-2,5.28E-2,1.2444445E-2,1.0772803E-2,1.3450699E-2,1.5899878E-2,2.3834368E-2,1.737931E-2,1.350211E-4,1.3160251E-2,1.5707374E-2,-4.682927E-3,2.0292683E-2,-8.6891383E-4,8.127433E-3,1.2115195E-2,1.748747E-2,1.597382E-2,1.289773E-2,1.7296731E-2,2.9237852E-2,1.9531466E-2,1.560359E-2,3.1614456E-2,1.4535211E-2,1.6950771E-2,3.0871164E-2,2.97484E-2,2.1275684E-2,1.2414646E-2,1.6646167E-2,1.736478E-2,1.98512E-2,2.3104243E-2,2.016337E-2,2.058893E-2,2.6185036E-2,1.5826862E-2,1.9731913E-2,2.0581435E-2,3.2839894E-2],"split_indices":[30,30,3,3,3,30,31,23,28,28,27,23,31,23,23,5,30,31,6,3,5,3,19,31,31,0,8,35,2,3,5,6,35,4,27,17,31,17,6,31,11,16,0,5,4,11,26,6,2,5,17,14,34,13,0,23,35,27,31,36,37,27,37,0,0,0,0,0,0,0,0,0,0,0,0,0,0,0,0,0,0,0,0,0,0,0,0,0,0,0,0,0,0,0,0,0,0,0,0,0,0,0,0,0,0,0,0,0,0,0,0,0,0,0,0,0,0,0,0,0,0,0,0,0,0],"split_type":[0,0,0,0,0,0,0,0,0,0,0,0,0,0,0,0,0,0,0,0,0,0,0,0,0,0,0,0,0,0,0,0,0,0,0,0,0,0,0,0,0,0,0,0,0,0,0,0,0,0,0,0,0,0,0,0,0,0,0,0,0,0,0,0,0,0,0,0,0,0,0,0,0,0,0,0,0,0,0,0,0,0,0,0,0,0,0,0,0,0,0,0,0,0,0,0,0,0,0,0,0,0,0,0,0,0,0,0,0,0,0,0,0,0,0,0,0,0,0,0,0,0,0,0,0],"sum_hessian":[1.1668E5,4.0468E4,7.6212E4,1.6642E4,2.3826E4,3.0348E4,4.5864E4,1.0726E4,5.916E3,1.5446E4,8.38E3,1.4644E4,1.5704E4,2.314E4,2.2724E4,8.956E3,1.77E3,3.399E3,2.517E3,6.826E3,8.62E3,5.945E3,2.435E3,7.209E3,7.435E3,1.1464E4,4.24E3,6.421E3,1.6719E4,1.2167E4,1.0557E4,7.369E3,1.587E3,6.4E2,1.13E3,6.1E2,2.789E3,2.474E3,4.3E1,4.891E3,1.935E3,8.614E3,6E0,9E0,5.936E3,2.276E3,1.59E2,6.761E3,4.48E2,4.13E2,7.022E3,1.0889E4,5.75E2,4.083E3,1.57E2,1.795E3,4.626E3,4.495E3,1.2224E4,6.891E3,5.276E3,1.0084E4,4.73E2,6.08E2,6.761E3,1.428E3,1.59E2,5.93E2,4.7E1,3.01E2,8.29E2,1.06E2,5.04E2,2.9E1,2.76E3,2.409E3,6.5E1,2.1E1,2.2E1,4.56E3,3.31E2,4.97E2,1.438E3,5.622E3,2.992E3,6E0,3E0,2.109E3,3.827E3,2.036E3,2.4E2,4.2E1,1.17E2,4.22E3,2.541E3,1.9E1,4.29E2,1.32E2,2.81E2,6.405E3,6.17E2,8.402E3,2.487E3,3.81E2,1.94E2,2.803E3,1.28E3,1.23E2,3.4E1,1.715E3,8E1,2.33E2,4.393E3,9.68E2,3.527E3,6.083E3,6.141E3,3.428E3,3.463E3,1.435E3,3.841E3,1.454E3,8.63E3,2.84E2,1.89E2],"tree_param":{"num_deleted":"0","num_feature":"38","num_nodes":"125","size_leaf_vector":"0"}},{"base_weights":[3.6080346E-1,2.3544773E-1,4.3413913E-1,1.6313255E-1,2.78378E-1,3.7363365E-1,4.7461465E-1,1.1081354E-1,1.9796059E-1,2.571622E-1,3.4107715E-1,3.3524594E-1,4.276925E-1,5.066129E-1,4.3482476E-1,2.3166616E-1,9.796552E-2,1.6983545E-1,2.4769893E-1,2.1897244E-1,2.8146198E-1,2.2823963E-1,3.624767E-1,3.228392E-1,4.1211262E-1,4.9695334E-1,4.0264183E-1,3.04946E-1,5.1470447E-1,4.0349984E-1,4.6031743E-1,2.2160922E-1,8.2555866E-1,4.93525E-2,1.311813E-1,8.32666E-2,1.851341E-1,1.7301653E-1,2.88611E-1,2.3460828E-1,1.4996943E-1,3.2421017E-1,2.5667349E-1,1.8841982E-1,3.6738387E-1,3.7470722E-1,2.4028495E-1,3.550721E-1,2.9484892E-1,3.767213E-1,4.9101135E-1,4.284547E-1,5.4454297E-1,3.737668E-1,4.647276E-1,3.1778836E-1,-1.9267209E-1,4.9832958E-1,5.79284E-1,2.730336E-1,4.1881633E-1,4.5703575E-1,9.225134E-1,2.3284982E-1,-9.531121E-2,3.0698627E-1,9.786722E-1,6.042891E-2,-1.5957151E-1,1.269142E-1,5.9845555E-1,4.5751847E-2,2.901956E-1,2.2584638E-1,1.5372564E-1,1.5816447E-1,4.9373573E-1,1.140431E0,2.8474057E-1,2.2887821E-1,3.90759E-1,1.2744382E-1,3.053744E-1,3.1531793E-1,5.3680503E-1,2.5344178E-1,4.79247E-1,2.291755E-1,8.4238544E-2,2.4804537E-1,6.2193733E-1,3.3928752E-1,4.115969E-1,6.445852E-2,2.9127303E-1,2.3476192E-1,3.6200744E-1,5.3150606E-1,2.912624E-1,3.4242424E-1,5.30582E-1,5.536308E-1,3.0633888E-1,3.9000914E-1,5.6202626E-1,5.219386E-1,7.751947E-1,3.887212E-1,2.9522908E-1,4.9873388E-1,3.778931E-1,3.0224222E-1,7.537968E-1,1.2090463E-1,-3.9290094E-1,4.4622985E-1,5.1685774E-1,7.8199536E-1,5.696773E-1,3.570972E-1,1.7748193E-1,4.3055603E-1,3.0796307E-1,6.9846936E-2,4.592296E-1,3.2727003E-1,1.3105223E0],"categories":[],"categories_nodes":[],"categories_segments":[],"categories_sizes":[],"default_left":[1,1,1,1,1,1,1,1,1,1,1,1,1,1,1,1,1,1,1,1,1,1,1,1,1,1,1,1,1,1,1,1,1,1,1,1,1,1,1,1,1,1,1,1,1,1,1,1,1,1,1,1,1,1,1,1,1,1,1,1,1,1,1,0,0,0,0,0,0,0,0,0,0,0,0,0,0,0,0,0,0,0,0,0,0,0,0,0,0,0,0,0,0,0,0,0,0,0,0,0,0,0,0,0,0,0,0,0,0,0,0,0,0,0,0,0,0,0,0,0,0,0,0,0,0,0,0],"id":1,"left_children":[1,3,5,7,9,11,13,15,17,19,21,23,25,27,29,31,33,35,37,39,41,43,45,47,49,51,53,55,57,59,61,63,65,67,69,71,73,75,77,79,81,83,85,87,89,91,93,95,97,99,101,103,105,107,109,111,113,115,117,119,121,123,125,-1,-1,-1,-1,-1,-1,-1,-1,-1,-1,-1,-1,-1,-1,-1,-1,-1,-1,-1,-1,-1,-1,-1,-1,-1,-1,-1,-1,-1,-1,-1,-1,-1,-1,-1,-1,-1,-1,-1,-1,-1,-1,-1,-1,-1,-1,-1,-1,-1,-1,-1,-1,-1,-1,-1,-1,-1,-1,-1,-1,-1,-1,-1,-1],"loss_changes":[1.0699551E3,1.3329028E2,1.7950977E2,2.9111847E1,3.567163E1,6.0813477E1,5.5594727E1,9.875816E0,1.333786E1,1.855835E1,1.6262085E1,1.6155151E1,2.0812744E1,3.9460938E1,1.530542E1,3.2851334E0,9.323883E0,8.0877075E0,1.0470535E1,8.372345E0,1.2859924E1,5.8827133E0,8.354004E0,1.3167114E1,6.3024597E0,1.0109741E1,1.576062E1,6.140259E0,2.4239258E1,1.7381104E1,1.562085E1,2.2040634E0,1.7507982E-1,5.453163E0,6.6695633E0,7.1388087E0,6.584198E0,5.6837273E0,6.743881E0,5.522705E0,4.989952E0,8.187744E0,5.3546753E0,3.555151E0,6.9875145E0,6.506592E0,4.647398E0,5.560547E0,6.4362183E0,8.376205E0,8.141861E0,6.434082E0,9.192871E0,6.9713745E0,8.029175E0,5.798813E0,1.636739E0,1.7614746E1,8.40686E0,7.3336716E0,9.993286E0,9.016357E0,1.6399372E1,0E0,0E0,0E0,0E0,0E0,0E0,0E0,0E0,0E0,0E0,0E0,0E0,0E0,0E0,0E0,0E0,0E0,0E0,0E0,0E0,0E0,0E0,0E0,0E0,0E0,0E0,0E0,0E0,0E0,0E0,0E0,0E0,0E0,0E0,0E0,0E0,0E0,0E0,0E0,0E0,0E0,0E0,0E0,0E0,0E0,0E0,0E0,0E0,0E0,0E0,0E0,0E0,0E0,0E0,0E0,0E0,0E0,0E0,0E0,0E0,0E0,0E0,0E0,0E0],"parents":[2147483647,0,0,1,1,2,2,3,3,4,4,5,5,6,6,7,7,8,8,9,9,10,10,11,11,12,12,13,13,14,14,15,15,16,16,17,17,18,18,19,19,20,20,21,21,22,22,23,23,24,24,25,25,26,26,27,27,28,28,29,29,30,30,31,31,32,32,33,33,34,34,35,35,36,36,37,37,38,38,39,39,40,40,41,41,42,42,43,43,44,44,45,45,46,46,47,47,48,48,49,49,50,50,51,51,52,52,53,53,54,54,55,55,56,56,57,57,58,58,59,59,60,60,61,61,62,62],"right_children":[2,4,6,8,10,12,14,16,18,20,22,24,26,28,30,32,34,36,38,40,42,44,46,48,50,52,54,56,58,60,62,64,66,68,70,72,74,76,78,80,82,84,86,88,90,92,94,96,98,100,102,104,106,108,110,112,114,116,118,120,122,124,126,-1,-1,-1,-1,-1,-1,-1,-1,-1,-1,-1,-1,-1,-1,-1,-1,-1,-1,-1,-1,-1,-1,-1,-1,-1,-1,-1,-1,-1,-1,-1,-1,-1,-1,-1,-1,-1,-1,-1,-1,-1,-1,-1,-1,-1,-1,-1,-1,-1,-1,-1,-1,-1,-1,-1,-1,-1,-1,-1,-1,-1,-1,-1,-1],"split_conditions":[3.4163332E0,2.975E0,3.6925824E0,5.131579E-1,9.486842E-1,9.486842E-1,9.330846E-1,9.5454544E-2,1.2928572E0,3.1E0,3.19375E0,5.38796E-1,6.627207E-1,3.4557693E0,1.55E0,1.8333333E0,2.5526478E0,2.4686275E0,1.8903905E-1,1.0559468E0,7.3511696E-1,1.3392857E-1,1.1081872E0,8.9538026E-1,3.6180556E0,2.1111111E-1,1.1081872E0,1.125E0,4.006625E0,1.4017543E-1,4.538158E0,2.5857143E0,5E-1,2.51788E0,3.6666667E-1,3.923077E-1,2.2845894E-1,1.1500001E0,2.5E-2,2.3639858E-1,5.30012E-1,4.1E0,9.173497E-1,1.5394737E-1,1.325E0,5.5E-1,3.3944445E0,3.0749998E0,3.6666667E-1,2.65877E-1,1.1604598E0,4.1E0,1.7083333E0,1.2678571E0,3.632566E0,9.151933E-1,7.5E-2,2.652288E-1,1E-1,5E-1,7.3214287E-1,4.5E-1,1.412659E-1,9.313992E-3,-3.8124484E-3,1.2279451E-2,3.914689E-2,2.4171562E-3,-6.3828602E-3,5.076568E-3,2.3938222E-2,1.8300739E-3,1.1607824E-2,9.033855E-3,6.1490256E-3,6.3265786E-3,1.974943E-2,4.561724E-2,1.1389622E-2,9.155128E-3,1.5630359E-2,5.097753E-3,1.2214976E-2,1.2612717E-2,2.14722E-2,1.0137671E-2,1.916988E-2,9.167019E-3,3.3695416E-3,9.921814E-3,2.4877492E-2,1.3571501E-2,1.6463876E-2,2.5783407E-3,1.1650921E-2,9.390477E-3,1.4480297E-2,2.1260243E-2,1.1650495E-2,1.36969695E-2,2.122328E-2,2.2145232E-2,1.2253555E-2,1.5600365E-2,2.248105E-2,2.0877544E-2,3.1007787E-2,1.5548848E-2,1.1809163E-2,1.9949354E-2,1.5115723E-2,1.2089688E-2,3.0151872E-2,4.8361854E-3,-1.5716037E-2,1.7849194E-2,2.0674309E-2,3.1279813E-2,2.278709E-2,1.4283888E-2,7.0992773E-3,1.722224E-2,1.2318523E-2,2.7938774E-3,1.8369183E-2,1.30908005E-2,5.242089E-2],"split_indices":[31,30,31,2,2,2,23,2,5,28,30,27,23,30,4,25,31,30,27,23,23,33,22,23,30,25,2,22,31,27,30,29,36,31,33,26,27,21,26,11,27,28,27,10,0,16,30,30,5,11,23,28,0,21,31,23,34,27,20,36,13,0,11,0,0,0,0,0,0,0,0,0,0,0,0,0,0,0,0,0,0,0,0,0,0,0,0,0,0,0,0,0,0,0,0,0,0,0,0,0,0,0,0,0,0,0,0,0,0,0,0,0,0,0,0,0,0,0,0,0,0,0,0,0,0,0,0],"split_type":[0,0,0,0,0,0,0,0,0,0,0,0,0,0,0,0,0,0,0,0,0,0,0,0,0,0,0,0,0,0,0,0,0,0,0,0,0,0,0,0,0,0,0,0,0,0,0,0,0,0,0,0,0,0,0,0,0,0,0,0,0,0,0,0,0,0,0,0,0,0,0,0,0,0,0,0,0,0,0,0,0,0,0,0,0,0,0,0,0,0,0,0,0,0,0,0,0,0,0,0,0,0,0,0,0,0,0,0,0,0,0,0,0,0,0,0,0,0,0,0,0,0,0,0,0,0,0],"sum_hessian":[1.1641E5,4.2969E4,7.3441E4,1.601E4,2.6959E4,2.9444E4,4.3997E4,6.402E3,9.608E3,2.015E4,6.809E3,1.7225E4,1.2219E4,2.4375E4,1.9622E4,6.12E2,5.79E3,6.143E3,3.465E3,7.843E3,1.2307E4,1.089E3,5.72E3,1.4839E4,2.386E3,3.237E3,8.982E3,9.43E2,2.3432E4,8.817E3,1.0805E4,6.04E2,8E0,2.353E3,3.437E3,9.25E2,5.218E3,1.23E3,2.235E3,6.39E3,1.453E3,4.509E3,7.798E3,8.5E2,2.39E2,5.196E3,5.24E2,6.887E3,7.952E3,1.654E3,7.32E2,1.334E3,1.903E3,6.139E3,2.843E3,9.2E2,2.3E1,1.8704E4,4.728E3,9.3E2,7.887E3,1.0732E4,7.3E1,5.84E2,2E1,3E0,5E0,2.236E3,1.17E2,3.408E3,2.9E1,7.85E2,1.4E2,2.267E3,2.951E3,1.178E3,5.2E1,8E0,2.227E3,6.168E3,2.22E2,1.272E3,1.81E2,4.332E3,1.77E2,7.69E3,1.08E2,6.09E2,2.41E2,1.65E2,7.4E1,2.66E3,2.536E3,1.19E2,4.05E2,3.79E2,6.508E3,1.15E2,7.837E3,1.357E3,2.97E2,5.44E2,1.88E2,1.041E3,2.93E2,1.738E3,1.65E2,5.151E3,9.88E2,2.037E3,8.06E2,8.91E2,2.9E1,9E0,1.4E1,4.918E3,1.3786E4,2.08E2,4.52E3,4.92E2,4.38E2,7.127E3,7.6E2,6.1E1,1.0671E4,3E1,4.3E1],"tree_param":{"num_deleted":"0","num_feature":"38","num_nodes":"127","size_leaf_vector":"0"}},{"base_weights":[3.4729436E-1,2.1952513E-1,4.1535267E-1,1.6005123E-1,2.663432E-1,3.4606418E-1,4.6087936E-1,1.1659971E-1,2.137557E-1,2.574577E-1,3.7375146E-1,3.2455367E-1,4.1822737E-1,4.2270324E-1,4.8906532E-1,1.30063E-1,4.3459084E-2,1.9690654E-1,2.9355168E-1,2.2484429E-1,2.861796E-1,3.271592E-1,4.9000192E-1,3.4261984E-1,2.8721187E-1,2.9822618E-1,4.3011683E-1,4.5579156E-1,3.7728357E-1,4.345305E-1,5.088942E-1,9.770801E-2,1.6277589E-1,3.16764E-2,4.6550065E-1,2.001547E-1,-1.831378E-1,3.152593E-1,6.838677E-2,8.9723855E-2,2.3473306E-1,2.4046762E-1,3.0040544E-1,3.5000038E-1,4.0272895E-2,4.3170732E-1,7.7409065E-1,2.9387817E-1,3.5539323E-1,2.5645635E-1,3.298896E-1,2.5406423E-1,5.898068E-1,4.6641454E-1,3.9416718E-1,7.167853E-1,4.5195904E-1,3.1434414E-1,3.9873227E-1,4.801964E-1,3.8932094E-1,4.9606112E-1,6.1181825E-1,2.1566671E-1,7.832555E-2,2.0967604E-1,1.3099475E-1,6.0575176E-2,-7.099835E-2,6.062384E-1,-1.7611156E-1,2.0902681E-1,8.40956E-2,5.1808983E-1,-2.53272E-1,1.909849E-1,3.5757065E-1,7.320789E-1,1.8650914E-2,-2.8916842E-1,1.05153404E-1,2.4395992E-1,1.4405386E-1,2.3606157E-1,6.171396E-1,2.9928586E-1,1.0783482E0,4.6695194E-1,3.0346826E-1,3.6983818E-1,-7.369532E-2,2.4057774E-1,5.007739E-1,1.2600611E0,5.9451413E-1,2.1546572E-1,3.146362E-1,3.5357022E-1,7.8085214E-1,2.496865E-1,4.9043888E-1,3.6026987E-1,2.3842183E-1,2.135023E-1,4.5559165E-1,2.016381E-2,7.2696775E-1,4.9337393E-1,3.543885E-1,3.5018063E-1,4.491085E-1,8.294884E-1,2.1256548E-1,4.434701E-1,5.6207234E-1,9.928206E-2,3.2780576E-1,3.9125362E-1,5.841889E-1,4.2291364E-1,5.1472586E-1,3.1123722E-1,4.2746198E-1,4.792648E-1,5.4787016E-1,1.4296132E0,6.057662E-1],"categories":[],"categories_nodes":[],"categories_segments":[],"categories_sizes":[],"default_left":[1,1,1,1,1,1,1,1,1,1,1,1,1,1,1,1,1,1,1,1,1,1,1,1,1,1,1,1,1,1,1,1,1,1,1,1,1,1,1,1,1,1,1,1,1,1,1,1,1,1,1,1,1,1,1,1,1,1,1,1,1,1,1,0,0,0,0,0,0,0,0,0,0,0,0,0,0,0,0,0,0,0,0,0,0,0,0,0,0,0,0,0,0,0,0,0,0,0,0,0,0,0,0,0,0,0,0,0,0,0,0,0,0,0,0,0,0,0,0,0,0,0,0,0,0,0,0],"id":2,"left_children":[1,3,5,7,9,11,13,15,17,19,21,23,25,27,29,31,33,35,37,39,41,43,45,47,49,51,53,55,57,59,61,63,65,67,69,71,73,75,77,79,81,83,85,87,89,91,93,95,97,99,101,103,105,107,109,111,113,115,117,119,121,123,125,-1,-1,-1,-1,-1,-1,-1,-1,-1,-1,-1,-1,-1,-1,-1,-1,-1,-1,-1,-1,-1,-1,-1,-1,-1,-1,-1,-1,-1,-1,-1,-1,-1,-1,-1,-1,-1,-1,-1,-1,-1,-1,-1,-1,-1,-1,-1,-1,-1,-1,-1,-1,-1,-1,-1,-1,-1,-1,-1,-1,-1,-1,-1,-1],"loss_changes":[1.01508594E3,1.1289087E2,2.3997754E2,4.165216E1,2.1460327E1,4.6620117E1,4.9058594E1,9.7105255E0,1.061145E1,1.9499512E1,9.050842E0,1.5496094E1,9.624268E0,2.9017822E1,2.815625E1,8.786362E0,7.5887337E0,8.210846E0,6.720886E0,1.3071259E1,7.085449E0,8.068619E0,7.5177994E0,9.541748E0,9.793335E0,7.809643E0,7.8623047E0,1.06936035E1,1.0869141E1,1.4207275E1,2.5023438E1,9.553558E0,6.1067505E0,4.457654E0,3.950572E0,6.6893005E0,2.9490168E0,6.502228E0,4.014104E0,3.9645815E0,7.5712585E0,4.1016846E0,6.7749023E0,5.960541E0,3.5823543E0,5.177231E0,5.8032722E0,5.16214E0,9.102783E0,6.7539673E0,8.640991E0,4.287163E0,6.271118E0,9.095459E0,7.363159E0,8.752068E0,9.933594E0,5.9982758E0,8.077637E0,6.5114136E0,1.03185425E1,1.4500977E1,9.091492E0,0E0,0E0,0E0,0E0,0E0,0E0,0E0,0E0,0E0,0E0,0E0,0E0,0E0,0E0,0E0,0E0,0E0,0E0,0E0,0E0,0E0,0E0,0E0,0E0,0E0,0E0,0E0,0E0,0E0,0E0,0E0,0E0,0E0,0E0,0E0,0E0,0E0,0E0,0E0,0E0,0E0,0E0,0E0,0E0,0E0,0E0,0E0,0E0,0E0,0E0,0E0,0E0,0E0,0E0,0E0,0E0,0E0,0E0,0E0,0E0,0E0,0E0,0E0,0E0],"parents":[2147483647,0,0,1,1,2,2,3,3,4,4,5,5,6,6,7,7,8,8,9,9,10,10,11,11,12,12,13,13,14,14,15,15,16,16,17,17,18,18,19,19,20,20,21,21,22,22,23,23,24,24,25,25,26,26,27,27,28,28,29,29,30,30,31,31,32,32,33,33,34,34,35,35,36,36,37,37,38,38,39,39,40,40,41,41,42,42,43,43,44,44,45,45,46,46,47,47,48,48,49,49,50,50,51,51,52,52,53,53,54,54,55,55,56,56,57,57,58,58,59,59,60,60,61,61,62,62],"right_children":[2,4,6,8,10,12,14,16,18,20,22,24,26,28,30,32,34,36,38,40,42,44,46,48,50,52,54,56,58,60,62,64,66,68,70,72,74,76,78,80,82,84,86,88,90,92,94,96,98,100,102,104,106,108,110,112,114,116,118,120,122,124,126,-1,-1,-1,-1,-1,-1,-1,-1,-1,-1,-1,-1,-1,-1,-1,-1,-1,-1,-1,-1,-1,-1,-1,-1,-1,-1,-1,-1,-1,-1,-1,-1,-1,-1,-1,-1,-1,-1,-1,-1,-1,-1,-1,-1,-1,-1,-1,-1,-1,-1,-1,-1,-1,-1,-1,-1,-1,-1,-1,-1,-1,-1,-1,-1],"split_conditions":[3.3944445E0,6.930258E-1,9.1865194E-1,2.9459064E0,5.5898166E-1,3.7425356E0,3.788675E0,1.05E0,3.2805376E0,3.1E0,3.4367952E0,1.0513158E0,2.293227E-1,8.786765E-1,3.85E1,2.5941176E0,2.1637428E-1,1.195E2,2.75E-1,2.547727E0,1.846591E-1,9.75E-1,1.5E-1,3.3091846E0,4.7637647E-1,8.3666664E-1,5E-1,2.0526317E-1,3.45E1,8.819444E-1,1.2124144E0,5E-2,2.0325741E-1,1.1019464E0,3.0558443E0,3.2370653E0,5.5E-1,6.8333334E-1,2.1428572E-1,8.535714E-1,1.135E2,3.1666666E-1,3.55E0,5.3571427E-1,2.8660715E0,4.65E1,9.928571E-1,2.6785713E-1,1.1055555E0,6.414286E-1,6.009259E-1,3.726852E-1,7.0000005E-1,1.6339746E0,3.8918128E0,3.7374687E0,8.377193E-1,1.8990386E-1,8.5435605E-1,5.477273E-1,1.6885777E0,3.9923658E0,2.3466834E-1,8.626669E-3,3.1330218E-3,8.387041E-3,5.23979E-3,2.423007E-3,-2.8399338E-3,2.4249537E-2,-7.0444625E-3,8.361072E-3,3.3638238E-3,2.0723592E-2,-1.01308795E-2,7.639396E-3,1.4302826E-2,2.9283157E-2,7.4603653E-4,-1.1566737E-2,4.206136E-3,9.758396E-3,5.7621542E-3,9.442463E-3,2.4685582E-2,1.1971434E-2,4.3133926E-2,1.8678077E-2,1.213873E-2,1.4793526E-2,-2.9478127E-3,9.623109E-3,2.0030957E-2,5.0402444E-2,2.3780564E-2,8.618629E-3,1.2585448E-2,1.41428085E-2,3.1234086E-2,9.9874595E-3,1.9617554E-2,1.4410795E-2,9.536873E-3,8.540092E-3,1.8223666E-2,8.0655236E-4,2.9078709E-2,1.9734956E-2,1.417554E-2,1.4007225E-2,1.796434E-2,3.3179536E-2,8.502619E-3,1.7738802E-2,2.2482892E-2,3.9712824E-3,1.311223E-2,1.5650144E-2,2.3367554E-2,1.6916545E-2,2.0589035E-2,1.2449488E-2,1.7098479E-2,1.9170592E-2,2.1914806E-2,5.718453E-2,2.4230646E-2],"split_indices":[30,3,3,30,27,31,31,21,31,28,31,22,19,22,37,30,10,37,9,30,26,18,33,31,19,3,36,22,37,21,3,5,27,7,31,31,5,5,19,7,37,34,5,21,31,37,3,14,17,27,15,27,4,7,30,31,18,15,15,18,7,31,15,0,0,0,0,0,0,0,0,0,0,0,0,0,0,0,0,0,0,0,0,0,0,0,0,0,0,0,0,0,0,0,0,0,0,0,0,0,0,0,0,0,0,0,0,0,0,0,0,0,0,0,0,0,0,0,0,0,0,0,0,0,0,0,0],"split_type":[0,0,0,0,0,0,0,0,0,0,0,0,0,0,0,0,0,0,0,0,0,0,0,0,0,0,0,0,0,0,0,0,0,0,0,0,0,0,0,0,0,0,0,0,0,0,0,0,0,0,0,0,0,0,0,0,0,0,0,0,0,0,0,0,0,0,0,0,0,0,0,0,0,0,0,0,0,0,0,0,0,0,0,0,0,0,0,0,0,0,0,0,0,0,0,0,0,0,0,0,0,0,0,0,0,0,0,0,0,0,0,0,0,0,0,0,0,0,0,0,0,0,0,0,0,0,0],"sum_hessian":[1.16755E5,4.058E4,7.6175E4,1.7878E4,2.2702E4,3.0211E4,4.5964E4,9.886E3,7.992E3,2.0973E4,1.729E3,2.3281E4,6.93E3,1.9534E4,2.643E4,8.347E3,1.539E3,6.604E3,1.388E3,9.829E3,1.1144E4,1.239E3,4.9E2,1.568E4,7.601E3,6.29E2,6.301E3,1.1292E4,8.242E3,7.058E3,1.9372E4,4.201E3,4.146E3,1.499E3,4E1,6.549E3,5.5E1,1.265E3,1.23E2,6.72E2,9.157E3,2.653E3,8.491E3,1.147E3,9.2E1,4.1E2,8E1,3.265E3,1.2415E4,4.425E3,3.176E3,5.49E2,8E1,3.125E3,3.176E3,1.59E2,1.1133E4,2.102E3,6.14E3,3.503E3,3.555E3,1.7233E4,2.139E3,5.9E2,3.611E3,1.67E3,2.476E3,1.171E3,3.28E2,3.3E1,7E0,6.082E3,4.67E2,4E0,5.1E1,3.24E2,9.41E2,7E0,1.16E2,2.5E1,6.47E2,8.308E3,8.49E2,2.625E3,2.8E1,8.481E3,1E1,3.22E2,8.25E2,2.3E1,6.9E1,1.11E2,2.99E2,1.9E1,6.1E1,6.88E2,2.577E3,1.2365E4,5E1,4.304E3,1.21E2,2.38E3,7.96E2,4.6E2,8.9E1,1.6E1,6.4E1,2.514E3,6.11E2,1.771E3,1.405E3,1.29E2,3E1,1.0344E4,7.89E2,1.25E2,1.977E3,5.907E3,2.33E2,1.326E3,2.177E3,1.172E3,2.383E3,1.3027E4,4.206E3,1.3E1,2.126E3],"tree_param":{"num_deleted":"0","num_feature":"38","num_nodes":"127","size_leaf_vector":"0"}},{"base_weights":[3.3377263E-1,2.2152224E-1,3.9212716E-1,1.6538076E-1,2.6681662E-1,3.3310616E-1,4.3750122E-1,1.0881535E-1,1.944431E-1,2.3757096E-1,3.230453E-1,3.035391E-1,3.8180372E-1,4.101669E-1,4.731979E-1,9.506128E-2,1.8507639E-1,1.901346E-1,4.65669E-1,1.9837989E-1,2.6768416E-1,3.082715E-1,4.0149045E-1,2.7755532E-1,3.4550357E-1,3.903582E-1,2.6340258E-1,4.3887863E-1,3.829808E-1,4.4076192E-1,5.0361735E-1,1.945445E-1,8.056046E-2,-1.3549379E-1,2.0695978E-1,1.7684092E-1,2.6213333E-1,3.6541438E-1,8.62551E-1,1.8850295E-1,2.770182E-1,2.4221143E-1,3.1055593E-1,1.7096628E-1,3.1563613E-1,2.8158846E-1,4.5734733E-1,2.0895146E-1,2.917923E-1,4.0136212E-1,3.1193358E-1,3.6146638E-1,4.286671E-1,3.5770527E-1,1.3992302E-1,4.1649973E-1,4.7622254E-1,3.5880485E-1,4.250927E-1,4.5395172E-1,3.5120565E-1,4.2711458E-1,5.27569E-1,1.8505457E-1,7.9511887E-1,-1.7840305E-2,9.4052345E-2,-1.9777939E-1,5.117955E-1,1.9994833E-1,1.2280347E0,1.6163577E-1,2.528571E-1,2.771376E-1,4.0820714E-2,-9.902537E-3,4.2472327E-1,5.569456E-2,1.1717676E0,1.9974844E-1,1.0465316E-1,5.885903E-1,2.4141824E-1,2.759731E-1,1.9955716E-1,3.212074E-1,4.8905283E-2,4.4553536E-3,2.9015428E-1,4.8113728E-1,3.0869302E-1,2.4778198E-1,8.5555285E-1,6.350819E-1,4.0908498E-1,2.1629177E-1,-5.1191438E-2,3.1834817E-1,2.648124E-1,4.6818015E-1,3.481329E-1,3.1706232E-1,-4.9058247E-2,3.4852415E-1,4.578531E-1,4.6281782E-1,3.802956E-1,3.3992553E-1,8.228854E-1,7.063711E-1,1.12912446E-1,3.5194084E-1,4.3153495E-1,4.6404004E-1,6.3054645E-1,3.6387995E-1,1.7166774E-1,5.057793E-1,4.0149125E-1,4.9131235E-1,4.285681E-1,3.13621E-1,5.180607E-1,1.2413E-1,4.3670204E-1,5.040784E-1,6.147031E-1],"categories":[],"categories_nodes":[],"categories_segments":[],"categories_sizes":[],"default_left":[1,1,1,1,1,1,1,1,1,1,1,1,1,1,1,1,1,1,1,1,1,1,1,1,1,1,1,1,1,1,1,1,1,1,1,1,1,1,1,1,1,1,1,1,1,1,1,1,1,1,1,1,1,1,1,1,1,1,1,1,1,1,1,0,0,0,0,0,0,0,0,0,0,0,0,0,0,0,0,0,0,0,0,0,0,0,0,0,0,0,0,0,0,0,0,0,0,0,0,0,0,0,0,0,0,0,0,0,0,0,0,0,0,0,0,0,0,0,0,0,0,0,0,0,0,0,0],"id":3,"left_children":[1,3,5,7,9,11,13,15,17,19,21,23,25,27,29,31,33,35,37,39,41,43,45,47,49,51,53,55,57,59,61,63,65,67,69,71,73,75,77,79,81,83,85,87,89,91,93,95,97,99,101,103,105,107,109,111,113,115,117,119,121,123,125,-1,-1,-1,-1,-1,-1,-1,-1,-1,-1,-1,-1,-1,-1,-1,-1,-1,-1,-1,-1,-1,-1,-1,-1,-1,-1,-1,-1,-1,-1,-1,-1,-1,-1,-1,-1,-1,-1,-1,-1,-1,-1,-1,-1,-1,-1,-1,-1,-1,-1,-1,-1,-1,-1,-1,-1,-1,-1,-1,-1,-1,-1,-1,-1],"loss_changes":[7.6323145E2,1.0127173E2,2.0505664E2,2.9212128E1,3.6109497E1,4.7755615E1,4.1916016E1,6.2898636E0,1.3544678E1,1.7010376E1,8.485779E0,2.2420166E1,1.2528809E1,1.8836914E1,1.8108887E1,7.347294E0,6.5136814E0,1.0969635E1,6.665962E0,4.781189E0,8.792847E0,6.297058E0,7.699417E0,1.2384155E1,1.4606323E1,1.2676514E1,9.813698E0,9.586426E0,1.2550903E1,1.0436035E1,1.7308594E1,3.388733E0,5.9571705E0,2.5192819E0,5.6708794E0,1.1201904E1,5.930031E0,3.3533459E0,8.636377E0,5.2351227E0,7.4737625E0,7.294159E0,8.443817E0,6.4681997E0,6.626709E0,6.9936028E0,6.441101E0,4.2541428E0,7.4210205E0,1.0235413E1,9.2323E0,8.038574E0,7.9699097E0,3.4547882E0,5.497716E0,6.949951E0,7.8357544E0,7.4833984E0,8.357849E0,7.113037E0,7.051178E0,6.5946045E0,1.4501221E1,0E0,0E0,0E0,0E0,0E0,0E0,0E0,0E0,0E0,0E0,0E0,0E0,0E0,0E0,0E0,0E0,0E0,0E0,0E0,0E0,0E0,0E0,0E0,0E0,0E0,0E0,0E0,0E0,0E0,0E0,0E0,0E0,0E0,0E0,0E0,0E0,0E0,0E0,0E0,0E0,0E0,0E0,0E0,0E0,0E0,0E0,0E0,0E0,0E0,0E0,0E0,0E0,0E0,0E0,0E0,0E0,0E0,0E0,0E0,0E0,0E0,0E0,0E0,0E0],"parents":[2147483647,0,0,1,1,2,2,3,3,4,4,5,5,6,6,7,7,8,8,9,9,10,10,11,11,12,12,13,13,14,14,15,15,16,16,17,17,18,18,19,19,20,20,21,21,22,22,23,23,24,24,25,25,26,26,27,27,28,28,29,29,30,30,31,31,32,32,33,33,34,34,35,35,36,36,37,37,38,38,39,39,40,40,41,41,42,42,43,43,44,44,45,45,46,46,47,47,48,48,49,49,50,50,51,51,52,52,53,53,54,54,55,55,56,56,57,57,58,58,59,59,60,60,61,61,62,62],"right_children":[2,4,6,8,10,12,14,16,18,20,22,24,26,28,30,32,34,36,38,40,42,44,46,48,50,52,54,56,58,60,62,64,66,68,70,72,74,76,78,80,82,84,86,88,90,92,94,96,98,100,102,104,106,108,110,112,114,116,118,120,122,124,126,-1,-1,-1,-1,-1,-1,-1,-1,-1,-1,-1,-1,-1,-1,-1,-1,-1,-1,-1,-1,-1,-1,-1,-1,-1,-1,-1,-1,-1,-1,-1,-1,-1,-1,-1,-1,-1,-1,-1,-1,-1,-1,-1,-1,-1,-1,-1,-1,-1,-1,-1,-1,-1,-1,-1,-1,-1,-1,-1,-1,-1,-1,-1,-1],"split_conditions":[3.3166666E0,2.95E0,9.486842E-1,4.722222E-1,1.4055328E0,3.7071428E0,1.1464286E0,2.9E0,9.5E-1,6.7543864E-1,5.671171E-1,3.8675213E-1,2.5657895E-1,8.819444E-1,6.0708437E-2,5E-2,1E-1,3.1E0,1.13247864E-1,5.8571434E-1,3.1666666E-1,3.178211E-1,3.3557047E-3,1.0225996E0,8.6607146E-1,1.5344169E0,1.2539682E0,3.8944445E0,3.95E0,1.225E0,2.4519053E-1,1.8333333E0,1.95E0,4.25E-1,8.5E-1,8.2843137E-1,5.477273E-1,5.442308E-1,5E-1,4.0588236E-1,3.1666666E-1,7.6696837E-1,1.5461673E-1,3.1E0,2.0714286E-1,3.6999998E0,1.4530791E-1,6.375E-1,5E-1,4.301538E-1,3.774302E-1,5.0757754E-1,1.0527778E0,1.25E0,4.5454547E-2,1.846591E-1,2.4536878E-1,3.531947E-1,9.75E-1,1E-1,5.25E-1,3.3666668E0,8.9444447E-1,7.4021826E-3,3.1804755E-2,-7.136122E-4,3.7620936E-3,-7.9111755E-3,2.047182E-2,7.997933E-3,4.9121387E-2,6.465431E-3,1.0114283E-2,1.1085504E-2,1.6328285E-3,-3.9610147E-4,1.6988931E-2,2.2277825E-3,4.68707E-2,7.989937E-3,4.1861264E-3,2.3543613E-2,9.656729E-3,1.1038925E-2,7.982286E-3,1.2848296E-2,1.9562112E-3,1.7821413E-4,1.1606171E-2,1.924549E-2,1.2347721E-2,9.911279E-3,3.4222115E-2,2.5403274E-2,1.63634E-2,8.651671E-3,-2.0476575E-3,1.2733926E-2,1.0592496E-2,1.8727206E-2,1.3925316E-2,1.2682493E-2,-1.96233E-3,1.3940966E-2,1.8314123E-2,1.8512713E-2,1.5211823E-2,1.3597021E-2,3.2915413E-2,2.8254844E-2,4.5164977E-3,1.4077634E-2,1.7261397E-2,1.8561602E-2,2.5221858E-2,1.4555197E-2,6.8667093E-3,2.0231172E-2,1.605965E-2,1.9652493E-2,1.7142724E-2,1.2544841E-2,2.0722426E-2,4.9652E-3,1.7468082E-2,2.0163136E-2,2.4588125E-2],"split_indices":[29,29,2,1,7,29,2,28,25,2,27,26,10,21,35,1,0,28,35,25,25,15,35,7,21,7,21,29,29,20,27,24,29,14,26,2,26,2,20,26,7,22,11,28,18,28,11,14,36,27,11,27,22,1,27,26,35,11,2,8,26,28,18,0,0,0,0,0,0,0,0,0,0,0,0,0,0,0,0,0,0,0,0,0,0,0,0,0,0,0,0,0,0,0,0,0,0,0,0,0,0,0,0,0,0,0,0,0,0,0,0,0,0,0,0,0,0,0,0,0,0,0,0,0,0,0,0],"split_type":[0,0,0,0,0,0,0,0,0,0,0,0,0,0,0,0,0,0,0,0,0,0,0,0,0,0,0,0,0,0,0,0,0,0,0,0,0,0,0,0,0,0,0,0,0,0,0,0,0,0,0,0,0,0,0,0,0,0,0,0,0,0,0,0,0,0,0,0,0,0,0,0,0,0,0,0,0,0,0,0,0,0,0,0,0,0,0,0,0,0,0,0,0,0,0,0,0,0,0,0,0,0,0,0,0,0,0,0,0,0,0,0,0,0,0,0,0,0,0,0,0,0,0,0,0,0,0],"sum_hessian":[1.16546E5,3.9867E4,7.6679E4,1.7806E4,2.2061E4,3.3334E4,4.3345E4,6.047E3,1.1759E4,1.4519E4,7.542E3,2.0749E4,1.2585E4,2.456E4,1.8785E4,5.127E3,9.2E2,1.1578E4,1.81E2,6.315E3,8.204E3,6.354E3,1.188E3,1.2823E4,7.926E3,1.1733E4,8.52E2,1.1932E4,1.2628E4,9.104E3,9.681E3,6.49E2,4.478E3,5.8E1,8.62E2,9.779E3,1.799E3,1.47E2,3.4E1,5.616E3,6.99E2,5.154E3,3.05E3,3.26E2,6.028E3,3.81E2,8.07E2,2.209E3,1.0614E4,2.968E3,4.958E3,6.699E3,5.034E3,4.81E2,3.71E2,7.474E3,4.458E3,8.033E3,4.595E3,7.929E3,1.175E3,2.316E3,7.365E3,6.41E2,8E0,5.39E2,3.939E3,5.4E1,4E0,8.58E2,4E0,8.154E3,1.625E3,1.684E3,1.15E2,2E1,1.27E2,1E1,2.4E1,4.949E3,6.67E2,6.9E1,6.3E2,2.871E3,2.283E3,2.93E3,1.2E2,1.37E2,1.89E2,2.38E2,5.79E3,3.62E2,1.9E1,1.68E2,6.39E2,2.149E3,6E1,5.339E3,5.275E3,1.31E3,1.658E3,4.889E3,6.9E1,5.913E3,7.86E2,2.942E3,2.092E3,4.66E2,1.5E1,1.5E1,3.56E2,1.42E3,6.054E3,4.138E3,3.2E2,7.819E3,2.14E2,1.032E3,3.563E3,3.195E3,4.734E3,9.63E2,2.12E2,7.2E1,2.244E3,5.81E3,1.555E3],"tree_param":{"num_deleted":"0","num_feature":"38","num_nodes":"127","size_leaf_vector":"0"}},{"base_weights":[3.1685272E-1,2.0050061E-1,3.825949E-1,1.1504607E-1,2.2660457E-1,3.3246768E-1,4.340973E-1,7.885186E-2,1.5345417E-1,1.8448827E-1,2.5292006E-1,3.0334064E-1,3.7500775E-1,3.8035178E-1,4.543051E-1,1.9382423E-1,6.310923E-2,1.49477E-1,5.695345E-1,1.7334315E-1,2.9863793E-1,2.3129316E-1,2.8179926E-1,2.9127383E-1,3.7591714E-1,3.800473E-1,1.9135417E-1,3.521981E-1,4.458184E-1,4.458969E-1,6.159008E-1,1.8411702E-1,7.683359E-1,-6.535263E-2,7.605312E-2,1.3634779E-1,2.8116253E-1,8.740775E-1,1.06729805E-1,1.4087005E-1,2.09029E-1,3.2318738E-1,9.200748E-2,2.943211E-1,2.2032425E-1,2.9886422E-1,2.1561815E-1,3.040175E-1,2.361154E-1,4.2461818E-1,3.135517E-1,2.5025746E-1,3.8751346E-1,7.095573E-2,4.2382634E-1,3.6522663E-1,2.2536992E-1,4.4040772E-1,8.9160013E-1,4.418244E-1,5.7879096E-1,8.625342E-1,5.778667E-1,1.942581E-1,-3.5368845E-1,2.732243E-1,9.1841257E-1,-8.791266E-2,2.0637934E-1,-3.5653006E-2,8.7615564E-2,9.741604E-2,1.6813827E-1,-1.9360566E-1,3.2317656E-1,4.001354E-1,1.3488765E0,5.937822E-1,-2.2927338E-1,1.5411444E-1,2.4913656E-2,1.9530192E-1,3.6654282E-1,3.5690284E-1,1.9001637E-1,5.535431E-1,-2.5148268E-3,3.137722E-1,-8.367779E-3,1.9673237E-1,2.5543886E-1,2.635504E-1,3.4143713E-1,2.4758124E-1,2.0913705E-2,2.558873E-1,3.1379426E-1,4.290596E-1,2.270379E-1,2.1150157E-1,4.4402748E-1,3.288729E-1,-2.2208067E-2,4.1405745E-2,2.935479E-1,4.4581708E-1,3.774976E-1,-0E0,2.8947455E-1,-2.1608102E-1,4.6055648E-1,3.3639613E-1,4.3773758E-1,1.9271725E-1,4.3754968E-1,4.2181364E-1,5.624075E-1,-0E0,1.1204067E0,4.6001658E-1,4.170365E-1,5.5626434E-1,1.1158885E0,1.3789113E0,7.0052165E-1,4.4671515E-1,6.622364E-1],"categories":[],"categories_nodes":[],"categories_segments":[],"categories_sizes":[],"default_left":[1,1,1,1,1,1,1,1,1,1,1,1,1,1,1,1,1,1,1,1,1,1,1,1,1,1,1,1,1,1,1,1,1,1,1,1,1,1,1,1,1,1,1,1,1,1,1,1,1,1,1,1,1,1,1,1,1,1,1,1,1,1,1,0,0,0,0,0,0,0,0,0,0,0,0,0,0,0,0,0,0,0,0,0,0,0,0,0,0,0,0,0,0,0,0,0,0,0,0,0,0,0,0,0,0,0,0,0,0,0,0,0,0,0,0,0,0,0,0,0,0,0,0,0,0,0,0],"id":4,"left_children":[1,3,5,7,9,11,13,15,17,19,21,23,25,27,29,31,33,35,37,39,41,43,45,47,49,51,53,55,57,59,61,63,65,67,69,71,73,75,77,79,81,83,85,87,89,91,93,95,97,99,101,103,105,107,109,111,113,115,117,119,121,123,125,-1,-1,-1,-1,-1,-1,-1,-1,-1,-1,-1,-1,-1,-1,-1,-1,-1,-1,-1,-1,-1,-1,-1,-1,-1,-1,-1,-1,-1,-1,-1,-1,-1,-1,-1,-1,-1,-1,-1,-1,-1,-1,-1,-1,-1,-1,-1,-1,-1,-1,-1,-1,-1,-1,-1,-1,-1,-1,-1,-1,-1,-1,-1,-1],"loss_changes":[8.9230664E2,9.390076E1,1.9216797E2,1.3667587E1,3.564868E1,4.658203E1,3.9586426E1,9.153313E0,7.7129135E0,1.5670288E1,1.2250732E1,1.9419922E1,1.4040039E1,1.8220093E1,3.577295E1,3.0972614E0,7.445385E0,8.093262E0,6.03399E0,1.30336E1,5.501419E0,7.706726E0,9.443115E0,1.3367798E1,9.422913E0,1.4265625E1,1.1478985E1,1.145105E1,6.555908E0,1.32578125E1,1.1457703E1,3.373108E0,2.1033192E-1,2.5257177E0,5.259571E0,5.2862854E0,8.634125E0,4.9787216E0,3.431856E0,9.0842285E0,1.1483139E1,4.2594147E0,5.270427E0,9.916855E0,7.903015E0,9.947327E0,1.0840691E1,7.1766357E0,6.1293793E0,7.1875305E0,7.276993E0,7.3395233E0,7.911621E0,4.2741675E0,3.476019E0,1.3042419E1,4.386589E0,6.31604E0,7.095257E0,1.0739258E1,7.9698944E0,1.2774399E1,1.2120575E1,0E0,0E0,0E0,0E0,0E0,0E0,0E0,0E0,0E0,0E0,0E0,0E0,0E0,0E0,0E0,0E0,0E0,0E0,0E0,0E0,0E0,0E0,0E0,0E0,0E0,0E0,0E0,0E0,0E0,0E0,0E0,0E0,0E0,0E0,0E0,0E0,0E0,0E0,0E0,0E0,0E0,0E0,0E0,0E0,0E0,0E0,0E0,0E0,0E0,0E0,0E0,0E0,0E0,0E0,0E0,0E0,0E0,0E0,0E0,0E0,0E0,0E0,0E0,0E0],"parents":[2147483647,0,0,1,1,2,2,3,3,4,4,5,5,6,6,7,7,8,8,9,9,10,10,11,11,12,12,13,13,14,14,15,15,16,16,17,17,18,18,19,19,20,20,21,21,22,22,23,23,24,24,25,25,26,26,27,27,28,28,29,29,30,30,31,31,32,32,33,33,34,34,35,35,36,36,37,37,38,38,39,39,40,40,41,41,42,42,43,43,44,44,45,45,46,46,47,47,48,48,49,49,50,50,51,51,52,52,53,53,54,54,55,55,56,56,57,57,58,58,59,59,60,60,61,61,62,62],"right_children":[2,4,6,8,10,12,14,16,18,20,22,24,26,28,30,32,34,36,38,40,42,44,46,48,50,52,54,56,58,60,62,64,66,68,70,72,74,76,78,80,82,84,86,88,90,92,94,96,98,100,102,104,106,108,110,112,114,116,118,120,122,124,126,-1,-1,-1,-1,-1,-1,-1,-1,-1,-1,-1,-1,-1,-1,-1,-1,-1,-1,-1,-1,-1,-1,-1,-1,-1,-1,-1,-1,-1,-1,-1,-1,-1,-1,-1,-1,-1,-1,-1,-1,-1,-1,-1,-1,-1,-1,-1,-1,-1,-1,-1,-1,-1,-1,-1,-1,-1,-1,-1,-1,-1,-1,-1,-1],"split_conditions":[3.402369E0,2.781746E0,9.730637E-1,5.419581E-1,6.974237E-1,3.6917768E0,3.45E1,9.5454544E-2,8.9444447E-1,8.9736843E-1,8.359432E-1,1.025E0,3.798077E-1,4.2481202E-1,1.2684747E0,1.8333333E0,1.8819444E0,6.125E-1,2.916667E-1,3.1E0,4.566416E-1,2.9080337E-1,5.6030303E-1,1.1560471E0,8.5E-1,2.293227E-1,3.8155708E0,1.269697E0,4.292857E0,1.475E0,2.5101626E-1,1.875E0,5E-1,3.75E-1,1E-1,2.45E0,3.2051283E-1,2.3666668E0,7.083334E-1,1.212406E0,3.3419385E0,6.5E-1,4.5E-1,2.25E-1,1E-1,3.3875E0,1.1833334E0,5.8571434E-1,1.3484849E-1,2.5E-2,9.674775E-1,5.8571434E-1,6.7543864E-1,8.716758E-2,3.55E0,4.1E0,4.283482E0,1.3416667E0,4.1833334E0,8.675098E-1,1.55E0,1.45E0,3.9740217E0,7.7703237E-3,-1.4147538E-2,1.0928972E-2,3.6736503E-2,-3.5165062E-3,8.255173E-3,-1.4261202E-3,3.5046225E-3,3.8966415E-3,6.7255306E-3,-7.744226E-3,1.2927062E-2,1.6005415E-2,5.395506E-2,2.3751287E-2,-9.170935E-3,6.1645773E-3,9.965462E-4,7.8120767E-3,1.4661713E-2,1.4276113E-2,7.600655E-3,2.2141723E-2,-1.0059307E-4,1.2550888E-2,-3.3471113E-4,7.869295E-3,1.0217554E-2,1.0542016E-2,1.3657485E-2,9.903249E-3,8.3654816E-4,1.0235492E-2,1.255177E-2,1.7162383E-2,9.081516E-3,8.460063E-3,1.7761098E-2,1.31549155E-2,-8.8832265E-4,1.6562297E-3,1.1741916E-2,1.7832683E-2,1.50999045E-2,-0E0,1.1578982E-2,-8.643241E-3,1.8422259E-2,1.34558445E-2,1.7509503E-2,7.70869E-3,1.7501988E-2,1.6872546E-2,2.24963E-2,-0E0,4.481627E-2,1.8400664E-2,1.668146E-2,2.2250572E-2,4.4635538E-2,5.515645E-2,2.8020866E-2,1.7868606E-2,2.6489455E-2],"split_indices":[31,30,3,2,3,31,37,2,26,2,3,2,10,26,3,24,29,13,12,28,15,19,19,23,21,19,31,22,30,2,23,21,36,26,0,28,23,28,18,22,31,13,3,8,8,29,21,1,15,10,3,5,22,35,29,28,31,2,31,23,13,5,31,0,0,0,0,0,0,0,0,0,0,0,0,0,0,0,0,0,0,0,0,0,0,0,0,0,0,0,0,0,0,0,0,0,0,0,0,0,0,0,0,0,0,0,0,0,0,0,0,0,0,0,0,0,0,0,0,0,0,0,0,0,0,0,0],"split_type":[0,0,0,0,0,0,0,0,0,0,0,0,0,0,0,0,0,0,0,0,0,0,0,0,0,0,0,0,0,0,0,0,0,0,0,0,0,0,0,0,0,0,0,0,0,0,0,0,0,0,0,0,0,0,0,0,0,0,0,0,0,0,0,0,0,0,0,0,0,0,0,0,0,0,0,0,0,0,0,0,0,0,0,0,0,0,0,0,0,0,0,0,0,0,0,0,0,0,0,0,0,0,0,0,0,0,0,0,0,0,0,0,0,0,0,0,0,0,0,0,0,0,0,0,0,0,0],"sum_hessian":[1.16674E5,4.2126E4,7.4548E4,9.86E3,3.2266E4,3.7785E4,3.6763E4,5.08E3,4.78E3,1.2414E4,1.9852E4,2.2437E4,1.5348E4,1.0055E4,2.6708E4,6.09E2,4.471E3,4.737E3,4.3E1,1.1314E4,1.1E3,1.1361E4,8.491E3,1.9246E4,3.191E3,1.4936E4,4.12E2,7.039E3,3.016E3,2.5393E4,1.315E3,6.01E2,8E0,4.08E2,4.063E3,4.311E3,4.26E2,2.5E1,1.8E1,5.929E3,5.385E3,9.82E2,1.18E2,1.677E3,9.684E3,6.745E3,1.746E3,1.5627E4,3.619E3,1.786E3,1.405E3,8.16E2,1.412E4,2.73E2,1.39E2,6.38E3,6.59E2,2.983E3,3.3E1,2.4645E4,7.48E2,1.71E2,1.144E3,5.91E2,1E1,3E0,5E0,3.78E2,3E1,3.8E2,3.683E3,1.942E3,2.369E3,3.4E1,3.92E2,1.4E1,1.1E1,7E0,1.1E1,5.32E3,6.09E2,4.957E3,4.28E2,7.81E2,2.01E2,1.9E1,9.9E1,1.576E3,1.01E2,5.8E3,3.884E3,3.694E3,3.051E3,1.499E3,2.47E2,2.647E3,1.298E4,1.59E2,3.46E3,1.51E2,1.635E3,1.344E3,6.1E1,1.41E2,6.75E2,2.059E3,1.2061E4,2.07E2,6.6E1,7E0,1.32E2,4.572E3,1.808E3,5.74E2,8.5E1,2.595E3,3.88E2,7E0,2.6E1,1.4196E4,1.0449E4,7.21E2,2.7E1,3.8E1,1.33E2,4.52E2,6.92E2],"tree_param":{"num_deleted":"0","num_feature":"38","num_nodes":"127","size_leaf_vector":"0"}},{"base_weights":[3.052312E-1,1.927107E-1,3.6481485E-1,1.4012207E-1,2.3429269E-1,3.0116567E-1,4.0705445E-1,9.796706E-2,1.9213028E-1,2.2708306E-1,3.2275763E-1,2.8679863E-1,3.7167495E-1,4.2192638E-1,3.5388383E-1,1.0572061E-1,-4.196478E-2,-1.823605E-1,1.9506308E-1,2.0188278E-1,2.4966663E-1,2.393037E-1,3.8551056E-1,2.779292E-1,3.7635872E-1,3.3142996E-1,4.330719E-1,4.0767688E-1,4.74658E-1,2.562206E-1,3.7289393E-1,9.4055824E-2,1.6291933E-1,-7.1189456E-2,1.7089938E-1,5.575167E-1,-3.76713E-1,1.9025208E-1,4.0028512E-1,1.889748E-1,2.5269344E-1,1.9597855E-1,2.665141E-1,2.1069232E-1,5.2387065E-1,3.4486774E-1,5.2709967E-1,2.9250023E-1,2.4226126E-1,3.9998722E-1,2.5402176E-1,2.3457265E-1,3.5741144E-1,4.5168534E-1,2.4043344E-1,3.9458072E-1,4.5535395E-1,4.4902253E-1,5.1645154E-1,2.2081453E-1,3.3917347E-1,3.2062703E-1,3.9780733E-1,1.4809088E-1,7.9438716E-2,2.1234241E-1,8.137594E-2,-4.741719E-2,-3.7606066E-1,5.218333E-1,-5.072671E-2,1.2669406E0,-7.1604475E-2,-4.3036357E-1,2.929472E-1,1.9300963E-1,-1.407704E-1,-2.7170949E-2,4.7688887E-1,1.8796186E-1,7.9518646E-1,2.9357702E-1,1.7934708E-1,6.755009E-1,1.9243345E-1,2.962382E-1,2.3928098E-1,2.8611094E-1,7.889671E-2,6.5996045E-1,-1.9254598E-1,4.596331E-1,2.4009813E-1,9.192254E-2,5.8415884E-1,2.3050307E-1,3.0088362E-1,2.2602645E-1,3.1838867E-1,3.9565927E-1,1.1129715E0,1.3991714E-1,4.2405248E-1,6.38246E-2,2.6778418E-1,4.839214E-1,3.3262497E-1,4.5903447E-1,9.514952E-2,3.362277E-1,-2.1413511E-1,3.800649E-1,4.2926902E-1,3.874101E-1,4.8122883E-1,2.7497375E-1,4.586325E-1,7.2512543E-1,5.023398E-1,2.6275066E-1,1.0637479E-1,4.4267836E-1,2.4181724E-1,3.279794E-1,2.7872913E-2,4.7779E-1,3.7430328E-1],"categories":[],"categories_nodes":[],"categories_segments":[],"categories_sizes":[],"default_left":[1,1,1,1,1,1,1,1,1,1,1,1,1,1,1,1,1,1,1,1,1,1,1,1,1,1,1,1,1,1,1,1,1,1,1,1,1,1,1,1,1,1,1,1,1,1,1,1,1,1,1,1,1,1,1,1,1,1,1,1,1,1,1,0,0,0,0,0,0,0,0,0,0,0,0,0,0,0,0,0,0,0,0,0,0,0,0,0,0,0,0,0,0,0,0,0,0,0,0,0,0,0,0,0,0,0,0,0,0,0,0,0,0,0,0,0,0,0,0,0,0,0,0,0,0,0,0],"id":5,"left_children":[1,3,5,7,9,11,13,15,17,19,21,23,25,27,29,31,33,35,37,39,41,43,45,47,49,51,53,55,57,59,61,63,65,67,69,71,73,75,77,79,81,83,85,87,89,91,93,95,97,99,101,103,105,107,109,111,113,115,117,119,121,123,125,-1,-1,-1,-1,-1,-1,-1,-1,-1,-1,-1,-1,-1,-1,-1,-1,-1,-1,-1,-1,-1,-1,-1,-1,-1,-1,-1,-1,-1,-1,-1,-1,-1,-1,-1,-1,-1,-1,-1,-1,-1,-1,-1,-1,-1,-1,-1,-1,-1,-1,-1,-1,-1,-1,-1,-1,-1,-1,-1,-1,-1,-1,-1,-1],"loss_changes":[7.8131934E2,8.816687E1,2.0462402E2,3.9023468E1,1.420752E1,3.057544E1,3.5915527E1,1.0699432E1,8.816376E0,1.1741089E1,8.667969E0,1.98479E1,1.2410034E1,2.6507812E1,1.8399658E1,6.178726E0,3.2275863E0,9.284266E0,7.642853E0,6.351349E0,9.809998E0,5.7167435E0,5.1846924E0,1.1791992E1,6.3482666E0,7.6476746E0,7.0450134E0,1.72417E1,7.699707E0,4.643997E0,1.0654785E1,6.086754E0,6.3022346E0,3.2393785E0,4.9478245E0,6.280845E0,2.0171986E0,7.1097717E0,5.942091E0,4.510376E0,5.8455734E0,4.189972E0,6.6029053E0,6.5644817E0,6.6234055E0,8.824509E0,5.103573E0,8.32373E0,8.094147E0,5.0531006E0,7.0815887E0,3.703785E0,7.361023E0,4.7225647E0,8.067178E0,1.0812744E1,1.0289795E1,7.6397095E0,7.807373E0,5.456997E0,4.6733665E0,5.7956543E0,1.030658E1,0E0,0E0,0E0,0E0,0E0,0E0,0E0,0E0,0E0,0E0,0E0,0E0,0E0,0E0,0E0,0E0,0E0,0E0,0E0,0E0,0E0,0E0,0E0,0E0,0E0,0E0,0E0,0E0,0E0,0E0,0E0,0E0,0E0,0E0,0E0,0E0,0E0,0E0,0E0,0E0,0E0,0E0,0E0,0E0,0E0,0E0,0E0,0E0,0E0,0E0,0E0,0E0,0E0,0E0,0E0,0E0,0E0,0E0,0E0,0E0,0E0,0E0,0E0,0E0],"parents":[2147483647,0,0,1,1,2,2,3,3,4,4,5,5,6,6,7,7,8,8,9,9,10,10,11,11,12,12,13,13,14,14,15,15,16,16,17,17,18,18,19,19,20,20,21,21,22,22,23,23,24,24,25,25,26,26,27,27,28,28,29,29,30,30,31,31,32,32,33,33,34,34,35,35,36,36,37,37,38,38,39,39,40,40,41,41,42,42,43,43,44,44,45,45,46,46,47,47,48,48,49,49,50,50,51,51,52,52,53,53,54,54,55,55,56,56,57,57,58,58,59,59,60,60,61,61,62,62],"right_children":[2,4,6,8,10,12,14,16,18,20,22,24,26,28,30,32,34,36,38,40,42,44,46,48,50,52,54,56,58,60,62,64,66,68,70,72,74,76,78,80,82,84,86,88,90,92,94,96,98,100,102,104,106,108,110,112,114,116,118,120,122,124,126,-1,-1,-1,-1,-1,-1,-1,-1,-1,-1,-1,-1,-1,-1,-1,-1,-1,-1,-1,-1,-1,-1,-1,-1,-1,-1,-1,-1,-1,-1,-1,-1,-1,-1,-1,-1,-1,-1,-1,-1,-1,-1,-1,-1,-1,-1,-1,-1,-1,-1,-1,-1,-1,-1,-1,-1,-1,-1,-1,-1,-1,-1,-1,-1],"split_conditions":[3.3603897E0,6.930258E-1,9.1950166E-1,2.9354167E0,5.5898166E-1,3.8918128E0,1.0571896E0,1.2560062E0,2.45E0,3.1E0,2.2472225E-2,1.1500001E0,5E-2,4.025E0,1.85E1,5.5E-1,4.75E-1,1.9E0,9.198718E-1,3.1055555E0,1.9375E-1,1.1055555E0,7.45E1,1.1055555E0,9.5E-1,7.370651E-1,2.9289216E-1,1.4523022E-1,7.75E-1,7.8174603E-1,9.789103E-1,4.868421E-1,8.22479E-1,4.392857E-1,1.1132184E0,1.0555556E-1,1.2113096E0,1.185E2,3.75E-1,1.8333333E0,7.35E1,6.9467986E-1,7.5735295E-1,9.5E-1,2.2166667E0,5.411036E-1,6.1891204E-1,2.697521E-1,5.278638E-1,7.7306163E-1,8.7077796E-1,1.4642859E-1,1.2751178E0,2.475E0,5.231579E-1,1.0941603E0,3.55E1,1.1733417E-1,1.4535897E0,1.0555556E-1,7.247475E-1,1.465E2,1.05E0,5.9236353E-3,3.1775485E-3,8.493696E-3,3.2550376E-3,-1.8966876E-3,-1.5042426E-2,2.0873332E-2,-2.0290685E-3,5.0677624E-2,-2.864179E-3,-1.7214542E-2,1.1717888E-2,7.720385E-3,-5.630816E-3,-1.086838E-3,1.9075554E-2,7.5184745E-3,3.1807456E-2,1.1743081E-2,7.1738833E-3,2.7020037E-2,7.697338E-3,1.1849528E-2,9.571239E-3,1.1444437E-2,3.1558683E-3,2.6398417E-2,-7.701839E-3,1.8385325E-2,9.603925E-3,3.6769013E-3,2.3366353E-2,9.220122E-3,1.2035345E-2,9.041058E-3,1.2735547E-2,1.582637E-2,4.4518862E-2,5.596685E-3,1.6962098E-2,2.552984E-3,1.0711367E-2,1.9356856E-2,1.3304998E-2,1.8361378E-2,3.8059806E-3,1.3449107E-2,-8.565404E-3,1.5202596E-2,1.717076E-2,1.5496404E-2,1.9249152E-2,1.0998949E-2,1.83453E-2,2.9005017E-2,2.009359E-2,1.0510026E-2,4.2549917E-3,1.7707134E-2,9.672689E-3,1.3119175E-2,1.1149165E-3,1.91116E-2,1.4972131E-2],"split_indices":[30,3,3,30,27,30,22,23,29,28,35,1,33,30,37,16,14,28,27,29,26,27,37,22,13,3,35,35,16,19,3,22,23,18,7,26,23,37,22,1,37,3,22,1,6,19,23,19,26,19,3,14,7,6,15,3,37,27,7,35,15,37,21,0,0,0,0,0,0,0,0,0,0,0,0,0,0,0,0,0,0,0,0,0,0,0,0,0,0,0,0,0,0,0,0,0,0,0,0,0,0,0,0,0,0,0,0,0,0,0,0,0,0,0,0,0,0,0,0,0,0,0,0,0,0,0,0],"split_type":[0,0,0,0,0,0,0,0,0,0,0,0,0,0,0,0,0,0,0,0,0,0,0,0,0,0,0,0,0,0,0,0,0,0,0,0,0,0,0,0,0,0,0,0,0,0,0,0,0,0,0,0,0,0,0,0,0,0,0,0,0,0,0,0,0,0,0,0,0,0,0,0,0,0,0,0,0,0,0,0,0,0,0,0,0,0,0,0,0,0,0,0,0,0,0,0,0,0,0,0,0,0,0,0,0,0,0,0,0,0,0,0,0,0,0,0,0,0,0,0,0,0,0,0,0,0,0],"sum_hessian":[1.16561E5,4.0357E4,7.6204E4,1.7824E4,2.2533E4,3.0404E4,4.58E4,9.848E3,7.976E3,2.0841E4,1.692E3,2.5265E4,5.139E3,3.578E4,1.002E4,9.332E3,5.16E2,6.1E1,7.915E3,9.859E3,1.0982E4,7.3E2,9.62E2,2.2995E4,2.27E3,3.111E3,2.028E3,2.818E4,7.6E3,1.637E3,8.383E3,7.756E3,1.576E3,4.55E2,6.1E1,1.2E1,4.9E1,7.737E3,1.78E2,7.869E3,1.99E3,2.629E3,8.353E3,6.66E2,6.4E1,7.52E2,2.1E2,1.6316E4,6.679E3,1.899E3,3.71E2,6.62E2,2.449E3,1.847E3,1.81E2,2.212E4,6.06E3,4.723E3,2.877E3,1.152E3,4.85E2,2.714E3,5.669E3,1.647E3,6.109E3,9.79E2,5.97E2,4.24E2,3.1E1,2.3E1,3.8E1,5E0,7E0,4.6E1,3E0,7.674E3,6.3E1,2.7E1,1.51E2,7.858E3,1.1E1,1.274E3,7.16E2,1.7E1,2.612E3,3.985E3,4.368E3,4.22E2,2.44E2,5.4E1,1E1,3.56E2,3.96E2,2.5E1,1.85E2,1.95E3,1.4366E4,5.511E3,1.168E3,1.89E3,9E0,2.24E2,1.47E2,1.09E2,5.53E2,3.96E2,2.053E3,1.809E3,3.8E1,1.5E2,3.1E1,1.5609E4,6.511E3,1.679E3,4.381E3,2.5E2,4.473E3,1.77E2,2.7E3,8.41E2,3.11E2,2.32E2,2.53E2,2.647E3,6.7E1,1.28E3,4.389E3],"tree_param":{"num_deleted":"0","num_feature":"38","num_nodes":"127","size_leaf_vector":"0"}},{"base_weights":[2.9454166E-1,1.901926E-1,3.5580486E-1,1.2798624E-1,2.2700047E-1,2.9595146E-1,3.9200795E-1,1.0223894E-1,1.7830037E-1,1.999501E-1,2.6347774E-1,2.770177E-1,3.4831205E-1,3.602409E-1,4.145077E-1,9.311934E-2,1.9570847E-1,1.6214187E-1,2.5224712E-1,1.7072901E-1,2.2122392E-1,2.2887814E-1,3.020309E-1,2.9452097E-1,2.4774976E-1,3.036215E-1,3.9081675E-1,3.3935156E-1,4.0430337E-1,3.5432315E-1,4.273089E-1,1.0029455E-1,-7.690869E-3,3.2752123E-1,1.2124663E-1,1.2536229E-1,2.036835E-1,6.3638383E-1,2.3197113E-1,1.7928177E-1,4.544088E-2,2.840795E-1,2.0073567E-1,2.268873E-1,6.5150386E-1,2.7095628E-1,3.5418755E-1,2.773328E-1,3.400513E-1,5.346253E-1,2.4343264E-1,1.5552863E-1,3.2218823E-1,4.0377465E-1,2.6233277E-1,3.0442685E-1,3.698358E-1,4.0975842E-1,2.0684627E-1,1.9296855E-1,3.724624E-1,4.191758E-1,5.828862E-1,9.9543124E-2,9.7157586E-1,-1.09190494E-1,3.0956974E-2,2.852687E-1,9.259471E-1,-1.9844474E-2,2.1195833E-1,2.6722947E-1,1.0884857E-1,1.9587989E-1,6.857137E-1,3.996394E-1,1.3166744E0,1.576346E-1,2.986322E-1,1.7805819E-1,1.1320485E0,-1.446299E-1,8.6047776E-2,1.8679483E-1,3.153372E-1,2.3673886E-1,1.6540152E-1,1.9137178E-1,2.4856724E-1,8.156163E-1,-2.092051E-1,2.980683E-1,1.8635312E-1,2.8931054E-1,4.0484077E-1,2.3474507E-1,2.903169E-1,4.2255425E-1,3.0586955E-1,1.0006319E0,3.6677766E-1,2.5540748E-1,1.5142597E-1,8.7846816E-2,3.328952E-1,3.071872E-1,4.745146E-1,6.508777E-1,3.9498577E-1,8.7247446E-2,3.407254E-1,2.0619848E-1,3.3421203E-1,3.730839E-1,-1.17202364E-1,3.9783138E-1,5.191687E-1,-2.638337E-2,3.524141E-1,-1.2583512E-1,2.490856E-1,-5.113643E-2,3.768544E-1,4.475494E-1,4.00085E-1,8.0409217E-1,5.336707E-1],"categories":[],"categories_nodes":[],"categories_segments":[],"categories_sizes":[],"default_left":[1,1,1,1,1,1,1,1,1,1,1,1,1,1,1,1,1,1,1,1,1,1,1,1,1,1,1,1,1,1,1,1,1,1,1,1,1,1,1,1,1,1,1,1,1,1,1,1,1,1,1,1,1,1,1,1,1,1,1,1,1,1,1,0,0,0,0,0,0,0,0,0,0,0,0,0,0,0,0,0,0,0,0,0,0,0,0,0,0,0,0,0,0,0,0,0,0,0,0,0,0,0,0,0,0,0,0,0,0,0,0,0,0,0,0,0,0,0,0,0,0,0,0,0,0,0,0],"id":6,"left_children":[1,3,5,7,9,11,13,15,17,19,21,23,25,27,29,31,33,35,37,39,41,43,45,47,49,51,53,55,57,59,61,63,65,67,69,71,73,75,77,79,81,83,85,87,89,91,93,95,97,99,101,103,105,107,109,111,113,115,117,119,121,123,125,-1,-1,-1,-1,-1,-1,-1,-1,-1,-1,-1,-1,-1,-1,-1,-1,-1,-1,-1,-1,-1,-1,-1,-1,-1,-1,-1,-1,-1,-1,-1,-1,-1,-1,-1,-1,-1,-1,-1,-1,-1,-1,-1,-1,-1,-1,-1,-1,-1,-1,-1,-1,-1,-1,-1,-1,-1,-1,-1,-1,-1,-1,-1,-1],"loss_changes":[7.453965E2,9.871033E1,1.5897949E2,2.072818E1,2.6618286E1,2.7255615E1,3.242041E1,8.994194E0,6.3823547E0,9.583557E0,1.5229431E1,1.0263184E1,1.3713318E1,1.7203125E1,2.033252E1,7.010498E0,9.136398E0,6.7423935E0,7.2429237E0,7.003845E0,1.1460693E1,4.8115234E0,8.625793E0,9.756226E0,9.174713E0,9.749512E0,6.0353394E0,1.34938965E1,6.3812866E0,1.361676E1,2.7472656E1,5.6634293E0,2.537178E0,8.041641E0,7.7622843E0,5.4722595E0,7.573929E0,6.68919E0,4.4600334E0,6.7333527E0,3.2737424E0,6.5772552E0,8.54715E0,4.5510864E0,4.201048E0,7.718628E0,6.4210205E0,4.9594116E0,9.545807E0,8.034063E0,8.184906E0,4.7578726E0,6.9890747E0,6.9208984E0,4.7096386E0,1.7457092E1,1.0971008E1,7.3413086E0,5.7332973E0,8.637749E0,7.932129E0,1.1015625E1,1.1116333E1,0E0,0E0,0E0,0E0,0E0,0E0,0E0,0E0,0E0,0E0,0E0,0E0,0E0,0E0,0E0,0E0,0E0,0E0,0E0,0E0,0E0,0E0,0E0,0E0,0E0,0E0,0E0,0E0,0E0,0E0,0E0,0E0,0E0,0E0,0E0,0E0,0E0,0E0,0E0,0E0,0E0,0E0,0E0,0E0,0E0,0E0,0E0,0E0,0E0,0E0,0E0,0E0,0E0,0E0,0E0,0E0,0E0,0E0,0E0,0E0,0E0,0E0,0E0,0E0],"parents":[2147483647,0,0,1,1,2,2,3,3,4,4,5,5,6,6,7,7,8,8,9,9,10,10,11,11,12,12,13,13,14,14,15,15,16,16,17,17,18,18,19,19,20,20,21,21,22,22,23,23,24,24,25,25,26,26,27,27,28,28,29,29,30,30,31,31,32,32,33,33,34,34,35,35,36,36,37,37,38,38,39,39,40,40,41,41,42,42,43,43,44,44,45,45,46,46,47,47,48,48,49,49,50,50,51,51,52,52,53,53,54,54,55,55,56,56,57,57,58,58,59,59,60,60,61,61,62,62],"right_children":[2,4,6,8,10,12,14,16,18,20,22,24,26,28,30,32,34,36,38,40,42,44,46,48,50,52,54,56,58,60,62,64,66,68,70,72,74,76,78,80,82,84,86,88,90,92,94,96,98,100,102,104,106,108,110,112,114,116,118,120,122,124,126,-1,-1,-1,-1,-1,-1,-1,-1,-1,-1,-1,-1,-1,-1,-1,-1,-1,-1,-1,-1,-1,-1,-1,-1,-1,-1,-1,-1,-1,-1,-1,-1,-1,-1,-1,-1,-1,-1,-1,-1,-1,-1,-1,-1,-1,-1,-1,-1,-1,-1,-1,-1,-1,-1,-1,-1,-1,-1,-1,-1,-1,-1,-1,-1],"split_conditions":[3.4153194E0,2.975E0,9.2227614E-1,6.9371295E-1,8.153409E-1,3.7426107E0,3.7861853E0,5.277778E-1,1.1E0,3.1E0,3.3944445E0,1.05E0,8.4342587E-1,1.1291666E0,2.25E1,8.35E1,2.05E1,7.75E-1,1.7142858E-1,1.3875E0,6.8333334E-1,4.8076922E-1,1.1E0,9.128788E-1,3.6666667E-1,5.9411764E-1,7.846154E-1,2.25E-1,4.1E0,3.5E0,1.3054094E0,1.8333333E0,1E-1,2.9486842E0,2.6997144E0,7.114393E-1,8.666667E-1,9.2499995E-1,5E-1,1.75E0,5.5E0,6.267662E-1,5E-1,6.458333E-2,8E-1,4.9390155E-1,8.554666E-1,3.4855757E0,3.5000002E-1,3.25E0,1.9083333E0,2.85E1,4.069048E0,9.5E0,3.800641E0,3.25E1,4.75E-1,1.4409722E0,6.044835E-1,1E-1,7.0714283E-1,7.5E-1,3.875E0,3.981725E-3,3.8863033E-2,-4.3676198E-3,1.2382789E-3,1.1410748E-2,3.7037883E-2,-7.93779E-4,8.478333E-3,1.06891785E-2,4.353943E-3,7.835195E-3,2.7428547E-2,1.5985576E-2,5.2666973E-2,6.305384E-3,1.1945288E-2,7.1223276E-3,4.528194E-2,-5.7851956E-3,3.441911E-3,7.4717933E-3,1.2613488E-2,9.469554E-3,6.6160606E-3,7.6548713E-3,9.942689E-3,3.262465E-2,-8.368204E-3,1.1922732E-2,7.4541247E-3,1.15724215E-2,1.619363E-2,9.389803E-3,1.1612676E-2,1.690217E-2,1.2234782E-2,4.0025275E-2,1.4671106E-2,1.0216299E-2,6.057039E-3,3.5138726E-3,1.3315807E-2,1.2287487E-2,1.8980583E-2,2.6035108E-2,1.5799431E-2,3.4898978E-3,1.3629016E-2,8.247939E-3,1.3368481E-2,1.4923356E-2,-4.6880944E-3,1.5913256E-2,2.0766746E-2,-1.0553348E-3,1.4096564E-2,-5.0334046E-3,9.963424E-3,-2.0454573E-3,1.5074175E-2,1.7901976E-2,1.60034E-2,3.2163687E-2,2.1346828E-2],"split_indices":[31,30,3,3,2,31,31,13,0,28,30,21,3,2,37,37,37,20,17,21,21,34,0,2,5,2,14,24,4,28,3,24,24,30,31,3,17,2,36,3,37,3,36,10,21,19,3,31,13,29,6,37,31,37,31,37,10,2,19,12,5,21,30,0,0,0,0,0,0,0,0,0,0,0,0,0,0,0,0,0,0,0,0,0,0,0,0,0,0,0,0,0,0,0,0,0,0,0,0,0,0,0,0,0,0,0,0,0,0,0,0,0,0,0,0,0,0,0,0,0,0,0,0,0,0,0,0],"split_type":[0,0,0,0,0,0,0,0,0,0,0,0,0,0,0,0,0,0,0,0,0,0,0,0,0,0,0,0,0,0,0,0,0,0,0,0,0,0,0,0,0,0,0,0,0,0,0,0,0,0,0,0,0,0,0,0,0,0,0,0,0,0,0,0,0,0,0,0,0,0,0,0,0,0,0,0,0,0,0,0,0,0,0,0,0,0,0,0,0,0,0,0,0,0,0,0,0,0,0,0,0,0,0,0,0,0,0,0,0,0,0,0,0,0,0,0,0,0,0,0,0,0,0,0,0,0,0],"sum_hessian":[1.16623E5,4.3144E4,7.3479E4,1.6042E4,2.7102E4,2.77E4,4.5779E4,1.0616E4,5.426E3,1.5569E4,1.1533E4,2.0352E4,7.348E3,1.8993E4,2.6786E4,9.676E3,9.4E2,4.458E3,9.68E2,6.567E3,9.002E3,6.085E3,5.448E3,1.2725E4,7.627E3,3.589E3,3.759E3,1.2895E4,6.098E3,4.707E3,2.2079E4,9.034E3,6.42E2,3.37E2,6.03E2,2.369E3,2.089E3,4.6E1,9.22E2,6.146E3,4.21E2,2.207E3,6.795E3,6.059E3,2.6E1,3.421E3,2.027E3,9.247E3,3.478E3,1.1E2,7.517E3,4.02E2,3.187E3,3.411E3,3.48E2,6.019E3,6.876E3,5.932E3,1.66E2,4.78E2,4.229E3,2.0988E4,1.091E3,9.028E3,6E0,1.77E2,4.65E2,3.17E2,2E1,2.36E2,3.67E2,2.44E2,2.125E3,2.058E3,3.1E1,3.6E1,1E1,4.39E2,4.83E2,6.14E3,6E0,7.3E1,3.48E2,5.4E2,1.667E3,3.36E3,3.435E3,2.304E3,3.755E3,2.2E1,4E0,2.587E3,8.34E2,8.94E2,1.133E3,2.169E3,7.078E3,1.013E3,2.465E3,2.7E1,8.3E1,6.648E3,8.69E2,2.93E2,1.09E2,2.906E3,2.81E2,1.13E2,3.298E3,1.09E2,2.39E2,1.404E3,4.615E3,6.831E3,4.5E1,5.356E3,5.76E2,6.4E1,1.02E2,7.1E1,4.07E2,4.3E1,4.186E3,8.426E3,1.2562E4,1.94E2,8.97E2],"tree_param":{"num_deleted":"0","num_feature":"38","num_nodes":"127","size_leaf_vector":"0"}},{"base_weights":[2.8366944E-1,1.7963988E-1,3.3882985E-1,1.11085795E-1,2.0707935E-1,3.113337E-1,3.942117E-1,8.0262825E-2,1.3896003E-1,1.8330413E-1,2.3843437E-1,2.7703035E-1,3.489797E-1,2.7725053E-1,4.0038797E-1,1.8468425E-1,6.683958E-2,1.2557805E-1,2.4980466E-1,1.6672856E-1,2.2577603E-1,2.332494E-1,4.226004E-1,2.96632E-1,2.4015576E-1,3.7164375E-1,3.135243E-1,1.7145269E-1,3.15207E-1,4.158987E-1,3.6013794E-1,1.7335552E-1,1.0686573E0,3.8781725E-2,1.09108545E-1,1.114623E-1,2.0046762E-1,2.6428968E-1,-3.636731E-1,2.3400536E-1,1.5813373E-1,2.2341569E-1,1.0586277E0,1.9503707E-1,2.573447E-1,3.6483914E-1,7.628375E-1,1.7763959E-1,3.0498534E-1,2.062985E-1,2.7403063E-1,3.5254174E-1,4.1856924E-1,1.9518438E-1,3.2185602E-1,1.9198455E-1,-2.4311095E-1,3.304184E-1,-1.8277103E-1,5.71255E-1,4.1121677E-1,3.72078E-1,2.6920274E-1,1.6565384E-1,7.5432044E-1,1.6257402E-2,1.0856072E-1,1.615101E-1,3.296098E-2,1.2630893E-1,3.6107577E-2,1.2116141E-1,3.067417E-1,2.0540735E-1,3.730343E-1,-4.6931383E-1,-2.54225E-2,2.563869E-1,-7.151464E-3,2.3196176E-1,1.4872387E-1,2.8018227E-1,2.0284228E-1,1.4832213E0,9.5539294E-2,2.9713157E-1,1.7602485E-1,2.3812214E-1,3.1147942E-1,4.2704573E-1,9.189532E-2,8.496257E-1,-3.2745773E-1,1.8884102E-1,-1.9998592E-1,3.311157E-1,2.7880892E-1,1.8626533E-1,2.4751793E-1,2.839545E-1,8.067815E-2,3.5464194E-1,1.11188516E-1,7.5865513E-1,4.0794414E-1,2.8355253E-1,5.0435245E-2,1.4752206E-1,3.261966E-1,3.7479237E-1,1.2971646E-1,4.5869204E-1,-4.5744038E-1,3.7103263E-1,1.1292556E-1,2.3532301E-1,-3.9896747E-1,6.402486E-1,1.6065574E-1,4.065509E-1,5.835919E-1,3.5700458E-1,4.5409846E-1,2.3351057E-1,6.183296E-1],"categories":[],"categories_nodes":[],"categories_segments":[],"categories_sizes":[],"default_left":[1,1,1,1,1,1,1,1,1,1,1,1,1,1,1,1,1,1,1,1,1,1,1,1,1,1,1,1,1,1,1,1,0,1,1,1,1,1,1,1,1,1,1,1,1,1,1,1,1,1,1,1,1,1,1,1,1,1,1,1,1,1,1,0,0,0,0,0,0,0,0,0,0,0,0,0,0,0,0,0,0,0,0,0,0,0,0,0,0,0,0,0,0,0,0,0,0,0,0,0,0,0,0,0,0,0,0,0,0,0,0,0,0,0,0,0,0,0,0,0,0,0,0,0,0],"id":7,"left_children":[1,3,5,7,9,11,13,15,17,19,21,23,25,27,29,31,33,35,37,39,41,43,45,47,49,51,53,55,57,59,61,63,-1,65,67,69,71,73,75,77,79,81,83,85,87,89,91,93,95,97,99,101,103,105,107,109,111,113,115,117,119,121,123,-1,-1,-1,-1,-1,-1,-1,-1,-1,-1,-1,-1,-1,-1,-1,-1,-1,-1,-1,-1,-1,-1,-1,-1,-1,-1,-1,-1,-1,-1,-1,-1,-1,-1,-1,-1,-1,-1,-1,-1,-1,-1,-1,-1,-1,-1,-1,-1,-1,-1,-1,-1,-1,-1,-1,-1,-1,-1,-1,-1,-1,-1],"loss_changes":[6.6958984E2,7.601526E1,1.1588574E2,9.898041E0,2.142273E1,6.561914E1,1.803955E1,7.662033E0,8.918434E0,1.147406E1,1.1673584E1,1.9123535E1,1.9279785E1,4.9882965E0,1.4695801E1,5.851843E0,5.759907E0,5.6643524E0,5.9236145E0,6.7449036E0,8.574509E0,1.1030945E1,6.122143E0,1.7177124E1,1.0498413E1,1.2978394E1,9.206482E0,2.9631538E0,7.1917114E0,1.2154297E1,7.055359E0,2.4879856E0,0E0,4.5955257E0,7.723631E0,5.083519E0,7.1202126E0,3.9092216E0,4.8649192E-1,7.2359924E0,7.2008057E0,5.2346344E0,4.741081E0,8.980637E0,7.5566406E0,4.855568E0,4.964216E0,4.9051666E0,1.092688E1,3.721878E0,8.808472E0,5.2355957E0,1.4868408E1,7.9844265E0,6.5838013E0,3.5818214E0,2.7964919E0,7.9138184E0,2.7333217E0,1.4000824E1,1.3079834E1,6.9867554E0,9.461506E0,0E0,0E0,0E0,0E0,0E0,0E0,0E0,0E0,0E0,0E0,0E0,0E0,0E0,0E0,0E0,0E0,0E0,0E0,0E0,0E0,0E0,0E0,0E0,0E0,0E0,0E0,0E0,0E0,0E0,0E0,0E0,0E0,0E0,0E0,0E0,0E0,0E0,0E0,0E0,0E0,0E0,0E0,0E0,0E0,0E0,0E0,0E0,0E0,0E0,0E0,0E0,0E0,0E0,0E0,0E0,0E0,0E0,0E0,0E0,0E0,0E0,0E0],"parents":[2147483647,0,0,1,1,2,2,3,3,4,4,5,5,6,6,7,7,8,8,9,9,10,10,11,11,12,12,13,13,14,14,15,15,16,16,17,17,18,18,19,19,20,20,21,21,22,22,23,23,24,24,25,25,26,26,27,27,28,28,29,29,30,30,31,31,33,33,34,34,35,35,36,36,37,37,38,38,39,39,40,40,41,41,42,42,43,43,44,44,45,45,46,46,47,47,48,48,49,49,50,50,51,51,52,52,53,53,54,54,55,55,56,56,57,57,58,58,59,59,60,60,61,61,62,62],"right_children":[2,4,6,8,10,12,14,16,18,20,22,24,26,28,30,32,34,36,38,40,42,44,46,48,50,52,54,56,58,60,62,64,-1,66,68,70,72,74,76,78,80,82,84,86,88,90,92,94,96,98,100,102,104,106,108,110,112,114,116,118,120,122,124,-1,-1,-1,-1,-1,-1,-1,-1,-1,-1,-1,-1,-1,-1,-1,-1,-1,-1,-1,-1,-1,-1,-1,-1,-1,-1,-1,-1,-1,-1,-1,-1,-1,-1,-1,-1,-1,-1,-1,-1,-1,-1,-1,-1,-1,-1,-1,-1,-1,-1,-1,-1,-1,-1,-1,-1,-1,-1,-1,-1,-1,-1],"split_conditions":[3.3603897E0,2.8377192E0,3.8918128E0,5.131579E-1,1.2111111E0,9.486842E-1,3.1357917E-1,9.5454544E-2,4.3714082E-1,3.3666668E0,8.103563E-1,1.0571896E0,8.6190474E-1,3.0789474E-1,1.0540936E0,1.8333333E0,2.5527778E0,5.8571434E-1,3.6038962E-1,1.9375E-1,9.75E-1,1.5936509E-2,1.1125E0,2.2961897E-1,3.6132479E0,1.1519231E0,3.4839973E-1,5E-1,5.192308E-1,2.9591364E-1,8.4412956E-1,6.5E0,4.274629E-2,3.047163E-1,2.5657895E-1,1.3809524E-1,4.0582836E-1,1.3166666E0,3E0,1.6397849E-1,4.5804197E-1,1E-1,7.25E-1,5.131579E-1,4.0588236E-1,3.5258E-1,1.5666666E0,2.3582888E-1,5E-1,1.7623529E-1,7.8287065E-1,1.1625E0,2.1764706E-1,3.8098693E-2,2.9E0,3.9E0,2.75E-1,5.8017135E-1,3.6999998E0,7.0714283E-1,2.9250002E0,9E-1,2.0881782E-1,6.6261534E-3,3.0172817E-2,6.5029605E-4,4.342429E-3,6.4604036E-3,1.3184393E-3,5.052357E-3,1.4443031E-3,4.8464565E-3,1.2269668E-2,8.2162935E-3,1.4921372E-2,-1.8772554E-2,-1.0169E-3,1.0255476E-2,-2.8605855E-4,9.27847E-3,5.9489547E-3,1.1207291E-2,8.113691E-3,5.932885E-2,3.8215716E-3,1.1885262E-2,7.0409942E-3,9.524886E-3,1.2459177E-2,1.7081829E-2,3.6758126E-3,3.3985026E-2,-1.3098309E-2,7.5536403E-3,-7.999437E-3,1.3244627E-2,1.1152357E-2,7.450613E-3,9.900717E-3,1.135818E-2,3.2271259E-3,1.4185677E-2,4.4475407E-3,3.0346205E-2,1.6317766E-2,1.1342101E-2,2.0174098E-3,5.900882E-3,1.3047864E-2,1.4991694E-2,5.188658E-3,1.834768E-2,-1.8297615E-2,1.4841305E-2,4.517022E-3,9.41292E-3,-1.5958698E-2,2.5609944E-2,6.426229E-3,1.6262036E-2,2.3343675E-2,1.4280183E-2,1.8163938E-2,9.340422E-3,2.4733182E-2],"split_indices":[30,30,30,2,5,2,19,2,27,28,27,22,22,14,22,26,30,13,11,18,26,35,22,19,30,2,19,12,26,23,14,37,0,27,18,34,19,5,37,35,22,12,2,22,26,11,17,35,36,11,15,17,22,35,28,28,14,15,28,13,6,12,35,0,0,0,0,0,0,0,0,0,0,0,0,0,0,0,0,0,0,0,0,0,0,0,0,0,0,0,0,0,0,0,0,0,0,0,0,0,0,0,0,0,0,0,0,0,0,0,0,0,0,0,0,0,0,0,0,0,0,0,0,0,0],"split_type":[0,0,0,0,0,0,0,0,0,0,0,0,0,0,0,0,0,0,0,0,0,0,0,0,0,0,0,0,0,0,0,0,0,0,0,0,0,0,0,0,0,0,0,0,0,0,0,0,0,0,0,0,0,0,0,0,0,0,0,0,0,0,0,0,0,0,0,0,0,0,0,0,0,0,0,0,0,0,0,0,0,0,0,0,0,0,0,0,0,0,0,0,0,0,0,0,0,0,0,0,0,0,0,0,0,0,0,0,0,0,0,0,0,0,0,0,0,0,0,0,0,0,0,0,0],"sum_hessian":[1.16711E5,4.0444E4,7.6267E4,1.1564E4,2.888E4,5.0972E4,2.5295E4,5.496E3,6.068E3,1.6433E4,1.2447E4,2.6678E4,2.4294E4,1.273E3,2.4022E4,6.23E2,4.873E3,5.418E3,6.5E2,1.1827E4,4.606E3,1.211E4,3.37E2,1.741E4,9.268E3,1.481E4,9.484E3,3.39E2,9.34E2,1.7328E4,6.694E3,6.17E2,6E0,2.932E3,1.941E3,4.563E3,8.55E2,6.36E2,1.4E1,1.334E3,1.0493E4,4.595E3,1.1E1,4.69E3,7.42E3,2.91E2,4.6E1,1.145E3,1.6265E4,4.642E3,4.626E3,1.0536E4,4.274E3,6.27E2,8.857E3,3.24E2,1.5E1,9.07E2,2.7E1,5.01E2,1.6827E4,5.912E3,7.82E2,6.11E2,6E0,2.219E3,7.13E2,1.148E3,7.93E2,3.81E3,7.53E2,4.92E2,3.63E2,4.16E2,2.2E2,1E1,4E0,1.221E3,1.13E2,1.181E3,9.312E3,1.216E3,3.379E3,7E0,4E0,7.32E2,3.958E3,5.483E3,1.937E3,2.36E2,5.5E1,4.3E1,3E0,1.113E3,3.2E1,8.129E3,8.136E3,3.131E3,1.511E3,4.399E3,2.27E2,1.0444E4,9.2E1,1.26E2,4.148E3,3.88E2,2.39E2,2.17E2,8.64E3,8E1,2.44E2,3E0,1.2E1,7.63E2,1.44E2,9E0,1.8E1,4.28E2,7.3E1,1.6389E4,4.38E2,5.002E3,9.1E2,7.12E2,7E1],"tree_param":{"num_deleted":"0","num_feature":"38","num_nodes":"125","size_leaf_vector":"0"}},{"base_weights":[2.7239227E-1,1.7609091E-1,3.2696304E-1,1.3004087E-1,2.1151648E-1,2.7149546E-1,3.6264744E-1,1.0156204E-1,1.8068725E-1,1.8436995E-1,2.4536537E-1,2.527687E-1,3.237499E-1,3.2008806E-1,3.7797213E-1,8.7155335E-2,1.6258912E-1,9.853979E-2,1.9416732E-1,2.2944598E-1,1.608339E-1,2.3105417E-1,2.8393346E-1,2.6611894E-1,1.9660512E-1,1.7594081E-1,3.3141634E-1,2.975213E-1,3.720708E-1,3.7212452E-1,5.428936E-1,1.0528316E-1,3.5760537E-2,-1.4433096E-2,1.905811E-1,8.6406894E-2,7.61125E-1,3.13296E-1,1.8313526E-1,2.6287216E-1,1.9570625E-1,1.23245254E-1,1.826961E-1,1.857491E-1,2.485383E-1,3.1037003E-1,1.2960698E-1,2.1672057E-1,2.7932113E-1,4.062122E-1,1.8678385E-1,-1.2974584E-2,2.6035315E-1,9.748979E-2,3.3637753E-1,2.769453E-1,3.6551833E-1,3.784434E-1,3.066964E-2,3.6826602E-1,5.1992947E-1,7.9762244E-1,4.9684265E-1,1.11812435E-1,-1.8456617E-2,-1.4085766E-2,7.2529964E-2,-4.6393167E-2,3.705137E-1,1.8631458E-1,9.382615E-1,6.6278726E-2,3.9103436E-1,2.4395704E-1,1.0931504E0,3.5008436E-1,-5.5047363E-2,1.8103759E-1,6.113033E-1,2.7594998E-1,8.834221E-2,1.9063872E-1,1.079823E0,7.5892115E-1,1.18675925E-1,2.0680176E-1,1.2928048E-1,1.597632E-1,2.8662792E-1,-6.621887E-2,2.523903E-1,2.4957217E-1,4.0250418E-1,3.791409E-1,8.646009E-2,3.114026E-1,2.0130718E-1,2.7662864E-1,5.532977E-1,5.9826946E-1,2.41226E-1,9.0854E-2,2.0787087E-1,-1.9805339E-1,1.0553841E-1,2.103053E-1,6.6196316E-1,1.6709377E-1,-1.9042939E-1,3.2646656E-1,4.5796517E-1,2.8290433E-1,4.5973893E-2,1.14110984E-1,3.8382694E-1,3.5271877E-1,4.6726024E-1,-1.421978E-1,4.2313784E-1,3.5952505E-1,4.1879383E-1,4.7043929E-1,8.014318E-1,1.290059E0,6.422092E-1,5.11358E-1,-1.1524543E-1],"categories":[],"categories_nodes":[],"categories_segments":[],"categories_sizes":[],"default_left":[1,1,1,1,1,1,1,1,1,1,1,1,1,1,1,1,1,1,1,1,1,1,1,1,1,1,1,1,1,1,1,1,1,1,1,1,1,1,1,1,1,1,1,1,1,1,1,1,1,1,1,1,1,1,1,1,1,1,1,1,1,1,1,0,0,0,0,0,0,0,0,0,0,0,0,0,0,0,0,0,0,0,0,0,0,0,0,0,0,0,0,0,0,0,0,0,0,0,0,0,0,0,0,0,0,0,0,0,0,0,0,0,0,0,0,0,0,0,0,0,0,0,0,0,0,0,0],"id":8,"left_children":[1,3,5,7,9,11,13,15,17,19,21,23,25,27,29,31,33,35,37,39,41,43,45,47,49,51,53,55,57,59,61,63,65,67,69,71,73,75,77,79,81,83,85,87,89,91,93,95,97,99,101,103,105,107,109,111,113,115,117,119,121,123,125,-1,-1,-1,-1,-1,-1,-1,-1,-1,-1,-1,-1,-1,-1,-1,-1,-1,-1,-1,-1,-1,-1,-1,-1,-1,-1,-1,-1,-1,-1,-1,-1,-1,-1,-1,-1,-1,-1,-1,-1,-1,-1,-1,-1,-1,-1,-1,-1,-1,-1,-1,-1,-1,-1,-1,-1,-1,-1,-1,-1,-1,-1,-1,-1],"loss_changes":[6.1403516E2,6.8890625E1,1.4743555E2,2.646405E1,2.1841675E1,2.8402832E1,2.9350586E1,1.0305023E1,7.266617E0,1.39791565E1,5.715393E0,1.6004517E1,8.58667E0,1.3876221E1,3.1777832E1,8.858658E0,1.11486435E1,7.345195E0,7.3285065E0,5.0033417E0,7.102707E0,6.0345764E0,1.1594666E1,1.1190674E1,8.346436E0,6.145399E0,8.39978E0,1.1530151E1,7.8467407E0,1.8001465E1,1.2631287E1,5.702286E0,4.5683494E0,3.7765222E0,5.812317E0,5.565657E0,2.2995281E0,6.542446E0,4.427368E0,5.125351E0,9.732185E0,9.1111145E0,7.0204315E0,5.5712357E0,6.82547E0,1.3488312E1,4.4531636E0,5.2142334E0,9.796265E0,5.514099E0,7.945282E0,2.6617472E0,5.0404263E0,3.1416254E0,8.330872E0,8.828583E0,8.834869E0,7.819458E0,4.7657285E0,1.3568848E1,1.0668503E1,1.1689148E1,8.732849E0,0E0,0E0,0E0,0E0,0E0,0E0,0E0,0E0,0E0,0E0,0E0,0E0,0E0,0E0,0E0,0E0,0E0,0E0,0E0,0E0,0E0,0E0,0E0,0E0,0E0,0E0,0E0,0E0,0E0,0E0,0E0,0E0,0E0,0E0,0E0,0E0,0E0,0E0,0E0,0E0,0E0,0E0,0E0,0E0,0E0,0E0,0E0,0E0,0E0,0E0,0E0,0E0,0E0,0E0,0E0,0E0,0E0,0E0,0E0,0E0,0E0,0E0,0E0,0E0],"parents":[2147483647,0,0,1,1,2,2,3,3,4,4,5,5,6,6,7,7,8,8,9,9,10,10,11,11,12,12,13,13,14,14,15,15,16,16,17,17,18,18,19,19,20,20,21,21,22,22,23,23,24,24,25,25,26,26,27,27,28,28,29,29,30,30,31,31,32,32,33,33,34,34,35,35,36,36,37,37,38,38,39,39,40,40,41,41,42,42,43,43,44,44,45,45,46,46,47,47,48,48,49,49,50,50,51,51,52,52,53,53,54,54,55,55,56,56,57,57,58,58,59,59,60,60,61,61,62,62],"right_children":[2,4,6,8,10,12,14,16,18,20,22,24,26,28,30,32,34,36,38,40,42,44,46,48,50,52,54,56,58,60,62,64,66,68,70,72,74,76,78,80,82,84,86,88,90,92,94,96,98,100,102,104,106,108,110,112,114,116,118,120,122,124,126,-1,-1,-1,-1,-1,-1,-1,-1,-1,-1,-1,-1,-1,-1,-1,-1,-1,-1,-1,-1,-1,-1,-1,-1,-1,-1,-1,-1,-1,-1,-1,-1,-1,-1,-1,-1,-1,-1,-1,-1,-1,-1,-1,-1,-1,-1,-1,-1,-1,-1,-1,-1,-1,-1,-1,-1,-1,-1,-1,-1,-1,-1,-1,-1],"split_conditions":[3.402369E0,3.025E0,9.2564774E-1,6.9371295E-1,8.153409E-1,3.7423463E0,3.65E1,1.1547619E0,2.5527778E0,7.34994E-1,3.315587E0,1.163193E0,3.44375E0,4.2481202E-1,1.2791746E0,7.7296495E-2,2.2916665E0,1.0650591E0,7.1068484E-1,5E-1,3.1E0,1.846591E-1,6.3397455E-1,4.5E-1,1.3484849E-1,2.361111E-1,6.346154E-2,4.0465364E0,1.5634921E0,1.475E0,2.5101626E-1,7.0714283E-1,2.7210536E0,1.8333334E-1,2.0749998E0,1.325E0,3.6666667E-1,7.0000005E-1,1.355E2,7.75E-1,3.4166667E-1,9.5454544E-2,6.45E1,1.20240964E-1,1.8333334E-1,4.852941E-1,4.8809522E-1,1.125E-1,4.6428573E-1,2.5E-2,2.4871135E-1,2.5E-1,1.5E-1,4.1428572E-1,4.0531015E0,1.5231578E0,3.6999998E0,1.212406E0,3.25E0,3.992337E0,3E-1,1.45E0,3.597753E-1,4.4724974E-3,-7.382647E-4,-5.634306E-4,2.9011986E-3,-1.8557267E-3,1.4820548E-2,7.452583E-3,3.753046E-2,2.651149E-3,1.5641375E-2,9.7582815E-3,4.3726016E-2,1.4003375E-2,-2.2018945E-3,7.2415033E-3,2.4452133E-2,1.1037999E-2,3.5336884E-3,7.6255486E-3,4.319292E-2,3.0356845E-2,4.747037E-3,8.27207E-3,5.171219E-3,6.390528E-3,1.1465116E-2,-2.6487547E-3,1.0095611E-2,9.982887E-3,1.6100166E-2,1.5165636E-2,3.4584035E-3,1.2456103E-2,8.052287E-3,1.1065145E-2,2.2131907E-2,2.3930779E-2,9.64904E-3,3.6341597E-3,8.314835E-3,-7.922135E-3,4.221536E-3,8.412212E-3,2.6478525E-2,6.6837505E-3,-7.6171756E-3,1.3058662E-2,1.8318607E-2,1.1316173E-2,1.8389557E-3,4.5644394E-3,1.5353077E-2,1.4108751E-2,1.869041E-2,-5.687912E-3,1.6925514E-2,1.4381002E-2,1.6751753E-2,1.881757E-2,3.205727E-2,5.1602356E-2,2.5688367E-2,2.0454321E-2,-4.609817E-3],"split_indices":[31,30,3,3,2,31,37,5,30,23,31,23,30,26,3,11,28,23,3,36,28,26,15,0,15,26,14,31,15,2,23,1,31,34,6,0,17,24,37,24,10,18,37,11,18,14,23,17,33,34,27,17,33,17,31,23,28,2,5,31,32,5,11,0,0,0,0,0,0,0,0,0,0,0,0,0,0,0,0,0,0,0,0,0,0,0,0,0,0,0,0,0,0,0,0,0,0,0,0,0,0,0,0,0,0,0,0,0,0,0,0,0,0,0,0,0,0,0,0,0,0,0,0,0,0,0,0],"split_type":[0,0,0,0,0,0,0,0,0,0,0,0,0,0,0,0,0,0,0,0,0,0,0,0,0,0,0,0,0,0,0,0,0,0,0,0,0,0,0,0,0,0,0,0,0,0,0,0,0,0,0,0,0,0,0,0,0,0,0,0,0,0,0,0,0,0,0,0,0,0,0,0,0,0,0,0,0,0,0,0,0,0,0,0,0,0,0,0,0,0,0,0,0,0,0,0,0,0,0,0,0,0,0,0,0,0,0,0,0,0,0,0,0,0,0,0,0,0,0,0,0,0,0,0,0,0,0],"sum_hessian":[1.16867E5,4.2274E4,7.4593E4,1.8385E4,2.3889E4,2.9208E4,4.5385E4,1.1772E4,6.613E3,1.3264E4,1.0625E4,2.151E4,7.698E3,1.2026E4,3.3359E4,9.528E3,2.244E3,9.35E2,5.678E3,4.544E3,8.72E3,7.759E3,2.866E3,1.7373E4,4.137E3,3.82E2,7.316E3,8.394E3,3.632E3,3.2222E4,1.137E3,7.041E3,2.487E3,3.06E2,1.938E3,9.2E2,1.5E1,4.77E2,5.201E3,2.276E3,2.268E3,3.212E3,5.508E3,2.167E3,5.592E3,2.445E3,4.21E2,3.671E3,1.3702E4,1.82E2,3.955E3,1.18E2,2.64E2,1.53E2,7.163E3,6.451E3,1.943E3,3.565E3,6.7E1,3.1408E4,8.14E2,1.7E2,9.67E2,6.689E3,3.52E2,1.055E3,1.432E3,2.84E2,2.2E1,1.929E3,9E0,8.65E2,5.5E1,7E0,8E0,4.34E2,4.3E1,5.178E3,2.3E1,2.116E3,1.6E2,2.257E3,1.1E1,2.1E1,3.191E3,3.791E3,1.717E3,1.727E3,4.4E2,6.7E1,5.525E3,1.477E3,9.68E2,6E1,3.61E2,5.09E2,3.162E3,1.3572E4,1.3E2,8.2E1,1E2,7.15E2,3.24E3,4.6E1,7.2E1,2.37E2,2.7E1,1.24E2,2.9E1,6.629E3,5.34E2,6.288E3,1.63E2,1.33E2,1.81E3,2.771E3,7.94E2,4.7E1,2E1,2.6788E4,4.62E3,6.96E2,1.18E2,3.8E1,1.32E2,9.45E2,2.2E1],"tree_param":{"num_deleted":"0","num_feature":"38","num_nodes":"127","size_leaf_vector":"0"}},{"base_weights":[2.6057285E-1,1.6429059E-1,3.1195566E-1,1.135357E-1,1.9350308E-1,2.7077714E-1,3.5725257E-1,8.664989E-2,1.5935028E-1,1.6957112E-1,2.2168858E-1,2.588406E-1,3.3776236E-1,3.779273E-1,3.257334E-1,1.9024739E-1,7.909806E-2,1.6108799E-1,-4.230992E-1,1.6301352E-1,2.7325413E-1,1.8822165E-1,2.5864294E-1,2.2997008E-1,2.795314E-1,3.4601757E-1,1.7274427E-1,3.181915E-1,3.9588365E-1,2.8589574E-1,3.4838355E-1,1.8186934E-1,6.502435E-1,3.9072223E-2,1.0896191E-1,1.5573831E-1,3.3312213E-1,-1.1756493E-1,-4.705255E-1,1.5741162E-1,2.5455475E-1,2.9631156E-1,2.6900942E-2,-1.4666387E-1,1.9260217E-1,2.4022716E-1,3.9322504E-1,1.8884946E-1,2.440212E-1,3.5266656E-1,2.7255493E-1,3.2324195E-1,4.0992215E-1,7.553198E-2,4.8930472E-1,3.260015E-1,1.0809148E-1,3.7855193E-1,4.5912609E-1,2.0797212E-1,3.1742594E-1,3.2597706E-1,3.9805543E-1,1.9203086E-1,-9.746243E-2,2.0987074E-1,7.7108514E-1,1.889662E-2,1.5347816E-1,1.276801E-1,3.9734177E-2,1.6726348E-1,-1.791287E-3,7.8232976E-4,4.170298E-1,8.025135E-2,1.651724E-1,-9.981725E-2,2.7912354E-1,2.1729231E-1,4.184373E-1,2.500361E-1,-2.7226081E-1,1.9666213E-1,-2.0668659E-1,5.4001045E-1,1.8836878E-1,2.117975E-1,2.9499143E-1,-4.309824E-2,4.068932E-1,1.6850184E-1,2.4232593E-1,9.7709864E-2,2.5075024E-1,3.1621996E-1,5.657633E-1,2.7459285E-1,2.5053184E-2,2.9391325E-1,3.8172296E-1,3.280365E-1,4.7556657E-1,3.1236824E-1,-6.432049E-2,5.867601E-1,-1.8780616E-1,3.3333704E-1,1.1285605E-1,1.4807028E-1,-3.6628926E-1,3.7935734E-1,-3.3432588E-1,4.7077352E-1,1.9817777E-1,6.3585795E-2,2.4175684E-1,8.440879E-1,3.1303376E-1,3.2430676E-1,1.1180879E0,3.8035166E-1,7.039679E-1],"categories":[],"categories_nodes":[],"categories_segments":[],"categories_sizes":[],"default_left":[1,1,1,1,1,1,1,1,1,1,1,1,1,1,1,1,1,1,1,1,1,1,1,1,1,1,1,1,1,1,1,1,1,1,1,1,1,0,0,1,1,1,1,1,1,1,1,1,1,1,1,1,1,1,1,1,1,1,1,1,1,1,1,0,0,0,0,0,0,0,0,0,0,0,0,0,0,0,0,0,0,0,0,0,0,0,0,0,0,0,0,0,0,0,0,0,0,0,0,0,0,0,0,0,0,0,0,0,0,0,0,0,0,0,0,0,0,0,0,0,0,0,0],"id":9,"left_children":[1,3,5,7,9,11,13,15,17,19,21,23,25,27,29,31,33,35,37,39,41,43,45,47,49,51,53,55,57,59,61,63,65,67,69,71,73,-1,-1,75,77,79,81,83,85,87,89,91,93,95,97,99,101,103,105,107,109,111,113,115,117,119,121,-1,-1,-1,-1,-1,-1,-1,-1,-1,-1,-1,-1,-1,-1,-1,-1,-1,-1,-1,-1,-1,-1,-1,-1,-1,-1,-1,-1,-1,-1,-1,-1,-1,-1,-1,-1,-1,-1,-1,-1,-1,-1,-1,-1,-1,-1,-1,-1,-1,-1,-1,-1,-1,-1,-1,-1,-1,-1,-1,-1],"loss_changes":[5.751543E2,5.993518E1,1.4121143E2,1.8169357E1,1.7226868E1,3.1569336E1,2.3268066E1,7.2447357E0,5.607834E0,9.337982E0,1.4457947E1,1.9996338E1,8.034058E0,2.3109375E1,1.2700928E1,2.1731167E0,1.0370377E1,4.8895416E0,9.730601E-2,6.6033325E0,4.6334343E0,9.1297455E0,1.3663025E1,8.027771E0,9.811401E0,8.043701E0,8.797026E0,8.181152E0,1.8009277E1,1.2618408E1,9.878296E0,1.8044605E0,2.1792364E-1,8.561487E0,6.424282E0,9.620392E0,4.4891815E0,0E0,0E0,7.3363647E0,6.5939445E0,7.061882E0,4.939519E0,1.7208662E0,8.764313E0,7.525818E0,4.0613556E0,3.8110962E0,1.0259644E1,1.2873932E1,9.004517E0,7.0030212E0,7.7190704E0,7.45774E0,4.6593895E0,7.501709E0,3.5396407E0,7.74646E0,1.0715149E1,7.2756805E0,8.038635E0,7.6359253E0,1.4792328E1,0E0,0E0,0E0,0E0,0E0,0E0,0E0,0E0,0E0,0E0,0E0,0E0,0E0,0E0,0E0,0E0,0E0,0E0,0E0,0E0,0E0,0E0,0E0,0E0,0E0,0E0,0E0,0E0,0E0,0E0,0E0,0E0,0E0,0E0,0E0,0E0,0E0,0E0,0E0,0E0,0E0,0E0,0E0,0E0,0E0,0E0,0E0,0E0,0E0,0E0,0E0,0E0,0E0,0E0,0E0,0E0,0E0,0E0,0E0,0E0],"parents":[2147483647,0,0,1,1,2,2,3,3,4,4,5,5,6,6,7,7,8,8,9,9,10,10,11,11,12,12,13,13,14,14,15,15,16,16,17,17,18,18,19,19,20,20,21,21,22,22,23,23,24,24,25,25,26,26,27,27,28,28,29,29,30,30,31,31,32,32,33,33,34,34,35,35,36,36,39,39,40,40,41,41,42,42,43,43,44,44,45,45,46,46,47,47,48,48,49,49,50,50,51,51,52,52,53,53,54,54,55,55,56,56,57,57,58,58,59,59,60,60,61,61,62,62],"right_children":[2,4,6,8,10,12,14,16,18,20,22,24,26,28,30,32,34,36,38,40,42,44,46,48,50,52,54,56,58,60,62,64,66,68,70,72,74,-1,-1,76,78,80,82,84,86,88,90,92,94,96,98,100,102,104,106,108,110,112,114,116,118,120,122,-1,-1,-1,-1,-1,-1,-1,-1,-1,-1,-1,-1,-1,-1,-1,-1,-1,-1,-1,-1,-1,-1,-1,-1,-1,-1,-1,-1,-1,-1,-1,-1,-1,-1,-1,-1,-1,-1,-1,-1,-1,-1,-1,-1,-1,-1,-1,-1,-1,-1,-1,-1,-1,-1,-1,-1,-1,-1,-1,-1],"split_conditions":[3.3944445E0,6.570028E-1,9.734806E-1,2.975E0,3.1055555E0,3.9486842E0,8.858396E-1,9.5454544E-2,1.205E2,5.780455E-1,8.319597E-1,8.2212806E-1,3.1666666E-1,1.2121657E-2,1.45E0,1.5833333E0,2.5527778E0,5.779352E-1,6.156781E-1,1.2916667E0,3.4514105E-1,7.5825214E-1,7.75E-1,7.75E-1,4.6428573E-1,1.058258E-1,1.1500001E0,1.075E0,1.1939538E0,1.0647018E-1,8.95E1,2.5857143E0,5E-1,5.5E-1,1.05E0,4.84123E-1,5.1315792E-2,-4.702597E-3,-1.882102E-2,2.5527778E0,1.883446E-1,1.5611895E0,5E-1,3.8612837E-1,9.663866E-2,7.537026E-2,5.7500005E-1,3.6858554E0,5.477273E-1,7.9919356E-1,7.0000005E-1,5.75188E-1,4.95E1,5.427052E-1,5.25E-1,1.3245614E0,4.25E0,5.25E-1,2.6346407E0,1.9375E-1,1.0776772E-1,1.2083333E0,1.475E0,7.6812343E-3,-3.8984972E-3,8.394829E-3,3.0843405E-2,7.5586484E-4,6.139126E-3,5.1072035E-3,1.589367E-3,6.690539E-3,-7.165148E-5,3.129319E-5,1.6681192E-2,3.210054E-3,6.606896E-3,-3.9926902E-3,1.1164942E-2,8.691692E-3,1.673749E-2,1.0001443E-2,-1.0890433E-2,7.866485E-3,-8.267463E-3,2.1600418E-2,7.534751E-3,8.4719E-3,1.1799657E-2,-1.7239297E-3,1.6275728E-2,6.740073E-3,9.693037E-3,3.9083944E-3,1.003001E-2,1.2648798E-2,2.2630531E-2,1.0983714E-2,1.0021273E-3,1.1756529E-2,1.5268918E-2,1.312146E-2,1.9022662E-2,1.249473E-2,-2.5728196E-3,2.3470404E-2,-7.5122463E-3,1.3333481E-2,4.514242E-3,5.922811E-3,-1.465157E-2,1.5174293E-2,-1.3373035E-2,1.883094E-2,7.92711E-3,2.5434317E-3,9.670273E-3,3.3763517E-2,1.252135E-2,1.297227E-2,4.4723514E-2,1.5214066E-2,2.8158717E-2],"split_indices":[30,3,3,30,29,30,23,2,37,27,3,3,10,35,4,24,30,15,3,0,11,7,24,4,21,35,13,22,3,11,37,29,36,16,21,15,10,0,0,30,15,7,36,23,15,35,2,30,2,23,8,14,37,15,26,15,29,10,7,26,11,27,2,0,0,0,0,0,0,0,0,0,0,0,0,0,0,0,0,0,0,0,0,0,0,0,0,0,0,0,0,0,0,0,0,0,0,0,0,0,0,0,0,0,0,0,0,0,0,0,0,0,0,0,0,0,0,0,0,0,0,0,0],"split_type":[0,0,0,0,0,0,0,0,0,0,0,0,0,0,0,0,0,0,0,0,0,0,0,0,0,0,0,0,0,0,0,0,0,0,0,0,0,0,0,0,0,0,0,0,0,0,0,0,0,0,0,0,0,0,0,0,0,0,0,0,0,0,0,0,0,0,0,0,0,0,0,0,0,0,0,0,0,0,0,0,0,0,0,0,0,0,0,0,0,0,0,0,0,0,0,0,0,0,0,0,0,0,0,0,0,0,0,0,0,0,0,0,0,0,0,0,0,0,0,0,0,0,0],"sum_hessian":[1.16281E5,4.0465E4,7.5816E4,1.4786E4,2.5679E4,3.972E4,3.6096E4,9.322E3,5.464E3,1.3895E4,1.1784E4,3.372E4,6E3,2.1786E4,1.431E4,6.3E2,8.692E3,5.449E3,1.5E1,1.3073E4,8.22E2,6.19E3,5.594E3,1.4087E4,1.9633E4,5.712E3,2.88E2,5.043E3,1.6743E4,5.196E3,9.114E3,6.21E2,9E0,3.717E3,4.975E3,5.288E3,1.61E2,3E0,1.2E1,1.2324E4,7.49E2,7.51E2,7.1E1,7.9E1,6.111E3,4.925E3,6.69E2,3.595E3,1.0492E4,1.702E3,1.7931E4,4.219E3,1.493E3,2.22E2,6.6E1,4.861E3,1.82E2,1.3151E4,3.592E3,1.501E3,3.695E3,6.29E3,2.824E3,6E2,2.1E1,3E0,6E0,3.162E3,5.55E2,3.914E3,1.061E3,4.928E3,3.6E2,3.3E1,1.28E2,1.129E3,1.1195E4,4.8E1,7.01E2,4.59E2,2.92E2,4.1E1,3E1,1.1E1,6.8E1,7.1E1,6.04E3,3.248E3,1.677E3,2E1,6.49E2,2.61E3,9.85E2,4.63E2,1.0029E4,1.457E3,2.45E2,1.7784E4,1.47E2,2.817E3,1.402E3,6.69E2,8.24E2,8.2E1,1.4E2,5.8E1,8E0,4.698E3,1.63E2,1.69E2,1.3E1,1.3137E4,1.4E1,3.437E3,1.55E2,2.86E2,1.215E3,2.8E1,3.667E3,6.279E3,1.1E1,2.673E3,1.51E2],"tree_param":{"num_deleted":"0","num_feature":"38","num_nodes":"123","size_leaf_vector":"0"}},{"base_weights":[2.502398E-1,1.6072716E-1,3.0256316E-1,1.1552422E-1,1.9456075E-1,2.7151918E-1,3.4968567E-1,8.53932E-2,1.5385044E-1,1.7005724E-1,2.248187E-1,2.488304E-1,3.09198E-1,2.995232E-1,3.669615E-1,1.3049453E-1,7.253999E-2,1.3535191E-1,2.0121299E-1,2.2178966E-1,1.526922E-1,2.0625408E-1,2.678606E-1,3.1042022E-1,2.3864098E-1,1.7328115E-1,3.150851E-1,1.9601393E-1,3.1171823E-1,3.5969064E-1,5.2948964E-1,1.01570934E-1,2.1272211E-1,4.3770507E-2,1.02097794E-1,1.4858322E-1,4.5628045E-2,1.9785017E-1,9.6192E-1,3.1028378E-1,2.0385824E-1,-5.973039E-2,1.5797728E-1,1.9694237E-1,2.957692E-1,2.937943E-1,1.2529588E-1,2.3821421E-1,3.4320667E-1,2.3420914E-1,3.3028305E-1,1.5566254E-1,8.388332E-1,3.5571143E-1,2.9549038E-1,1.875815E-1,1.3394096E0,3.4195963E-1,2.7233085E-1,5.7623655E-1,3.5675934E-1,5.4718447E-1,-3.3232373E-1,1.1017295E-1,-2.519798E-1,2.4276309E-1,-1.0856642E-1,1.8851463E-2,9.542665E-2,1.0970856E-1,-9.411559E-2,8.273503E-2,1.6380255E-1,2.6174305E-2,7.023876E-1,2.0276903E-1,-1.17303625E-1,1.2179681E0,2.4921064E-1,2.73555E-1,6.9658333E-1,2.2965285E-1,1.285644E-1,-3.0339003E-1,1.8957164E-3,1.227386E-1,1.7865007E-1,1.9869204E-1,-2.5320894E-1,1.0245735E-1,3.4512776E-1,2.9695696E-1,-2.61341E-1,6.327429E-1,1.0152837E-1,1.9754155E-1,3.932747E-1,3.6344764E-1,1.2237518E-1,2.5289515E-1,2.1532811E-1,6.272516E-1,3.1417146E-1,3.0985177E-2,2.1242078E-1,6.2422153E-2,1.3379993E0,4.038286E-1,3.0549783E-1,2.3922746E-1,3.1798276E-1,1.5771277E-1,4.3716666E-1,3.5588577E-1,1.346237E-1,2.5380442E-1,4.3021944E-1,1.1729938E0,5.2478284E-1,3.5254785E-1,5.0251037E-1,7.4328136E-1,4.8812002E-1,-4.2866346E-1,-2.5337342E-2],"categories":[],"categories_nodes":[],"categories_segments":[],"categories_sizes":[],"default_left":[1,1,1,1,1,1,1,1,1,1,1,1,1,1,1,1,1,1,1,1,1,1,1,1,1,1,1,1,1,1,1,1,1,1,1,1,1,1,1,1,1,1,1,1,1,1,1,1,1,1,1,1,1,1,1,1,0,1,1,1,1,1,1,0,0,0,0,0,0,0,0,0,0,0,0,0,0,0,0,0,0,0,0,0,0,0,0,0,0,0,0,0,0,0,0,0,0,0,0,0,0,0,0,0,0,0,0,0,0,0,0,0,0,0,0,0,0,0,0,0,0,0,0,0,0],"id":10,"left_children":[1,3,5,7,9,11,13,15,17,19,21,23,25,27,29,31,33,35,37,39,41,43,45,47,49,51,53,55,57,59,61,63,65,67,69,71,73,75,77,79,81,83,85,87,89,91,93,95,97,99,101,103,105,107,109,111,-1,113,115,117,119,121,123,-1,-1,-1,-1,-1,-1,-1,-1,-1,-1,-1,-1,-1,-1,-1,-1,-1,-1,-1,-1,-1,-1,-1,-1,-1,-1,-1,-1,-1,-1,-1,-1,-1,-1,-1,-1,-1,-1,-1,-1,-1,-1,-1,-1,-1,-1,-1,-1,-1,-1,-1,-1,-1,-1,-1,-1,-1,-1,-1,-1,-1,-1],"loss_changes":[5.47167E2,6.586755E1,1.0767139E2,2.1273575E1,1.8181274E1,3.7840088E1,2.5142822E1,5.9592667E0,7.041046E0,1.2155609E1,8.678955E0,1.7256104E1,1.3234741E1,9.338074E0,2.5353271E1,5.381321E0,6.8254013E0,6.9111633E0,5.422081E0,5.281418E0,1.14869995E1,6.290344E0,1.21610565E1,9.1336975E0,9.505371E0,7.883644E0,1.2520264E1,7.1499577E0,7.7979736E0,1.282959E1,1.4453522E1,5.1899834E0,5.781311E0,5.243531E0,5.943344E0,5.05954E0,9.539383E0,3.560852E0,1.1316214E0,7.7399597E0,5.454109E0,3.7624376E0,7.195221E0,5.575012E0,6.795994E0,5.042053E0,6.023408E0,7.610031E0,1.1959961E1,7.8928223E0,4.8470383E0,4.7883987E0,6.516944E0,1.2306702E1,1.3509399E1,5.745016E0,0E0,1.0826599E1,8.325226E0,7.3662033E0,1.2275635E1,9.878387E0,5.1502013E-1,0E0,0E0,0E0,0E0,0E0,0E0,0E0,0E0,0E0,0E0,0E0,0E0,0E0,0E0,0E0,0E0,0E0,0E0,0E0,0E0,0E0,0E0,0E0,0E0,0E0,0E0,0E0,0E0,0E0,0E0,0E0,0E0,0E0,0E0,0E0,0E0,0E0,0E0,0E0,0E0,0E0,0E0,0E0,0E0,0E0,0E0,0E0,0E0,0E0,0E0,0E0,0E0,0E0,0E0,0E0,0E0,0E0,0E0,0E0,0E0,0E0,0E0],"parents":[2147483647,0,0,1,1,2,2,3,3,4,4,5,5,6,6,7,7,8,8,9,9,10,10,11,11,12,12,13,13,14,14,15,15,16,16,17,17,18,18,19,19,20,20,21,21,22,22,23,23,24,24,25,25,26,26,27,27,28,28,29,29,30,30,31,31,32,32,33,33,34,34,35,35,36,36,37,37,38,38,39,39,40,40,41,41,42,42,43,43,44,44,45,45,46,46,47,47,48,48,49,49,50,50,51,51,52,52,53,53,54,54,55,55,57,57,58,58,59,59,60,60,61,61,62,62],"right_children":[2,4,6,8,10,12,14,16,18,20,22,24,26,28,30,32,34,36,38,40,42,44,46,48,50,52,54,56,58,60,62,64,66,68,70,72,74,76,78,80,82,84,86,88,90,92,94,96,98,100,102,104,106,108,110,112,-1,114,116,118,120,122,124,-1,-1,-1,-1,-1,-1,-1,-1,-1,-1,-1,-1,-1,-1,-1,-1,-1,-1,-1,-1,-1,-1,-1,-1,-1,-1,-1,-1,-1,-1,-1,-1,-1,-1,-1,-1,-1,-1,-1,-1,-1,-1,-1,-1,-1,-1,-1,-1,-1,-1,-1,-1,-1,-1,-1,-1,-1,-1,-1,-1,-1,-1],"split_conditions":[3.414994E0,3.025E0,1.003125E0,6.611537E-1,8.153409E-1,3.7360556E0,3.45E1,5.358975E-1,3.1E0,6.596841E-1,3.315587E0,6.58435E-1,3.44375E0,9.2499995E-1,1.3054094E0,3.109101E-1,2.709269E0,9.55E1,1.4722222E0,2.0526317E-1,2.7637088E0,7.75E-1,6.20204E-1,8.506605E-1,1.175E0,8.2500005E-1,8.208556E-1,6.5E-1,8.4924245E-1,1.6194597E-2,3.597753E-1,1.0347853E0,6.488857E-1,5.277778E-1,1.145E2,2.644949E0,1.345E2,2.025E0,4.5E-1,4.25E-1,1.2343051E0,7.75E-1,3.1E0,3.3141196E0,9E-1,2.3452382E0,2.6999998E0,4.5E-1,1.235E2,5E-1,1.2919004E0,2.1637428E-1,8.845209E-1,5E-1,2.85E1,5.7500005E-1,5.3576384E-2,1.1633333E0,2.5833333E-1,1.075E0,4.2035465E0,3.875E0,3.5E0,4.406918E-3,-1.0079192E-2,9.710523E-3,-4.3426566E-3,7.540585E-4,3.8170659E-3,4.3883426E-3,-3.7646235E-3,3.3094012E-3,6.552102E-3,1.0469722E-3,2.8095502E-2,8.110761E-3,-4.6921447E-3,4.8718724E-2,9.968425E-3,1.09422E-2,2.7863333E-2,9.186114E-3,5.142576E-3,-1.2135601E-2,7.5828655E-5,4.909544E-3,7.1460023E-3,7.9476815E-3,-1.0128357E-2,4.098294E-3,1.380511E-2,1.1878278E-2,-1.045364E-2,2.5309715E-2,4.0611345E-3,7.901662E-3,1.5730988E-2,1.4537905E-2,4.8950072E-3,1.0115806E-2,8.6131245E-3,2.5090065E-2,1.2566858E-2,1.239407E-3,8.496831E-3,2.496886E-3,5.351997E-2,1.6153144E-2,1.2219912E-2,9.569098E-3,1.271931E-2,6.308511E-3,1.7486665E-2,1.423543E-2,5.384948E-3,1.0152176E-2,1.7208777E-2,4.6919752E-2,2.0991312E-2,1.4101914E-2,2.0100415E-2,2.9731253E-2,1.95248E-2,-1.7146539E-2,-1.0134936E-3],"split_indices":[31,30,3,3,2,31,37,22,28,23,31,23,30,2,3,19,31,37,23,18,31,24,15,3,2,26,22,33,23,11,11,7,3,1,37,31,37,6,19,26,7,22,28,31,4,7,28,24,37,36,7,26,3,36,37,26,0,15,34,6,31,30,4,0,0,0,0,0,0,0,0,0,0,0,0,0,0,0,0,0,0,0,0,0,0,0,0,0,0,0,0,0,0,0,0,0,0,0,0,0,0,0,0,0,0,0,0,0,0,0,0,0,0,0,0,0,0,0,0,0,0,0,0,0,0],"split_type":[0,0,0,0,0,0,0,0,0,0,0,0,0,0,0,0,0,0,0,0,0,0,0,0,0,0,0,0,0,0,0,0,0,0,0,0,0,0,0,0,0,0,0,0,0,0,0,0,0,0,0,0,0,0,0,0,0,0,0,0,0,0,0,0,0,0,0,0,0,0,0,0,0,0,0,0,0,0,0,0,0,0,0,0,0,0,0,0,0,0,0,0,0,0,0,0,0,0,0,0,0,0,0,0,0,0,0,0,0,0,0,0,0,0,0,0,0,0,0,0,0,0,0,0,0],"sum_hessian":[1.1685E5,4.3109E4,7.3741E4,1.8458E4,2.4651E4,4.4462E4,2.9279E4,1.0338E4,8.12E3,1.3628E4,1.1023E4,2.776E4,1.6702E4,7.509E3,2.177E4,2.288E3,8.05E3,5.845E3,2.275E3,3.419E3,1.0209E4,7.709E3,3.314E3,3.933E3,2.3827E4,6.96E2,1.6006E4,7.95E2,6.714E3,2.0843E4,9.27E2,1.696E3,5.92E2,4.083E3,3.967E3,5.092E3,7.53E2,2.267E3,8E0,5.71E2,2.848E3,2.47E2,9.962E3,6.988E3,7.21E2,2.802E3,5.12E2,1.233E3,2.7E3,2.2734E4,1.093E3,6.8E2,1.6E1,5.198E3,1.0808E4,7.91E2,4E0,3.79E3,2.924E3,2.74E2,2.0569E4,9.09E2,1.8E1,1.657E3,3.9E1,5.42E2,5E1,2.757E3,1.326E3,3.82E3,1.47E2,9.59E2,4.133E3,7.33E2,2E1,2.233E3,3.4E1,5E0,3E0,5.24E2,4.7E1,2.118E3,7.3E2,4.9E1,1.98E2,3.689E3,6.273E3,6.962E3,2.6E1,1.48E2,5.73E2,2.787E3,1.5E1,2.1E1,4.91E2,9.8E2,2.53E2,2.472E3,2.28E2,1.1414E4,1.132E4,5.3E1,1.04E3,2.14E2,4.66E2,7E0,9E0,2.648E3,2.55E3,3.093E3,7.715E3,7.09E2,8.2E1,3.55E3,2.4E2,2.621E3,3.03E2,1.9E1,2.55E2,1.9997E4,5.72E2,2.06E2,7.03E2,1.3E1,5E0],"tree_param":{"num_deleted":"0","num_feature":"38","num_nodes":"125","size_leaf_vector":"0"}},{"base_weights":[2.4066424E-1,1.6198067E-1,2.9554254E-1,1.0525013E-1,1.9079451E-1,2.4642985E-1,3.213163E-1,7.618788E-2,1.4451523E-1,1.4945832E-1,2.036375E-1,2.2303936E-1,2.7527645E-1,3.0299598E-1,3.5482174E-1,6.5056875E-2,1.3517237E-1,1.4311643E-1,9.5217717E-1,1.232145E-1,1.8804103E-1,2.2589685E-1,1.7386688E-1,2.2702256E-1,-1.6126204E-2,2.841873E-1,1.4293142E-1,3.38165E-1,2.879738E-1,2.9363418E-1,3.7788793E-1,3.3392552E-2,9.414115E-2,1.9943742E-1,3.9481632E-2,7.482717E-2,1.548572E-1,1.5435153E0,3.1476036E-1,1.6961458E-1,8.906621E-2,7.21286E-2,2.0473607E-1,2.0489737E-1,2.608816E-1,1.725377E-1,7.219299E-1,1.965358E-1,2.4935167E-1,-5.9081662E-2,4.1504776E-1,1.0783199E-1,2.9065993E-1,8.977468E-2,3.773313E-1,3.4096694E-1,7.005012E-2,2.4514781E-1,2.9999548E-1,1.4928874E-1,3.058408E-1,3.6618823E-1,4.7299266E-1,1.5309826E-1,1.0633334E-2,9.890958E-2,-2.232663E-1,1.4211921E-1,3.27537E-1,8.311433E-2,-1.1738228E-1,2.3681775E-1,2.104796E-2,9.0105094E-2,1.6802955E-1,2.2671532E-2,4.7970682E-1,2.0211206E-1,8.049818E-2,1.6800787E-1,6.548579E-2,4.8100807E-2,8.427634E-1,2.1542764E-1,3.3917984E-3,2.0357175E-1,7.732983E-1,6.9562304E-1,2.5712106E-1,1.9635244E-1,1.499421E-1,1.2336961E0,-8.809667E-3,2.3355427E-1,1.5107308E-1,3.5719174E-1,2.3753834E-1,4.6107122E-1,-9.104505E-2,-0E0,7.64764E-1,4.652737E-2,3.398974E-1,2.8360003E-1,4.380089E-1,2.5463896E-2,3.020513E-1,4.4038272E-1,-1.7794509E-1,3.270576E-1,4.019148E-1,-1.5791763E-1,4.6306482E-1,5.244692E-3,2.5764412E-1,1.4820746E-1,3.0403426E-1,1.2730296E-1,6.667953E-1,3.310256E-1,2.3292015E-1,9.268235E-1,3.6385986E-1,4.6029726E-1,1.3830137E0],"categories":[],"categories_nodes":[],"categories_segments":[],"categories_sizes":[],"default_left":[1,1,1,1,1,1,1,1,1,1,1,1,1,1,1,1,1,1,1,1,1,1,1,1,1,1,1,1,1,1,1,1,1,1,1,1,1,0,1,1,1,1,1,1,1,1,1,1,1,1,1,1,1,1,1,1,1,1,1,1,1,1,1,0,0,0,0,0,0,0,0,0,0,0,0,0,0,0,0,0,0,0,0,0,0,0,0,0,0,0,0,0,0,0,0,0,0,0,0,0,0,0,0,0,0,0,0,0,0,0,0,0,0,0,0,0,0,0,0,0,0,0,0,0,0],"id":11,"left_children":[1,3,5,7,9,11,13,15,17,19,21,23,25,27,29,31,33,35,37,39,41,43,45,47,49,51,53,55,57,59,61,63,65,67,69,71,73,-1,75,77,79,81,83,85,87,89,91,93,95,97,99,101,103,105,107,109,111,113,115,117,119,121,123,-1,-1,-1,-1,-1,-1,-1,-1,-1,-1,-1,-1,-1,-1,-1,-1,-1,-1,-1,-1,-1,-1,-1,-1,-1,-1,-1,-1,-1,-1,-1,-1,-1,-1,-1,-1,-1,-1,-1,-1,-1,-1,-1,-1,-1,-1,-1,-1,-1,-1,-1,-1,-1,-1,-1,-1,-1,-1,-1,-1,-1,-1],"loss_changes":[5.043462E2,7.841284E1,8.694141E1,1.8418655E1,1.6818848E1,1.5845459E1,2.747461E1,6.0724335E0,7.4548645E0,7.5824738E0,1.5991821E1,1.2500977E1,1.2398743E1,1.5212158E1,2.226709E1,7.191139E0,9.025686E0,5.4649963E0,3.4200983E0,7.08403E0,5.8591766E0,1.0075195E1,7.297394E0,8.6501465E0,3.9925208E0,1.1248657E1,8.281783E0,6.4779663E0,1.0371216E1,7.5901794E0,1.253186E1,1.0201802E1,6.192127E0,6.3482285E0,4.0802007E0,8.778648E0,4.9467163E0,0E0,2.9479134E-1,5.4657707E0,4.795334E0,7.0253124E0,5.7193146E0,6.211334E0,8.140198E0,5.5032654E0,9.301003E0,9.088318E0,9.275513E0,3.3095698E0,2.7819107E0,4.980994E0,9.704651E0,7.47096E0,4.467642E0,7.0498657E0,8.4277115E0,1.3448761E1,9.677612E0,3.7129097E0,7.228119E0,1.2825195E1,1.3434998E1,0E0,0E0,0E0,0E0,0E0,0E0,0E0,0E0,0E0,0E0,0E0,0E0,0E0,0E0,0E0,0E0,0E0,0E0,0E0,0E0,0E0,0E0,0E0,0E0,0E0,0E0,0E0,0E0,0E0,0E0,0E0,0E0,0E0,0E0,0E0,0E0,0E0,0E0,0E0,0E0,0E0,0E0,0E0,0E0,0E0,0E0,0E0,0E0,0E0,0E0,0E0,0E0,0E0,0E0,0E0,0E0,0E0,0E0,0E0,0E0,0E0,0E0],"parents":[2147483647,0,0,1,1,2,2,3,3,4,4,5,5,6,6,7,7,8,8,9,9,10,10,11,11,12,12,13,13,14,14,15,15,16,16,17,17,18,18,19,19,20,20,21,21,22,22,23,23,24,24,25,25,26,26,27,27,28,28,29,29,30,30,31,31,32,32,33,33,34,34,35,35,36,36,38,38,39,39,40,40,41,41,42,42,43,43,44,44,45,45,46,46,47,47,48,48,49,49,50,50,51,51,52,52,53,53,54,54,55,55,56,56,57,57,58,58,59,59,60,60,61,61,62,62],"right_children":[2,4,6,8,10,12,14,16,18,20,22,24,26,28,30,32,34,36,38,40,42,44,46,48,50,52,54,56,58,60,62,64,66,68,70,72,74,-1,76,78,80,82,84,86,88,90,92,94,96,98,100,102,104,106,108,110,112,114,116,118,120,122,124,-1,-1,-1,-1,-1,-1,-1,-1,-1,-1,-1,-1,-1,-1,-1,-1,-1,-1,-1,-1,-1,-1,-1,-1,-1,-1,-1,-1,-1,-1,-1,-1,-1,-1,-1,-1,-1,-1,-1,-1,-1,-1,-1,-1,-1,-1,-1,-1,-1,-1,-1,-1,-1,-1,-1,-1,-1,-1,-1,-1,-1,-1],"split_conditions":[3.475669E0,2.975E0,9.1950166E-1,6.5640783E-1,7.75E-1,3.6709695E0,3.8975368E0,5.5E-1,1.4807692E0,7.422278E-1,8.9736843E-1,3.3000002E0,1.8558125E0,6.583333E-1,2.85E1,2.5941176E0,8.4063494E-1,5E-1,7.2339904E-1,8.2392687E-1,1.5811403E-1,3.315587E0,1.445E2,1.1E0,9.0521115E-1,1.21323526E-1,1.4142857E0,4.1428572E-1,3.65E1,7.5E-1,4.6069795E-1,5E-2,3.2511683E0,3.0283093E-1,4.3650794E-1,5.929065E-1,2.6454973E0,6.174061E-2,8.522128E-1,1.0954546E0,2.9340577E-1,2.25E-1,3.4644263E0,5.7500005E-1,2.1111111E-1,4.05E1,9.5E-1,9.916316E-1,5.6258902E-2,6.5419006E-1,7.8136444E-1,1E-1,4.082207E0,8.218254E-1,5.281579E-1,1.8662694E-1,1.4142857E0,6.125E-1,3.15E0,1.55E0,1.0871212E0,2.323505E-1,1.175E0,6.12393E-3,4.2533333E-4,3.956383E-3,-8.930652E-3,5.6847683E-3,1.310148E-2,3.3245732E-3,-4.695291E-3,9.47271E-3,8.4191834E-4,3.6042037E-3,6.721182E-3,9.0686127E-4,1.9188272E-2,8.0844825E-3,3.2199272E-3,6.7203143E-3,2.6194316E-3,1.9240322E-3,3.3710536E-2,8.617105E-3,1.3567193E-4,8.14287E-3,3.0931933E-2,2.7824922E-2,1.0284842E-2,7.8540975E-3,5.997684E-3,4.9347844E-2,-3.5238668E-4,9.34217E-3,6.0429233E-3,1.4287669E-2,9.501534E-3,1.8442849E-2,-3.641802E-3,-0E0,3.059056E-2,1.8610948E-3,1.3595896E-2,1.1344001E-2,1.7520355E-2,1.0185558E-3,1.2082052E-2,1.7615309E-2,-7.1178037E-3,1.3082304E-2,1.6076593E-2,-6.316705E-3,1.8522592E-2,2.0978767E-4,1.0305764E-2,5.928298E-3,1.216137E-2,5.0921184E-3,2.6671812E-2,1.3241024E-2,9.316806E-3,3.7072938E-2,1.4554394E-2,1.841189E-2,5.5320546E-2],"split_indices":[31,30,3,3,4,31,31,16,22,3,22,4,7,22,37,30,23,4,3,7,27,31,37,4,3,14,22,10,37,1,27,1,31,27,26,23,31,0,3,22,19,34,31,34,22,37,1,23,11,23,23,32,31,15,27,11,1,1,29,5,22,15,14,0,0,0,0,0,0,0,0,0,0,0,0,0,0,0,0,0,0,0,0,0,0,0,0,0,0,0,0,0,0,0,0,0,0,0,0,0,0,0,0,0,0,0,0,0,0,0,0,0,0,0,0,0,0,0,0,0,0,0,0,0,0],"split_type":[0,0,0,0,0,0,0,0,0,0,0,0,0,0,0,0,0,0,0,0,0,0,0,0,0,0,0,0,0,0,0,0,0,0,0,0,0,0,0,0,0,0,0,0,0,0,0,0,0,0,0,0,0,0,0,0,0,0,0,0,0,0,0,0,0,0,0,0,0,0,0,0,0,0,0,0,0,0,0,0,0,0,0,0,0,0,0,0,0,0,0,0,0,0,0,0,0,0,0,0,0,0,0,0,0,0,0,0,0,0,0,0,0,0,0,0,0,0,0,0,0,0,0,0,0],"sum_hessian":[1.16826E5,4.8005E4,6.8821E4,1.6173E4,3.1832E4,2.3693E4,4.5128E4,9.298E3,6.875E3,7.552E3,2.428E4,1.3093E4,1.06E4,2.9187E4,1.5941E4,7.826E3,1.472E3,6.865E3,1E1,4.5E3,3.052E3,1.3885E4,1.0395E4,1.2879E4,2.14E2,9.929E3,6.71E2,8.724E3,2.0463E4,4.371E3,1.157E4,3.75E3,4.076E3,8.79E2,5.93E2,1.01E3,5.855E3,4E0,6E0,1.904E3,2.596E3,3.86E2,2.666E3,8.685E3,5.2E3,1.0372E4,2.3E1,5.453E3,7.426E3,1.96E2,1.8E1,3.53E2,9.576E3,5.49E2,1.22E2,8.633E3,9.1E1,4.494E3,1.5969E4,3.43E2,4.028E3,1.031E4,1.26E3,5.97E2,3.153E3,4.017E3,5.9E1,6.1E2,2.69E2,4.65E2,1.28E2,2.5E2,7.6E2,9.93E2,4.862E3,3E0,3E0,1.393E3,5.11E2,5.94E2,2.002E3,3.76E2,1E1,2.531E3,1.35E2,8.667E3,1.8E1,4.2E1,5.158E3,5.042E3,5.33E3,1.3E1,1E1,3.001E3,2.452E3,7.28E2,6.698E3,1E1,1.86E2,9E0,9E0,2.81E2,7.2E1,9.143E3,4.33E2,4.23E2,1.26E2,1.1E2,1.2E1,7.038E3,1.595E3,5.8E1,3.3E1,2.23E2,4.271E3,4.16E2,1.5553E4,3.31E2,1.2E1,2.989E3,1.039E3,4E1,1.027E4,1.245E3,1.5E1],"tree_param":{"num_deleted":"0","num_feature":"38","num_nodes":"125","size_leaf_vector":"0"}},{"base_weights":[2.3082143E-1,1.4154455E-1,2.7425086E-1,8.8084824E-2,1.6353212E-1,2.371955E-1,3.1589937E-1,7.015399E-2,1.371202E-1,1.2177752E-1,1.7872874E-1,2.1723247E-1,2.758365E-1,2.875422E-1,3.4029716E-1,1.0496116E-1,4.9233526E-2,1.3145207E-1,5.30963E-1,2.4440573E-1,1.14730634E-1,1.7335175E-1,2.4590355E-1,2.0186426E-1,2.5623208E-1,2.8300178E-1,1.6613178E-1,3.146179E-1,2.6186973E-1,3.536031E-1,2.9352826E-1,8.62257E-2,1.9442105E-1,3.4230348E-2,1.1996012E-1,1.3542745E-1,-2.508283E-1,8.769009E-1,-1.29147675E-2,7.373156E-2,3.122869E-1,9.4999924E-2,1.5851809E-1,2.2051173E-1,1.6417415E-1,1.577722E-1,2.973188E-1,2.2134927E-1,1.7807025E-1,3.5666797E-1,2.4655722E-1,2.3493281E-1,2.9592252E-1,3.7045133E-1,1.1604541E-1,2.552968E-1,3.3804595E-1,8.4338325E-1,2.5932133E-1,2.9091918E-1,3.616839E-1,3.8818735E-1,2.6866293E-1,9.2265226E-2,-7.5313754E-2,2.2235371E-1,-6.275123E-2,3.2777105E-2,6.610147E-1,1.1071195E-1,8.037063E-1,1.9223267E-1,1.1331613E-1,-3.8374776E-1,4.3982762E-1,4.6474162E-1,1.2417775E0,4.349438E-1,-3.8314578E-1,-1.4741106E-1,1.570297E-1,4.107996E-1,1.2499269E-1,1.3498169E-1,6.174406E-2,1.6739243E-1,-6.524882E-2,2.0328204E-1,3.2581344E-1,1.6247636E-1,3.8367108E-1,1.3156527E-1,6.7847174E-1,2.8541344E-1,7.7167135E-1,1.1107645E-1,2.2730808E-1,1.65174E-1,2.3653783E-1,7.3482734E-1,3.3537382E-1,2.3510614E-1,3.1508687E-1,2.4780774E-1,-2.624053E-2,3.055047E-1,2.0889452E-1,-2.9265088E-1,4.0213752E-1,5.006236E-1,9.277241E-2,2.7461174E-1,3.634376E-2,7.0609516E-1,3.3391213E-1,1.8708235E-1,1.0372809E0,1.8658361E-1,2.7326503E-1,3.1800285E-1,1.0631296E-1,3.6288208E-1,-2.3908133E-2,3.6003688E-1,7.2042894E-1,1.362858E-1,2.8630036E-1],"categories":[],"categories_nodes":[],"categories_segments":[],"categories_sizes":[],"default_left":[1,1,1,1,1,1,1,1,1,1,1,1,1,1,1,1,1,1,1,1,1,1,1,1,1,1,1,1,1,1,1,1,1,1,1,1,1,1,1,1,1,1,1,1,1,1,1,1,1,1,1,1,1,1,1,1,1,1,1,1,1,1,1,0,0,0,0,0,0,0,0,0,0,0,0,0,0,0,0,0,0,0,0,0,0,0,0,0,0,0,0,0,0,0,0,0,0,0,0,0,0,0,0,0,0,0,0,0,0,0,0,0,0,0,0,0,0,0,0,0,0,0,0,0,0,0,0],"id":12,"left_children":[1,3,5,7,9,11,13,15,17,19,21,23,25,27,29,31,33,35,37,39,41,43,45,47,49,51,53,55,57,59,61,63,65,67,69,71,73,75,77,79,81,83,85,87,89,91,93,95,97,99,101,103,105,107,109,111,113,115,117,119,121,123,125,-1,-1,-1,-1,-1,-1,-1,-1,-1,-1,-1,-1,-1,-1,-1,-1,-1,-1,-1,-1,-1,-1,-1,-1,-1,-1,-1,-1,-1,-1,-1,-1,-1,-1,-1,-1,-1,-1,-1,-1,-1,-1,-1,-1,-1,-1,-1,-1,-1,-1,-1,-1,-1,-1,-1,-1,-1,-1,-1,-1,-1,-1,-1,-1],"loss_changes":[4.5220166E2,4.483246E1,1.20944824E2,9.752167E0,1.7101624E1,3.1901123E1,2.5349121E1,5.915516E0,6.47591E0,6.1650467E0,7.055786E0,1.6296143E1,1.1000732E1,1.1702515E1,1.2130859E1,5.0730553E0,5.388562E0,4.5035477E0,7.9115257E0,4.451025E0,5.857643E0,7.855652E0,6.5202026E0,9.016113E0,7.3253784E0,8.085327E0,8.805473E0,1.1362366E1,1.2582581E1,7.599121E0,1.0149628E1,2.4828777E0,3.826191E0,3.7324266E0,5.406081E0,3.589962E0,3.0475152E0,2.798565E0,3.146485E0,2.1264412E0,5.007963E0,6.240349E0,4.235466E0,5.264389E0,5.5835876E0,7.201665E0,4.7735825E0,7.0252075E0,6.5828857E0,4.962845E0,5.3760986E0,9.516083E0,8.569397E0,3.7698822E0,6.1585712E0,9.9366455E0,8.598755E0,4.358549E0,8.752563E0,8.769028E0,6.3634033E0,8.037262E0,8.060455E0,0E0,0E0,0E0,0E0,0E0,0E0,0E0,0E0,0E0,0E0,0E0,0E0,0E0,0E0,0E0,0E0,0E0,0E0,0E0,0E0,0E0,0E0,0E0,0E0,0E0,0E0,0E0,0E0,0E0,0E0,0E0,0E0,0E0,0E0,0E0,0E0,0E0,0E0,0E0,0E0,0E0,0E0,0E0,0E0,0E0,0E0,0E0,0E0,0E0,0E0,0E0,0E0,0E0,0E0,0E0,0E0,0E0,0E0,0E0,0E0,0E0,0E0,0E0,0E0],"parents":[2147483647,0,0,1,1,2,2,3,3,4,4,5,5,6,6,7,7,8,8,9,9,10,10,11,11,12,12,13,13,14,14,15,15,16,16,17,17,18,18,19,19,20,20,21,21,22,22,23,23,24,24,25,25,26,26,27,27,28,28,29,29,30,30,31,31,32,32,33,33,34,34,35,35,36,36,37,37,38,38,39,39,40,40,41,41,42,42,43,43,44,44,45,45,46,46,47,47,48,48,49,49,50,50,51,51,52,52,53,53,54,54,55,55,56,56,57,57,58,58,59,59,60,60,61,61,62,62],"right_children":[2,4,6,8,10,12,14,16,18,20,22,24,26,28,30,32,34,36,38,40,42,44,46,48,50,52,54,56,58,60,62,64,66,68,70,72,74,76,78,80,82,84,86,88,90,92,94,96,98,100,102,104,106,108,110,112,114,116,118,120,122,124,126,-1,-1,-1,-1,-1,-1,-1,-1,-1,-1,-1,-1,-1,-1,-1,-1,-1,-1,-1,-1,-1,-1,-1,-1,-1,-1,-1,-1,-1,-1,-1,-1,-1,-1,-1,-1,-1,-1,-1,-1,-1,-1,-1,-1,-1,-1,-1,-1,-1,-1,-1,-1,-1,-1,-1,-1,-1,-1,-1,-1,-1,-1,-1,-1],"split_conditions":[3.3451855E0,2.8377192E0,9.757081E-1,6.930821E-1,7.75E-1,3.7125719E0,3.8441296E0,6.2828946E-1,8.75E-1,1.3809524E-1,3.6464286E0,9.486842E-1,2.55515E-1,7.9473686E-1,1.0871212E0,3.541667E-1,1.1833334E0,1.275E2,2.916667E-1,2.5E-2,7.403589E-1,5.358975E-1,4.25E-1,9.75E-1,3E-1,7.064766E-2,1.6326923E0,1.0929288E-2,9.762842E-1,4.4042158E-1,1.05E0,9.25E1,6.35E1,1.5E0,1.55E0,7.3574066E-1,1.3620247E-1,2.3666668E0,5E-1,8.1666666E-1,9.439203E-1,1.2739371E-2,1.235E2,4.522727E-1,1.275E0,7.638889E-1,3.75E-1,2.3013872E-1,5.147059E-1,3.3602324E0,3.9250002E0,7.3214287E-1,7.9285717E-1,1E-1,1E-1,7.7221226E-3,1.7500001E-1,3.5807517E0,1.2613636E0,1.5208694E-1,1.565E2,2.525E0,3.0625E-1,3.690609E-3,-3.01255E-3,8.894148E-3,-2.5100494E-3,1.3110841E-3,2.6440587E-2,4.428478E-3,3.214825E-2,7.6893065E-3,4.5326455E-3,-1.534991E-2,1.7593104E-2,1.8589664E-2,4.9671102E-2,1.7397752E-2,-1.5325831E-2,-5.8964426E-3,6.2811878E-3,1.6431984E-2,4.9997075E-3,5.3992677E-3,2.4697625E-3,6.695697E-3,-2.6099526E-3,8.1312815E-3,1.3032537E-2,6.4990544E-3,1.5346843E-2,5.262611E-3,2.7138868E-2,1.1416538E-2,3.0866854E-2,4.443058E-3,9.092323E-3,6.60696E-3,9.461513E-3,2.9393094E-2,1.3414953E-2,9.404246E-3,1.2603475E-2,9.912309E-3,-1.0496211E-3,1.2220188E-2,8.3557805E-3,-1.1706035E-2,1.60855E-2,2.0024942E-2,3.7108962E-3,1.0984469E-2,1.4537504E-3,2.8243806E-2,1.3356485E-2,7.483294E-3,4.1491237E-2,7.4633444E-3,1.09306015E-2,1.2720114E-2,4.2525185E-3,1.4515283E-2,-9.5632527E-4,1.4401475E-2,2.8817156E-2,5.451432E-3,1.1452015E-2],"split_indices":[31,30,3,3,4,31,30,22,26,18,30,2,11,22,22,25,5,37,13,14,3,22,14,22,20,11,6,35,3,19,21,37,37,25,21,3,35,28,36,22,7,35,37,26,13,19,34,19,26,31,30,13,14,16,12,35,22,31,6,11,37,6,14,0,0,0,0,0,0,0,0,0,0,0,0,0,0,0,0,0,0,0,0,0,0,0,0,0,0,0,0,0,0,0,0,0,0,0,0,0,0,0,0,0,0,0,0,0,0,0,0,0,0,0,0,0,0,0,0,0,0,0,0,0,0,0,0],"split_type":[0,0,0,0,0,0,0,0,0,0,0,0,0,0,0,0,0,0,0,0,0,0,0,0,0,0,0,0,0,0,0,0,0,0,0,0,0,0,0,0,0,0,0,0,0,0,0,0,0,0,0,0,0,0,0,0,0,0,0,0,0,0,0,0,0,0,0,0,0,0,0,0,0,0,0,0,0,0,0,0,0,0,0,0,0,0,0,0,0,0,0,0,0,0,0,0,0,0,0,0,0,0,0,0,0,0,0,0,0,0,0,0,0,0,0,0,0,0,0,0,0,0,0,0,0,0,0],"sum_hessian":[1.16654E5,3.8179E4,7.8475E4,1.113E4,2.7049E4,4.1534E4,3.6941E4,8.154E3,2.976E3,7.223E3,1.9826E4,2.7394E4,1.414E4,1.7095E4,1.9846E4,3.057E3,5.097E3,2.936E3,4E1,3.89E2,6.834E3,1.8363E4,1.463E3,1.9659E4,7.735E3,1.327E4,8.7E2,8.31E3,8.785E3,1.5441E4,4.405E3,2.531E3,5.26E2,4.208E3,8.89E2,2.907E3,2.9E1,2.4E1,1.6E1,1.12E2,2.77E2,4.716E3,2.118E3,2.984E3,1.5379E4,5.42E2,9.21E2,1.0799E4,8.86E3,6.74E2,7.061E3,2.819E3,1.0451E4,1.69E2,7.01E2,2.359E3,5.951E3,3.6E1,8.749E3,1.771E3,1.367E4,9.11E2,3.494E3,2.441E3,9E1,4.75E2,5.1E1,4.2E3,8E0,8.79E2,1E1,8.1E2,2.097E3,2.5E1,4E0,1.3E1,1.1E1,7E0,9E0,3E1,8.2E1,1.8E2,9.7E1,2.138E3,2.578E3,2.038E3,8E1,2.569E3,4.15E2,1.5264E4,1.15E2,5.18E2,2.4E1,9.01E2,2E1,5.56E2,1.0243E4,7.265E3,1.595E3,3.3E1,6.41E2,6.057E3,1.004E3,2.687E3,1.32E2,9.41E3,1.041E3,7E0,1.62E2,3.8E1,6.63E2,2.167E3,1.92E2,6.3E1,5.888E3,9E0,2.7E1,1.412E3,7.337E3,1.543E3,2.28E2,1.3628E4,4.2E1,8.43E2,6.8E1,4.13E2,3.081E3],"tree_param":{"num_deleted":"0","num_feature":"38","num_nodes":"127","size_leaf_vector":"0"}},{"base_weights":[2.2118431E-1,1.48302E-1,2.7239165E-1,1.0101035E-1,1.7826428E-1,2.2969104E-1,2.9629344E-1,7.910652E-2,1.3912022E-1,1.5725762E-1,2.1512772E-1,2.1611282E-1,2.8190407E-1,2.4206536E-1,3.087043E-1,8.47342E-2,-4.893938E-2,9.368823E-2,1.607151E-1,2.0115614E-1,1.419621E-1,2.3714346E-1,1.4579199E-1,2.4218701E-1,1.9255804E-1,3.106251E-1,2.2646476E-1,2.035513E-1,2.896518E-1,2.9463178E-1,3.610841E-1,7.2246395E-2,1.3755995E-1,1.5433162E-1,-9.8626584E-2,1.182618E-1,-2.3133919E-2,3.734694E-1,1.4870544E-1,2.194911E-1,1.4633259E-1,1.442924E-1,-9.304933E-2,2.3188756E-1,4.0397856E-1,1.3964331E-1,7.27867E-1,1.2413597E-1,2.51791E-1,1.451988E-1,2.1166268E-1,2.7583805E-1,3.800811E-1,3.6700714E-1,2.036456E-1,1.6977528E-1,2.8335705E-1,3.759477E-1,2.6213095E-1,2.855831E-1,3.4476593E-1,5.710827E-1,3.530671E-1,